tree
version=v3
num_class=1
num_tree_per_iteration=1
label_index=0
max_feature_idx=767
objective=regression
feature_names=Column_0 Column_1 Column_2 Column_3 Column_4 Column_5 Column_6 Column_7 Column_8 Column_9 Column_10 Column_11 Column_12 Column_13 Column_14 Column_15 Column_16 Column_17 Column_18 Column_19 Column_20 Column_21 Column_22 Column_23 Column_24 Column_25 Column_26 Column_27 Column_28 Column_29 Column_30 Column_31 Column_32 Column_33 Column_34 Column_35 Column_36 Column_37 Column_38 Column_39 Column_40 Column_41 Column_42 Column_43 Column_44 Column_45 Column_46 Column_47 Column_48 Column_49 Column_50 Column_51 Column_52 Column_53 Column_54 Column_55 Column_56 Column_57 Column_58 Column_59 Column_60 Column_61 Column_62 Column_63 Column_64 Column_65 Column_66 Column_67 Column_68 Column_69 Column_70 Column_71 Column_72 Column_73 Column_74 Column_75 Column_76 Column_77 Column_78 Column_79 Column_80 Column_81 Column_82 Column_83 Column_84 Column_85 Column_86 Column_87 Column_88 Column_89 Column_90 Column_91 Column_92 Column_93 Column_94 Column_95 Column_96 Column_97 Column_98 Column_99 Column_100 Column_101 Column_102 Column_103 Column_104 Column_105 Column_106 Column_107 Column_108 Column_109 Column_110 Column_111 Column_112 Column_113 Column_114 Column_115 Column_116 Column_117 Column_118 Column_119 Column_120 Column_121 Column_122 Column_123 Column_124 Column_125 Column_126 Column_127 Column_128 Column_129 Column_130 Column_131 Column_132 Column_133 Column_134 Column_135 Column_136 Column_137 Column_138 Column_139 Column_140 Column_141 Column_142 Column_143 Column_144 Column_145 Column_146 Column_147 Column_148 Column_149 Column_150 Column_151 Column_152 Column_153 Column_154 Column_155 Column_156 Column_157 Column_158 Column_159 Column_160 Column_161 Column_162 Column_163 Column_164 Column_165 Column_166 Column_167 Column_168 Column_169 Column_170 Column_171 Column_172 Column_173 Column_174 Column_175 Column_176 Column_177 Column_178 Column_179 Column_180 Column_181 Column_182 Column_183 Column_184 Column_185 Column_186 Column_187 Column_188 Column_189 Column_190 Column_191 Column_192 Column_193 Column_194 Column_195 Column_196 Column_197 Column_198 Column_199 Column_200 Column_201 Column_202 Column_203 Column_204 Column_205 Column_206 Column_207 Column_208 Column_209 Column_210 Column_211 Column_212 Column_213 Column_214 Column_215 Column_216 Column_217 Column_218 Column_219 Column_220 Column_221 Column_222 Column_223 Column_224 Column_225 Column_226 Column_227 Column_228 Column_229 Column_230 Column_231 Column_232 Column_233 Column_234 Column_235 Column_236 Column_237 Column_238 Column_239 Column_240 Column_241 Column_242 Column_243 Column_244 Column_245 Column_246 Column_247 Column_248 Column_249 Column_250 Column_251 Column_252 Column_253 Column_254 Column_255 Column_256 Column_257 Column_258 Column_259 Column_260 Column_261 Column_262 Column_263 Column_264 Column_265 Column_266 Column_267 Column_268 Column_269 Column_270 Column_271 Column_272 Column_273 Column_274 Column_275 Column_276 Column_277 Column_278 Column_279 Column_280 Column_281 Column_282 Column_283 Column_284 Column_285 Column_286 Column_287 Column_288 Column_289 Column_290 Column_291 Column_292 Column_293 Column_294 Column_295 Column_296 Column_297 Column_298 Column_299 Column_300 Column_301 Column_302 Column_303 Column_304 Column_305 Column_306 Column_307 Column_308 Column_309 Column_310 Column_311 Column_312 Column_313 Column_314 Column_315 Column_316 Column_317 Column_318 Column_319 Column_320 Column_321 Column_322 Column_323 Column_324 Column_325 Column_326 Column_327 Column_328 Column_329 Column_330 Column_331 Column_332 Column_333 Column_334 Column_335 Column_336 Column_337 Column_338 Column_339 Column_340 Column_341 Column_342 Column_343 Column_344 Column_345 Column_346 Column_347 Column_348 Column_349 Column_350 Column_351 Column_352 Column_353 Column_354 Column_355 Column_356 Column_357 Column_358 Column_359 Column_360 Column_361 Column_362 Column_363 Column_364 Column_365 Column_366 Column_367 Column_368 Column_369 Column_370 Column_371 Column_372 Column_373 Column_374 Column_375 Column_376 Column_377 Column_378 Column_379 Column_380 Column_381 Column_382 Column_383 Column_384 Column_385 Column_386 Column_387 Column_388 Column_389 Column_390 Column_391 Column_392 Column_393 Column_394 Column_395 Column_396 Column_397 Column_398 Column_399 Column_400 Column_401 Column_402 Column_403 Column_404 Column_405 Column_406 Column_407 Column_408 Column_409 Column_410 Column_411 Column_412 Column_413 Column_414 Column_415 Column_416 Column_417 Column_418 Column_419 Column_420 Column_421 Column_422 Column_423 Column_424 Column_425 Column_426 Column_427 Column_428 Column_429 Column_430 Column_431 Column_432 Column_433 Column_434 Column_435 Column_436 Column_437 Column_438 Column_439 Column_440 Column_441 Column_442 Column_443 Column_444 Column_445 Column_446 Column_447 Column_448 Column_449 Column_450 Column_451 Column_452 Column_453 Column_454 Column_455 Column_456 Column_457 Column_458 Column_459 Column_460 Column_461 Column_462 Column_463 Column_464 Column_465 Column_466 Column_467 Column_468 Column_469 Column_470 Column_471 Column_472 Column_473 Column_474 Column_475 Column_476 Column_477 Column_478 Column_479 Column_480 Column_481 Column_482 Column_483 Column_484 Column_485 Column_486 Column_487 Column_488 Column_489 Column_490 Column_491 Column_492 Column_493 Column_494 Column_495 Column_496 Column_497 Column_498 Column_499 Column_500 Column_501 Column_502 Column_503 Column_504 Column_505 Column_506 Column_507 Column_508 Column_509 Column_510 Column_511 Column_512 Column_513 Column_514 Column_515 Column_516 Column_517 Column_518 Column_519 Column_520 Column_521 Column_522 Column_523 Column_524 Column_525 Column_526 Column_527 Column_528 Column_529 Column_530 Column_531 Column_532 Column_533 Column_534 Column_535 Column_536 Column_537 Column_538 Column_539 Column_540 Column_541 Column_542 Column_543 Column_544 Column_545 Column_546 Column_547 Column_548 Column_549 Column_550 Column_551 Column_552 Column_553 Column_554 Column_555 Column_556 Column_557 Column_558 Column_559 Column_560 Column_561 Column_562 Column_563 Column_564 Column_565 Column_566 Column_567 Column_568 Column_569 Column_570 Column_571 Column_572 Column_573 Column_574 Column_575 Column_576 Column_577 Column_578 Column_579 Column_580 Column_581 Column_582 Column_583 Column_584 Column_585 Column_586 Column_587 Column_588 Column_589 Column_590 Column_591 Column_592 Column_593 Column_594 Column_595 Column_596 Column_597 Column_598 Column_599 Column_600 Column_601 Column_602 Column_603 Column_604 Column_605 Column_606 Column_607 Column_608 Column_609 Column_610 Column_611 Column_612 Column_613 Column_614 Column_615 Column_616 Column_617 Column_618 Column_619 Column_620 Column_621 Column_622 Column_623 Column_624 Column_625 Column_626 Column_627 Column_628 Column_629 Column_630 Column_631 Column_632 Column_633 Column_634 Column_635 Column_636 Column_637 Column_638 Column_639 Column_640 Column_641 Column_642 Column_643 Column_644 Column_645 Column_646 Column_647 Column_648 Column_649 Column_650 Column_651 Column_652 Column_653 Column_654 Column_655 Column_656 Column_657 Column_658 Column_659 Column_660 Column_661 Column_662 Column_663 Column_664 Column_665 Column_666 Column_667 Column_668 Column_669 Column_670 Column_671 Column_672 Column_673 Column_674 Column_675 Column_676 Column_677 Column_678 Column_679 Column_680 Column_681 Column_682 Column_683 Column_684 Column_685 Column_686 Column_687 Column_688 Column_689 Column_690 Column_691 Column_692 Column_693 Column_694 Column_695 Column_696 Column_697 Column_698 Column_699 Column_700 Column_701 Column_702 Column_703 Column_704 Column_705 Column_706 Column_707 Column_708 Column_709 Column_710 Column_711 Column_712 Column_713 Column_714 Column_715 Column_716 Column_717 Column_718 Column_719 Column_720 Column_721 Column_722 Column_723 Column_724 Column_725 Column_726 Column_727 Column_728 Column_729 Column_730 Column_731 Column_732 Column_733 Column_734 Column_735 Column_736 Column_737 Column_738 Column_739 Column_740 Column_741 Column_742 Column_743 Column_744 Column_745 Column_746 Column_747 Column_748 Column_749 Column_750 Column_751 Column_752 Column_753 Column_754 Column_755 Column_756 Column_757 Column_758 Column_759 Column_760 Column_761 Column_762 Column_763 Column_764 Column_765 Column_766 Column_767
feature_infos=[-0.84711027145385742:0.30442631244659424] [-0.49399501085281372:0.48365196585655212] [-0.83046507835388184:0.50253158807754517] [-0.69012689590454102:0.44544824957847595] [-0.66892427206039429:0.59394896030426025] [-0.77307242155075073:0.45217147469520569] [-0.32741862535476685:0.85652506351470947] [-0.36509570479393005:1.0983664989471436] [-0.70622068643569946:0.39266011118888855] [-0.7915235161781311:0.28579205274581909] [-0.56772404909133911:0.46862906217575073] [-0.76133525371551514:0.36122843623161316] [-0.73703348636627197:0.56239759922027588] [-0.26350650191307068:0.9784473180770874] [-0.67757230997085571:0.38687920570373535] [-0.32982790470123291:0.90782827138900757] [-0.53501272201538086:0.84420466423034668] [-0.49427258968353271:0.63388687372207642] [-0.29750949144363403:0.66266679763793945] [-0.59008884429931641:0.42953485250473022] [-0.48734772205352783:0.56641179323196411] [-0.93828368186950684:0.13246035575866699] [-0.42857846617698669:0.70240175724029541] [-0.57057291269302368:0.67950838804244995] [-0.4411243200302124:0.50213944911956787] [-0.65526235103607178:0.34472191333770752] [-0.54376620054244995:0.46893921494483948] [-0.55837363004684448:0.52499383687973022] [-0.57257574796676636:0.50266259908676147] [-0.43844836950302124:0.55735838413238525] [-0.56754052639007568:0.61125397682189941] [-0.24880421161651611:0.72928893566131592] [-0.62038344144821167:0.37730288505554199] [-0.75795131921768188:0.33039546012878418] [-0.56195420026779175:0.65474206209182739] [-0.55754506587982178:0.48683041334152222] [-0.29735597968101501:0.83858782052993774] [-0.65679222345352173:0.62500345706939697] [-0.58935773372650146:0.42212322354316711] [-0.35156062245368958:0.72176432609558105] [-0.62967377901077271:0.36806640028953552] [-0.55488425493240356:0.41480761766433716] [-0.5663759708404541:0.79027342796325684] [-0.57023680210113525:0.45553368330001831] [-0.37646538019180298:0.61924618482589722] [-0.73106122016906738:0.41340076923370361] [-3.344066858291626:-1.5279194116592407] [-0.67293083667755127:0.39321509003639221] [-0.75862759351730347:0.34881430864334106] [-0.77572417259216309:0.15057730674743652] [-0.52396130561828613:0.69893640279769897] [-0.78980636596679688:0.48285481333732605] [-0.72177129983901978:0.66979312896728516] [-0.57200890779495239:0.79202204942703247] [-0.33503472805023193:0.86876600980758667] [-0.2529619038105011:1.0219353437423706] [-0.77236664295196533:0.32363590598106384] [-0.44002455472946167:0.86998254060745239] [-0.60725921392440796:0.71116864681243896] [-0.40726029872894287:0.50418078899383545] [-0.30623909831047058:0.76618492603302002] [-0.39189609885215759:0.58660519123077393] [-0.78394210338592529:0.45721730589866638] [-0.71058768033981323:0.46412855386734009] [-0.65185743570327759:0.47501403093338013] [-0.46900144219398499:0.72758841514587402] [-0.51975774765014648:0.27665069699287415] [-0.20605693757534027:1.0610374212265015] [-0.79786056280136108:0.20764867961406708] [-0.33834296464920044:0.83772432804107666] [-0.9440886378288269:0.34199538826942444] [-0.67637956142425537:0.42070907354354858] [-0.29145652055740356:0.67727541923522949] [-0.53240662813186646:0.60090261697769165] [-0.63393592834472656:0.4835231602191925] [-0.85041952133178711:0.510467529296875] [-0.53922450542449951:0.4660874605178833] [-0.23729713261127472:0.90562140941619873] [-0.66398400068283081:0.4239286482334137] [-0.75463229417800903:0.5624578595161438] [-0.43787261843681335:0.5980108380317688] [-0.20549610257148743:0.75687825679779053] [-0.34905463457107544:0.88364005088806152] [-0.52462047338485718:0.80289363861083984] [-0.40861111879348755:0.65222883224487305] [-0.31653264164924622:0.75812679529190063] [-0.87739449739456177:0.35699805617332458] [-0.65059173107147217:0.33205968141555786] [-0.41279983520507812:0.68322765827178955] [-0.01057874783873558:1.147411584854126] [-0.7709660530090332:0.54226970672607422] [-0.65434408187866211:0.53291535377502441] [-0.45384401082992554:0.74134325981140137] [-0.28333792090415955:0.82625770568847656] [-0.37874272465705872:0.93552273511886597] [-0.75094735622406006:0.35451263189315796] [-0.7545434832572937:0.65692073106765747] [-0.3449903130531311:0.53232544660568237] [-0.26469475030899048:0.80690991878509521] [-0.29404756426811218:0.85719990730285645] [-0.21951949596405029:0.97654390335083008] [-0.59047794342041016:0.51692080497741699] [-0.3292694091796875:0.7505638599395752] [-0.95897942781448364:0.42434307932853699] [-0.49289426207542419:0.7791098952293396] [-0.74136173725128174:0.32534477114677429] [-0.61358332633972168:0.63178694248199463] [-0.82682812213897705:0.36684980988502502] [-0.60394889116287231:0.52588260173797607] [-2.8819901943206787:-0.8294748067855835] [-0.39200076460838318:0.93526917695999146] [-0.41929885745048523:0.72695976495742798] [-0.65439802408218384:0.35510203242301941] [-1.0104066133499146:0.13140235841274261] [-0.86141782999038696:0.25057539343833923] [-0.30500540137290955:0.80660092830657959] [-0.23682369291782379:0.77843993902206421] [-0.53351294994354248:0.44870266318321228] [-0.55275529623031616:0.5277477502822876] [-0.70376884937286377:0.62180733680725098] [-0.64710056781768799:0.71773922443389893] [-0.32486793398857117:0.95425611734390259] [-0.73594886064529419:0.55648648738861084] [-0.50237393379211426:1.2053524255752563] [-0.65391159057617188:0.36358389258384705] [-0.12552891671657562:0.81351202726364136] [-0.5137060284614563:0.6303667426109314] [-0.59236586093902588:0.65522867441177368] [-0.32255962491035461:0.85855716466903687] [-0.27411875128746033:0.88552993535995483] [-0.2350621223449707:0.6853753924369812] [-0.13103847205638885:0.92981469631195068] [-0.64436566829681396:0.38576596975326538] [-0.61884868144989014:0.32278984785079956] [-0.77007490396499634:0.34026825428009033] [-0.40898096561431885:0.75980097055435181] [-0.24678146839141846:0.86746490001678467] [-0.64428162574768066:0.38641181588172913] [-0.79089444875717163:0.5380481481552124] [-0.44810149073600769:0.7219243049621582] [-0.90636426210403442:0.174681156873703] [-0.64992916584014893:0.35381573438644409] [-3.3138923645019531:-0.99076592922210693] [-0.50217664241790771:0.77105909585952759] [-0.020911170169711113:1.1467798948287964] [-0.44015428423881531:0.56639736890792847] [-0.49645519256591797:0.53278535604476929] [-0.59334152936935425:0.62853437662124634] [-0.65394461154937744:0.4476165771484375] [-0.30399248003959656:0.77823722362518311] [-0.40306389331817627:0.79625475406646729] [-0.72545748949050903:0.45266124606132507] [-0.65500497817993164:0.30283576250076294] [-0.31593164801597595:0.52104640007019043] [-0.7552344799041748:0.2389225959777832] [-0.47207969427108765:0.51979368925094604] [-1.0567965507507324:0.71609926223754883] [-0.51044315099716187:0.57448363304138184] [-0.31226199865341187:0.90782082080841064] [-0.24591350555419922:1.0283777713775635] [-0.35570424795150757:0.76835203170776367] [-0.67534095048904419:0.46102374792098999] [-0.66367024183273315:0.40690559148788452] [-0.51193755865097046:0.57768386602401733] [-0.76168155670166016:0.4044758677482605] [-0.36727017164230347:0.86091184616088867] [-0.65854620933532715:0.65043020248413086] [-0.55272716283798218:0.89452707767486572] [-0.55885815620422363:0.49238240718841553] [-0.45340099930763245:0.60047274827957153] [-0.62148028612136841:0.37676343321800232] [-0.5466727614402771:0.72228777408599854] [-0.062839105725288391:1.4480024576187134] [-0.71663284301757812:0.32074251770973206] [-0.24476096034049988:0.9520830512046814] [-0.55048888921737671:0.5469125509262085] [-0.66744011640548706:0.64798736572265625] [-0.34188863635063171:0.74009883403778076] [-0.60685330629348755:0.43311566114425659] [-0.42563223838806152:0.64075404405593872] [-4.8502235412597656:0.37406650185585022] [-0.17140674591064453:0.93301713466644287] [-0.39985799789428711:0.69085490703582764] [-0.51413935422897339:0.75407874584197998] [-0.3933032751083374:0.72981142997741699] [-0.79772377014160156:0.32428434491157532] [-0.35606321692466736:0.72430384159088135] [-0.65595102310180664:0.35712370276451111] [-0.43130618333816528:0.77126145362854004] [-0.42595177888870239:0.67524027824401855] [-1.0296394824981689:0.43145313858985901] [-0.84626191854476929:0.29433393478393555] [-0.59181815385818481:0.47149026393890381] [-0.58720016479492188:0.63901084661483765] [-0.30105602741241455:0.95815020799636841] [-0.46134164929389954:0.61342328786849976] [-0.55187380313873291:0.6227264404296875] [-1.3701142072677612:0.12163721024990082] [-0.41056144237518311:0.69488000869750977] [-0.51144731044769287:0.52414578199386597] [-0.64143389463424683:0.40231901407241821] [-0.63536489009857178:0.50583171844482422] [-0.45233011245727539:0.5200120210647583] [-0.33439141511917114:0.72738039493560791] [-1.0388888120651245:0.53608888387680054] [1.7942984104156494:3.9389495849609375] [-0.36303219199180603:0.54889625310897827] [-0.61332809925079346:0.474791020154953] [-0.36952844262123108:0.75499546527862549] [-0.25309461355209351:0.91863977909088135] [-0.79371780157089233:0.57164168357849121] [-0.51767939329147339:0.52605539560317993] [-0.85501861572265625:0.35605183243751526] [-0.58497875928878784:0.63731628656387329] [-0.28213775157928467:0.77987617254257202] [-0.71278506517410278:0.42621332406997681] [-0.43442121148109436:0.6791529655456543] [-0.60179167985916138:0.45830798149108887] [-0.69713997840881348:0.49662518501281738] [-0.55602192878723145:0.4794355034828186] [-0.36222818493843079:0.75629603862762451] [-0.28874990344047546:0.73607903718948364] [-0.52018958330154419:0.55666720867156982] [-0.29055553674697876:1.0182619094848633] [-0.88376766443252563:0.28292691707611084] [-0.90977424383163452:0.93914234638214111] [-0.74802595376968384:0.74080872535705566] [-0.47756808996200562:1.0782978534698486] [-0.62551611661911011:0.71525275707244873] [-1.7823178768157959:-0.38177698850631714] [-0.23324669897556305:0.74500584602355957] [-0.54242873191833496:0.4811931848526001] [-0.5592237114906311:0.73526495695114136] [-0.45778274536132812:0.73627835512161255] [-0.88940548896789551:0.21053303778171539] [-0.60554808378219604:0.62688881158828735] [-0.65227758884429932:0.49428591132164001] [-0.59997576475143433:0.4537108838558197] [-0.34959128499031067:0.66400057077407837] [-0.74506717920303345:0.44266986846923828] [-0.58005309104919434:0.31547832489013672] [-0.42942667007446289:0.85460972785949707] [-0.18448664247989655:0.96071332693099976] [-0.61244326829910278:0.77652907371520996] [-0.55324375629425049:0.61816728115081787] [-0.3386685848236084:0.85177993774414062] [-0.30875480175018311:0.68170315027236938] [-0.77904397249221802:0.54561430215835571] [-0.49916720390319824:0.70157921314239502] [-0.75790470838546753:0.55822724103927612] [-0.32149478793144226:0.74164003133773804] [-0.64808464050292969:0.41153085231781006] [-0.50042343139648438:0.58125007152557373] [-0.92865073680877686:0.24041378498077393] [-0.55096447467803955:0.70760089159011841] [-0.62574201822280884:0.44366204738616943] [-0.18516111373901367:0.79278051853179932] [-0.75938713550567627:0.46019613742828369] [-1.2184247970581055:0.29278844594955444] [-0.81474059820175171:0.33790269494056702] [-0.62000393867492676:0.50768035650253296] [-0.46983647346496582:0.45277363061904907] [-0.32576054334640503:0.75706309080123901] [-0.44252225756645203:0.62373447418212891] [-1.1225676536560059:0.25672134757041931] [-0.72973620891571045:0.41645964980125427] [-0.42664283514022827:0.82968908548355103] [-0.68655270338058472:0.44195428490638733] [-0.33075648546218872:0.68911153078079224] [-0.60090607404708862:0.37414395809173584] [-0.73808830976486206:0.58358055353164673] [-0.82214838266372681:0.48055467009544373] [-0.95093947649002075:0.23773403465747833] [-4.7369365692138672:-0.76332372426986694] [-0.66280001401901245:0.4741981029510498] [-0.5587848424911499:0.46719652414321899] [-0.255806565284729:0.84583878517150879] [-0.38275846838951111:0.81741154193878174] [-0.68145716190338135:0.59774154424667358] [-0.50127488374710083:0.57928258180618286] [-0.29240426421165466:0.68959707021713257] [-0.15820108354091644:0.97152364253997803] [-0.88929027318954468:0.33128520846366882] [-0.15697386860847473:0.95407372713088989] [-0.68323415517807007:0.55193489789962769] [-0.42262163758277893:0.53702014684677124] [-0.59262651205062866:0.59121090173721313] [-1.0669625997543335:0.22898249328136444] [-0.24004562199115753:0.7323155403137207] [-0.68117767572402954:0.50595963001251221] [-1.0429476499557495:0.29494079947471619] [-0.62905144691467285:0.70451736450195312] [-0.72716736793518066:0.49539369344711304] [-0.59762126207351685:0.68624866008758545] [-0.55385202169418335:0.68301308155059814] [-0.59049427509307861:0.45112240314483643] [-0.38428312540054321:0.57047617435455322] [-0.58005213737487793:0.59103161096572876] [-0.469066321849823:0.69134551286697388] [-1.0756514072418213:0.19400414824485779] [-1.0867342948913574:0.34240490198135376] [-0.82371318340301514:0.6591607928276062] [-0.62874990701675415:0.59421974420547485] [-0.5000491738319397:0.49668788909912109] [-1.0284841060638428:0.25030720233917236] [-0.3358837366104126:0.75030136108398438] [-0.67117351293563843:0.2308603972196579] [-0.83879834413528442:0.41356426477432251] [-4.6149053573608398:-0.80223345756530762] [-0.44878146052360535:0.83083176612854004] [-0.64347153902053833:0.44206565618515015] [-0.63750153779983521:0.29946836829185486] [-0.56356960535049438:0.7291109561920166] [-0.66967445611953735:0.32632166147232056] [-0.11953866481781006:1.0039501190185547] [-0.62293905019760132:0.42178425192832947] [-0.76616972684860229:0.27977359294891357] [-0.39857986569404602:0.58707118034362793] [-0.37784627079963684:0.66465610265731812] [-0.75620734691619873:0.31436759233474731] [-0.54169172048568726:0.90560787916183472] [-0.36822238564491272:0.65354299545288086] [-0.24263280630111694:0.79155683517456055] [-0.28179380297660828:0.81888055801391602] [-0.17938670516014099:1.0716416835784912] [-0.91694414615631104:0.35731399059295654] [-0.38033154606819153:0.62642765045166016] [-0.25416091084480286:0.74331516027450562] [-0.46544384956359863:0.57176518440246582] [-0.82987678050994873:0.33758458495140076] [-0.63645321130752563:0.53761333227157593] [-0.78457504510879517:0.49031463265419006] [-0.40913993120193481:0.78965514898300171] [-0.36850476264953613:0.96032774448394775] [-1.015535831451416:0.039933651685714722] [-0.57942855358123779:0.44272622466087341] [-0.8088797926902771:0.32444187998771667] [-0.72761422395706177:0.32447275519371033] [-0.43694400787353516:0.53263694047927856] [-0.76470601558685303:0.27844679355621338] [-0.48769780993461609:0.61986023187637329] [-0.45516374707221985:0.50910884141921997] [-0.70191800594329834:0.20054110884666443] [-0.69012880325317383:0.34006202220916748] [-0.42500865459442139:0.5010981559753418] [-0.27911299467086792:0.78538870811462402] [-0.21073868870735168:0.8790777325630188] [-0.57146722078323364:0.62491327524185181] [-0.74524503946304321:0.40070489048957825] [-0.29620686173439026:1.1681886911392212] [-0.48412135243415833:0.49594628810882568] [-0.30402785539627075:0.71089911460876465] [-0.0016934648156166077:1.4619766473770142] [-0.55044281482696533:0.64164036512374878] [-0.32495012879371643:0.79859179258346558] [-0.75915223360061646:0.39963841438293457] [-0.63321727514266968:0.36967098712921143] [-0.25546622276306152:0.71300405263900757] [-0.50702810287475586:0.52112382650375366] [-0.61295342445373535:0.53194260597229004] [0.38528794050216675:1.6830734014511108] [-0.75070744752883911:0.44540056586265564] [-0.45399379730224609:0.56862461566925049] [-0.58507508039474487:0.39836955070495605] [-0.33321088552474976:1.0256768465042114] [-0.5778815746307373:0.64241868257522583] [-0.87772035598754883:0.37065556645393372] [-0.67475718259811401:0.70430755615234375] [-0.13528800010681152:0.94239968061447144] [-0.64762765169143677:0.40012791752815247] [-0.57064133882522583:0.50843435525894165] [-0.76672923564910889:0.3990788459777832] [-0.4198111891746521:0.8261101245880127] [-0.9744715690612793:0.15617640316486359] [-0.5047837495803833:0.7107386589050293] [-0.83632069826126099:0.19909688830375671] [-0.59334015846252441:0.50405597686767578] [-0.5519402027130127:0.51946520805358887] [-0.69101434946060181:0.29862439632415771] [-0.19007214903831482:1.1816204786300659] [-0.71139383316040039:0.47467586398124695] [-1.4743516445159912:-0.5305790901184082] [-0.63215219974517822:0.34832793474197388] [-0.7241215705871582:0.74403208494186401] [-0.46511253714561462:0.52190423011779785] [-0.47290563583374023:0.5385746955871582] [-0.56317520141601562:0.47628369927406311] [-0.37684008479118347:0.55720382928848267] [-0.74581515789031982:0.27644240856170654] [-0.48330476880073547:0.58425897359848022] [-0.88773280382156372:0.44472050666809082] [-0.523121178150177:0.82795965671539307] [-0.69933640956878662:0.39535373449325562] [-0.771187424659729:0.62625277042388916] [-0.57454711198806763:0.46069738268852234] [-0.40825134515762329:0.70642274618148804] [-1.1579962968826294:0.075686782598495483] [-0.7563251256942749:0.63477593660354614] [-0.62238597869873047:0.46578872203826904] [-0.44049996137619019:0.55417263507843018] [-0.23550334572792053:0.78965526819229126] [-0.39565643668174744:0.70026135444641113] [-0.61485356092453003:0.56135302782058716] [-0.58996748924255371:0.46922862529754639] [-0.22733317315578461:1.0094294548034668] [-1.2005420923233032:-0.18707491457462311] [-0.35049435496330261:0.73336285352706909] [-0.68032896518707275:0.31081631779670715] [-0.68470585346221924:0.66129416227340698] [-0.75988513231277466:0.43532118201255798] [-0.62080353498458862:0.9048607349395752] [-0.69382774829864502:0.69534796476364136] [-0.70681965351104736:0.37498584389686584] [-0.74936842918395996:0.2552255392074585] [-1.1259490251541138:0.427257239818573] [-0.11689528822898865:0.78292173147201538] [-0.58488494157791138:0.62801444530487061] [-0.42013522982597351:0.63501858711242676] [-0.48391351103782654:0.55301380157470703] [-0.53501886129379272:0.57347953319549561] [-0.44271492958068848:0.7020987868309021] [-0.39960461854934692:0.67730975151062012] [0.15403679013252258:1.3990778923034668] [-0.82429397106170654:0.58925831317901611] [-0.60651445388793945:0.70314925909042358] [-0.1415303647518158:1.0924729108810425] [-0.38761958479881287:0.64925789833068848] [-0.33438202738761902:0.77203887701034546] [-0.27621397376060486:0.81972974538803101] [-0.46764811873435974:0.65542280673980713] [-0.63538879156112671:0.43880823254585266] [-0.63510710000991821:0.44700860977172852] [-0.98861038684844971:0.53745287656784058] [-0.52745991945266724:0.4393591582775116] [-0.5423358678817749:0.47120550274848938] [-0.71888399124145508:0.37093749642372131] [-1.0496410131454468:0.19950275123119354] [-0.48050984740257263:0.68239367008209229] [-0.49362039566040039:0.58244454860687256] [-0.49803438782691956:0.58956283330917358] [-0.62176549434661865:0.37918320298194885] [-1.0381823778152466:0.10652759671211243] [-0.53721499443054199:0.52997738122940063] [-0.82753676176071167:0.22212199866771698] [-0.71866565942764282:0.43359473347663879] [-0.79535865783691406:0.89007067680358887] [-0.19924922287464142:0.96370172500610352] [-0.45992249250411987:0.69765067100524902] [-0.26444453001022339:0.86650526523590088] [-0.39981693029403687:0.89537912607192993] [-0.62721163034439087:0.31066018342971802] [-0.36988642811775208:0.85452264547348022] [-0.48958265781402588:0.51846790313720703] [-0.094070121645927429:0.93341237306594849] [-0.33011215925216675:0.53868478536605835] [-0.42655289173126221:0.4909949004650116] [-0.54429721832275391:0.65063464641571045] [-0.059263363480567932:0.87089532613754272] [-0.99903023242950439:0.51705330610275269] [-0.76394438743591309:0.46956723928451538] [-0.50127136707305908:0.65864080190658569] [-0.81208550930023193:0.28936305642127991] [-0.49778145551681519:0.83816498517990112] [-0.60568982362747192:0.50242626667022705] [-0.57005834579467773:0.64378595352172852] [-0.51694285869598389:0.47602760791778564] [-0.61372631788253784:0.40953126549720764] [-0.89695572853088379:0.38896480202674866] [-0.51882761716842651:0.50723749399185181] [-0.5440375804901123:0.67245864868164062] [-2.055056095123291:-0.75776737928390503] [-0.20441533625125885:0.96995729207992554] [-0.65830373764038086:0.51500034332275391] [-0.46937790513038635:0.58116018772125244] [-0.49644047021865845:0.61355865001678467] [-0.63884615898132324:0.44405421614646912] [-0.81026458740234375:0.31981945037841797] [-0.087499931454658508:1.1187938451766968] [-0.45775723457336426:0.69069266319274902] [-0.40957799553871155:0.49576172232627869] [-0.59677731990814209:0.52616578340530396] [-0.73758947849273682:0.38725343346595764] [-0.50884675979614258:0.45702487230300903] [-0.45050615072250366:0.80587542057037354] [-0.49952340126037598:0.50228309631347656] [-0.65496069192886353:0.41388455033302307] [-0.53643691539764404:0.56590425968170166] [-0.66929298639297485:0.54794573783874512] [-0.47752031683921814:0.44297009706497192] [-0.5184599757194519:0.60137808322906494] [-0.76912271976470947:0.29168403148651123] [-0.19700045883655548:1.020843505859375] [-0.31584799289703369:0.80784392356872559] [-0.66485732793807983:0.60093832015991211] [-0.58302438259124756:0.41220062971115112] [-0.64554286003112793:0.36409008502960205] [-0.47243818640708923:0.65108633041381836] [-0.33265548944473267:1.0330312252044678] [-0.46107757091522217:0.60095053911209106] [-0.38702994585037231:0.91050946712493896] [-0.59323304891586304:0.50686782598495483] [-0.97814309597015381:0.23710203170776367] [-1.2482883930206299:0.046295028179883957] [-0.6804928183555603:0.44136601686477661] [-0.18385332822799683:1.1112598180770874] [-0.4254869818687439:0.84609830379486084] [-0.36997732520103455:0.61067813634872437] [-0.66746681928634644:0.57314479351043701] [-0.35997745394706726:0.78862470388412476] [-0.43173879384994507:0.6840319037437439] [-0.83887863159179688:0.71228277683258057] [-0.18144175410270691:0.74660038948059082] [-0.42644667625427246:0.75298589468002319] [-0.49495911598205566:0.38486912846565247] [-0.115717813372612:0.91179180145263672] [-0.41125023365020752:0.7458534836769104] [-0.87292653322219849:0.25364494323730469] [-0.35115247964859009:0.72632443904876709] [-0.47824260592460632:0.5095970630645752] [-0.76850378513336182:0.41229423880577087] [-0.66163551807403564:0.45383569598197937] [-0.81192386150360107:0.49788889288902283] [-0.50794351100921631:0.5566098690032959] [-0.77259957790374756:0.2842286229133606] [-0.44672778248786926:0.54409998655319214] [-0.44941523671150208:0.45025432109832764] [-0.80284339189529419:0.72020870447158813] [-0.35855630040168762:0.7887728214263916] [-0.81369537115097046:0.52796661853790283] [-0.59760570526123047:0.34243807196617126] [-0.4661765992641449:0.82904595136642456] [-0.61881709098815918:0.24137690663337708] [-0.85369068384170532:0.45673254132270813] [-0.66260743141174316:0.77112102508544922] [-0.73339486122131348:0.43069574236869812] [-1.1867928504943848:0.015058755874633789] [-1.0801677703857422:0.33260148763656616] [-0.56457400321960449:0.55671340227127075] [-0.6817278265953064:0.56277334690093994] [-0.53696435689926147:0.62167418003082275] [-0.32427123188972473:0.83689135313034058] [-0.54925072193145752:0.55252301692962646] [-0.57730120420455933:0.4870879054069519] [-0.44728630781173706:0.85849523544311523] [-0.81479513645172119:0.26684635877609253] [-0.65686160326004028:0.77166128158569336] [-0.39724820852279663:0.76477724313735962] [-0.45493301749229431:0.57207036018371582] [-0.7259448766708374:0.60909700393676758] [-0.84046614170074463:0.38035711646080017] [-0.50401139259338379:0.58451050519943237] [-1.1252009868621826:0.28803923726081848] [-0.74099910259246826:0.39713200926780701] [-0.19358687102794647:1.0048680305480957] [-0.72757357358932495:0.40622320771217346] [-0.32353776693344116:0.89217031002044678] [-0.58312726020812988:0.47422689199447632] [-0.52006340026855469:0.62814229726791382] [-0.50157630443572998:0.58346098661422729] [-0.42012584209442139:0.74881702661514282] [-0.88363665342330933:0.19536679983139038] [-0.83540534973144531:0.46127700805664062] [-0.63146328926086426:0.57025212049484253] [-0.57095140218734741:0.6039130687713623] [-0.6478726863861084:0.6555105447769165] [-0.69266039133071899:0.56316715478897095] [-0.54362213611602783:0.55989736318588257] [-0.43409132957458496:0.49363583326339722] [-0.69069671630859375:0.39563536643981934] [-0.53241962194442749:0.58880400657653809] [-0.54905253648757935:0.51464027166366577] [-0.30845710635185242:0.7819218635559082] [-0.29634812474250793:0.81170535087585449] [-0.39065715670585632:0.70079070329666138] [-0.47820216417312622:0.62824618816375732] [-0.43343102931976318:0.86509644985198975] [-0.28760361671447754:0.76416456699371338] [-0.61780095100402832:0.51238644123077393] [-0.84456968307495117:0.3221886157989502] [-0.55393499135971069:0.66794449090957642] [-0.50441676378250122:0.68134528398513794] [-0.72784370183944702:0.53142064809799194] [-0.84670424461364746:0.38416227698326111] [-0.36567220091819763:0.67458200454711914] [-0.52735590934753418:0.76881122589111328] [-0.86871528625488281:0.28598704934120178] [-0.7242577075958252:0.3940691351890564] [-0.62863796949386597:0.39242765307426453] [0.56051343679428101:2.4641931056976318] [-0.17792050540447235:1.023813009262085] [-0.36191999912261963:0.68074184656143188] [-0.40648680925369263:0.40923291444778442] [-0.33813157677650452:0.85185897350311279] [-0.46906238794326782:0.49033838510513306] [-0.67824810743331909:0.42948362231254578] [-0.320995032787323:0.89504951238632202] [-0.85372596979141235:0.22583924233913422] [-0.51118415594100952:0.81900930404663086] [-0.54967343807220459:0.66248643398284912] [-0.53679287433624268:0.61620205640792847] [-0.62198460102081299:0.41923800110816956] [-0.46362826228141785:0.81052392721176147] [-0.21032360196113586:1.0576351881027222] [-0.11268554627895355:0.91567862033843994] [-0.65692764520645142:0.65769690275192261] [-0.93360406160354614:0.31082829833030701] [-1.0507497787475586:0.15084335207939148] [-0.44355645775794983:0.63499420881271362] [-1.0250968933105469:-0.019688617438077927] [-0.34322065114974976:1.016593337059021] [-0.29819318652153015:0.84315448999404907] [-0.53122514486312866:0.48246484994888306] [-0.61645025014877319:0.45705914497375488] [-0.52810835838317871:0.55893445014953613] [-0.46307706832885742:0.56708574295043945] [-0.69004523754119873:0.36403724551200867] [-0.47005879878997803:0.70436191558837891] [-0.4245581328868866:0.89779824018478394] [-0.7517731785774231:0.56140828132629395] [-0.38143467903137207:0.53625941276550293] [-0.48621290922164917:0.8162916898727417] [-0.2668299674987793:1.1220358610153198] [-0.81495809555053711:0.3323822021484375] [-0.67133384943008423:0.65102642774581909] [-0.53480613231658936:0.5059235692024231] [-0.7109561562538147:0.36409479379653931] [-0.73138320446014404:0.34230959415435791] [-0.35243216156959534:0.76952344179153442] [-0.38705655932426453:0.70396846532821655] [-0.77044802904129028:0.34961399435997009] [-0.016085358336567879:1.1450896263122559] [-0.57686972618103027:0.39301970601081848] [-0.40218481421470642:0.72708898782730103] [-0.066822320222854614:1.1122212409973145] [-0.73368912935256958:0.37264499068260193] [-0.81766575574874878:0.19120895862579346] [-0.25724834203720093:0.85945117473602295] [-0.29729694128036499:0.9615967869758606] [-0.60309791564941406:0.50471705198287964] [-0.74927181005477905:0.49496686458587646] [-0.88367611169815063:0.30332770943641663] [-0.56042331457138062:0.77634119987487793] [-0.61311572790145874:0.39072701334953308] [-0.5586322546005249:0.46938309073448181] [-0.58108311891555786:0.57273989915847778] [-0.65136635303497314:0.35366532206535339] [-0.51253378391265869:0.7035973072052002] [-0.37587064504623413:0.73221194744110107] [-0.43224278092384338:0.69799494743347168] [-0.33348789811134338:0.79236769676208496] [-0.41083884239196777:0.77514815330505371] [-0.48367679119110107:0.40524190664291382] [-0.35692831873893738:0.79224741458892822] [-0.43959659337997437:0.86541080474853516] [-1.10725998878479:0.17559172213077545] [-0.39996731281280518:0.81713604927062988] [-0.36421400308609009:0.88645857572555542] [-0.54632830619812012:0.75561761856079102] [-0.40298551321029663:0.614482581615448] [-0.37638759613037109:1.1190272569656372] [-0.25654458999633789:0.73079460859298706] [-0.48385918140411377:0.64404129981994629] [-0.26713895797729492:0.81194663047790527] [-0.61929500102996826:0.52897137403488159] [-0.28982466459274292:0.91962742805480957] [-0.45092934370040894:0.73643410205841064] [-0.60900753736495972:0.43916088342666626] [-3.4010787010192871:-0.79582178592681885] [-0.42766669392585754:0.72869282960891724] [-0.39149767160415649:0.61193394660949707] [-0.4843776524066925:0.85243839025497437] [-0.72459083795547485:0.36012676358222961] [-0.33780714869499207:1.1485201120376587] [-0.50617760419845581:0.76153373718261719] [-0.72663766145706177:0.55331343412399292] [-0.50194764137268066:0.61793482303619385] [-0.80900615453720093:0.26639372110366821] [-0.3894144594669342:0.67493653297424316] [-0.28431746363639832:0.87413305044174194] [-0.39146861433982849:0.84919440746307373] [-0.45998167991638184:0.40309521555900574] [-0.44815778732299805:0.59923034906387329] [-0.58001220226287842:0.55970233678817749] [-0.41074907779693604:0.72302991151809692] [-0.75697159767150879:0.58402442932128906] [-0.83290606737136841:0.32065299153327942] [-0.79091578722000122:0.2903590202331543] [-0.56555438041687012:0.54250037670135498] [-0.3849523663520813:0.73381519317626953] [-0.59494960308074951:0.60082089900970459] [-0.94263732433319092:0.17216527462005615] [-1.0416138172149658:0.17795407772064209] [-0.4534003734588623:0.85580766201019287] [-0.66573196649551392:0.52099812030792236] [-0.72230702638626099:0.28135839104652405] [-0.36802524328231812:0.69204193353652954] [-0.47932511568069458:0.69585144519805908] [-0.78255969285964966:0.30437877774238586] [-0.38901448249816895:0.7099873423576355] [-0.45272299647331238:0.5333365797996521] [-0.44017687439918518:0.60169970989227295] [-0.49080008268356323:0.65256339311599731] [-0.73943227529525757:0.32201206684112549] [-0.65064066648483276:0.7284967303276062] [-0.52526724338531494:0.50885260105133057] [-0.61656016111373901:0.79605221748352051] [-0.5737488865852356:0.70405793190002441] [-0.87131237983703613:0.33440995216369629] [-0.062170989811420441:1.1849597692489624] [-0.56976443529129028:0.57544195652008057] [-0.48330068588256836:0.55013477802276611] [-0.66073179244995117:0.43229395151138306] [-0.40239244699478149:0.61686426401138306] [-0.29846084117889404:0.66787964105606079] [-0.73098617792129517:0.20648850500583649] [-0.11071600764989853:1.1294307708740234] [-0.79345023632049561:0.24998307228088379] [-0.65157705545425415:0.52770090103149414] [-0.54580402374267578:0.59731924533843994] [-0.32632172107696533:0.95499175786972046] [-1.6603773832321167:0.42227521538734436] [-0.28189149498939514:0.72311943769454956] [-0.28395244479179382:0.64178293943405151] [-0.5243193507194519:0.67172020673751831] [-0.44453567266464233:1.0911490917205811] [-0.41749176383018494:0.61708247661590576] [-0.84650874137878418:0.17776444554328918] [-0.61495876312255859:0.57665520906448364] [-0.5812644362449646:0.63659060001373291] [-0.69343143701553345:0.6709783673286438] [-0.47865197062492371:0.73683416843414307] [-0.32335594296455383:0.80704271793365479] [-0.84144431352615356:0.32718268036842346] [-0.84267187118530273:0.28641423583030701] [-0.6225123405456543:0.49076229333877563] [-0.48571944236755371:0.57091981172561646] [-0.67620861530303955:0.53945177793502808] [-0.61418938636779785:0.42038553953170776] [-0.65831142663955688:0.44992232322692871] [-0.52427524328231812:0.79397273063659668] [-0.45765393972396851:0.66626924276351929] [-0.49814033508300781:0.48239618539810181] [-0.62345057725906372:0.46296873688697815] [-0.41365784406661987:0.92352920770645142] [-0.41936254501342773:0.82555437088012695] [-0.49478763341903687:1.0355148315429688] [-0.40279367566108704:0.98102986812591553] [-0.53419721126556396:0.48805069923400879] [-0.79485523700714111:0.40671241283416748] [-0.72115409374237061:0.47168427705764771] [-0.6028100848197937:0.49757954478263855] [-0.21966128051280975:0.74210506677627563] [-8.900059700012207:-2.6617381572723389] [-1.0078452825546265:0.19870805740356445] [-0.97517132759094238:0.27832669019699097] [-0.68122929334640503:0.64995789527893066] [-0.78267258405685425:0.39994728565216064] [-1.0695629119873047:0.24535635113716125] [-0.35967490077018738:0.67518573999404907] [-0.64409691095352173:0.30672544240951538] [-0.44700324535369873:0.89729040861129761] [-0.94103050231933594:0.37712463736534119] [-0.26767203211784363:0.72210925817489624] [-0.71266567707061768:0.3720659613609314] [-0.56106692552566528:0.41025432944297791] [-0.76708972454071045:0.306100994348526] [-0.35061195492744446:0.77078670263290405] [-0.34963288903236389:0.77493125200271606]
tree_sizes=826 814 790 747 777 784 777 794 790 794 802 783 779 793 768 803 794 772 770 770 776 751 772 816 803 793 771 773 780 772 775 775 802 797 830 772 751 775 771 800 748 784 782 772 794 752 776 767 815 817 777 779 752 793 773 770 796 760 789 774 818 756 776 753 795 800 779 753 778 773 794 765 748 788 779 772 791 765 772 755 753 747 795 771 784 808 776 784 773 755 797 769 822 768 771 753 767 773 794 786 753 774 775 780 794 775 757 794 746 747 774 753 775 774 773 777 769 778 782 774 749 778 774 801 749 750 778 755 770 779 806 775 779 753 776 792 799 778 776 747 771 774 798 772 773 781 750 759 787 753 782 800

Tree=0
num_leaves=8
num_cat=0
split_feature=94 483 291 107 387 443 103
split_gain=1.9545 1.20128 0.756352 0.717637 0.703469 0.636369 0.646572
threshold=0.30661553144454962 0.015143356285989286 0.10295112058520318 -0.12497944384813307 0.15731268376111987 -0.20959745347499845 -0.3662059605121612
decision_type=2 2 2 2 2 2 2
left_child=1 -1 3 -2 5 6 -3
right_child=2 4 -4 -5 -6 -7 -8
leaf_value=3.072703658810521 3.0789352633725242 3.0719782301692931 3.0719782301692931 3.0719782301692931 3.0719782301692931 3.0719782301692931 3.0651937583107478
leaf_weight=1240 605 231 462 150 416 350 787
leaf_count=1240 605 231 462 150 416 350 787
internal_value=3.07198 3.07069 3.07544 3.07739 3.06895 3.06784 3.06657
internal_weight=0 3024 1217 755 1784 1368 1018
internal_count=4241 3024 1217 755 1784 1368 1018
is_linear=0
shrinkage=1


Tree=1
num_leaves=8
num_cat=0
split_feature=94 420 403 515 522 705 620
split_gain=1.76706 0.910964 0.795737 0.522623 0.568175 0.337467 0.393853
threshold=0.33151473104953771 0.096108701080083861 0.092102162539958968 0.16147941350936892 -0.033694863319396966 -0.047752633690834038 0.37084259092807775
decision_type=2 2 2 2 2 2 2
left_child=1 -1 5 -2 -5 6 -3
right_child=3 2 -4 4 -6 -7 -8
leaf_value=0.00019480298472851715 0 -0.0035581785631337579 -0.0072906661037401834 0 0.0078285971425049571 0.00028721554132656957 0
leaf_weight=1648 397 673 373 164 400 383 157
leaf_count=1648 397 673 373 164 400 383 157
internal_value=0 -0.00112078 -0.00287501 0.00376299 0.00577867 -0.00101077 -0.00234963
internal_weight=0 3234 1586 961 564 1213 830
internal_count=4195 3234 1586 961 564 1213 830
is_linear=0
shrinkage=0.1


Tree=2
num_leaves=8
num_cat=0
split_feature=131 94 474 150 409 192 421
split_gain=1.41855 1.08176 0.996142 0.831942 0.705662 0.404117 0.368417
threshold=0.26370072364807134 0.21654761582612994 0.15548925101757052 0.078126594424247756 -0.20796145498752591 0.0045469123870134362 0.017096303403377536
decision_type=2 2 2 2 2 2 2
left_child=3 2 -2 -1 -5 -4 -6
right_child=1 -3 5 4 6 -7 -8
leaf_value=-0.00012986443443598091 -0.001175165243368158 0 0 0 0 -0.011477619873614666 0.007144969374588573
leaf_weight=586 916 1313 145 324 220 239 498
leaf_count=586 916 1313 145 324 220 239 498
internal_value=0 -0.00174237 -0.00379777 0.00197869 0.00375385 -0.00845408 0.00550253
internal_weight=0 2613 1300 1628 1042 384 718
internal_count=4241 2613 1300 1628 1042 384 718
is_linear=0
shrinkage=0.1


Tree=3
num_leaves=8
num_cat=0
split_feature=416 203 537 409 184 1 403
split_gain=1.5184 1.16521 1.02855 0.666074 0.647734 0.472512 0.466422
threshold=-0.071552321314811693 0.075365684926509871 -0.033965060487389558 -0.25420670211315149 0.1694835647940636 0.063553534448146834 -0.011303726583719252
decision_type=2 2 2 2 2 2 2
left_child=1 -1 3 -2 6 -5 -3
right_child=2 4 -4 5 -6 -7 -8
leaf_value=0 0 0 0 0.0060485187836830448 0 0 -0.0090454381727532712
leaf_weight=808 199 209 1624 701 177 126 416
leaf_count=808 199 209 1624 701 177 126 416
internal_value=0 -0.00264283 0.00122479 0.00372815 -0.00534318 0.00502965 -0.0068555
internal_weight=0 1610 2650 1026 802 827 625
internal_count=4260 1610 2650 1026 802 827 625
is_linear=0
shrinkage=0.1


Tree=4
num_leaves=8
num_cat=0
split_feature=575 348 311 393 162 407 256
split_gain=1.4886 0.780889 0.755747 0.741237 0.558973 0.534879 0.505109
threshold=0.066564328968524947 -0.14780969172716138 -0.081807497888803468 0.12049752473831178 0.061813272535800941 -0.069537624716758714 0.04431505128741265
decision_type=2 2 2 2 2 2 2
left_child=5 2 3 4 6 -1 -2
right_child=1 -3 -4 -5 -6 -7 -8
leaf_value=0.0047464572602110696 0 0.0009205623903248318 0 0 0 0 -0.006722546204334017
leaf_weight=822 149 1142 593 220 167 320 760
leaf_count=822 149 1142 593 220 167 320 760
internal_value=0 -0.000790841 -0.00215059 -0.00354577 -0.00469379 0.00339596 -0.00567701
internal_weight=0 3031 1889 1296 1076 1142 909
internal_count=4173 3031 1889 1296 1076 1142 909
is_linear=0
shrinkage=0.1


Tree=5
num_leaves=8
num_cat=0
split_feature=677 650 391 484 662 298 195
split_gain=1.31475 0.746881 0.733418 0.654277 0.530432 0.475763 0.438401
threshold=0.1836081147193909 0.26818485558032995 0.30004502832889562 0.019443407654762272 0.10478337854146959 0.084978260099887862 0.07826463878154756
decision_type=2 2 2 2 2 2 2
left_child=2 -2 3 6 -3 -6 -1
right_child=1 4 -4 -5 5 -7 -8
leaf_value=-0.0055866854689411542 0 0 0.0005746646248365741 -9.143952024166579e-05 0.0072047470686168683 0 0
leaf_weight=753 690 282 762 975 485 186 153
leaf_count=753 690 282 762 975 485 186 153
internal_value=0 0.00215722 -0.00144275 -0.0025865 0.00398244 0.00551633 -0.00459366
internal_weight=0 1643 2643 1881 953 671 906
internal_count=4286 1643 2643 1881 953 671 906
is_linear=0
shrinkage=0.1


Tree=6
num_leaves=8
num_cat=0
split_feature=348 203 544 387 301 357 451
split_gain=1.20697 0.733294 0.802113 0.602403 0.554821 0.420005 0.498813
threshold=-0.14113917201757428 0.072020098567008986 -0.27322465181350702 -0.0067004365846514693 -0.14049136638641355 0.026709180325269703 0.41545766592025762
decision_type=2 2 2 2 2 2 2
left_child=1 -1 -3 -2 -4 -6 -7
right_child=3 2 4 -5 5 6 -8
leaf_value=0.00032158682157978609 0 0 0 0.0035173527858056025 0 -0.0083664855552921923 0
leaf_weight=1097 532 636 127 1182 112 478 105
leaf_count=1097 532 636 127 1182 112 478 105
internal_value=0 -0.00116768 -0.00270941 0.00223992 -0.00477266 -0.0059096 -0.00698828
internal_weight=0 2555 1458 1714 822 695 583
internal_count=4269 2555 1458 1714 822 695 583
is_linear=0
shrinkage=0.1


Tree=7
num_leaves=8
num_cat=0
split_feature=58 235 313 476 685 295 155
split_gain=1.14202 0.651642 0.610915 0.783202 0.623059 0.66547 0.581724
threshold=-0.059263216331601136 -0.10277277231216429 -0.16647424548864362 -0.15847059339284894 -0.020690233446657654 -0.024451222270727154 -0.01916798576712608
decision_type=2 2 2 2 2 2 2
left_child=1 -1 -2 -4 5 -5 -3
right_child=2 6 3 4 -6 -7 -8
leaf_value=0 0.0006823125310868915 0 0.0001911675284520937 -0.0066043393606473391 0 0 0.0067452742859964998
leaf_weight=203 1480 164 644 623 358 288 500
leaf_count=203 1480 164 644 623 358 288 500
internal_value=0 0.00346618 -0.000559113 -0.00184058 -0.0033556 -0.00474595 0.00504984
internal_weight=0 867 3393 1913 1269 911 664
internal_count=4260 867 3393 1913 1269 911 664
is_linear=0
shrinkage=0.1


Tree=8
num_leaves=8
num_cat=0
split_feature=85 732 763 393 9 582 349
split_gain=1.45885 1.02818 0.741004 0.854444 0.69471 0.551107 0.502491
threshold=0.21712526679039004 -0.21756139397621152 -0.077301252633333192 0.098642766475677504 -0.081991821527481065 -0.054535590112209313 0.50717729330062877
decision_type=2 2 2 2 2 2 2
left_child=2 -2 3 6 -3 -4 -1
right_child=1 4 5 -5 -6 -7 -8
leaf_value=-0.005629824564909458 0 0.0055675787582396552 -0.0010335718113200761 0 0 0.0031876884063427391 0
leaf_weight=794 593 890 662 454 102 477 261
leaf_count=794 593 890 662 454 102 477 261
internal_value=0 0.0025566 -0.00126396 -0.00277222 0.00456155 0.000195081 -0.00436934
internal_weight=0 1585 2648 1509 992 1139 1055
internal_count=4233 1585 2648 1509 992 1139 1055
is_linear=0
shrinkage=0.1


Tree=9
num_leaves=8
num_cat=0
split_feature=85 582 154 230 33 406 428
split_gain=1.27207 0.839812 0.824374 0.594795 0.634151 0.545878 0.423744
threshold=0.17336602509021762 -0.051599480211734765 -0.22518200427293775 0.16097445040941241 -0.14389856159687039 0.19923587143421176 0.096700869500637068
decision_type=2 2 2 2 2 2 2
left_child=1 3 5 4 -1 6 -2
right_child=2 -3 -4 -5 -6 -7 -8
leaf_value=0 0 0 -7.1212622981966316e-05 -2.6111266076285826e-05 -0.0080538355866161433 0 0.0057134358065365791
leaf_weight=195 100 886 1014 539 447 334 686
leaf_count=195 100 886 1014 539 447 334 686
internal_value=0 -0.00200489 0.00144555 -0.00376111 -0.00594019 0.00336707 0.00480618
internal_weight=0 2067 2134 1181 642 1120 786
internal_count=4201 2067 2134 1181 642 1120 786
is_linear=0
shrinkage=0.1


Tree=10
num_leaves=8
num_cat=0
split_feature=575 71 662 407 233 648 564
split_gain=0.945442 0.78252 0.695438 0.47792 0.415236 0.334145 0.333921
threshold=0.077639698982238783 -0.051306843757629388 0.11549393832683565 -0.054815150797367089 0.23577235639095309 0.022997505962848667 0.010703988373279573
decision_type=2 2 2 2 2 2 2
left_child=2 5 -1 -4 -3 -2 -7
right_child=1 4 3 -5 -6 6 -8
leaf_value=0 -0.0013031559947592492 -0.00050917823658494846 0.0056217593721749476 0 -0.0067036106924889928 0 0.00251630330223985
leaf_weight=546 869 580 591 175 319 337 822
leaf_count=546 869 580 591 175 319 337 822
internal_value=0 -0.00092588 0.00230077 0.00425971 -0.00339045 0 0.00126873
internal_weight=0 2927 1312 766 899 2028 1159
internal_count=4239 2927 1312 766 899 2028 1159
is_linear=0
shrinkage=0.1


Tree=11
num_leaves=8
num_cat=0
split_feature=710 489 548 493 91 232 589
split_gain=1.21007 0.707934 0.683049 0.589993 0.529286 0.432067 0.424085
threshold=0.019224463962018493 0.067478526383638396 -0.095407396554946886 -0.047373354434967034 0.019298434257507328 0.049500204622745521 0.31392900645732885
decision_type=2 2 2 2 2 2 2
left_child=1 -1 4 6 -2 -3 -4
right_child=2 5 3 -5 -6 -7 -8
leaf_value=0 0.0052541968449000649 -0.00635607155907168 0 -0.0025263648287142779 0 0 0.0028194105264736872
leaf_weight=671 537 515 661 641 292 188 761
leaf_count=671 537 515 661 641 292 188 761
internal_value=0 -0.00261651 0.000966593 0 0.00339094 -0.00484255 0.00112776
internal_weight=0 1374 2892 2063 829 703 1422
internal_count=4266 1374 2892 2063 829 703 1422
is_linear=0
shrinkage=0.1


Tree=12
num_leaves=8
num_cat=0
split_feature=537 61 369 481 173 58 671
split_gain=0.750347 0.623409 0.526808 0.450024 0.586905 0.374217 0.366264
threshold=-0.072262778878211961 0.0010253228247165682 0.011460836976766588 -0.24242768436670301 0.014487263746559622 0.039255062118172653 -0.05812509357929229
decision_type=2 2 2 2 2 2 2
left_child=2 3 5 -2 6 -1 -5
right_child=1 -3 -4 4 -6 -7 -8
leaf_value=0.0053357055292964977 0 0.0004351080752237456 0 0 0 0 -0.0055640710816785358
leaf_weight=532 312 1594 331 320 252 285 689
leaf_count=532 312 1594 331 320 252 285 689
internal_value=0 -0.000657027 0.00231195 -0.00215416 -0.00305896 0.0037361 -0.00418459
internal_weight=0 3167 1148 1573 1261 817 1009
internal_count=4315 3167 1148 1573 1261 817 1009
is_linear=0
shrinkage=0.1


Tree=13
num_leaves=8
num_cat=0
split_feature=107 484 238 11 58 510 17
split_gain=0.920053 0.678318 0.649603 0.487475 0.569953 0.403292 0.277587
threshold=-0.18187630921602246 -0.020685119554400441 0.083284430205822005 -0.078901384025812135 0.098115108907222762 -0.22888834029436109 0.2163679897785187
decision_type=2 2 2 2 2 2 2
left_child=3 2 -2 6 5 -5 -1
right_child=1 -3 -4 4 -6 -7 -8
leaf_value=-0.00055585408215787083 -0.0078738665378250035 0 0 0.0076112102507632498 0 0 0.0020180546557276267
leaf_weight=709 258 1562 474 364 183 102 643
leaf_count=709 258 1562 474 364 183 102 643
internal_value=0 -0.00108842 -0.00360262 0.00180824 0.00418288 0.00604956 0.000214044
internal_weight=0 2294 732 2001 649 466 1352
internal_count=4295 2294 732 2001 649 466 1352
is_linear=0
shrinkage=0.1


Tree=14
num_leaves=8
num_cat=0
split_feature=131 473 341 203 349 52 448
split_gain=0.869512 0.508737 0.502 0.5825 0.477226 0.319682 0.239417
threshold=0.30505086481571203 0.039824718609452255 -0.046727098524570458 0.22238968312740329 0.28285425901412969 0.13489858061075213 0.10272562503814699
decision_type=2 2 2 2 2 2 2
left_child=2 4 3 -1 -2 -6 -7
right_child=1 -3 -4 -5 5 6 -8
leaf_value=0.0045466806901712127 -0.0075871851097800633 0 0 0 0 0 -0.0039484626470663231
leaf_weight=660 247 641 1446 151 449 128 458
leaf_count=660 247 641 1446 151 449 128 458
internal_value=0 -0.00175309 0.00111365 0.00310502 -0.00292886 -0.00122365 -0.00284599
internal_weight=0 1923 2257 811 1282 1035 586
internal_count=4180 1923 2257 811 1282 1035 586
is_linear=0
shrinkage=0.1


Tree=15
num_leaves=8
num_cat=0
split_feature=94 710 68 313 349 205 231
split_gain=0.851248 0.77001 0.37719 0.345357 0.308637 0.424092 0.31425
threshold=0.28793224692344671 -0.024359354749321934 -0.25409628450870508 -0.027858332730829712 0.30030454695224768 3.318074226379395 -0.09541896358132361
decision_type=2 2 2 2 2 2 2
left_child=1 3 -2 -1 5 -3 -6
right_child=2 4 -4 -5 6 -7 -8
leaf_value=-0.0052891164729249839 0 0 0.0038332800581825279 0 0.0022362198078881342 -0.0059176695516091719 -9.7880892646870745e-05
leaf_weight=499 757 324 645 129 719 196 1011
leaf_count=499 757 324 645 129 719 196 1011
internal_value=0 -0.000987475 0.0020174 -0.00409016 0 -0.00224613 0.000517209
internal_weight=0 2878 1402 628 2250 520 1730
internal_count=4280 2878 1402 628 2250 520 1730
is_linear=0
shrinkage=0.1


Tree=16
num_leaves=8
num_cat=0
split_feature=391 174 618 697 154 322 650
split_gain=0.698163 0.63278 0.517782 0.581641 0.501384 0.44572 0.449927
threshold=0.25928397476673132 0.15574347972869876 -0.10303719714283942 -0.13458718359470365 -0.14958545565605161 0.38145108520984655 0.22064791619777682
decision_type=2 2 2 2 2 2 2
left_child=2 -2 -1 -4 5 6 -3
right_child=1 4 3 -5 -6 -7 -8
leaf_value=0.00040648966568850416 -0.00070982856574405471 0 -0.0038917076217639015 0 0 0 0.0054046262500811607
leaf_weight=678 550 259 943 643 182 112 808
leaf_count=678 550 259 943 643 182 112 808
internal_value=0 0.00136896 -0.00122551 -0.00231039 0.00266027 0.00352449 0.00423121
internal_weight=0 1911 2264 1586 1361 1179 1067
internal_count=4175 1911 2264 1586 1361 1179 1067
is_linear=0
shrinkage=0.1


Tree=17
num_leaves=8
num_cat=0
split_feature=662 294 192 89 227 61 586
split_gain=0.467837 0.454292 0.480921 0.573155 0.345017 0.34083 0.363894
threshold=0.11974565684795381 0.18910799920558932 0.0077984165400266656 0.36379943788051611 0.026281841099262241 0.036908350884914405 0.079475805163383498
decision_type=2 2 2 2 2 2 2
left_child=5 -2 -3 -4 -5 6 -1
right_child=1 2 3 4 -6 -7 -8
leaf_value=-0.0034870745033272026 -0.00059639824216033003 0 0 0 0.0057903900291027873 0 0
leaf_weight=919 1140 431 200 227 561 690 141
leaf_count=919 1140 431 200 227 561 690 141
internal_value=0 0.000516236 0.0018429 0.00312175 0.00441498 -0.00153581 -0.00266634
internal_weight=0 2559 1419 988 788 1750 1060
internal_count=4309 2559 1419 988 788 1750 1060
is_linear=0
shrinkage=0.1


Tree=18
num_leaves=8
num_cat=0
split_feature=391 387 564 52 530 264 393
split_gain=0.717365 0.631834 0.494064 0.400766 0.405839 0.418609 0.314016
threshold=0.307522863149643 -0.033618466928601258 0.012563008815050127 0.21289294958114627 0.13600002229213717 -0.30880543589591974 0.04513331130146981
decision_type=2 2 2 2 2 2 2
left_child=1 6 -2 4 -4 -6 -1
right_child=2 -3 3 -5 5 -7 -8
leaf_value=-0.0046521902572458935 -6.5175106446663101e-05 0 0 0 0 0.0077435556541585937 0
leaf_weight=521 269 2240 212 222 243 376 198
leaf_count=521 269 2240 212 222 243 376 198
internal_value=0 -0.000783818 0.00201275 0.00312679 0.00414863 0.00544625 -0.00336389
internal_weight=0 2959 1322 1053 831 619 719
internal_count=4281 2959 1322 1053 831 619 719
is_linear=0
shrinkage=0.1


Tree=19
num_leaves=8
num_cat=0
split_feature=58 700 719 612 64 119 118
split_gain=0.472574 0.537415 0.482157 0.449666 0.420752 0.406107 0.378989
threshold=0.044018672779202468 0.053627640008926399 0.11784403026103975 -0.1301474720239639 -0.13107392936944959 -0.12660503387451169 -0.07752992212772368
decision_type=2 2 2 2 2 2 2
left_child=1 4 -2 -4 -1 -6 -7
right_child=2 -3 3 -5 5 6 -8
leaf_value=0 0 -0.00019918838419535155 0 -0.0040775432672060579 0 0 0.0069787554808289137
leaf_weight=378 979 1345 168 772 116 145 382
leaf_count=378 979 1345 168 772 116 145 382
internal_value=0 0.00071996 -0.00135391 -0.00297848 0.00253227 0.00408965 0.0053021
internal_weight=0 2366 1919 940 1021 643 527
internal_count=4285 2366 1919 940 1021 643 527
is_linear=0
shrinkage=0.1


Tree=20
num_leaves=8
num_cat=0
split_feature=416 378 631 387 538 492 223
split_gain=0.690222 0.588145 0.512768 0.483179 0.463441 0.33666 0.466549
threshold=-0.0828682705760002 -0.10137628763914107 -0.086814522743225084 0.0093183377757668513 0.03380654193460942 0.035499293357133872 0.035094710066914565
decision_type=2 2 2 2 2 2 2
left_child=2 -2 -1 -3 5 -4 -7
right_child=1 3 4 -5 -6 6 -8
leaf_value=0 -0.00056785024990377915 0 0 0.0036936512507647077 0 0 -0.0060908930316192558
leaf_weight=326 1446 519 193 804 177 108 653
leaf_count=326 1446 519 193 804 177 108 653
internal_value=0 0.00051076 -0.00210112 0.00215384 -0.003197 -0.00412006 -0.00506987
internal_weight=0 2769 1457 1323 1131 954 761
internal_count=4226 2769 1457 1323 1131 954 761
is_linear=0
shrinkage=0.1


Tree=21
num_leaves=8
num_cat=0
split_feature=105 58 670 339 401 670 721
split_gain=0.533887 0.57617 0.487793 0.385262 0.399786 0.416525 0.371614
threshold=-0.07649246975779532 0.064713492989540114 0.17988001555204394 -0.12680229544639585 -0.033547723665833466 0.053619908168911941 0.14082715660333636
decision_type=2 2 2 2 2 2 2
left_child=1 -1 6 -2 -5 -6 -3
right_child=3 2 -4 4 5 -7 -8
leaf_value=0 0 0 0 0 0 0.0051379193501962387 -0.0054284102837083075
leaf_weight=1673 579 138 365 192 111 585 552
leaf_count=1673 579 138 365 192 111 585 552
internal_value=0 -0.000836972 -0.00269677 0.00152859 0.0028633 0.00402541 -0.00426483
internal_weight=0 2728 1055 1467 888 696 690
internal_count=4195 2728 1055 1467 888 696 690
is_linear=0
shrinkage=0.1


Tree=22
num_leaves=8
num_cat=0
split_feature=52 582 172 370 169 304 703
split_gain=0.432428 0.383262 0.446536 0.352822 0.380501 0.336928 0.392225
threshold=0.20950721949338916 -0.043753460049629204 0.39407017827034002 0.17036317288875583 0.090564206242561354 -0.24728038907051084 -0.11350163817405699
decision_type=2 2 2 2 2 2 2
left_child=1 -1 5 4 -2 -3 -7
right_child=3 2 -4 -5 -6 6 -8
leaf_value=-0.00021773212140827771 -0.0041241501755238464 0 0 0 0 0 0.0060860754042582343
leaf_weight=2118 672 179 315 240 152 106 426
leaf_count=2118 672 179 315 240 152 106 426
internal_value=0 0.000304195 0.00198018 -0.00196225 -0.00304197 0.0034552 0.00472103
internal_weight=0 3144 1026 1064 824 711 532
internal_count=4208 3144 1026 1064 824 711 532
is_linear=0
shrinkage=0.1


Tree=23
num_leaves=8
num_cat=0
split_feature=384 670 401 18 340 535 154
split_gain=0.48428 0.5658 0.565507 0.504899 0.652612 0.604624 0.426787
threshold=-0.26104469597339625 0.088147226721048369 0.0084772184491157549 0.063575614243745818 -0.094023741781711564 -0.66929677128791798 -0.11063208803534506
decision_type=2 2 2 2 2 2 2
left_child=-1 -2 -3 -4 -5 -6 -7
right_child=1 2 3 4 5 6 -8
leaf_value=0.0054758394431607517 -0.0019680019778806814 -0.0013379316527965203 -0.00061200000817758255 0 0 0.0060348710540285566 0
leaf_weight=151 1428 852 343 429 136 723 115
leaf_count=151 1428 852 343 429 136 723 115
internal_value=0 -0.000279447 0.000412291 0.0016181 0.00260104 0.00405529 0.00513119
internal_weight=0 4026 2598 1746 1403 974 838
internal_count=4177 4026 2598 1746 1403 974 838
is_linear=0
shrinkage=0.1


Tree=24
num_leaves=8
num_cat=0
split_feature=331 597 529 681 473 171 589
split_gain=0.379272 0.410925 0.428362 0.407144 0.362615 0.366455 0.303843
threshold=-0.03153532184660434 0.15022685378789905 -0.19352865964174268 0.1522580683231354 0.016723370179533962 0.066298745572567 0.18905094265937808
decision_type=2 2 2 2 2 2 2
left_child=1 2 -1 -2 5 -3 -4
right_child=3 4 6 -5 -6 -7 -8
leaf_value=0 0 -0.0026404672980246415 0 0.0030254096312210812 0.0015981115796607254 0.00022526866594546583 -0.0043943698993389674
leaf_weight=317 603 733 112 631 847 330 703
leaf_count=317 603 733 112 631 847 330 703
internal_value=0 -0.000839601 -0.00235039 0.00117523 0 -0.0011731 -0.00359567
internal_weight=0 3042 1132 1234 1910 1063 815
internal_count=4276 3042 1132 1234 1910 1063 815
is_linear=0
shrinkage=0.1


Tree=25
num_leaves=8
num_cat=0
split_feature=85 173 174 544 154 488 516
split_gain=0.377454 0.499507 0.401997 0.35931 0.327934 0.420585 0.393881
threshold=0.097745977342128768 0.02004758641123772 0.28549145162105566 -0.31086528301239008 -0.22518200427293775 0.052073167636990554 -0.18645852059125897
decision_type=2 2 2 2 2 2 2
left_child=1 2 3 -1 5 -2 -7
right_child=4 -3 -4 -5 -6 6 -8
leaf_value=0 0 0.00019112331173644294 0 -0.006646668483113312 -0.00035108607077663121 0 0.0056502150261480595
leaf_weight=171 853 290 266 361 1603 341 365
leaf_count=171 853 290 266 361 1603 341 365
internal_value=0 -0.00175518 -0.00323205 -0.00481924 0.000367447 0.00150019 0.00330556
internal_weight=0 1088 798 532 3162 1559 706
internal_count=4250 1088 798 532 3162 1559 706
is_linear=0
shrinkage=0.1


Tree=26
num_leaves=8
num_cat=0
split_feature=17 213 94 229 394 732 487
split_gain=0.563521 0.438059 0.454388 0.476924 0.384416 0.611155 0.422058
threshold=0.21717150509357455 -0.15383020043373105 0.25512470304965978 -0.89037874341011036 -0.038657620549201958 -0.23991759121417996 0.1287549510598183
decision_type=2 2 2 2 2 2 2
left_child=1 -1 3 -3 -2 -6 -7
right_child=4 2 -4 -5 5 6 -8
leaf_value=9.3125544066357329e-05 0 -0.0046035148475682746 0 0 0 0.0063174156753553609 0
leaf_weight=1077 944 750 474 207 225 441 110
leaf_count=1077 944 750 474 207 225 441 110
internal_value=0 -0.000938788 -0.00214459 -0.00340956 0.00141108 0.00306055 0.00492779
internal_weight=0 2508 1431 957 1720 776 551
internal_count=4228 2508 1431 957 1720 776 551
is_linear=0
shrinkage=0.1


Tree=27
num_leaves=8
num_cat=0
split_feature=712 492 87 174 41 493 277
split_gain=0.373865 0.367233 0.371194 0.358912 0.373004 0.317234 0.328789
threshold=0.14043716341257098 0.13658493012189868 -0.19255774468183515 0.22255255281925204 -0.0078794211149215681 -0.16184915602207181 0.11150682717561723
decision_type=2 2 2 2 2 2 2
left_child=1 -1 -3 -2 -5 -4 -7
right_child=3 2 5 4 -6 6 -8
leaf_value=0.00024413335514494449 0 0 0 0.0047348754440705637 0 0 -0.0055537185885581137
leaf_weight=1302 595 449 352 451 456 138 477
leaf_count=1302 595 449 352 451 456 138 477
internal_value=0 -0.000590049 -0.00179078 0.00136347 0.00265247 -0.00292137 -0.00431011
internal_weight=0 2718 1416 1502 907 967 615
internal_count=4220 2718 1416 1502 907 967 615
is_linear=0
shrinkage=0.1


Tree=28
num_leaves=8
num_cat=0
split_feature=480 456 101 393 461 104 765
split_gain=0.49898 0.441847 0.385621 0.386845 0.390212 0.359764 0.301387
threshold=0.0015615411102771761 -0.040158813819289201 -0.10752896219491957 0.089028634130954756 -0.33497974276542658 0.12244317680597307 -0.096388339996337877
decision_type=2 2 2 2 2 2 2
left_child=1 -1 -3 4 -4 6 -2
right_child=5 2 3 -5 -6 -7 -8
leaf_value=0.00035438284770696136 0.0045898818736819441 0 0 0 -0.0041459681642394275 0 0
leaf_weight=1445 491 307 191 308 996 329 177
leaf_count=1445 491 307 191 308 996 329 177
internal_value=0 -0.000622173 -0.00174607 -0.00250083 -0.00333705 0.00193495 0.00331262
internal_weight=0 3247 1802 1495 1187 997 668
internal_count=4244 3247 1802 1495 1187 997 668
is_linear=0
shrinkage=0.1


Tree=29
num_leaves=8
num_cat=0
split_feature=712 663 705 709 349 271 348
split_gain=0.456591 0.50289 0.422079 0.408709 0.392867 0.3298 0.267612
threshold=0.14043716341257098 -0.10340483486652373 0.046843100339174278 0.040007382631301887 0.54926761984825145 0.17126056551933291 -0.17095145583152768
decision_type=2 2 2 2 2 2 2
left_child=1 -1 3 4 5 -3 -2
right_child=6 2 -4 -5 -6 -7 -8
leaf_value=0.00050870961770424505 0 -0.0051430620908395064 0 0 0 0 0.0022378283016051327
leaf_weight=749 690 892 405 331 178 104 833
leaf_count=749 690 892 405 331 178 104 833
internal_value=0 -0.00110136 -0.00205428 -0.0028566 -0.00373391 -0.0045142 0.000990942
internal_weight=0 2659 1910 1505 1174 996 1523
internal_count=4182 2659 1910 1505 1174 996 1523
is_linear=0
shrinkage=0.1


Tree=30
num_leaves=8
num_cat=0
split_feature=474 233 454 399 635 442 113
split_gain=0.483287 0.546633 0.396662 0.449557 0.559944 0.396506 0.343082
threshold=0.13781711459159854 0.26350057125091558 0.12554495036602023 0.21288265287876132 -0.10641926527023314 0.082375213503837599 -0.37644793093204493
decision_type=2 2 2 2 2 2 2
left_child=2 -2 3 4 5 6 -1
right_child=1 -3 -4 -5 -6 -7 -8
leaf_value=0 0 -0.0049983596464374478 -0.00045152947762430842 0 0 0 0.0050250196905658922
leaf_weight=114 773 329 914 584 327 209 925
leaf_count=114 773 329 914 584 327 209 925
internal_value=0 -0.00158079 0.000823984 0.00164842 0.00256498 0.00357625 0.00437931
internal_weight=0 1102 3073 2159 1575 1248 1039
internal_count=4175 1102 3073 2159 1575 1248 1039
is_linear=0
shrinkage=0.1


Tree=31
num_leaves=8
num_cat=0
split_feature=39 763 544 600 481 260 426
split_gain=0.366147 0.636375 0.508979 0.450737 0.416363 0.392291 0.391776
threshold=0.051380570977926261 -0.099197555333375917 -0.25847499072551722 0.035085536539554603 -0.17399135231971738 -0.27716243267059321 0.15274479240179065
decision_type=2 2 2 2 2 2 2
left_child=1 -1 -2 6 -4 -6 -3
right_child=2 3 4 -5 5 -7 -8
leaf_value=0 0.00040793603436839693 0.0061555144286206407 0 0 0 -0.0047750828780477768 0
leaf_weight=821 1359 461 614 134 112 611 112
leaf_count=821 1359 461 614 134 112 611 112
internal_value=0 0.00132421 -0.000603528 0.00357638 -0.00209097 -0.00372071 0.00486287
internal_weight=0 1528 2696 707 1337 723 573
internal_count=4224 1528 2696 707 1337 723 573
is_linear=0
shrinkage=0.1


Tree=32
num_leaves=8
num_cat=0
split_feature=394 175 339 476 524 253 686
split_gain=0.329843 0.404181 0.342928 0.505947 0.600802 0.385608 0.277094
threshold=-0.10836009681224822 -0.0052232816815376273 -0.097935006022453294 -0.077225960791110979 -0.086873926222324357 -0.13542497158050534 -0.21151869744062421
decision_type=2 2 2 2 2 2 2
left_child=-1 2 -2 4 -4 -6 -3
right_child=1 6 3 -5 5 -7 -8
leaf_value=-0.0014773392036469628 0 0.0015320418120646341 0 0 0.0091627885398846906 0 -0.0013083623624429821
leaf_weight=1322 563 320 124 213 269 134 1316
leaf_count=1322 563 320 124 213 269 134 1316
internal_value=0 0.000380102 0.00180248 0.00321787 0.00491322 0.00681721 -0.000377376
internal_weight=0 2939 1303 740 527 403 1636
internal_count=4261 2939 1303 740 527 403 1636
is_linear=0
shrinkage=0.1


Tree=33
num_leaves=8
num_cat=0
split_feature=212 387 233 554 318 606 466
split_gain=0.587019 0.525063 0.425101 0.302126 0.277335 0.240734 0.224173
threshold=-0.042479909956455224 0.017020013183355335 0.27847526967525488 0.1029593273997307 0.064817283302545561 -0.25394499301910395 -0.02606040425598621
decision_type=2 2 2 2 2 2 2
left_child=2 -2 6 5 -4 -3 -1
right_child=1 3 4 -5 -6 -7 -8
leaf_value=-0.0010228650886650249 0 0.0045178777177558383 0 0 -0.0054959068120720329 0 0.0011764729146747077
leaf_weight=1332 894 705 101 136 304 230 613
leaf_count=1332 894 705 101 136 304 230 613
internal_value=0 0.00137427 -0.000958503 0.00289266 -0.00397812 0.00357991 -1.39455e-05
internal_weight=0 1965 2350 1071 405 935 1945
internal_count=4315 1965 2350 1071 405 935 1945
is_linear=0
shrinkage=0.1


Tree=34
num_leaves=8
num_cat=0
split_feature=663 283 397 711 243 685 552
split_gain=0.294836 0.405011 0.366855 0.293178 0.274627 0.26219 0.206091
threshold=-0.083885475993156419 0.28606365621089941 0.09635424986481668 -0.077389091253280626 0.2098365053534508 -0.023130989633500573 -0.076472572982311235
decision_type=2 2 2 2 2 2 2
left_child=1 -1 -3 6 -5 -6 -2
right_child=3 2 -4 4 5 -7 -8
leaf_value=-5.9203379806995899e-06 0.00060862033795250955 2.4793686904813484e-05 0.0061553219385793887 0 -0.0058070639352805174 0 -0.0017619335487122989
leaf_weight=638 1415 566 246 428 286 148 495
leaf_count=638 1415 566 246 428 286 148 495
internal_value=0 0.00105144 0.00263852 -0.000696651 -0.00222749 -0.00402269 0
internal_weight=0 1450 812 2772 862 434 1910
internal_count=4222 1450 812 2772 862 434 1910
is_linear=0
shrinkage=0.1


Tree=35
num_leaves=8
num_cat=0
split_feature=287 479 464 442 34 609 690
split_gain=0.355701 0.362576 0.408884 0.319701 0.305017 0.258057 0.321915
threshold=-0.23700778186321256 0.0097643099725246447 0.036293985322117812 -0.026757642626762387 0.15883604437112811 0.052696544677019126 -0.16684392839670178
decision_type=2 2 2 2 2 2 2
left_child=1 -1 4 -2 5 -3 -7
right_child=3 2 -4 -5 -6 6 -8
leaf_value=-0.00026759110519661023 -0.004233673986472352 0 0 0 0 0.0056709818357271874 0
leaf_weight=1799 332 101 863 268 216 536 109
leaf_count=1799 332 101 863 268 216 536 109
internal_value=0 0.000470674 0.00153493 -0.00214245 0.00295293 0.00391574 0.00466205
internal_weight=0 3624 1825 600 962 746 645
internal_count=4224 3624 1825 600 962 746 645
is_linear=0
shrinkage=0.1


Tree=36
num_leaves=8
num_cat=0
split_feature=705 742 526 327 687 30 666
split_gain=0.35773 0.333819 0.281594 0.268535 0.245863 0.227786 0.287682
threshold=0.0013287621550261977 0.040212705731391914 -0.019645452499389645 0.024865234270691875 0.012248072773218157 0.10448977351188661 0.0079876529052853602
decision_type=2 2 2 2 2 2 2
left_child=2 3 -1 -2 -4 6 -5
right_child=1 -3 4 5 -6 -7 -8
leaf_value=0 0 0 -0.003952841901010736 0.0055206780039412703 0 0 0
leaf_weight=2332 150 436 368 469 224 164 126
leaf_count=2332 150 436 368 469 224 164 126
internal_value=0 0.00152222 -0.000403378 0.00266473 -0.00235799 0.00347016 0.00438055
internal_weight=0 1345 2924 909 592 759 595
internal_count=4269 1345 2924 909 592 759 595
is_linear=0
shrinkage=0.1


Tree=37
num_leaves=8
num_cat=0
split_feature=474 413 391 677 378 261 553
split_gain=0.275998 0.476555 0.391454 0.328433 0.32458 0.342491 0.383094
threshold=0.19174645096063617 -0.19102257490158078 0.29355661571025854 0.018600276671350006 -0.12363376468420027 -0.041402747854590409 0.18011596053838733
decision_type=2 2 2 2 2 2 2
left_child=3 2 -2 -1 -5 6 -6
right_child=1 -3 -4 4 5 -7 -8
leaf_value=-0.0015415015667908732 -0.0061874240238681891 0 0 0 0 0 0.0058188376448018268
leaf_weight=490 280 199 125 1331 382 1032 394
leaf_count=490 280 199 125 1331 382 1032 394
internal_value=0 -0.00183793 -0.00409924 0.000445298 0.000951098 0.00183459 0.00350073
internal_weight=0 604 405 3629 3139 1808 776
internal_count=4233 604 405 3629 3139 1808 776
is_linear=0
shrinkage=0.1


Tree=38
num_leaves=8
num_cat=0
split_feature=132 136 489 762 515 222 409
split_gain=0.404337 0.529991 0.493188 0.360174 0.294592 0.357805 0.319958
threshold=-0.15909560024738309 0.27627228200435644 -0.023837444372475144 0.25780507922172552 0.038172423839569099 0.10683027654886247 -0.28728331625461573
decision_type=2 2 2 2 2 2 2
left_child=2 -2 -1 4 -3 6 -6
right_child=1 3 -4 -5 5 -7 -8
leaf_value=0 -0.00036860882998923265 0 -0.0031864689320211825 0 0 0 0.0068027587992318551
leaf_weight=526 1860 140 865 181 100 121 404
leaf_count=526 1860 140 865 181 100 121 404
internal_value=0 0.000340177 -0.00166391 0.00238294 0.00342489 0.00436699 0.00554507
internal_weight=0 2806 1391 946 765 625 504
internal_count=4197 2806 1391 946 765 625 504
is_linear=0
shrinkage=0.1


Tree=39
num_leaves=8
num_cat=0
split_feature=402 544 623 663 111 32 277
split_gain=0.431238 0.254405 0.373018 0.297186 0.365836 0.271846 0.224994
threshold=0.23381184786558154 -0.21371398866176602 -0.010651268064975737 -0.033886028453707688 0.11410920321941377 -0.099336974322795854 0.13444169610738757
decision_type=2 2 2 2 2 2 2
left_child=1 2 -1 -3 -5 -4 -2
right_child=6 3 5 4 -6 -7 -8
leaf_value=0 0 0.00022555859013804544 0.0034812659898369003 0 -0.0039755217750967768 0 -0.0047813538261631634
leaf_weight=1147 118 558 734 203 447 783 271
leaf_count=1147 118 558 734 203 447 783 271
internal_value=0 0.000307603 0.000958432 -0.000619266 -0.00228931 0.00201792 -0.00318487
internal_weight=0 3872 2664 1208 650 1517 389
internal_count=4261 3872 2664 1208 650 1517 389
is_linear=0
shrinkage=0.1


Tree=40
num_leaves=8
num_cat=0
split_feature=486 595 544 455 249 584 245
split_gain=0.321293 0.466308 0.44051 0.391193 0.377278 0.378065 0.29695
threshold=0.12961401045322421 0.075163528323173537 -0.21371398866176602 0.051079522818326957 -0.27554832398891443 0.10997413843870164 0.13351618498563769
decision_type=2 2 2 2 2 2 2
left_child=2 3 -1 6 -4 -6 -2
right_child=1 -3 4 -5 5 -7 -8
leaf_value=0 0 0 0 0 -0.0050248391329738304 0 0.0086371608231777062
leaf_weight=1843 127 946 130 203 538 246 176
leaf_count=1843 127 946 130 203 538 246 176
internal_value=0 0.00104542 -0.000767967 0.00351443 -0.00256874 -0.00353619 0.00579095
internal_weight=0 1452 2757 506 914 784 303
internal_count=4209 1452 2757 506 914 784 303
is_linear=0
shrinkage=0.1


Tree=41
num_leaves=8
num_cat=0
split_feature=662 192 370 204 2 637 506
split_gain=0.289786 0.205894 0.236752 0.16411 0.306843 0.266438 0.248576
threshold=0.0032182503491640095 0.002954741939902306 0.13132622838020327 -0.067215666174888597 0.049100834876298911 0.043834125623106963 0.085059415549039855
decision_type=2 2 2 2 2 2 2
left_child=1 -1 -3 4 -2 -5 -7
right_child=3 2 -4 5 -6 6 -8
leaf_value=0 0 -0.0066427972204623894 0 0.00072999563565269302 0.0025073578501251959 -0.0035691157606741932 0
leaf_weight=107 2339 168 105 151 595 474 323
leaf_count=107 2339 168 105 151 595 474 323
internal_value=0 -0.00280398 -0.0042994 0 0.000478715 -0.00101086 -0.00211125
internal_weight=0 380 273 3882 2934 948 797
internal_count=4262 380 273 3882 2934 948 797
is_linear=0
shrinkage=0.1


Tree=42
num_leaves=8
num_cat=0
split_feature=93 24 466 442 595 154 162
split_gain=0.397363 0.366691 0.448215 0.28407 0.299155 0.28209 0.22733
threshold=0.1322479844093323 -0.091370485723018632 -0.11553025618195532 -0.12355321645736693 0.057406526058912284 -0.28542080521583552 -0.065739627927541719
decision_type=2 2 2 2 2 2 2
left_child=1 -1 -3 4 -2 -6 -5
right_child=3 2 -4 6 5 -7 -8
leaf_value=0 0 0 0.0066410960355700946 -0.00067835496084103645 0 -0.0050216017947654831 0.0010168194407016399
leaf_weight=186 107 163 271 1444 191 350 1556
leaf_count=186 107 163 271 1444 191 350 1556
internal_value=0 0.00247701 0.00414893 -0.000217897 -0.0021566 -0.00333169 0
internal_weight=0 620 434 3648 648 541 3000
internal_count=4268 620 434 3648 648 541 3000
is_linear=0
shrinkage=0.1


Tree=43
num_leaves=8
num_cat=0
split_feature=261 41 174 708 536 183 76
split_gain=0.322555 0.281904 0.35232 0.490705 0.369319 0.47687 0.277599
threshold=-0.03329453989863395 0.020986475050449375 0.15834976732730868 0.28041495382785803 -0.16949325799942014 0.044717647135257728 0.017378810793161396
decision_type=2 2 2 2 2 2 2
left_child=1 2 -1 -4 -5 -6 -2
right_child=6 -3 3 4 5 -7 -8
leaf_value=0 0 -0.00010382913017659715 0 0 0 0.0084855642428550201 -0.0017818670171346866
leaf_weight=443 1108 496 225 231 111 298 1338
leaf_count=443 1108 496 225 231 111 298 1338
internal_value=0 0.000985829 0.00186855 0.00305819 0.00450637 0.00638792 -0.000775832
internal_weight=0 1804 1308 865 640 409 2446
internal_count=4250 1804 1308 865 640 409 2446
is_linear=0
shrinkage=0.1


Tree=44
num_leaves=8
num_cat=0
split_feature=505 712 49 629 301 436 214
split_gain=0.316705 0.391785 0.441519 0.358895 0.31472 0.302 0.321332
threshold=0.19681297987699511 0.12843396514654162 -0.25380788743495936 -0.29092286527156824 -0.067618642002344118 -0.41054877638816828 0.13271273672580722
decision_type=2 2 2 2 2 2 2
left_child=1 -1 -3 -2 -5 -6 -7
right_child=3 2 -4 4 5 6 -8
leaf_value=-9.7718930425607777e-06 0.00043957265694638564 0 0.0040244375499654695 0 0 0 -0.0051878090052057185
leaf_weight=1728 353 445 571 430 107 115 563
leaf_count=1728 353 445 571 430 107 115 563
internal_value=0 0.000577601 0.00218104 -0.00119831 -0.00217963 -0.00337077 -0.00419635
internal_weight=0 2744 1016 1568 1215 785 678
internal_count=4312 2744 1016 1568 1215 785 678
is_linear=0
shrinkage=0.1


Tree=45
num_leaves=8
num_cat=0
split_feature=231 76 650 550 219 544 678
split_gain=0.401554 0.371402 0.393018 0.386355 0.307692 0.241422 0.22602
threshold=0.010058075189590456 -0.0060114655643701545 0.39433138072490698 0.061620444059371955 -0.14021906256675717 -0.28019656240940088 0.099810793995857253
decision_type=2 2 2 2 2 2 2
left_child=1 2 3 4 -1 -2 -6
right_child=5 -3 -4 -5 6 -7 -8
leaf_value=0 0 0 0 0 0 -0.0028791110693453048 0.0052077852643640276
leaf_weight=101 389 1840 394 254 105 551 692
leaf_count=101 389 1840 394 254 105 551 692
internal_value=0 0.000753708 0.00190957 0.00288186 0.00386736 -0.00151353 0.00455108
internal_weight=0 3386 1546 1152 898 940 797
internal_count=4326 3386 1546 1152 898 940 797
is_linear=0
shrinkage=0.1


Tree=46
num_leaves=8
num_cat=0
split_feature=629 379 370 421 162 300 535
split_gain=0.317102 0.282866 0.516362 0.285415 0.358015 0.289102 0.344226
threshold=-0.28588898479938502 0.31315138936042791 0.090168543159961714 0.2452109754085541 -0.16657563298940656 -0.17090481519699094 -0.41031807661056513
decision_type=2 2 2 2 2 2 2
left_child=-1 2 3 4 -2 6 -6
right_child=1 -3 -4 -5 5 -7 -8
leaf_value=0.0017485584587323341 0 0.00051837996635891446 0 0 -0.0072945731362216923 0 0
leaf_weight=908 146 1295 1133 154 391 124 118
leaf_count=908 146 1295 1133 154 391 124 118
internal_value=0 -0.000342722 -0.00117974 -0.00293533 -0.00373941 -0.00478162 -0.00584065
internal_weight=0 3361 2066 933 779 633 509
internal_count=4269 3361 2066 933 779 633 509
is_linear=0
shrinkage=0.1


Tree=47
num_leaves=8
num_cat=0
split_feature=319 220 19 14 614 143 498
split_gain=0.239101 0.311224 0.418641 0.264668 0.419829 0.494944 0.46187
threshold=-0.022150652483105656 0.13726941496133807 -0.17196123301982877 0.026983974501490596 -0.032751256600022309 0.15857223421335223 0.11055617779493333
decision_type=2 2 2 2 2 2 2
left_child=3 2 -2 -1 -5 -6 -7
right_child=1 -3 -4 4 5 6 -8
leaf_value=0 0 0 -0.0055385835268115993 -0.00017393317859722761 0 0.0085513329757906775 0
leaf_weight=2213 167 587 300 187 351 231 193
leaf_count=2213 167 587 300 187 351 231 193
internal_value=0 -0.00134432 -0.0032776 0.000391315 0.00180459 0.0030744 0.0053804
internal_weight=0 1054 467 3175 962 775 424
internal_count=4229 1054 467 3175 962 775 424
is_linear=0
shrinkage=0.1


Tree=48
num_leaves=8
num_cat=0
split_feature=258 564 40 95 417 29 41
split_gain=0.357419 0.371473 0.364169 0.341765 0.410165 0.2418 0.254457
threshold=-0.35615460574626917 0.027141474187374118 -0.037515994161367409 -0.26175720989704127 0.16426911950111392 0.11325328797101976 -0.10898510739207266
decision_type=2 2 2 2 2 2 2
left_child=-1 2 3 -2 -5 6 -3
right_child=1 5 -4 4 -6 -7 -8
leaf_value=0.0032000136043073115 0 -0.00044569592081181451 0 -0.006638125678878776 0 -0.00086177477268526586 0.001624381216486873
leaf_weight=322 131 337 395 343 129 1007 1586
leaf_count=322 131 337 395 343 129 1007 1586
internal_value=0 -0.000265385 -0.00199049 -0.00354914 -0.00483039 0.000112616 0.000942238
internal_weight=0 3928 998 603 472 2930 1923
internal_count=4250 3928 998 603 472 2930 1923
is_linear=0
shrinkage=0.1


Tree=49
num_leaves=8
num_cat=0
split_feature=71 655 475 251 99 161 714
split_gain=0.251009 0.246563 0.225492 0.251185 0.388183 0.318746 0.262017
threshold=-0.039222326129674905 0.30009031295776373 -0.03031221870332956 -0.23313278704881665 0.34745411574840551 -0.038434155285358422 -0.15797694027423856
decision_type=2 2 2 2 2 2 2
left_child=2 -2 3 4 -1 6 -5
right_child=1 -3 -4 5 -6 -7 -8
leaf_value=0.004813916694359475 -0.0022190090373051669 0 -0.00064989669973835652 0.0025297104014066259 0 -0.00099105857816410422 0
leaf_weight=390 866 336 672 796 134 765 287
leaf_count=390 866 336 672 796 134 765 287
internal_value=0 -0.00122326 0.000483438 0.00106343 0.00313691 0.000143141 0.00151138
internal_weight=0 1202 3044 2372 524 1848 1083
internal_count=4246 1202 3044 2372 524 1848 1083
is_linear=0
shrinkage=0.1


Tree=50
num_leaves=8
num_cat=0
split_feature=584 353 325 482 540 140 509
split_gain=0.311803 0.608613 0.452061 0.28587 0.203581 0.236535 0.316113
threshold=0.024187251925468448 0.11420788615942003 -0.10734979808330535 0.016607813537120823 0.21496351063251498 -0.35051821172237391 -0.030280911363661286
decision_type=2 2 2 2 2 2 2
left_child=1 -1 -3 -4 -2 -6 -7
right_child=4 2 3 -5 5 6 -8
leaf_value=0 -0.00022149214020730041 0 -0.0069487533536096964 0 0 0 0.0031783884430205893
leaf_weight=1017 821 333 329 101 592 252 814
leaf_count=1017 821 333 329 101 592 252 814
internal_value=0 -0.00116635 -0.00333915 -0.00550423 0.000531901 0.00127537 0.00217916
internal_weight=0 1780 763 430 2479 1658 1066
internal_count=4259 1780 763 430 2479 1658 1066
is_linear=0
shrinkage=0.1


Tree=51
num_leaves=8
num_cat=0
split_feature=415 249 633 479 180 45 271
split_gain=0.321641 0.344304 0.373921 0.324405 0.460242 0.319212 0.242498
threshold=0.34721645712852484 0.0015233643352985384 0.58422204852104198 0.1660311818122864 -0.066383585333824144 0.03069841489195824 0.050446938723325736
decision_type=2 2 2 2 2 2 2
left_child=6 2 3 4 5 -2 -1
right_child=1 -3 -4 -5 -6 -7 -8
leaf_value=-0.00028413755530713476 -0.0064286560471186445 0 0 0 0 0 0.0015174007842225687
leaf_weight=1560 525 466 179 125 239 113 1045
leaf_count=1560 525 466 179 125 239 113 1045
internal_value=0 -0.00145298 -0.00242063 -0.00326157 -0.00398158 -0.00538562 0.000202803
internal_weight=0 1647 1181 1002 877 638 2605
internal_count=4252 1647 1181 1002 877 638 2605
is_linear=0
shrinkage=0.1


Tree=52
num_leaves=8
num_cat=0
split_feature=421 274 670 384 3 80 515
split_gain=0.352163 0.357939 0.333337 0.349964 0.316836 0.411824 0.260984
threshold=0.21896348893642428 0.0034694690257310872 0.17681157588958743 -0.14119907468557355 -0.012241354677826164 -0.019700399599969384 0.079233653843402876
decision_type=2 2 2 2 2 2 2
left_child=1 -1 3 -3 5 -2 -5
right_child=4 2 -4 6 -6 -7 -8
leaf_value=0 0 0 0 0 0 0.0043509865740574832 -0.0057366172439867686
leaf_weight=2213 119 207 369 163 243 474 456
leaf_count=2213 119 207 369 163 243 474 456
internal_value=0 -0.000763168 -0.00215783 -0.00328203 0.00142059 0.00286143 -0.00447518
internal_weight=0 3408 1195 826 836 593 619
internal_count=4244 3408 1195 826 836 593 619
is_linear=0
shrinkage=0.1


Tree=53
num_leaves=8
num_cat=0
split_feature=119 631 216 483 500 369 592
split_gain=0.292314 0.455394 0.191615 0.347998 0.288225 0.427721 0.31872
threshold=-0.11393503472208975 0.014276078436523678 0.2163028419017792 0.20904090255498889 0.13815402984619143 -0.0049652755260467521 0.39808978140354162
decision_type=2 2 2 2 2 2 2
left_child=1 -1 -2 4 5 6 -4
right_child=2 -3 3 -5 -6 -7 -8
leaf_value=0 -0.00026275642206717093 -0.00441845336565361 0.0047731395933539476 -0.00067390767731347132 0 0 0
leaf_weight=572 1639 375 687 327 228 259 127
leaf_count=572 1639 375 687 327 228 259 127
internal_value=0 -0.00170949 0.000228947 0.00110121 0.00201943 0.00276238 0.00391319
internal_weight=0 947 3267 1628 1301 1073 814
internal_count=4214 947 3267 1628 1301 1073 814
is_linear=0
shrinkage=0.1


Tree=54
num_leaves=8
num_cat=0
split_feature=456 174 32 346 114 738 241
split_gain=0.22176 0.301635 0.30783 0.224103 0.351084 0.218953 0.18437
threshold=-0.016405217349529263 0.12432240694761278 -0.03259396739304065 0.23016758263111117 -0.021448977291584011 -0.12540014833211896 -0.011517454870045183
decision_type=2 2 2 2 2 2 2
left_child=1 -1 3 -3 5 -5 -2
right_child=6 2 -4 4 -6 -7 -8
leaf_value=-0.001018430045872197 0 0 0 0 0 0.0059868420028385463 -0.0014610524443308924
leaf_weight=445 522 459 475 292 204 405 1461
leaf_count=445 522 459 475 292 204 405 1461
internal_value=0 0.000642938 0.00138052 0.00219884 0.00312811 0.00420545 -0.000801881
internal_weight=0 2280 1835 1360 901 697 1983
internal_count=4263 2280 1835 1360 901 697 1983
is_linear=0
shrinkage=0.1


Tree=55
num_leaves=8
num_cat=0
split_feature=406 663 258 454 671 297 724
split_gain=0.259922 0.296184 0.479685 0.435818 0.336899 0.284095 0.309198
threshold=0.061695339158177383 0.032760920003056533 -0.12442742660641669 0.10916302353143693 0.022174270823597911 -0.12143283337354659 0.19926559925079348
decision_type=2 2 2 2 2 2 2
left_child=-1 2 3 4 5 -2 -7
right_child=1 -3 -4 -5 -6 6 -8
leaf_value=-0.00070901132308825705 0 -0.00025432674810501585 0 0 0 0.0079903680919871083 0
leaf_weight=1735 106 721 553 416 252 362 105
leaf_count=1735 106 721 553 416 252 362 105
internal_value=0 0.000832144 0.00161112 0.00276 0.00409159 0.00547565 0.00654759
internal_weight=0 2515 1794 1241 825 573 467
internal_count=4250 2515 1794 1241 825 573 467
is_linear=0
shrinkage=0.1


Tree=56
num_leaves=8
num_cat=0
split_feature=403 743 167 17 344 101 696
split_gain=0.243187 0.363574 0.329179 0.347158 0.346772 0.315534 0.308126
threshold=-0.011303726583719252 0.25474098324775701 0.10102176666259767 0.18299579620361331 -0.02445574942976236 0.0084413886070251482 0.097781784832477583
decision_type=2 2 2 2 2 2 2
left_child=1 -1 3 4 -2 6 -3
right_child=2 5 -4 -5 -6 -7 -8
leaf_value=-3.5820939916781646e-05 0 0.0058363180939179369 0.00027634724000949674 0 -0.0044278082905118447 0 0
leaf_weight=782 154 330 1022 775 572 366 257
leaf_count=782 154 330 1022 775 572 366 257
internal_value=0 0.000888638 -0.000648713 -0.00168772 -0.00326658 0.00229162 0.0037284
internal_weight=0 1735 2523 1501 726 953 587
internal_count=4258 1735 2523 1501 726 953 587
is_linear=0
shrinkage=0.1


Tree=57
num_leaves=8
num_cat=0
split_feature=712 465 569 208 203 741 264
split_gain=0.304593 0.244298 0.317913 0.33963 0.338855 0.324074 0.242697
threshold=0.15150135010480884 -0.051628427579998963 0.076924588531255736 0.0025206492282450203 0.0025500347837805752 -0.051874946802854531 -0.31485424935817713
decision_type=2 2 2 2 2 2 2
left_child=1 2 3 -1 -5 -6 -2
right_child=6 -3 -4 4 5 -7 -8
leaf_value=0 0 0 0 0 0 -0.0050194015829457053 0.0021512609712159053
leaf_weight=161 510 1100 494 248 114 677 878
leaf_count=161 510 1100 494 248 114 677 878
internal_value=0 -0.000710254 -0.00150803 -0.00242065 -0.003168 -0.0041793 0.00108581
internal_weight=0 2794 1694 1200 1039 791 1388
internal_count=4182 2794 1694 1200 1039 791 1388
is_linear=0
shrinkage=0.1


Tree=58
num_leaves=8
num_cat=0
split_feature=114 502 569 262 22 87 52
split_gain=0.251373 0.560421 0.327199 0.314883 0.415087 0.404611 0.278957
threshold=-0.048070069402456277 -0.46593163907527918 -0.057231467217206948 0.2764472514390946 0.018627854064106945 -0.1742967292666435 0.24904036521911624
decision_type=2 2 2 2 2 2 2
left_child=3 -2 -3 4 5 -1 -4
right_child=1 2 6 -5 -6 -7 -8
leaf_value=0 -6.5684196711981749e-05 0 0.0061568883307564371 0.0010851297660639386 0 -0.0047184881520293065 0
leaf_weight=368 407 102 367 822 1574 478 108
leaf_count=368 407 102 367 822 1574 478 108
internal_value=0 0.00151173 0.0036887 -0.000285846 -0.00100531 -0.00279236 0.00483904
internal_weight=0 984 577 3242 2420 846 475
internal_count=4226 984 577 3242 2420 846 475
is_linear=0
shrinkage=0.1


Tree=59
num_leaves=8
num_cat=0
split_feature=311 618 536 16 371 355 103
split_gain=0.277125 0.330562 0.38462 0.327477 0.314097 0.45413 0.26101
threshold=-0.080827832221984849 -0.011481708846986292 -0.13764552772045133 -0.10704430565237998 0.08374997973442079 -0.14610248804092404 -0.078902192413806901
decision_type=2 2 2 2 2 2 2
left_child=1 -1 -3 -2 5 -4 -5
right_child=3 2 4 6 -6 -7 -8
leaf_value=0.00019819014143478069 0 0 -0.006547792076205654 0.0034693712065301586 0 0 0
leaf_weight=1659 562 593 356 678 104 170 117
leaf_count=1659 562 593 356 678 104 170 117
internal_value=0 -0.000414459 -0.00174766 0.00129512 -0.00346901 -0.00451491 0.00264237
internal_weight=0 2882 1223 1357 630 526 795
internal_count=4239 2882 1223 1357 630 526 795
is_linear=0
shrinkage=0.1


Tree=60
num_leaves=8
num_cat=0
split_feature=597 18 331 83 764 545 639
split_gain=0.259935 0.343681 0.333865 0.314119 0.430532 0.3321 0.361618
threshold=0.15968885272741321 0.050462875515222556 -0.073144454509019838 0.018191469833254818 -0.20467121154069898 0.0072438446804881105 0.046170374378561981
decision_type=2 2 2 2 2 2 2
left_child=2 -2 -1 -3 -5 -6 -7
right_child=1 3 -4 4 5 6 -8
leaf_value=-0.0020246859328026351 -0.0012006739293942744 0 0.00037422791883735818 -0.00013282460541492211 0 0.0050744055697603228 0
leaf_weight=869 293 382 929 168 585 773 228
leaf_count=869 293 382 929 168 585 773 228
internal_value=0 0.00101652 -0.000443644 0.00160819 0.00222269 0.00285943 0.00403388
internal_weight=0 2429 1798 2136 1754 1586 1001
internal_count=4227 2429 1798 2136 1754 1586 1001
is_linear=0
shrinkage=0.1


Tree=61
num_leaves=8
num_cat=0
split_feature=11 595 707 584 605 655 215
split_gain=0.268759 0.496286 0.422077 0.299444 0.391131 0.371899 0.381151
threshold=-0.019788403995335099 0.057406526058912284 -0.094011574983596788 0.028384082019329075 -0.16769018769264218 0.29834219813346868 -0.0035412516444921489
decision_type=2 2 2 2 2 2 2
left_child=3 2 -2 4 5 6 -1
right_child=1 -3 -4 -5 -6 -7 -8
leaf_value=-0.0058937848715698285 0 0 0.0090949223992091831 0 0 0 0
leaf_weight=448 135 563 130 2038 475 273 201
leaf_count=448 135 563 130 2038 475 273 201
internal_value=0 0.00137767 0.00496549 -0.000572688 -0.00171752 -0.00295155 -0.00425514
internal_weight=0 828 265 3435 1397 922 649
internal_count=4263 828 265 3435 1397 922 649
is_linear=0
shrinkage=0.1


Tree=62
num_leaves=8
num_cat=0
split_feature=357 162 119 595 637 762 374
split_gain=0.195803 0.346302 0.25671 0.270655 0.277332 0.247128 0.312484
threshold=0.17263811081647876 -0.070801615715026842 -0.052353400737047188 0.062317900359630592 0.28101861476898199 0.24926647543907168 0.071878965944051756
decision_type=2 2 2 2 2 2 2
left_child=1 -1 3 -2 -5 6 -3
right_child=2 5 -4 4 -6 -7 -8
leaf_value=-0.00021363938370705734 0 0 0 -0.0044871327516167302 0 0 0.0034647180537030948
leaf_weight=1219 129 202 986 448 140 367 832
leaf_count=1219 129 202 986 448 140 367 832
internal_value=0 0.000612941 -0.000756139 -0.0022222 -0.0032595 0.00177049 0.00257627
internal_weight=0 2620 1703 717 588 1401 1034
internal_count=4323 2620 1703 717 588 1401 1034
is_linear=0
shrinkage=0.1


Tree=63
num_leaves=8
num_cat=0
split_feature=446 604 378 218 235 686 434
split_gain=0.253861 0.243818 0.500464 0.305179 0.293987 0.227416 0.205531
threshold=0.35833336412906652 0.0052904076874256143 -0.14629863202571866 -0.095904815942049013 -0.07129815965890883 -0.27946107089519495 -0.092691104859113679
decision_type=2 2 2 2 2 2 2
left_child=1 -1 -3 -4 -5 -2 -6
right_child=5 2 3 4 6 -7 -8
leaf_value=0 0 0 0 0 0 -0.0022242736833979516 0.007247002436574103
leaf_weight=1775 230 530 229 242 107 802 311
leaf_count=1775 230 530 229 242 107 802 311
internal_value=0 0.000514303 0.00152105 0.00305323 0.00414492 -0.0012811 0.00584459
internal_weight=0 3194 1419 889 660 1032 418
internal_count=4226 3194 1419 889 660 1032 418
is_linear=0
shrinkage=0.1


Tree=64
num_leaves=8
num_cat=0
split_feature=457 324 514 135 644 283 751
split_gain=0.250502 0.509922 0.411122 0.403591 0.377262 0.320819 0.427109
threshold=0.29217426478862768 0.27662509679794317 0.46274250745773321 -0.024392209947109219 -0.011899481527507303 0.33513523638248449 0.12229483574628831
decision_type=2 2 2 2 2 2 2
left_child=5 2 3 -2 -5 6 -1
right_child=1 -3 -4 4 -6 -7 -8
leaf_value=0 0 -0.00016260495752508695 0 0 0.0067950068101075628 0.00012958099579168814 -0.0031094125764943893
leaf_weight=391 131 1218 230 136 392 834 916
leaf_count=391 131 1218 230 136 392 834 916
internal_value=0 0.000727046 0.00263673 0.00395184 0.00520913 -0.000806106 -0.00187305
internal_weight=0 2107 889 659 528 2141 1307
internal_count=4248 2107 889 659 528 2141 1307
is_linear=0
shrinkage=0.1


Tree=65
num_leaves=8
num_cat=0
split_feature=639 265 43 48 218 116 151
split_gain=0.214354 0.254976 0.234085 0.334273 0.324449 0.285941 0.222151
threshold=-0.079436831176280961 -0.11412499099969863 -0.12510797381401059 -0.18141273409128186 -0.079338897019624696 0.15048944205045703 0.1759651601314545
decision_type=2 2 2 2 2 2 2
left_child=2 6 -1 -4 -5 -6 -2
right_child=1 -3 3 4 5 -7 -8
leaf_value=0.00026491649938890314 0.0020966422969813771 -0.00010520146155776323 0 0 0 -0.0056099551013178289 0
leaf_weight=360 1289 1092 600 155 115 413 188
leaf_count=360 1289 1092 600 155 115 413 188
internal_value=0 0.000594264 -0.000867436 -0.00166384 -0.00317714 -0.00438201 0.0015272
internal_weight=0 2569 1643 1283 683 528 1477
internal_count=4212 2569 1643 1283 683 528 1477
is_linear=0
shrinkage=0.1


Tree=66
num_leaves=8
num_cat=0
split_feature=629 197 115 700 672 430 127
split_gain=0.218367 0.291192 0.415748 0.256253 0.226656 0.248807 0.387714
threshold=-0.28588898479938502 -0.32773284614086146 0.22607713937759402 0.13479422032833102 0.44840046763420111 -0.10032461211085318 -0.11268308758735655
decision_type=2 2 2 2 2 2 2
left_child=1 2 -1 -4 5 6 -2
right_child=4 -3 3 -5 -6 -7 -8
leaf_value=0 0 0 0.0064649274871839985 0 -0.0025432973389770438 -0.00049540142885651608 0.003600077143689004
leaf_weight=295 194 256 275 102 400 2276 448
leaf_count=295 194 256 275 102 400 2276 448
internal_value=0 0.00141676 0.0026655 0.00486736 -0.000311005 0 0.00173359
internal_weight=0 928 672 377 3318 2918 642
internal_count=4246 928 672 377 3318 2918 642
is_linear=0
shrinkage=0.1


Tree=67
num_leaves=8
num_cat=0
split_feature=582 174 194 445 254 14 629
split_gain=0.302951 0.2611 0.330972 0.274521 0.276259 0.27661 0.232381
threshold=-0.12730339169502256 0.25361806154251104 0.16700079292058947 0.32133992016315466 0.063642732799053206 0.086288377642631545 -0.22533547878265378
decision_type=2 2 2 2 2 2 2
left_child=6 2 -2 4 5 -4 -1
right_child=1 -3 3 -5 -6 -7 -8
leaf_value=0.0024160246282295687 0 0 -0.0082047636293526571 0 0 0 0
leaf_weight=673 688 1103 232 185 195 100 1096
leaf_count=673 688 1103 232 185 195 100 1096
internal_value=0 -0.000754464 -0.00169783 -0.00321191 -0.00437568 -0.00622189 0.000952438
internal_weight=0 2503 1400 712 527 332 1769
internal_count=4272 2503 1400 712 527 332 1769
is_linear=0
shrinkage=0.1


Tree=68
num_leaves=8
num_cat=0
split_feature=142 387 296 373 590 670 305
split_gain=0.193252 0.216916 0.264952 0.293624 0.273018 0.415164 0.289794
threshold=-3.0121810436248775 0.084679596126079573 0.0014096144586801531 -0.3020088374614715 -0.057475253939628594 0.23733215779066089 0.16194755584001544
decision_type=2 2 2 2 2 2 2
left_child=-1 2 -2 -4 -5 6 -6
right_child=1 -3 3 4 5 -7 -8
leaf_value=0.0024395652664180073 0 0.00071914799947707603 0 0 -0.0066109472700040242 0 0
leaf_weight=325 995 1539 529 114 383 174 130
leaf_count=325 995 1539 529 114 383 174 130
internal_value=0 -1.72466e-05 -0.000768843 -0.00173937 -0.00294772 -0.00375563 -0.00519434
internal_weight=0 3864 2325 1330 801 687 513
internal_count=4189 3864 2325 1330 801 687 513
is_linear=0
shrinkage=0.1


Tree=69
num_leaves=8
num_cat=0
split_feature=71 451 464 49 546 219 186
split_gain=0.208526 0.275217 0.350633 0.361733 0.309138 0.34855 0.225149
threshold=-0.029045281931757923 0.2923485934734345 0.044815655797719962 -0.24316462874412534 -0.070280056446790681 -0.10236797109246253 0.11571579426527025
decision_type=2 2 2 2 2 2 2
left_child=1 -1 3 -3 -5 -6 -2
right_child=6 2 -4 4 5 -7 -8
leaf_value=-0.00053944141585292988 0 0 0 0 0 0.0061688883829282559 -0.0023952367181293861
leaf_weight=1254 379 418 883 102 115 431 701
leaf_count=1254 379 418 883 102 115 431 701
internal_value=0 0.000313536 0.00117745 0.00241328 0.00389393 0.00486383 -0.00128032
internal_weight=0 3203 1949 1066 648 546 1080
internal_count=4283 3203 1949 1066 648 546 1080
is_linear=0
shrinkage=0.1


Tree=70
num_leaves=8
num_cat=0
split_feature=69 129 520 629 488 435 704
split_gain=0.229732 0.362326 0.552921 0.414361 0.469955 0.298503 0.269113
threshold=0.32213564217090612 0.21001678705215457 -0.061899378895759576 -0.13584472239017484 0.10403286665678026 -0.14570066332817075 -0.05417590215802192
decision_type=2 2 2 2 2 2 2
left_child=1 2 3 4 -1 6 -2
right_child=5 -3 -4 -5 -6 -7 -8
leaf_value=0.007684570127182557 0 -0.00011817821885101391 0 0 0 0.00059164699638403337 -0.0025486666188504785
leaf_weight=327 545 949 500 217 127 591 991
leaf_count=327 545 949 500 217 127 591 991
internal_value=0 0.000791819 0.00205374 0.00394977 0.00567305 -0.000674649 -0.00156171
internal_weight=0 2120 1171 671 454 2127 1536
internal_count=4247 2120 1171 671 454 2127 1536
is_linear=0
shrinkage=0.1


Tree=71
num_leaves=8
num_cat=0
split_feature=542 397 185 421 379 459 98
split_gain=0.251115 0.369299 0.353631 0.2566 0.310827 0.3973 0.338802
threshold=0.0098749734461307543 0.052605433389544494 0.0385771431028843 0.21240912377834323 0.31464011967182165 -0.18813594430685041 0.1977459713816643
decision_type=2 2 2 2 2 2 2
left_child=3 -2 -3 4 5 6 -1
right_child=1 2 -4 -5 -6 -7 -8
leaf_value=0 0 0.005116697901540024 0 0.00053159550223010098 0 0 -0.0044889680290910268
leaf_weight=137 729 324 126 673 864 652 700
leaf_count=137 729 324 126 673 864 652 700
internal_value=0 0.00103123 0.00331547 -0.000645525 -0.00124321 -0.00212834 -0.0035784
internal_weight=0 1179 450 3026 2353 1489 837
internal_count=4205 1179 450 3026 2353 1489 837
is_linear=0
shrinkage=0.1


Tree=72
num_leaves=8
num_cat=0
split_feature=511 595 515 278 128 738 717
split_gain=0.269683 0.242543 0.254046 0.240149 0.234778 0.233461 0.253458
threshold=0.11214130371809007 0.087856739759445204 0.25372985005378729 -0.0099353045225143415 0.22646120190620425 -0.015513934660702942 -0.12250974029302596
decision_type=2 2 2 2 2 2 2
left_child=4 2 3 5 -1 6 -2
right_child=1 -3 -4 -5 -6 -7 -8
leaf_value=-0.003613353168727667 0 0 0 0 0 0 0.0074076825443072265
leaf_weight=340 103 2789 156 383 106 110 234
leaf_count=340 103 2789 156 383 106 110 234
internal_value=0 0.000400382 0.00175315 0.00259074 -0.00216555 0.00422312 0.00553018
internal_weight=0 3775 986 830 446 447 337
internal_count=4221 3775 986 830 446 447 337
is_linear=0
shrinkage=0.1


Tree=73
num_leaves=8
num_cat=0
split_feature=739 406 94 507 721 227 663
split_gain=0.31207 0.305917 0.280377 0.283114 0.2658 0.305469 0.252749
threshold=0.0023668725043535237 0.069094818085432066 0.36056131124496466 -0.040362916886806481 0.12275452166795732 0.20537509024143222 0.010395497083663942
decision_type=2 2 2 2 2 2 2
left_child=-1 2 3 -2 -5 -6 -3
right_child=1 6 -4 4 5 -7 -8
leaf_value=0.0012928057098089999 0 0.00097501325639319449 0 0 -0.0048751697163236692 0 -0.0014059173532451786
leaf_weight=1034 176 1251 182 120 665 133 677
leaf_count=1034 176 1251 182 120 665 133 677
internal_value=0 -0.000660789 -0.00186917 -0.0025764 -0.00331578 -0.00399729 0
internal_weight=0 3204 1276 1094 918 798 1928
internal_count=4238 3204 1276 1094 918 798 1928
is_linear=0
shrinkage=0.1


Tree=74
num_leaves=8
num_cat=0
split_feature=668 273 657 107 572 685 564
split_gain=0.183877 0.32424 0.315488 0.236823 0.281297 0.282924 0.245587
