tree
version=v3
num_class=1
num_tree_per_iteration=1
label_index=0
max_feature_idx=767
objective=regression
feature_names=Column_0 Column_1 Column_2 Column_3 Column_4 Column_5 Column_6 Column_7 Column_8 Column_9 Column_10 Column_11 Column_12 Column_13 Column_14 Column_15 Column_16 Column_17 Column_18 Column_19 Column_20 Column_21 Column_22 Column_23 Column_24 Column_25 Column_26 Column_27 Column_28 Column_29 Column_30 Column_31 Column_32 Column_33 Column_34 Column_35 Column_36 Column_37 Column_38 Column_39 Column_40 Column_41 Column_42 Column_43 Column_44 Column_45 Column_46 Column_47 Column_48 Column_49 Column_50 Column_51 Column_52 Column_53 Column_54 Column_55 Column_56 Column_57 Column_58 Column_59 Column_60 Column_61 Column_62 Column_63 Column_64 Column_65 Column_66 Column_67 Column_68 Column_69 Column_70 Column_71 Column_72 Column_73 Column_74 Column_75 Column_76 Column_77 Column_78 Column_79 Column_80 Column_81 Column_82 Column_83 Column_84 Column_85 Column_86 Column_87 Column_88 Column_89 Column_90 Column_91 Column_92 Column_93 Column_94 Column_95 Column_96 Column_97 Column_98 Column_99 Column_100 Column_101 Column_102 Column_103 Column_104 Column_105 Column_106 Column_107 Column_108 Column_109 Column_110 Column_111 Column_112 Column_113 Column_114 Column_115 Column_116 Column_117 Column_118 Column_119 Column_120 Column_121 Column_122 Column_123 Column_124 Column_125 Column_126 Column_127 Column_128 Column_129 Column_130 Column_131 Column_132 Column_133 Column_134 Column_135 Column_136 Column_137 Column_138 Column_139 Column_140 Column_141 Column_142 Column_143 Column_144 Column_145 Column_146 Column_147 Column_148 Column_149 Column_150 Column_151 Column_152 Column_153 Column_154 Column_155 Column_156 Column_157 Column_158 Column_159 Column_160 Column_161 Column_162 Column_163 Column_164 Column_165 Column_166 Column_167 Column_168 Column_169 Column_170 Column_171 Column_172 Column_173 Column_174 Column_175 Column_176 Column_177 Column_178 Column_179 Column_180 Column_181 Column_182 Column_183 Column_184 Column_185 Column_186 Column_187 Column_188 Column_189 Column_190 Column_191 Column_192 Column_193 Column_194 Column_195 Column_196 Column_197 Column_198 Column_199 Column_200 Column_201 Column_202 Column_203 Column_204 Column_205 Column_206 Column_207 Column_208 Column_209 Column_210 Column_211 Column_212 Column_213 Column_214 Column_215 Column_216 Column_217 Column_218 Column_219 Column_220 Column_221 Column_222 Column_223 Column_224 Column_225 Column_226 Column_227 Column_228 Column_229 Column_230 Column_231 Column_232 Column_233 Column_234 Column_235 Column_236 Column_237 Column_238 Column_239 Column_240 Column_241 Column_242 Column_243 Column_244 Column_245 Column_246 Column_247 Column_248 Column_249 Column_250 Column_251 Column_252 Column_253 Column_254 Column_255 Column_256 Column_257 Column_258 Column_259 Column_260 Column_261 Column_262 Column_263 Column_264 Column_265 Column_266 Column_267 Column_268 Column_269 Column_270 Column_271 Column_272 Column_273 Column_274 Column_275 Column_276 Column_277 Column_278 Column_279 Column_280 Column_281 Column_282 Column_283 Column_284 Column_285 Column_286 Column_287 Column_288 Column_289 Column_290 Column_291 Column_292 Column_293 Column_294 Column_295 Column_296 Column_297 Column_298 Column_299 Column_300 Column_301 Column_302 Column_303 Column_304 Column_305 Column_306 Column_307 Column_308 Column_309 Column_310 Column_311 Column_312 Column_313 Column_314 Column_315 Column_316 Column_317 Column_318 Column_319 Column_320 Column_321 Column_322 Column_323 Column_324 Column_325 Column_326 Column_327 Column_328 Column_329 Column_330 Column_331 Column_332 Column_333 Column_334 Column_335 Column_336 Column_337 Column_338 Column_339 Column_340 Column_341 Column_342 Column_343 Column_344 Column_345 Column_346 Column_347 Column_348 Column_349 Column_350 Column_351 Column_352 Column_353 Column_354 Column_355 Column_356 Column_357 Column_358 Column_359 Column_360 Column_361 Column_362 Column_363 Column_364 Column_365 Column_366 Column_367 Column_368 Column_369 Column_370 Column_371 Column_372 Column_373 Column_374 Column_375 Column_376 Column_377 Column_378 Column_379 Column_380 Column_381 Column_382 Column_383 Column_384 Column_385 Column_386 Column_387 Column_388 Column_389 Column_390 Column_391 Column_392 Column_393 Column_394 Column_395 Column_396 Column_397 Column_398 Column_399 Column_400 Column_401 Column_402 Column_403 Column_404 Column_405 Column_406 Column_407 Column_408 Column_409 Column_410 Column_411 Column_412 Column_413 Column_414 Column_415 Column_416 Column_417 Column_418 Column_419 Column_420 Column_421 Column_422 Column_423 Column_424 Column_425 Column_426 Column_427 Column_428 Column_429 Column_430 Column_431 Column_432 Column_433 Column_434 Column_435 Column_436 Column_437 Column_438 Column_439 Column_440 Column_441 Column_442 Column_443 Column_444 Column_445 Column_446 Column_447 Column_448 Column_449 Column_450 Column_451 Column_452 Column_453 Column_454 Column_455 Column_456 Column_457 Column_458 Column_459 Column_460 Column_461 Column_462 Column_463 Column_464 Column_465 Column_466 Column_467 Column_468 Column_469 Column_470 Column_471 Column_472 Column_473 Column_474 Column_475 Column_476 Column_477 Column_478 Column_479 Column_480 Column_481 Column_482 Column_483 Column_484 Column_485 Column_486 Column_487 Column_488 Column_489 Column_490 Column_491 Column_492 Column_493 Column_494 Column_495 Column_496 Column_497 Column_498 Column_499 Column_500 Column_501 Column_502 Column_503 Column_504 Column_505 Column_506 Column_507 Column_508 Column_509 Column_510 Column_511 Column_512 Column_513 Column_514 Column_515 Column_516 Column_517 Column_518 Column_519 Column_520 Column_521 Column_522 Column_523 Column_524 Column_525 Column_526 Column_527 Column_528 Column_529 Column_530 Column_531 Column_532 Column_533 Column_534 Column_535 Column_536 Column_537 Column_538 Column_539 Column_540 Column_541 Column_542 Column_543 Column_544 Column_545 Column_546 Column_547 Column_548 Column_549 Column_550 Column_551 Column_552 Column_553 Column_554 Column_555 Column_556 Column_557 Column_558 Column_559 Column_560 Column_561 Column_562 Column_563 Column_564 Column_565 Column_566 Column_567 Column_568 Column_569 Column_570 Column_571 Column_572 Column_573 Column_574 Column_575 Column_576 Column_577 Column_578 Column_579 Column_580 Column_581 Column_582 Column_583 Column_584 Column_585 Column_586 Column_587 Column_588 Column_589 Column_590 Column_591 Column_592 Column_593 Column_594 Column_595 Column_596 Column_597 Column_598 Column_599 Column_600 Column_601 Column_602 Column_603 Column_604 Column_605 Column_606 Column_607 Column_608 Column_609 Column_610 Column_611 Column_612 Column_613 Column_614 Column_615 Column_616 Column_617 Column_618 Column_619 Column_620 Column_621 Column_622 Column_623 Column_624 Column_625 Column_626 Column_627 Column_628 Column_629 Column_630 Column_631 Column_632 Column_633 Column_634 Column_635 Column_636 Column_637 Column_638 Column_639 Column_640 Column_641 Column_642 Column_643 Column_644 Column_645 Column_646 Column_647 Column_648 Column_649 Column_650 Column_651 Column_652 Column_653 Column_654 Column_655 Column_656 Column_657 Column_658 Column_659 Column_660 Column_661 Column_662 Column_663 Column_664 Column_665 Column_666 Column_667 Column_668 Column_669 Column_670 Column_671 Column_672 Column_673 Column_674 Column_675 Column_676 Column_677 Column_678 Column_679 Column_680 Column_681 Column_682 Column_683 Column_684 Column_685 Column_686 Column_687 Column_688 Column_689 Column_690 Column_691 Column_692 Column_693 Column_694 Column_695 Column_696 Column_697 Column_698 Column_699 Column_700 Column_701 Column_702 Column_703 Column_704 Column_705 Column_706 Column_707 Column_708 Column_709 Column_710 Column_711 Column_712 Column_713 Column_714 Column_715 Column_716 Column_717 Column_718 Column_719 Column_720 Column_721 Column_722 Column_723 Column_724 Column_725 Column_726 Column_727 Column_728 Column_729 Column_730 Column_731 Column_732 Column_733 Column_734 Column_735 Column_736 Column_737 Column_738 Column_739 Column_740 Column_741 Column_742 Column_743 Column_744 Column_745 Column_746 Column_747 Column_748 Column_749 Column_750 Column_751 Column_752 Column_753 Column_754 Column_755 Column_756 Column_757 Column_758 Column_759 Column_760 Column_761 Column_762 Column_763 Column_764 Column_765 Column_766 Column_767
feature_infos=[-0.84711027145385742:0.30442631244659424] [-0.49399501085281372:0.48365196585655212] [-0.83046507835388184:0.50253158807754517] [-0.69012689590454102:0.44544824957847595] [-0.66892427206039429:0.59394896030426025] [-0.77307242155075073:0.45217147469520569] [-0.32741862535476685:0.85652506351470947] [-0.36509570479393005:1.0983664989471436] [-0.70622068643569946:0.39266011118888855] [-0.7915235161781311:0.28579205274581909] [-0.56772404909133911:0.46862906217575073] [-0.76133525371551514:0.36122843623161316] [-0.73703348636627197:0.56239759922027588] [-0.26350650191307068:0.9784473180770874] [-0.67757230997085571:0.38687920570373535] [-0.32982790470123291:0.90782827138900757] [-0.53501272201538086:0.84420466423034668] [-0.49427258968353271:0.63388687372207642] [-0.29750949144363403:0.66266679763793945] [-0.59008884429931641:0.42953485250473022] [-0.48734772205352783:0.56641179323196411] [-0.93828368186950684:0.13246035575866699] [-0.42857846617698669:0.70240175724029541] [-0.57057291269302368:0.67950838804244995] [-0.4411243200302124:0.50213944911956787] [-0.65526235103607178:0.34472191333770752] [-0.54376620054244995:0.46893921494483948] [-0.55837363004684448:0.52499383687973022] [-0.57257574796676636:0.50266259908676147] [-0.43844836950302124:0.55735838413238525] [-0.56754052639007568:0.61125397682189941] [-0.24880421161651611:0.72928893566131592] [-0.62038344144821167:0.37730288505554199] [-0.75795131921768188:0.33039546012878418] [-0.56195420026779175:0.65474206209182739] [-0.55754506587982178:0.48683041334152222] [-0.29735597968101501:0.83858782052993774] [-0.65679222345352173:0.62500345706939697] [-0.58935773372650146:0.42212322354316711] [-0.35156062245368958:0.72176432609558105] [-0.62967377901077271:0.36806640028953552] [-0.55488425493240356:0.41480761766433716] [-0.5663759708404541:0.79027342796325684] [-0.57023680210113525:0.45553368330001831] [-0.37646538019180298:0.61924618482589722] [-0.73106122016906738:0.41340076923370361] [-3.344066858291626:-1.5279194116592407] [-0.67293083667755127:0.39321509003639221] [-0.75862759351730347:0.34881430864334106] [-0.77572417259216309:0.15057730674743652] [-0.52396130561828613:0.69893640279769897] [-0.78980636596679688:0.48285481333732605] [-0.72177129983901978:0.66979312896728516] [-0.57200890779495239:0.79202204942703247] [-0.33503472805023193:0.86876600980758667] [-0.2529619038105011:1.0219353437423706] [-0.77236664295196533:0.32363590598106384] [-0.44002455472946167:0.86998254060745239] [-0.60725921392440796:0.71116864681243896] [-0.40726029872894287:0.50418078899383545] [-0.30623909831047058:0.76618492603302002] [-0.39189609885215759:0.58660519123077393] [-0.78394210338592529:0.45721730589866638] [-0.71058768033981323:0.46412855386734009] [-0.65185743570327759:0.47501403093338013] [-0.46900144219398499:0.72758841514587402] [-0.51975774765014648:0.27665069699287415] [-0.20605693757534027:1.0610374212265015] [-0.79786056280136108:0.20764867961406708] [-0.33834296464920044:0.83772432804107666] [-0.9440886378288269:0.34199538826942444] [-0.67637956142425537:0.42070907354354858] [-0.29145652055740356:0.67727541923522949] [-0.53240662813186646:0.60090261697769165] [-0.63393592834472656:0.4835231602191925] [-0.85041952133178711:0.510467529296875] [-0.53922450542449951:0.4660874605178833] [-0.23729713261127472:0.90562140941619873] [-0.66398400068283081:0.4239286482334137] [-0.75463229417800903:0.5624578595161438] [-0.43787261843681335:0.5980108380317688] [-0.20549610257148743:0.75687825679779053] [-0.34905463457107544:0.88364005088806152] [-0.52462047338485718:0.80289363861083984] [-0.40861111879348755:0.65222883224487305] [-0.31653264164924622:0.75812679529190063] [-0.87739449739456177:0.35699805617332458] [-0.65059173107147217:0.33205968141555786] [-0.41279983520507812:0.68322765827178955] [-0.01057874783873558:1.147411584854126] [-0.7709660530090332:0.54226970672607422] [-0.65434408187866211:0.53291535377502441] [-0.45384401082992554:0.74134325981140137] [-0.28333792090415955:0.82625770568847656] [-0.37874272465705872:0.93552273511886597] [-0.75094735622406006:0.35451263189315796] [-0.7545434832572937:0.65692073106765747] [-0.3449903130531311:0.53232544660568237] [-0.26469475030899048:0.80690991878509521] [-0.29404756426811218:0.85719990730285645] [-0.21951949596405029:0.97654390335083008] [-0.59047794342041016:0.51692080497741699] [-0.3292694091796875:0.7505638599395752] [-0.95897942781448364:0.42434307932853699] [-0.49289426207542419:0.7791098952293396] [-0.74136173725128174:0.32534477114677429] [-0.61358332633972168:0.63178694248199463] [-0.82682812213897705:0.36684980988502502] [-0.60394889116287231:0.52588260173797607] [-2.8819901943206787:-0.8294748067855835] [-0.39200076460838318:0.93526917695999146] [-0.41929885745048523:0.72695976495742798] [-0.65439802408218384:0.35510203242301941] [-1.0104066133499146:0.13140235841274261] [-0.86141782999038696:0.25057539343833923] [-0.30500540137290955:0.80660092830657959] [-0.23682369291782379:0.77843993902206421] [-0.53351294994354248:0.44870266318321228] [-0.55275529623031616:0.5277477502822876] [-0.70376884937286377:0.62180733680725098] [-0.64710056781768799:0.71773922443389893] [-0.32486793398857117:0.95425611734390259] [-0.73594886064529419:0.55648648738861084] [-0.50237393379211426:1.2053524255752563] [-0.65391159057617188:0.36358389258384705] [-0.12552891671657562:0.81351202726364136] [-0.5137060284614563:0.6303667426109314] [-0.59236586093902588:0.65522867441177368] [-0.32255962491035461:0.85855716466903687] [-0.27411875128746033:0.88552993535995483] [-0.2350621223449707:0.6853753924369812] [-0.13103847205638885:0.92981469631195068] [-0.64436566829681396:0.38576596975326538] [-0.61884868144989014:0.32278984785079956] [-0.77007490396499634:0.34026825428009033] [-0.40898096561431885:0.75980097055435181] [-0.24678146839141846:0.86746490001678467] [-0.64428162574768066:0.38641181588172913] [-0.79089444875717163:0.5380481481552124] [-0.44810149073600769:0.7219243049621582] [-0.90636426210403442:0.174681156873703] [-0.64992916584014893:0.35381573438644409] [-3.3138923645019531:-0.99076592922210693] [-0.50217664241790771:0.77105909585952759] [-0.020911170169711113:1.1467798948287964] [-0.44015428423881531:0.56639736890792847] [-0.49645519256591797:0.53278535604476929] [-0.59334152936935425:0.62853437662124634] [-0.65394461154937744:0.4476165771484375] [-0.30399248003959656:0.77823722362518311] [-0.40306389331817627:0.79625475406646729] [-0.72545748949050903:0.45266124606132507] [-0.65500497817993164:0.30283576250076294] [-0.31593164801597595:0.52104640007019043] [-0.7552344799041748:0.2389225959777832] [-0.47207969427108765:0.51979368925094604] [-1.0567965507507324:0.71609926223754883] [-0.51044315099716187:0.57448363304138184] [-0.31226199865341187:0.90782082080841064] [-0.24591350555419922:1.0283777713775635] [-0.35570424795150757:0.76835203170776367] [-0.67534095048904419:0.46102374792098999] [-0.66367024183273315:0.40690559148788452] [-0.51193755865097046:0.57768386602401733] [-0.76168155670166016:0.4044758677482605] [-0.36727017164230347:0.86091184616088867] [-0.65854620933532715:0.65043020248413086] [-0.55272716283798218:0.89452707767486572] [-0.55885815620422363:0.49238240718841553] [-0.45340099930763245:0.60047274827957153] [-0.62148028612136841:0.37676343321800232] [-0.5466727614402771:0.72228777408599854] [-0.062839105725288391:1.4480024576187134] [-0.71663284301757812:0.32074251770973206] [-0.24476096034049988:0.9520830512046814] [-0.55048888921737671:0.5469125509262085] [-0.66744011640548706:0.64798736572265625] [-0.34188863635063171:0.74009883403778076] [-0.60685330629348755:0.43311566114425659] [-0.42563223838806152:0.64075404405593872] [-4.8502235412597656:0.37406650185585022] [-0.17140674591064453:0.93301713466644287] [-0.39985799789428711:0.69085490703582764] [-0.51413935422897339:0.75407874584197998] [-0.3933032751083374:0.72981142997741699] [-0.79772377014160156:0.32428434491157532] [-0.35606321692466736:0.72430384159088135] [-0.65595102310180664:0.35712370276451111] [-0.43130618333816528:0.77126145362854004] [-0.42595177888870239:0.67524027824401855] [-1.0296394824981689:0.43145313858985901] [-0.84626191854476929:0.29433393478393555] [-0.59181815385818481:0.47149026393890381] [-0.58720016479492188:0.63901084661483765] [-0.30105602741241455:0.95815020799636841] [-0.46134164929389954:0.61342328786849976] [-0.55187380313873291:0.6227264404296875] [-1.3701142072677612:0.12163721024990082] [-0.41056144237518311:0.69488000869750977] [-0.51144731044769287:0.52414578199386597] [-0.64143389463424683:0.40231901407241821] [-0.63536489009857178:0.50583171844482422] [-0.45233011245727539:0.5200120210647583] [-0.33439141511917114:0.72738039493560791] [-1.0388888120651245:0.53608888387680054] [1.7942984104156494:3.9389495849609375] [-0.36303219199180603:0.54889625310897827] [-0.61332809925079346:0.474791020154953] [-0.36952844262123108:0.75499546527862549] [-0.25309461355209351:0.91863977909088135] [-0.79371780157089233:0.57164168357849121] [-0.51767939329147339:0.52605539560317993] [-0.85501861572265625:0.35605183243751526] [-0.58497875928878784:0.63731628656387329] [-0.28213775157928467:0.77987617254257202] [-0.71278506517410278:0.42621332406997681] [-0.43442121148109436:0.6791529655456543] [-0.60179167985916138:0.45830798149108887] [-0.69713997840881348:0.49662518501281738] [-0.55602192878723145:0.4794355034828186] [-0.36222818493843079:0.75629603862762451] [-0.28874990344047546:0.73607903718948364] [-0.52018958330154419:0.55666720867156982] [-0.29055553674697876:1.0182619094848633] [-0.88376766443252563:0.28292691707611084] [-0.90977424383163452:0.93914234638214111] [-0.74802595376968384:0.74080872535705566] [-0.47756808996200562:1.0782978534698486] [-0.62551611661911011:0.71525275707244873] [-1.7823178768157959:-0.38177698850631714] [-0.23324669897556305:0.74500584602355957] [-0.54242873191833496:0.4811931848526001] [-0.5592237114906311:0.73526495695114136] [-0.45778274536132812:0.73627835512161255] [-0.88940548896789551:0.21053303778171539] [-0.60554808378219604:0.62688881158828735] [-0.65227758884429932:0.49428591132164001] [-0.59997576475143433:0.4537108838558197] [-0.34959128499031067:0.66400057077407837] [-0.74506717920303345:0.44266986846923828] [-0.58005309104919434:0.31547832489013672] [-0.42942667007446289:0.85460972785949707] [-0.18448664247989655:0.96071332693099976] [-0.61244326829910278:0.77652907371520996] [-0.55324375629425049:0.61816728115081787] [-0.3386685848236084:0.85177993774414062] [-0.30875480175018311:0.68170315027236938] [-0.77904397249221802:0.54561430215835571] [-0.49916720390319824:0.70157921314239502] [-0.75790470838546753:0.55822724103927612] [-0.32149478793144226:0.74164003133773804] [-0.64808464050292969:0.41153085231781006] [-0.50042343139648438:0.58125007152557373] [-0.92865073680877686:0.24041378498077393] [-0.55096447467803955:0.70760089159011841] [-0.62574201822280884:0.44366204738616943] [-0.18516111373901367:0.79278051853179932] [-0.75938713550567627:0.46019613742828369] [-1.2184247970581055:0.29278844594955444] [-0.81474059820175171:0.33790269494056702] [-0.62000393867492676:0.50768035650253296] [-0.46983647346496582:0.45277363061904907] [-0.32576054334640503:0.75706309080123901] [-0.44252225756645203:0.62373447418212891] [-1.1225676536560059:0.25672134757041931] [-0.72973620891571045:0.41645964980125427] [-0.42664283514022827:0.82968908548355103] [-0.68655270338058472:0.44195428490638733] [-0.33075648546218872:0.68911153078079224] [-0.60090607404708862:0.37414395809173584] [-0.73808830976486206:0.58358055353164673] [-0.82214838266372681:0.48055467009544373] [-0.95093947649002075:0.23773403465747833] [-4.7369365692138672:-0.76332372426986694] [-0.66280001401901245:0.4741981029510498] [-0.5587848424911499:0.46719652414321899] [-0.255806565284729:0.84583878517150879] [-0.38275846838951111:0.81741154193878174] [-0.68145716190338135:0.59774154424667358] [-0.50127488374710083:0.57928258180618286] [-0.29240426421165466:0.68959707021713257] [-0.15820108354091644:0.97152364253997803] [-0.88929027318954468:0.33128520846366882] [-0.15697386860847473:0.95407372713088989] [-0.68323415517807007:0.55193489789962769] [-0.42262163758277893:0.53702014684677124] [-0.59262651205062866:0.59121090173721313] [-1.0669625997543335:0.22898249328136444] [-0.24004562199115753:0.7323155403137207] [-0.68117767572402954:0.50595963001251221] [-1.0429476499557495:0.29494079947471619] [-0.62905144691467285:0.70451736450195312] [-0.72716736793518066:0.49539369344711304] [-0.59762126207351685:0.68624866008758545] [-0.55385202169418335:0.68301308155059814] [-0.59049427509307861:0.45112240314483643] [-0.38428312540054321:0.57047617435455322] [-0.58005213737487793:0.59103161096572876] [-0.469066321849823:0.69134551286697388] [-1.0756514072418213:0.19400414824485779] [-1.0867342948913574:0.34240490198135376] [-0.82371318340301514:0.6591607928276062] [-0.62874990701675415:0.59421974420547485] [-0.5000491738319397:0.49668788909912109] [-1.0284841060638428:0.25030720233917236] [-0.3358837366104126:0.75030136108398438] [-0.67117351293563843:0.2308603972196579] [-0.83879834413528442:0.41356426477432251] [-4.6149053573608398:-0.80223345756530762] [-0.44878146052360535:0.83083176612854004] [-0.64347153902053833:0.44206565618515015] [-0.63750153779983521:0.29946836829185486] [-0.56356960535049438:0.7291109561920166] [-0.66967445611953735:0.32632166147232056] [-0.11953866481781006:1.0039501190185547] [-0.62293905019760132:0.42178425192832947] [-0.76616972684860229:0.27977359294891357] [-0.39857986569404602:0.58707118034362793] [-0.37784627079963684:0.66465610265731812] [-0.75620734691619873:0.31436759233474731] [-0.54169172048568726:0.90560787916183472] [-0.36822238564491272:0.65354299545288086] [-0.24263280630111694:0.79155683517456055] [-0.28179380297660828:0.81888055801391602] [-0.17938670516014099:1.0716416835784912] [-0.91694414615631104:0.35731399059295654] [-0.38033154606819153:0.62642765045166016] [-0.25416091084480286:0.74331516027450562] [-0.46544384956359863:0.57176518440246582] [-0.82987678050994873:0.33758458495140076] [-0.63645321130752563:0.53761333227157593] [-0.78457504510879517:0.49031463265419006] [-0.40913993120193481:0.78965514898300171] [-0.36850476264953613:0.96032774448394775] [-1.015535831451416:0.039933651685714722] [-0.57942855358123779:0.44272622466087341] [-0.8088797926902771:0.32444187998771667] [-0.72761422395706177:0.32447275519371033] [-0.43694400787353516:0.53263694047927856] [-0.76470601558685303:0.27844679355621338] [-0.48769780993461609:0.61986023187637329] [-0.45516374707221985:0.50910884141921997] [-0.70191800594329834:0.20054110884666443] [-0.69012880325317383:0.34006202220916748] [-0.42500865459442139:0.5010981559753418] [-0.27911299467086792:0.78538870811462402] [-0.21073868870735168:0.8790777325630188] [-0.57146722078323364:0.62491327524185181] [-0.74524503946304321:0.40070489048957825] [-0.29620686173439026:1.1681886911392212] [-0.48412135243415833:0.49594628810882568] [-0.30402785539627075:0.71089911460876465] [-0.0016934648156166077:1.4619766473770142] [-0.55044281482696533:0.64164036512374878] [-0.32495012879371643:0.79859179258346558] [-0.75915223360061646:0.39963841438293457] [-0.63321727514266968:0.36967098712921143] [-0.25546622276306152:0.71300405263900757] [-0.50702810287475586:0.52112382650375366] [-0.61295342445373535:0.53194260597229004] [0.38528794050216675:1.6830734014511108] [-0.75070744752883911:0.44540056586265564] [-0.45399379730224609:0.56862461566925049] [-0.58507508039474487:0.39836955070495605] [-0.33321088552474976:1.0256768465042114] [-0.5778815746307373:0.64241868257522583] [-0.87772035598754883:0.37065556645393372] [-0.67475718259811401:0.70430755615234375] [-0.13528800010681152:0.94239968061447144] [-0.64762765169143677:0.40012791752815247] [-0.57064133882522583:0.50843435525894165] [-0.76672923564910889:0.3990788459777832] [-0.4198111891746521:0.8261101245880127] [-0.9744715690612793:0.15617640316486359] [-0.5047837495803833:0.7107386589050293] [-0.83632069826126099:0.19909688830375671] [-0.59334015846252441:0.50405597686767578] [-0.5519402027130127:0.51946520805358887] [-0.69101434946060181:0.29862439632415771] [-0.19007214903831482:1.1816204786300659] [-0.71139383316040039:0.47467586398124695] [-1.4743516445159912:-0.5305790901184082] [-0.63215219974517822:0.34832793474197388] [-0.7241215705871582:0.74403208494186401] [-0.46511253714561462:0.52190423011779785] [-0.47290563583374023:0.5385746955871582] [-0.56317520141601562:0.47628369927406311] [-0.37684008479118347:0.55720382928848267] [-0.74581515789031982:0.27644240856170654] [-0.48330476880073547:0.58425897359848022] [-0.88773280382156372:0.44472050666809082] [-0.523121178150177:0.82795965671539307] [-0.69933640956878662:0.39535373449325562] [-0.771187424659729:0.62625277042388916] [-0.57454711198806763:0.46069738268852234] [-0.40825134515762329:0.70642274618148804] [-1.1579962968826294:0.075686782598495483] [-0.7563251256942749:0.63477593660354614] [-0.62238597869873047:0.46578872203826904] [-0.44049996137619019:0.55417263507843018] [-0.23550334572792053:0.78965526819229126] [-0.39565643668174744:0.70026135444641113] [-0.61485356092453003:0.56135302782058716] [-0.58996748924255371:0.46922862529754639] [-0.22733317315578461:1.0094294548034668] [-1.2005420923233032:-0.18707491457462311] [-0.35049435496330261:0.73336285352706909] [-0.68032896518707275:0.31081631779670715] [-0.68470585346221924:0.66129416227340698] [-0.75988513231277466:0.43532118201255798] [-0.62080353498458862:0.9048607349395752] [-0.69382774829864502:0.69534796476364136] [-0.70681965351104736:0.37498584389686584] [-0.74936842918395996:0.2552255392074585] [-1.1259490251541138:0.427257239818573] [-0.11689528822898865:0.78292173147201538] [-0.58488494157791138:0.62801444530487061] [-0.42013522982597351:0.63501858711242676] [-0.48391351103782654:0.55301380157470703] [-0.53501886129379272:0.57347953319549561] [-0.44271492958068848:0.7020987868309021] [-0.39960461854934692:0.67730975151062012] [0.15403679013252258:1.3990778923034668] [-0.82429397106170654:0.58925831317901611] [-0.60651445388793945:0.70314925909042358] [-0.1415303647518158:1.0924729108810425] [-0.38761958479881287:0.64925789833068848] [-0.33438202738761902:0.77203887701034546] [-0.27621397376060486:0.81972974538803101] [-0.46764811873435974:0.65542280673980713] [-0.63538879156112671:0.43880823254585266] [-0.63510710000991821:0.44700860977172852] [-0.98861038684844971:0.53745287656784058] [-0.52745991945266724:0.4393591582775116] [-0.5423358678817749:0.47120550274848938] [-0.71888399124145508:0.37093749642372131] [-1.0496410131454468:0.19950275123119354] [-0.48050984740257263:0.68239367008209229] [-0.49362039566040039:0.58244454860687256] [-0.49803438782691956:0.58956283330917358] [-0.62176549434661865:0.37918320298194885] [-1.0381823778152466:0.10652759671211243] [-0.53721499443054199:0.52997738122940063] [-0.82753676176071167:0.22212199866771698] [-0.71866565942764282:0.43359473347663879] [-0.79535865783691406:0.89007067680358887] [-0.19924922287464142:0.96370172500610352] [-0.45992249250411987:0.69765067100524902] [-0.26444453001022339:0.86650526523590088] [-0.39981693029403687:0.89537912607192993] [-0.62721163034439087:0.31066018342971802] [-0.36988642811775208:0.85452264547348022] [-0.48958265781402588:0.51846790313720703] [-0.094070121645927429:0.93341237306594849] [-0.33011215925216675:0.53868478536605835] [-0.42655289173126221:0.4909949004650116] [-0.54429721832275391:0.65063464641571045] [-0.059263363480567932:0.87089532613754272] [-0.99903023242950439:0.51705330610275269] [-0.76394438743591309:0.46956723928451538] [-0.50127136707305908:0.65864080190658569] [-0.81208550930023193:0.28936305642127991] [-0.49778145551681519:0.83816498517990112] [-0.60568982362747192:0.50242626667022705] [-0.57005834579467773:0.64378595352172852] [-0.51694285869598389:0.47602760791778564] [-0.61372631788253784:0.40953126549720764] [-0.89695572853088379:0.38896480202674866] [-0.51882761716842651:0.50723749399185181] [-0.5440375804901123:0.67245864868164062] [-2.055056095123291:-0.75776737928390503] [-0.20441533625125885:0.96995729207992554] [-0.65830373764038086:0.51500034332275391] [-0.46937790513038635:0.58116018772125244] [-0.49644047021865845:0.61355865001678467] [-0.63884615898132324:0.44405421614646912] [-0.81026458740234375:0.31981945037841797] [-0.087499931454658508:1.1187938451766968] [-0.45775723457336426:0.69069266319274902] [-0.40957799553871155:0.49576172232627869] [-0.59677731990814209:0.52616578340530396] [-0.73758947849273682:0.38725343346595764] [-0.50884675979614258:0.45702487230300903] [-0.45050615072250366:0.80587542057037354] [-0.49952340126037598:0.50228309631347656] [-0.65496069192886353:0.41388455033302307] [-0.53643691539764404:0.56590425968170166] [-0.66929298639297485:0.54794573783874512] [-0.47752031683921814:0.44297009706497192] [-0.5184599757194519:0.60137808322906494] [-0.76912271976470947:0.29168403148651123] [-0.19700045883655548:1.020843505859375] [-0.31584799289703369:0.80784392356872559] [-0.66485732793807983:0.60093832015991211] [-0.58302438259124756:0.41220062971115112] [-0.64554286003112793:0.36409008502960205] [-0.47243818640708923:0.65108633041381836] [-0.33265548944473267:1.0330312252044678] [-0.46107757091522217:0.60095053911209106] [-0.38702994585037231:0.91050946712493896] [-0.59323304891586304:0.50686782598495483] [-0.97814309597015381:0.23710203170776367] [-1.2482883930206299:0.046295028179883957] [-0.6804928183555603:0.44136601686477661] [-0.18385332822799683:1.1112598180770874] [-0.4254869818687439:0.84609830379486084] [-0.36997732520103455:0.61067813634872437] [-0.66746681928634644:0.57314479351043701] [-0.35997745394706726:0.78862470388412476] [-0.43173879384994507:0.6840319037437439] [-0.83887863159179688:0.71228277683258057] [-0.18144175410270691:0.74660038948059082] [-0.42644667625427246:0.75298589468002319] [-0.49495911598205566:0.38486912846565247] [-0.115717813372612:0.91179180145263672] [-0.41125023365020752:0.7458534836769104] [-0.87292653322219849:0.25364494323730469] [-0.35115247964859009:0.72632443904876709] [-0.47824260592460632:0.5095970630645752] [-0.76850378513336182:0.41229423880577087] [-0.66163551807403564:0.45383569598197937] [-0.81192386150360107:0.49788889288902283] [-0.50794351100921631:0.5566098690032959] [-0.77259957790374756:0.2842286229133606] [-0.44672778248786926:0.54409998655319214] [-0.44941523671150208:0.45025432109832764] [-0.80284339189529419:0.72020870447158813] [-0.35855630040168762:0.7887728214263916] [-0.81369537115097046:0.52796661853790283] [-0.59760570526123047:0.34243807196617126] [-0.4661765992641449:0.82904595136642456] [-0.61881709098815918:0.24137690663337708] [-0.85369068384170532:0.45673254132270813] [-0.66260743141174316:0.77112102508544922] [-0.73339486122131348:0.43069574236869812] [-1.1867928504943848:0.015058755874633789] [-1.0801677703857422:0.33260148763656616] [-0.56457400321960449:0.55671340227127075] [-0.6817278265953064:0.56277334690093994] [-0.53696435689926147:0.62167418003082275] [-0.32427123188972473:0.83689135313034058] [-0.54925072193145752:0.55252301692962646] [-0.57730120420455933:0.4870879054069519] [-0.44728630781173706:0.85849523544311523] [-0.81479513645172119:0.26684635877609253] [-0.65686160326004028:0.77166128158569336] [-0.39724820852279663:0.76477724313735962] [-0.45493301749229431:0.57207036018371582] [-0.7259448766708374:0.60909700393676758] [-0.84046614170074463:0.38035711646080017] [-0.50401139259338379:0.58451050519943237] [-1.1252009868621826:0.28803923726081848] [-0.74099910259246826:0.39713200926780701] [-0.19358687102794647:1.0048680305480957] [-0.72757357358932495:0.40622320771217346] [-0.32353776693344116:0.89217031002044678] [-0.58312726020812988:0.47422689199447632] [-0.52006340026855469:0.62814229726791382] [-0.50157630443572998:0.58346098661422729] [-0.42012584209442139:0.74881702661514282] [-0.88363665342330933:0.19536679983139038] [-0.83540534973144531:0.46127700805664062] [-0.63146328926086426:0.57025212049484253] [-0.57095140218734741:0.6039130687713623] [-0.6478726863861084:0.6555105447769165] [-0.69266039133071899:0.56316715478897095] [-0.54362213611602783:0.55989736318588257] [-0.43409132957458496:0.49363583326339722] [-0.69069671630859375:0.39563536643981934] [-0.53241962194442749:0.58880400657653809] [-0.54905253648757935:0.51464027166366577] [-0.30845710635185242:0.7819218635559082] [-0.29634812474250793:0.81170535087585449] [-0.39065715670585632:0.70079070329666138] [-0.47820216417312622:0.62824618816375732] [-0.43343102931976318:0.86509644985198975] [-0.28760361671447754:0.76416456699371338] [-0.61780095100402832:0.51238644123077393] [-0.84456968307495117:0.3221886157989502] [-0.55393499135971069:0.66794449090957642] [-0.50441676378250122:0.68134528398513794] [-0.72784370183944702:0.53142064809799194] [-0.84670424461364746:0.38416227698326111] [-0.36567220091819763:0.67458200454711914] [-0.52735590934753418:0.76881122589111328] [-0.86871528625488281:0.28598704934120178] [-0.7242577075958252:0.3940691351890564] [-0.62863796949386597:0.39242765307426453] [0.56051343679428101:2.4641931056976318] [-0.17792050540447235:1.023813009262085] [-0.36191999912261963:0.68074184656143188] [-0.40648680925369263:0.40923291444778442] [-0.33813157677650452:0.85185897350311279] [-0.46906238794326782:0.49033838510513306] [-0.67824810743331909:0.42948362231254578] [-0.320995032787323:0.89504951238632202] [-0.85372596979141235:0.22583924233913422] [-0.51118415594100952:0.81900930404663086] [-0.54967343807220459:0.66248643398284912] [-0.53679287433624268:0.61620205640792847] [-0.62198460102081299:0.41923800110816956] [-0.46362826228141785:0.81052392721176147] [-0.21032360196113586:1.0576351881027222] [-0.11268554627895355:0.91567862033843994] [-0.65692764520645142:0.65769690275192261] [-0.93360406160354614:0.31082829833030701] [-1.0507497787475586:0.15084335207939148] [-0.44355645775794983:0.63499420881271362] [-1.0250968933105469:-0.019688617438077927] [-0.34322065114974976:1.016593337059021] [-0.29819318652153015:0.84315448999404907] [-0.53122514486312866:0.48246484994888306] [-0.61645025014877319:0.45705914497375488] [-0.52810835838317871:0.55893445014953613] [-0.46307706832885742:0.56708574295043945] [-0.69004523754119873:0.36403724551200867] [-0.47005879878997803:0.70436191558837891] [-0.4245581328868866:0.89779824018478394] [-0.7517731785774231:0.56140828132629395] [-0.38143467903137207:0.53625941276550293] [-0.48621290922164917:0.8162916898727417] [-0.2668299674987793:1.1220358610153198] [-0.81495809555053711:0.3323822021484375] [-0.67133384943008423:0.65102642774581909] [-0.53480613231658936:0.5059235692024231] [-0.7109561562538147:0.36409479379653931] [-0.73138320446014404:0.34230959415435791] [-0.35243216156959534:0.76952344179153442] [-0.38705655932426453:0.70396846532821655] [-0.77044802904129028:0.34961399435997009] [-0.016085358336567879:1.1450896263122559] [-0.57686972618103027:0.39301970601081848] [-0.40218481421470642:0.72708898782730103] [-0.066822320222854614:1.1122212409973145] [-0.73368912935256958:0.37264499068260193] [-0.81766575574874878:0.19120895862579346] [-0.25724834203720093:0.85945117473602295] [-0.29729694128036499:0.9615967869758606] [-0.60309791564941406:0.50471705198287964] [-0.74927181005477905:0.49496686458587646] [-0.88367611169815063:0.30332770943641663] [-0.56042331457138062:0.77634119987487793] [-0.61311572790145874:0.39072701334953308] [-0.5586322546005249:0.46938309073448181] [-0.58108311891555786:0.57273989915847778] [-0.65136635303497314:0.35366532206535339] [-0.51253378391265869:0.7035973072052002] [-0.37587064504623413:0.73221194744110107] [-0.43224278092384338:0.69799494743347168] [-0.33348789811134338:0.79236769676208496] [-0.41083884239196777:0.77514815330505371] [-0.48367679119110107:0.40524190664291382] [-0.35692831873893738:0.79224741458892822] [-0.43959659337997437:0.86541080474853516] [-1.10725998878479:0.17559172213077545] [-0.39996731281280518:0.81713604927062988] [-0.36421400308609009:0.88645857572555542] [-0.54632830619812012:0.75561761856079102] [-0.40298551321029663:0.614482581615448] [-0.37638759613037109:1.1190272569656372] [-0.25654458999633789:0.73079460859298706] [-0.48385918140411377:0.64404129981994629] [-0.26713895797729492:0.81194663047790527] [-0.61929500102996826:0.52897137403488159] [-0.28982466459274292:0.91962742805480957] [-0.45092934370040894:0.73643410205841064] [-0.60900753736495972:0.43916088342666626] [-3.4010787010192871:-0.79582178592681885] [-0.42766669392585754:0.72869282960891724] [-0.39149767160415649:0.61193394660949707] [-0.4843776524066925:0.85243839025497437] [-0.72459083795547485:0.36012676358222961] [-0.33780714869499207:1.1485201120376587] [-0.50617760419845581:0.76153373718261719] [-0.72663766145706177:0.55331343412399292] [-0.50194764137268066:0.61793482303619385] [-0.80900615453720093:0.26639372110366821] [-0.3894144594669342:0.67493653297424316] [-0.28431746363639832:0.87413305044174194] [-0.39146861433982849:0.84919440746307373] [-0.45998167991638184:0.40309521555900574] [-0.44815778732299805:0.59923034906387329] [-0.58001220226287842:0.55970233678817749] [-0.41074907779693604:0.72302991151809692] [-0.75697159767150879:0.58402442932128906] [-0.83290606737136841:0.32065299153327942] [-0.79091578722000122:0.2903590202331543] [-0.56555438041687012:0.54250037670135498] [-0.3849523663520813:0.73381519317626953] [-0.59494960308074951:0.60082089900970459] [-0.94263732433319092:0.17216527462005615] [-1.0416138172149658:0.17795407772064209] [-0.4534003734588623:0.85580766201019287] [-0.66573196649551392:0.52099812030792236] [-0.72230702638626099:0.28135839104652405] [-0.36802524328231812:0.69204193353652954] [-0.47932511568069458:0.69585144519805908] [-0.78255969285964966:0.30437877774238586] [-0.38901448249816895:0.7099873423576355] [-0.45272299647331238:0.5333365797996521] [-0.44017687439918518:0.60169970989227295] [-0.49080008268356323:0.65256339311599731] [-0.73943227529525757:0.32201206684112549] [-0.65064066648483276:0.7284967303276062] [-0.52526724338531494:0.50885260105133057] [-0.61656016111373901:0.79605221748352051] [-0.5737488865852356:0.70405793190002441] [-0.87131237983703613:0.33440995216369629] [-0.062170989811420441:1.1849597692489624] [-0.56976443529129028:0.57544195652008057] [-0.48330068588256836:0.55013477802276611] [-0.66073179244995117:0.43229395151138306] [-0.40239244699478149:0.61686426401138306] [-0.29846084117889404:0.66787964105606079] [-0.73098617792129517:0.20648850500583649] [-0.11071600764989853:1.1294307708740234] [-0.79345023632049561:0.24998307228088379] [-0.65157705545425415:0.52770090103149414] [-0.54580402374267578:0.59731924533843994] [-0.32632172107696533:0.95499175786972046] [-1.6603773832321167:0.42227521538734436] [-0.28189149498939514:0.72311943769454956] [-0.28395244479179382:0.64178293943405151] [-0.5243193507194519:0.67172020673751831] [-0.44453567266464233:1.0911490917205811] [-0.41749176383018494:0.61708247661590576] [-0.84650874137878418:0.17776444554328918] [-0.61495876312255859:0.57665520906448364] [-0.5812644362449646:0.63659060001373291] [-0.69343143701553345:0.6709783673286438] [-0.47865197062492371:0.73683416843414307] [-0.32335594296455383:0.80704271793365479] [-0.84144431352615356:0.32718268036842346] [-0.84267187118530273:0.28641423583030701] [-0.6225123405456543:0.49076229333877563] [-0.48571944236755371:0.57091981172561646] [-0.67620861530303955:0.53945177793502808] [-0.61418938636779785:0.42038553953170776] [-0.65831142663955688:0.44992232322692871] [-0.52427524328231812:0.79397273063659668] [-0.45765393972396851:0.66626924276351929] [-0.49814033508300781:0.48239618539810181] [-0.62345057725906372:0.46296873688697815] [-0.41365784406661987:0.92352920770645142] [-0.41936254501342773:0.82555437088012695] [-0.49478763341903687:1.0355148315429688] [-0.40279367566108704:0.98102986812591553] [-0.53419721126556396:0.48805069923400879] [-0.79485523700714111:0.40671241283416748] [-0.72115409374237061:0.47168427705764771] [-0.6028100848197937:0.49757954478263855] [-0.21966128051280975:0.74210506677627563] [-8.900059700012207:-2.6617381572723389] [-1.0078452825546265:0.19870805740356445] [-0.97517132759094238:0.27832669019699097] [-0.68122929334640503:0.64995789527893066] [-0.78267258405685425:0.39994728565216064] [-1.0695629119873047:0.24535635113716125] [-0.35967490077018738:0.67518573999404907] [-0.64409691095352173:0.30672544240951538] [-0.44700324535369873:0.89729040861129761] [-0.94103050231933594:0.37712463736534119] [-0.26767203211784363:0.72210925817489624] [-0.71266567707061768:0.3720659613609314] [-0.56106692552566528:0.41025432944297791] [-0.76708972454071045:0.306100994348526] [-0.35061195492744446:0.77078670263290405] [-0.34963288903236389:0.77493125200271606]
tree_sizes=828 770 745 776 817 768 785 806 815 769 793 754 815 784 771 785 772 808 770 798 765 776 795 751 776 791 768 771 777 788 794 779 801 785 780 756 779 777 792 818 779 819 753 781 801 775 817 774 776 771 772 753 769 777 750 794 772 793 769 798 766 751 797 792 750 797 753 783 797 774 801 748 775 779 798 771 794 769 798 769 776 788 795 763 780 760 798 792 755 767 767 753 775 770 778 775 769 776 779 795 797 790 786 822 757 776 777 770 775 799 756 752 778 776 759 770 757 774 775 772 767 753 755 795 774 760 772 754 759 772 796 794 805 780 753 748 757 779 780 805 776 753 777 773 753 787 775 766 776 776 775 755

Tree=0
num_leaves=8
num_cat=0
split_feature=58 220 420 505 112 242 609
split_gain=2.71719 1.74907 1.00732 0.973015 0.721407 0.591013 0.502074
threshold=0.042356543242931373 0.091677039861679091 0.081151228398084654 0.083120666444301619 -0.0018286053091287611 0.19768105447292331 0.15536037832498553
decision_type=2 2 2 2 2 2 2
left_child=2 3 6 -2 5 -5 -1
right_child=1 -3 -4 4 -6 -7 -8
leaf_value=3.0624478173241703 3.0624478173241703 3.0624478173241703 3.0624478173241703 3.0624478173241703 3.0624478173241703 3.0524051438201796 3.0678570889209045
leaf_weight=214 190 1253 880 101 148 561 894
leaf_count=214 190 1253 880 101 148 561 894
internal_value=3.06245 3.05976 3.06481 3.05664 3.05512 3.0537 3.06682
internal_weight=0 2253 1988 1000 810 662 1108
internal_count=4241 2253 1988 1000 810 662 1108
is_linear=0
shrinkage=1


Tree=1
num_leaves=8
num_cat=0
split_feature=639 661 107 231 157 58 327
split_gain=2.20287 1.34918 0.968739 0.853123 0.838238 0.608102 0.488104
threshold=-0.14297138154506681 0.069652106612920775 -0.15245591849088666 -0.024697523564100262 -0.0012188218533992765 0.11157992482185365 0.075004447251558318
decision_type=2 2 2 2 2 2 2
left_child=1 4 3 5 -1 6 -2
right_child=2 -3 -4 -5 -6 -7 -8
leaf_value=-0.0093193746787123121 0 0 -0.00017560947580843342 0 0 0 0.007153731548748184
leaf_weight=435 132 618 1299 561 205 256 689
leaf_count=435 132 618 1299 561 205 256 689
internal_value=0 -0.003556 0.0014436 0.00310262 -0.00677756 0.0047499 0.00608301
internal_weight=0 1258 2937 1638 640 1077 821
internal_count=4195 1258 2937 1638 640 1077 821
is_linear=0
shrinkage=0.1


Tree=2
num_leaves=8
num_cat=0
split_feature=58 103 466 313 94 503 156
split_gain=1.96741 1.44601 0.898294 0.838191 0.767906 0.5897 0.430483
threshold=0.0582980364561081 -0.19832498580217359 -0.091946359723806367 -0.24594199657440183 0.13751273602247241 0.086647763848304762 0.059484530240297324
decision_type=2 2 2 2 2 2 2
left_child=2 -2 -1 -3 -4 6 -6
right_child=1 3 4 -5 5 -7 -8
leaf_value=0 0 0 0 -0.0071311552647590247 0.0068174291451300901 0 0
leaf_weight=955 1132 176 277 696 732 137 136
leaf_count=955 1132 176 277 696 732 137 136
internal_value=0 -0.0025028 0.00178888 -0.00556576 0.00354834 0.00486843 0.00585116
internal_weight=0 2004 2237 872 1282 1005 868
internal_count=4241 2004 2237 872 1282 1005 868
is_linear=0
shrinkage=0.1


Tree=3
num_leaves=8
num_cat=0
split_feature=639 220 45 339 691 310 677
split_gain=1.63131 1.39627 0.835249 0.593865 0.540693 0.589354 0.461968
threshold=-0.080656051635742174 0.096184376627206816 -0.10248008742928504 -0.027074642479419705 -0.23298556357622144 -0.18326850235462186 0.011199012864381077
decision_type=2 2 2 2 2 2 2
left_child=1 3 6 4 5 -1 -2
right_child=2 -3 -4 -5 -6 -7 -8
leaf_value=0 0 5.5544906126872261e-05 0 0 0 -0.0089611253553541544 0.0049818372961009834
leaf_weight=140 121 1134 1201 158 101 464 941
leaf_count=140 121 1134 1201 158 101 464 941
internal_value=0 -0.00174249 0.00214197 -0.00481671 -0.00606824 -0.00720641 0.00420014
internal_weight=0 1997 2263 863 705 604 1062
internal_count=4260 1997 2263 863 705 604 1062
is_linear=0
shrinkage=0.1


Tree=4
num_leaves=8
num_cat=0
split_feature=294 85 691 173 293 156 484
split_gain=1.77061 0.990112 0.74261 0.560885 0.617758 0.55874 0.522121
threshold=0.25882022082805639 0.20743826031684878 -0.35347986221313471 0.017858339473605159 0.082695975899696364 -0.095251914113759981 0.062097121030092246
decision_type=2 2 2 2 2 2 2
left_child=1 3 -2 4 -1 -4 -6
right_child=2 -3 5 -5 6 -7 -8
leaf_value=-0.00082609070500249218 0 0.00056693950629678296 0.0065462943656308869 0 -0.0085202407074446689 5.2243453412931049e-05 0
leaf_weight=756 440 1143 623 178 415 430 188
leaf_count=756 440 1143 623 178 415 430 188
internal_value=0 -0.00123731 0.00302772 -0.00297861 -0.00376315 0.00447769 -0.00642681
internal_weight=0 2680 1493 1537 1359 1053 603
internal_count=4173 2680 1493 1537 1359 1053 603
is_linear=0
shrinkage=0.1


Tree=5
num_leaves=8
num_cat=0
split_feature=677 97 670 662 298 759 216
split_gain=1.66006 0.989347 0.734889 0.678952 0.586496 0.578037 0.465691
threshold=0.11144462600350381 0.065471682697534575 0.11681832745671274 0.13672028481960299 -0.063935723155736909 -0.21440611779689786 0.1189757212996483
decision_type=2 2 2 2 2 2 2
left_child=2 3 4 -2 -1 -6 -5
right_child=1 -3 -4 6 5 -7 -8
leaf_value=0 0 -0.00057818067665488953 0 0 0 -0.0086591899688620317 0.0056985614096945357
leaf_weight=232 636 954 877 227 135 396 829
leaf_count=232 636 954 877 227 135 396 829
internal_value=0 0.00149329 -0.0025543 0.00302421 -0.00486361 -0.00671073 0.00459166
internal_weight=0 2646 1640 1692 763 531 1056
internal_count=4286 2646 1640 1692 763 531 1056
is_linear=0
shrinkage=0.1


Tree=6
num_leaves=8
num_cat=0
split_feature=348 313 544 348 571 213 415
split_gain=1.46538 0.954685 0.767106 0.734888 0.706812 0.446599 0.787256
threshold=-0.23470758646726606 -0.19588685035705564 -0.23965843021869657 -0.17095145583152768 0.13107771426439288 -0.051900615915656083 0.32172244787216192
decision_type=2 2 2 2 2 2 2
left_child=2 3 -1 -2 -4 -3 -7
right_child=1 5 4 -5 -6 6 -8
leaf_value=0 0 0.00091221485650016588 0 0.0053040641404372138 -0.0071898207842492502 0 -0.0065392306614051043
leaf_weight=719 315 1260 197 778 472 264 264
leaf_count=719 315 1260 197 778 472 264 264
internal_value=0 0.00131639 -0.00263828 0.00364718 -0.0050899 0 -0.00254405
internal_weight=0 2881 1388 1093 669 1788 528
internal_count=4269 2881 1388 1093 669 1788 528
is_linear=0
shrinkage=0.1


Tree=7
num_leaves=8
num_cat=0
split_feature=157 58 392 59 102 348 71
split_gain=1.4886 0.766935 0.689817 0.586454 0.490858 0.448669 0.5974
threshold=-0.11914181709289549 -0.052869452163577073 -0.10994266718626021 -0.051660988479852669 0.083223029971122756 -0.18034445494413373 -0.0030700089409947391
decision_type=2 2 2 2 2 2 2
left_child=2 3 -1 -2 -4 -3 -7
right_child=1 5 4 -5 -6 6 -8
leaf_value=0 0 -0.001123182686516654 0 0.0061190160726643543 -0.0075800518870699097 0.0027563937963762594 -0.0014270460716999745
leaf_weight=470 163 1278 125 439 414 1089 282
leaf_count=470 163 1278 125 439 414 1089 282
internal_value=0 0.000945151 -0.00344597 0.00419086 -0.00591831 0 0.00144794
internal_weight=0 3251 1009 602 539 2649 1371
internal_count=4260 3251 1009 602 539 2649 1371
is_linear=0
shrinkage=0.1


Tree=8
num_leaves=8
num_cat=0
split_feature=639 348 677 554 58 40 112
split_gain=1.35483 1.00932 0.678053 0.611101 0.570088 0.608117 0.475494
threshold=-0.13453704118728635 -0.12629351019859311 0.073865927755832686 -0.064594421535730348 -0.059263216331601136 0.023411890491843227 -0.028999470174312588
decision_type=2 2 2 2 2 2 2
left_child=1 4 -2 -4 -1 6 -6
right_child=2 -3 3 -5 5 -7 -8
leaf_value=0 -0.00052243860390492126 0.00048966048892189586 0.0045559343925231088 0.00040418077229413871 -0.008218737132736088 0 0
leaf_weight=104 775 417 883 1244 507 191 112
leaf_count=104 775 417 883 1244 507 191 112
internal_value=0 -0.00240803 0.00142001 0.0024165 -0.00440196 -0.00537615 -0.00690253
internal_weight=0 1331 2902 2127 914 810 619
internal_count=4233 1331 2902 2127 914 810 619
is_linear=0
shrinkage=0.1


Tree=9
num_leaves=8
num_cat=0
split_feature=85 158 253 484 505 137 101
split_gain=1.74146 1.06232 0.74749 0.95624 0.736175 0.628533 0.483918
threshold=0.18968814611434939 0.14226113259792331 -0.16319262236356732 0.074575752019882216 0.08026748895645143 -0.055048253387212746 0.064623206853866591
decision_type=2 2 2 2 2 2 2
left_child=1 -1 3 4 -3 6 -2
right_child=5 2 -4 -5 -6 -7 -8
leaf_value=0.0011676095819113743 0.0046466285976939888 0 0 0 -0.0082238922674666062 0 0
leaf_weight=523 906 155 572 372 640 635 398
leaf_count=523 906 155 572 372 640 635 398
internal_value=0 -0.00199213 -0.00329558 -0.00475281 -0.00672211 0.00208601 0.00336012
internal_weight=0 2262 1739 1167 795 1939 1304
internal_count=4201 2262 1739 1167 795 1939 1304
is_linear=0
shrinkage=0.1


Tree=10
num_leaves=8
num_cat=0
split_feature=58 12 493 662 556 18 677
split_gain=0.894335 0.6724 0.851231 0.650792 0.523258 0.418723 0.396371
threshold=0.044018672779202468 -0.01757249794900417 -0.13041570037603376 0.13672028481960299 -0.037192761898040765 0.05335399508476258 0.056251492351293571
decision_type=2 2 2 2 2 2 2
left_child=3 2 -2 -1 -4 -5 -7
right_child=1 -3 4 5 -6 6 -8
leaf_value=0 0 0.00074481184832544619 -0.00021234617222304071 0 -0.0064819813666531396 0 0.0047605795249566207
leaf_weight=873 584 587 462 153 587 152 841
leaf_count=873 584 587 462 153 587 152 841
internal_value=0 -0.00143036 -0.00258833 0.00147646 -0.00430623 0.00308533 0.00389905
internal_weight=0 2220 1633 2019 1049 1146 993
internal_count=4239 2220 1633 2019 1049 1146 993
is_linear=0
shrinkage=0.1


Tree=11
num_leaves=8
num_cat=0
split_feature=157 484 515 318 723 554 203
split_gain=1.20611 1.07533 0.735326 0.649088 0.572585 0.476356 0.443967
threshold=-0.068489208817481981 -0.0010173767805099485 0.17889928817749026 0.060672145336866386 0.046878822147846229 -0.10378605872392653 0.23309396952390674
decision_type=2 2 2 2 2 2 2
left_child=1 3 -2 -1 -4 -5 -6
right_child=2 -3 4 5 6 -7 -8
leaf_value=0 0 0 0 0 0.0055516271854042683 -0.0087542343450759206 0
leaf_weight=119 1523 1006 241 140 699 392 146
leaf_count=119 1523 1006 241 140 699 392 146
internal_value=0 -0.00220214 0.00124214 -0.0053722 0.00323689 -0.00689321 0.00449907
internal_weight=0 1657 2609 651 1086 532 845
internal_count=4266 1657 2609 651 1086 532 845
is_linear=0
shrinkage=0.1


Tree=12
num_leaves=8
num_cat=0
split_feature=639 5 721 87 551 671 313
split_gain=1.04779 0.606385 0.463017 0.441898 0.439987 0.639518 0.398872
threshold=-0.24126096069812772 -0.14198366552591321 0.28349986672401434 -0.079928107559680925 -0.4810068011283874 -0.089307356625795351 -0.21909631043672559
decision_type=2 2 2 2 2 2 2
left_child=4 3 6 -2 -1 -6 -3
right_child=1 2 -4 -5 5 -7 -8
leaf_value=0 0.0040750631292108888 0.0027459663844353233 -0.0023435814220643353 0 0 -0.0096437669900982948 -0.00012820651192388562
leaf_weight=170 644 558 820 215 127 226 1555
leaf_count=170 644 558 820 215 127 226 1555
internal_value=0 0.000295057 -0.000200763 0.0027029 -0.00442165 -0.00643655 0.000340175
internal_weight=0 3792 2933 859 523 353 2113
internal_count=4315 3792 2933 859 523 353 2113
is_linear=0
shrinkage=0.1


Tree=13
num_leaves=8
num_cat=0
split_feature=131 710 541 705 661 174 235
split_gain=1.01128 0.638577 0.596289 0.570116 0.723141 0.459148 0.387517
threshold=0.26839238405227667 0.010174194350838663 0.02720986865460873 0.021342489868402485 0.12268543243408205 0.12793841958045962 -0.054769743233919137
decision_type=2 2 2 2 2 2 2
left_child=-1 2 3 4 -2 -3 -7
right_child=1 5 -4 -5 -6 6 -8
leaf_value=0.002286731811361682 -0.0093317439054254915 -0.0026812258698388478 0 0 0 0 0.0030412292330219848
leaf_weight=1553 314 371 428 150 158 694 627
leaf_count=1553 314 371 428 150 158 694 627
internal_value=0 -0.000867674 -0.00283682 -0.00481365 -0.00652784 0 0.0012069
internal_weight=0 2742 1050 622 472 1692 1321
internal_count=4295 2742 1050 622 472 1692 1321
is_linear=0
shrinkage=0.1


Tree=14
num_leaves=8
num_cat=0
split_feature=131 173 85 119 35 134 7
split_gain=0.670617 0.593233 0.641657 0.67653 0.434285 0.349916 0.334186
threshold=0.26588761806488043 0.017858339473605159 0.18968814611434939 0.032026657834649093 -0.18901892751455304 -0.17779392004013059 0.20323983579874041
decision_type=2 2 2 2 2 2 2
left_child=-1 2 3 4 -2 -6 -3
right_child=1 6 -4 -5 5 -7 -8
leaf_value=0.0017629838999215976 0 0 0 0 0 -0.0067859605533659613 0.0045469873736294335
leaf_weight=1483 101 139 1073 360 185 593 246
leaf_count=1483 101 139 1073 360 185 593 246
internal_value=0 -0.000881724 -0.00164868 -0.00320169 -0.00470588 -0.00553191 0.00212871
internal_weight=0 2697 2312 1239 879 778 385
internal_count=4180 2697 2312 1239 879 778 385
is_linear=0
shrinkage=0.1


Tree=15
num_leaves=8
num_cat=0
split_feature=537 710 631 751 578 235 318
split_gain=0.696102 0.607556 0.394136 0.40345 0.37873 0.330934 0.301044
threshold=-0.048546470701694482 0.011421206407248976 0.038917286321520812 0.2710579931735993 -0.15628774464130399 -0.055888377130031579 0.053378231823444373
decision_type=2 2 2 2 2 2 2
left_child=2 6 3 4 -1 -3 -2
right_child=1 5 -4 -5 -6 -7 -8
leaf_value=0.0053418544692811522 0 -0.0012353199822393308 0 0 0 0.0014309016335295448 -0.0039715004988261499
leaf_weight=539 230 1012 478 215 155 862 789
leaf_count=539 230 1012 478 215 155 862 789
internal_value=0 -0.00107755 0.00161509 0.00288375 0.00408723 0 -0.00304279
internal_weight=0 2893 1387 909 694 1874 1019
internal_count=4280 2893 1387 909 694 1874 1019
is_linear=0
shrinkage=0.1


Tree=16
num_leaves=8
num_cat=0
split_feature=705 484 293 55 670 642 716
split_gain=0.771085 0.776493 0.786329 0.392017 0.398361 0.411465 0.36726
threshold=-0.054552182555198662 -0.057891208678483956 0.055471427738666541 0.14614954590797427 0.085822381079196944 -0.1945901811122894 -0.32299076020717615
decision_type=2 2 2 2 2 2 2
left_child=1 2 -1 -2 -5 -6 -7
right_child=3 -3 -4 4 5 6 -8
leaf_value=0 -0.001053398256607396 0 -0.0082769502403908877 0 0 0 0.0051608566123766512
leaf_weight=256 229 1611 281 675 184 206 733
leaf_count=256 229 1611 281 675 184 206 733
internal_value=0 -0.00129891 -0.00460518 0.00141991 0.0020765 0.00323276 0.00410857
internal_weight=0 2148 537 2027 1798 1123 939
internal_count=4175 2148 537 2027 1798 1123 939
is_linear=0
shrinkage=0.1


Tree=17
num_leaves=8
num_cat=0
split_feature=677 462 520 407 266 742 367
split_gain=0.514185 0.442027 0.433528 0.421773 0.343898 0.371269 0.330372
threshold=0.083026193082332625 0.21289081871509555 -0.15018665045499799 -0.16811516135931012 0.043045021593570716 0.042198533192276962 0.0078661479055881518
decision_type=2 2 2 2 2 2 2
left_child=6 2 -2 -4 5 -3 -1
right_child=1 4 3 -5 -6 -7 -8
leaf_value=-0.0033300723327648607 -0.0029826523509257716 0.0053506246971386949 0.0024252190437158306 -0.00046901002900435373 0 0 0
leaf_weight=682 451 435 737 935 399 130 540
leaf_count=682 451 435 737 935 399 130 540
internal_value=0 0.000534646 0 0.000439442 0.00234533 0.00393336 -0.00186698
internal_weight=0 3087 2123 1672 964 565 1222
internal_count=4309 3087 2123 1672 964 565 1222
is_linear=0
shrinkage=0.1


Tree=18
num_leaves=8
num_cat=0
split_feature=507 485 409 195 678 706 189
split_gain=0.761892 0.876405 0.519045 0.412361 0.331165 0.366436 0.274323
threshold=0.13589240610599521 -0.079325549304485307 -0.18087534606456754 0.041314233094453819 0.27599307894706732 0.12644271552562716 0.072831451892852797
decision_type=2 2 2 2 2 2 2
left_child=2 3 -1 -2 5 6 -4
right_child=1 -3 4 -5 -6 -7 -8
leaf_value=-0.00057988687390280597 -0.009296378535082455 0 0 0 0 0 0.005379579488874694
leaf_weight=1821 233 410 107 136 707 358 509
leaf_count=1821 233 410 107 136 707 358 509
internal_value=0 -0.00305083 0.000351924 -0.00658772 0.00172668 0.00292326 0.00441135
internal_weight=0 779 3502 369 1681 974 616
internal_count=4281 779 3502 369 1681 974 616
is_linear=0
shrinkage=0.1


Tree=19
num_leaves=8
num_cat=0
split_feature=309 481 203 544 195 662 201
split_gain=0.713763 0.829457 0.524601 0.569634 0.640571 0.508129 0.466892
threshold=-0.077705260366201387 -0.20136294513940808 0.086047776043415083 -0.22529512643814084 0.090366661548614516 0.12650481611490252 0.0014526052400469782
decision_type=2 2 2 2 2 2 2
left_child=5 -2 -3 -4 -5 -1 -7
right_child=1 2 3 4 -6 6 -8
leaf_value=0 0.001003687063163694 0 -0.00064855798484875346 -0.00864716873586459 0 0.0075244155250680459 0
leaf_weight=395 1280 1024 728 346 121 266 125
leaf_count=395 1280 1024 728 346 121 266 125
internal_value=0 -0.000722488 -0.00199497 -0.00343222 -0.00645636 0.00259943 0.00515535
internal_weight=0 3499 2219 1195 467 786 391
internal_count=4285 3499 2219 1195 467 786 391
is_linear=0
shrinkage=0.1


Tree=20
num_leaves=8
num_cat=0
split_feature=463 670 662 29 140 44 71
split_gain=0.632598 0.607011 0.525192 0.484237 0.366137 0.399326 0.288459
threshold=0.094073526561260237 0.13417042046785357 0.14824886620044711 0.11503761261701585 -0.30941724777221674 0.14527960866689685 -0.10205904766917227
decision_type=2 2 2 2 2 2 2
left_child=2 6 -1 4 -4 -6 -2
right_child=1 -3 3 -5 5 -7 -8
leaf_value=-0.0006570188217516821 0 0 0 0 0.0059308636926386927 0 -0.0074361298618482955
leaf_weight=1438 148 455 547 727 511 139 261
leaf_count=1438 148 455 547 727 511 139 261
internal_value=0 -0.00251815 0.000501971 0.0016874 0.00293632 0.0046379 -0.0053137
internal_weight=0 864 3362 1924 1197 650 409
internal_count=4226 864 3362 1924 1197 650 409
is_linear=0
shrinkage=0.1


Tree=21
num_leaves=8
num_cat=0
split_feature=387 678 640 242 570 258 705
split_gain=0.672026 0.455689 0.456311 0.47955 0.345379 0.297356 0.297478
threshold=-0.06312310695648192 0.25025999546051031 -0.092975210398435579 0.29396997392177587 -0.081871941685676561 -0.24135051667690274 0.033662086352705962
decision_type=2 2 2 2 2 2 2
left_child=4 2 3 -2 -1 -6 -7
right_child=1 -3 -4 -5 5 6 -8
leaf_value=0 0.0047727426177637186 -0.00030418057015784572 0 0 0 -0.0074687782160185335 0
leaf_weight=243 640 1870 544 411 102 274 111
leaf_count=243 640 1870 544 411 102 274 111
internal_value=0 0.000491383 0.00180915 0.00305101 -0.00283892 -0.00437863 -0.00565461
internal_weight=0 3465 1595 1051 730 487 385
internal_count=4195 3465 1595 1051 730 487 385
is_linear=0
shrinkage=0.1


Tree=22
num_leaves=8
num_cat=0
split_feature=69 613 85 447 550 173 52
split_gain=0.675688 0.737135 0.595922 0.382953 0.34023 0.328834 0.30152
threshold=0.20226769894361499 0.065251197665929808 0.17336602509021762 0.056677497923374183 -0.0082147382199764234 -0.028574962168931958 0.23844057321548465
decision_type=2 2 2 2 2 2 2
left_child=1 4 5 6 -1 -2 -4
right_child=2 -3 3 -5 -6 -7 -8
leaf_value=0 -0.002040483728588055 0 0.0034458178737055037 0 -0.0070987234062575601 0.00035131965471664711 0
leaf_weight=127 1023 392 1026 593 341 552 154
leaf_count=127 1023 392 1026 593 341 552 154
internal_value=0 -0.00273031 0.000353306 0.00173512 -0.00542663 -0.00081229 0.00278727
internal_weight=0 860 3348 1773 468 1575 1180
internal_count=4208 860 3348 1773 468 1575 1180
is_linear=0
shrinkage=0.1


Tree=23
num_leaves=8
num_cat=0
split_feature=397 85 52 578 568 340 587
split_gain=0.584428 0.417086 0.355042 0.374531 0.468674 0.399542 0.305366
threshold=0.036451781168580062 0.17910026013851169 0.20950721949338916 -0.17285119742155072 -0.060270436108112328 -0.092655651271343217 -0.11112144216895102
decision_type=2 2 2 2 2 2 2
left_child=1 6 3 4 5 -2 -1
right_child=2 -3 -4 -5 -6 -7 -8
leaf_value=0 0 0 0 0 0 0.0065596811602572124 -0.0037740819492127621
leaf_weight=280 102 1394 572 444 231 438 716
leaf_count=280 102 1394 572 444 231 438 716
internal_value=0 -0.00111555 0.00126729 0.00229874 0.00363108 0.00524437 -0.00267837
internal_weight=0 2390 1787 1215 771 540 996
internal_count=4177 2390 1787 1215 771 540 996
is_linear=0
shrinkage=0.1


Tree=24
num_leaves=8
num_cat=0
split_feature=58 102 462 548 369 226 691
split_gain=0.664549 0.622072 0.578668 0.387672 0.527984 0.427342 0.423008
threshold=-0.064639076590538011 0.11583656817674638 0.24962776899337771 -0.087779898196458803 -0.16277047246694562 0.215371809899807 -0.22265759110450742
decision_type=2 2 2 2 2 2 2
left_child=-1 -2 3 -3 -5 6 -6
right_child=1 2 -4 4 5 -7 -8
leaf_value=0.0023478707869499828 0.00022560534297684455 0 0 0 -0.0070609424098756444 0 0
leaf_weight=649 1497 299 581 336 665 108 141
leaf_count=649 1497 299 581 336 665 108 141
internal_value=0 -0.000991376 -0.00213502 -0.00316286 -0.00393673 -0.0051934 -0.00599059
internal_weight=0 3627 2130 1549 1250 914 806
internal_count=4276 3627 2130 1549 1250 914 806
is_linear=0
shrinkage=0.1


Tree=25
num_leaves=8
num_cat=0
split_feature=157 463 475 516 507 314 403
split_gain=0.587158 0.442361 0.452388 0.436879 0.422704 0.312943 0.293952
threshold=-0.11914181709289549 0.013397429138422014 0.037370275706052787 -0.1000220663845539 0.087333194911479964 0.28887310624122625 0.1031479872763157
decision_type=2 2 2 2 2 2 2
left_child=1 -1 3 -3 6 -6 -2
right_child=4 2 -4 -5 5 -7 -8
leaf_value=0 0.0020627542539150825 -0.0069829289263161204 0 0 1.2803407467852839e-05 -0.0026829842974022311 0
leaf_weight=416 1801 371 106 101 470 518 467
leaf_count=416 1801 371 106 101 470 518 467
internal_value=0 -0.0021918 -0.00398929 -0.00539187 0.000580257 -0.00077901 0.00144318
internal_weight=0 994 578 472 3256 988 2268
internal_count=4250 994 578 472 3256 988 2268
is_linear=0
shrinkage=0.1


Tree=26
num_leaves=8
num_cat=0
split_feature=670 58 204 613 684 117 432
split_gain=0.535434 0.568443 0.344341 0.428224 0.276432 0.352375 0.24422
threshold=0.056560240685939796 0.048182489350438125 -0.101095974445343 0.060427185148000724 -0.05089637637138366 0.16891498863697055 0.082672379910945906
decision_type=2 2 2 2 2 2 2
left_child=1 -1 3 -2 5 6 -5
right_child=2 -3 -4 4 -6 -7 -8
leaf_value=0 0 -0.0042272350483310303 -0.00074503552304450811 0.004785059289536508 0 0 0
leaf_weight=595 870 579 931 727 271 130 125
leaf_count=595 870 579 931 727 271 130 125
internal_value=0 -0.00199282 0.000481266 0.00130832 0.0025135 0.00329789 0.00408305
internal_weight=0 1174 3054 2123 1253 982 852
internal_count=4228 1174 3054 2123 1253 982 852
is_linear=0
shrinkage=0.1


Tree=27
num_leaves=8
num_cat=0
split_feature=85 456 71 719 490 407 168
split_gain=0.531541 0.435026 0.426372 0.397898 0.326565 0.393737 0.431596
threshold=0.17336602509021762 0.012119300663471224 -0.053947154432535165 0.084416083991527571 -0.1657280549407005 -0.21332928538322446 0.16715343296527865
decision_type=2 2 2 2 2 2 2
left_child=3 2 -2 -1 -5 -6 -7
right_child=1 -3 -4 4 5 6 -8
leaf_value=0 0.0034729918683968062 -0.00014451022793723702 0 0 0 -0.0068155091340538088 0
leaf_weight=859 859 996 376 462 146 410 112
leaf_count=859 859 996 376 462 146 410 112
internal_value=0 0.000890222 0.00222198 -0.0013356 -0.00258089 -0.00401948 -0.005312
internal_weight=0 2231 1235 1989 1130 668 522
internal_count=4220 2231 1235 1989 1130 668 522
is_linear=0
shrinkage=0.1


Tree=28
num_leaves=8
num_cat=0
split_feature=231 597 240 195 213 304 564
split_gain=0.447896 0.389283 0.35741 0.35699 0.327836 0.37318 0.318226
threshold=-0.027077176608145233 0.20086330175399783 0.0062665250152349481 0.067972071468830123 0.013175224885344507 -0.35646565258502955 0.16405087709426883
decision_type=2 2 2 2 2 2 2
left_child=1 -1 4 6 5 -3 -2
right_child=3 2 -4 -5 -6 -7 -8
leaf_value=-0.00019393765736235044 -0.0035203723786962947 0 0 0 0 0.0045101615311048939 0
leaf_weight=1312 818 104 200 517 272 763 258
leaf_count=1312 818 104 200 517 272 763 258
internal_value=0 0.000642202 0.00192013 -0.00145783 0.00273352 0.00368747 -0.00254246
internal_weight=0 2651 1339 1593 1139 867 1076
internal_count=4244 2651 1339 1593 1139 867 1076
is_linear=0
shrinkage=0.1


Tree=29
num_leaves=8
num_cat=0
split_feature=348 157 539 119 618 712 6
split_gain=0.401115 0.413102 0.438147 0.436154 0.314186 0.225723 0.332297
threshold=-0.26226228475570673 1.0000000180025095e-35 0.0071369335055351266 0.075678970664739623 -0.15501427650451657 0.15423002094030383 0.30138845741748815
decision_type=2 2 2 2 2 2 2
left_child=1 2 -1 -4 -2 6 -6
right_child=4 -3 3 -5 5 -7 -8
leaf_value=0 0.0024524128554223213 0 -0.0061250228163122521 0 0 0.0011557695206152764 -0.004150752369238825
leaf_weight=112 556 347 447 137 1535 785 263
leaf_count=112 556 347 447 137 1535 785 263
internal_value=0 -0.0019328 -0.00339608 -0.00460948 0.000253827 0 -0.000819865
internal_weight=0 1043 696 584 3139 2583 1798
internal_count=4182 1043 696 584 3139 2583 1798
is_linear=0
shrinkage=0.1


Tree=30
num_leaves=8
num_cat=0
split_feature=110 261 71 32 721 629 208
split_gain=0.440384 0.503053 0.436255 0.358238 0.316832 0.317825 0.368319
threshold=0.1905571520328522 0.036514066159725196 -0.096635565161705003 -0.0069865004625171414 0.1716893017292023 -0.27587631344795221 0.095787461847066893
decision_type=2 2 2 2 2 2 2
left_child=4 2 3 -2 -1 -6 -7
right_child=1 -3 -4 -5 5 6 -8
leaf_value=0.00049041391059566591 0.0059591839017349695 -8.8126269140844949e-05 0 0 0 0 -0.0034513549498704117
leaf_weight=851 457 457 377 102 516 494 921
leaf_count=851 457 457 377 102 516 494 921
internal_value=0 0.00152927 0.00297508 0.00475647 -0.00064182 -0.00145884 -0.00226944
internal_weight=0 1393 936 559 2782 1931 1415
internal_count=4175 1393 936 559 2782 1931 1415
is_linear=0
shrinkage=0.1


Tree=31
num_leaves=8
num_cat=0
split_feature=763 481 195 207 203 678 178
split_gain=0.356152 0.353849 0.344569 0.373248 0.362006 0.332134 0.276906
threshold=-0.077301252633333192 -0.10116032883524893 -0.0071549322456121436 -0.12503331154584882 0.069767493754625334 0.25325731933116918 0.056879814714193351
decision_type=2 2 2 2 2 2 2
left_child=1 -1 3 -3 -5 6 -2
right_child=5 2 -4 4 -6 -7 -8
leaf_value=0.00016310904977312948 0.0034239556152568292 0 0 0 -0.0086389187665215639 0 0
leaf_weight=1544 779 134 572 152 199 709 135
leaf_count=1544 779 134 572 152 199 709 135
internal_value=0 -0.000463025 -0.00195865 -0.00393252 -0.00565697 0.00136915 0.00263864
internal_weight=0 2601 1057 485 351 1623 914
internal_count=4224 2601 1057 485 351 1623 914
is_linear=0
shrinkage=0.1


Tree=32
num_leaves=8
num_cat=0
split_feature=218 481 715 405 524 496 103
split_gain=0.427491 0.605455 0.578606 0.294973 0.280427 0.34969 0.256414
threshold=-0.00084940437227487553 -0.20331104844808576 0.19587474316358569 -0.74850839376449574 0.10991661995649339 -0.045012528076767915 -0.14851160347461698
decision_type=2 2 2 2 2 2 2
left_child=6 -2 -3 -4 5 -5 -1
right_child=1 2 3 4 -6 -7 -8
leaf_value=0.00097031976721326609 0.00039173687516217315 0 0 0 0 -0.0092524319741256241 -0.0012288129710382855
leaf_weight=1687 474 616 254 120 139 312 659
leaf_count=1687 474 616 254 120 139 312 659
internal_value=0 -0.00172415 -0.00284633 -0.00460041 -0.00597858 -0.00733039 9.07856e-05
internal_weight=0 1915 1441 825 571 432 2346
internal_count=4261 1915 1441 825 571 432 2346
is_linear=0
shrinkage=0.1


Tree=33
num_leaves=8
num_cat=0
split_feature=670 463 290 742 53 540 115
split_gain=0.350264 0.609291 0.34982 0.458335 0.305199 0.193169 0.175809
threshold=0.10365714132785799 0.097109645605087294 -0.17119036614894864 0.053926203399896629 0.21431572735309604 0.21496351063251498 0.1792484521865845
decision_type=2 2 2 2 2 2 2
left_child=1 5 -2 4 6 -1 -4
right_child=2 -3 3 -5 -6 -7 -8
leaf_value=-0.0020779405566924143 0 -0.0049155291047800961 0 0 0 0.00059221697259007435 0.0062482638516670108
leaf_weight=358 1162 315 152 378 469 1100 381
leaf_count=358 1162 315 152 378 469 1100 381
internal_value=0 -0.00092554 0.000883409 0.00199309 0.00316939 0 0.00496078
internal_weight=0 1773 2542 1380 1002 1458 533
internal_count=4315 1773 2542 1380 1002 1458 533
is_linear=0
shrinkage=0.1


Tree=34
num_leaves=8
num_cat=0
split_feature=662 448 212 321 394 556 168
split_gain=0.327794 0.361318 0.3612 0.367234 0.353462 0.366176 0.413548
threshold=0.14824886620044711 0.12718932330608371 -0.098606709390878663 0.17515857517719272 1.0000000180025095e-35 -0.093768827617168413 -0.068256705999374376
decision_type=2 2 2 2 2 2 2
left_child=1 -1 -2 -4 5 -3 -7
right_child=2 4 3 -5 -6 6 -8
leaf_value=0.00032907905279140181 0 0 0.0034362931675407135 0 0 0 -0.0052320726716483922
leaf_weight=626 1172 203 768 434 319 102 598
leaf_count=626 1172 203 768 434 319 102 598
internal_value=0 -0.000898943 0.000867007 0.00211886 -0.00203059 -0.00308125 -0.00418069
internal_weight=0 1848 2374 1202 1222 903 700
internal_count=4222 1848 2374 1202 1222 903 700
is_linear=0
shrinkage=0.1


Tree=35
num_leaves=8
num_cat=0
split_feature=303 635 384 96 246 583 279
split_gain=0.399137 0.433543 0.45656 0.47237 0.377266 0.251259 0.278395
threshold=-0.078784886747598634 -0.21906048059463498 -0.12288792058825491 -0.019306207075715062 0.10674164816737176 -0.0020664054900407787 0.026012063026428226
decision_type=2 2 2 2 2 2 2
left_child=5 -2 -3 -4 -5 -1 -7
right_child=1 2 3 4 -6 6 -8
leaf_value=0 0 0 0 0 -0.006823716902989674 0.003534157514104986 0
leaf_weight=258 1653 441 513 102 439 531 287
leaf_count=258 1653 441 513 102 439 531 287
internal_value=0 -0.000983484 -0.00222185 -0.00336655 -0.00555079 0.00111431 0.00216907
internal_weight=0 3148 1495 1054 541 1076 818
internal_count=4224 3148 1495 1054 541 1076 818
is_linear=0
shrinkage=0.1


Tree=36
num_leaves=8
num_cat=0
split_feature=705 612 765 203 143 154 537
split_gain=0.54593 0.441221 0.410388 0.360914 0.290288 0.282374 0.278516
threshold=-0.16548079252243039 0.0065754540264606485 -0.035326462239027016 0.040701780468225486 0.081949990242719664 -0.14296744763851163 -0.087154690176248537
decision_type=2 2 2 2 2 2 2
left_child=3 2 5 -1 -5 -2 -6
right_child=1 -3 -4 4 6 -7 -8
leaf_value=0 0.0032271985132910613 0 -0.00027514508279487861 0 0 0 -0.0062296062052110022
leaf_weight=243 1406 1410 201 206 138 361 304
leaf_count=243 1406 1410 201 206 138 361 304
internal_value=0 0.000991203 0.001982 -0.00167549 -0.00307074 0.00258632 -0.00451566
internal_weight=0 3378 1968 891 648 1767 442
internal_count=4269 3378 1968 891 648 1767 442
is_linear=0
shrinkage=0.1


Tree=37
num_leaves=8
num_cat=0
split_feature=157 229 215 549 289 442 335
split_gain=0.433517 0.370139 0.361714 0.48707 0.476389 0.346854 0.366128
threshold=-0.052018802613019936 -0.97090083360671986 0.060306977480649955 -0.33680254220962519 0.079939641058444991 -0.17498886585235593 0.044745968654751785
decision_type=2 2 2 2 2 2 2
left_child=1 2 3 -1 -5 -2 -7
right_child=5 -3 -4 4 -6 6 -8
leaf_value=0 -0.0014872673348127535 0 0 -0.0059176874337227544 0 0.0024155180073782648 0
leaf_weight=102 291 942 158 560 160 1399 621
leaf_count=102 291 942 158 560 160 1399 621
internal_value=0 -0.00117605 -0.00254742 -0.00348382 -0.00454103 0.000851808 0.00149282
internal_weight=0 1922 980 822 720 2311 2020
internal_count=4233 1922 980 822 720 2311 2020
is_linear=0
shrinkage=0.1


Tree=38
num_leaves=8
num_cat=0
split_feature=592 383 583 648 653 739 721
split_gain=0.282893 0.511005 0.377465 0.36087 0.347088 0.308765 0.312078
threshold=0.10181686282157899 0.13062630593776706 0.17590504139661792 -0.02470664773136377 0.051624935120344169 0.024297466501593593 0.16729824244976046
decision_type=2 2 2 2 2 2 2
left_child=4 5 3 -3 -1 -2 -7
right_child=1 2 -4 -5 -6 6 -8
leaf_value=0 0.0008217794579407061 0 0 0.0054210994751521099 -0.0043224652010740204 0 -0.0021552131914125135
leaf_weight=297 849 221 114 411 341 660 1304
leaf_count=297 849 221 114 411 341 660 1304
internal_value=0 4.71889e-05 0.00250891 0.00366092 -0.00213222 -0.000387343 -0.00122273
internal_weight=0 3559 746 632 638 2813 1964
internal_count=4197 3559 746 632 638 2813 1964
is_linear=0
shrinkage=0.1


Tree=39
num_leaves=8
num_cat=0
split_feature=39 702 292 18 309 390 710
split_gain=0.303045 0.439758 0.482533 0.391683 0.499543 0.453716 0.337812
threshold=0.050016399472951896 -0.20740936696529386 -0.12472283095121382 0.10885247588157655 -0.030112031847238537 0.14021866768598559 0.015534862875938417
decision_type=2 2 2 2 2 2 2
left_child=3 -2 -3 -1 5 -5 -4
right_child=1 2 6 4 -6 -7 -8
leaf_value=-0.00089725608059406563 7.1156744667521231e-05 0 -0.0062512410090855043 0.0065603278382606661 0 0 -0.00038404174201205602
leaf_weight=261 1749 344 350 351 543 145 518
leaf_count=261 1749 344 350 351 543 145 518
internal_value=0 -0.00062656 -0.00214011 0.00119871 0.00231632 0.00461625 -0.00345748
internal_weight=0 2961 1212 1300 1039 496 868
internal_count=4261 2961 1212 1300 1039 496 868
is_linear=0
shrinkage=0.1


Tree=40
num_leaves=8
num_cat=0
split_feature=464 342 602 547 513 751 521
split_gain=0.345271 0.327019 0.355808 0.362066 0.285132 0.276041 0.366104
threshold=0.082168888300657286 -0.17931601405143735 0.24944128096103671 0.15293208509683612 -0.0010146293789148329 0.13007377833127978 -0.061266064643859856
decision_type=2 2 2 2 2 2 2
left_child=1 -1 -3 -4 5 -2 -7
right_child=4 2 3 -5 -6 6 -8
leaf_value=-0.00028396737733187808 0 0 0.0046375251481864969 0 0 0 -0.0051263715258599227
leaf_weight=1582 437 442 494 190 403 184 477
leaf_count=1582 437 442 494 190 403 184 477
internal_value=0 0.000334731 0.00174939 0.00319994 -0.00147446 -0.00235981 -0.00366417
internal_weight=0 2708 1126 684 1501 1098 661
internal_count=4209 2708 1126 684 1501 1098 661
is_linear=0
shrinkage=0.1


Tree=41
num_leaves=8
num_cat=0
split_feature=662 663 348 547 589 556 661
split_gain=0.34197 0.357882 0.266701 0.330459 0.312369 0.265266 0.260725
threshold=0.14824886620044711 -0.094999000430107103 -0.26226228475570673 0.23777306079864505 0.34279793500900274 -0.096880450844764696 0.14370985329151156
decision_type=2 2 2 2 2 2 2
left_child=1 -1 -2 4 -4 -3 -7
right_child=2 5 3 -5 -6 6 -8
leaf_value=0 -0.00059890684805701498 0 0.00011440760018601535 -0.0001670589788340147 0.0042256582908274656 -0.003963545533986315 0
leaf_weight=624 659 285 835 317 535 737 270
leaf_count=624 659 285 835 317 535 737 270
internal_value=0 -0.00119577 0.000551807 0.00136536 0.00216822 -0.00221142 -0.00298473
internal_weight=0 1916 2346 1687 1370 1292 1007
internal_count=4262 1916 2346 1687 1370 1292 1007
is_linear=0
shrinkage=0.1


Tree=42
num_leaves=8
num_cat=0
split_feature=397 654 387 104 476 657 673
split_gain=0.353324 0.426968 0.353632 0.323072 0.310976 0.347546 0.34005
threshold=-0.023318253457546231 -0.22350440919399259 0.046400960534811027 0.15053182840347293 -0.044728489592671387 -0.052549444139003747 0.20719606429338458
decision_type=2 2 2 2 2 2 2
left_child=2 -2 -1 4 5 -3 -7
right_child=1 3 -4 -5 -6 6 -8
leaf_value=-0.0024012013117532746 0 0 0 0 0 0.0070647570263197047 0
leaf_weight=874 1269 192 961 214 233 391 134
leaf_count=874 1269 192 961 214 233 391 134
internal_value=0 0.000913464 -0.000905048 0.0023264 0.00316732 0.00419868 0.00554034
internal_weight=0 2433 1835 1164 950 717 525
internal_count=4268 2433 1835 1164 950 717 525
is_linear=0
shrinkage=0.1


Tree=43
num_leaves=8
num_cat=0
split_feature=69 134 418 258 261 645 26
split_gain=0.373583 0.311792 0.29582 0.274206 0.325972 0.303719 0.249001
threshold=0.20226769894361499 -0.10651844739913939 -0.050934139639139168 -0.28719620406627649 0.058014400303363807 -0.05237836763262748 0.04884616285562516
decision_type=2 2 2 2 2 2 2
left_child=1 -1 -3 -2 -5 6 -6
right_child=3 2 -4 4 5 -7 -8
leaf_value=0 0.0023096665080235002 0 -0.0046806505164472033 0.00054229486413867991 -0.005873697506610211 0 0
leaf_weight=324 616 100 423 2190 236 212 149
leaf_count=324 616 100 423 2190 236 212 149
internal_value=0 -0.00194116 -0.00347328 0.00039988 0 -0.00209313 -0.00383169
internal_weight=0 847 523 3403 2787 597 385
internal_count=4250 847 523 3403 2787 597 385
is_linear=0
shrinkage=0.1


Tree=44
num_leaves=8
num_cat=0
split_feature=119 148 22 464 448 734 764
split_gain=0.29547 0.428666 0.386906 0.346606 0.323117 0.334766 0.262066
threshold=-0.014037582557648419 -0.090536713600158678 -0.055967016145586961 0.06726816296577455 0.099251210689544692 -0.19161476939916608 0.032986231148242957
decision_type=2 2 2 2 2 2 2
left_child=1 -1 -3 -2 -4 -6 -7
right_child=3 2 4 -5 5 6 -8
leaf_value=0.00073585961203469046 0.0020075181566355008 0 0 -0.00016945170589808967 0 -0.0053307714428555532 0
leaf_weight=742 1282 326 377 691 123 640 131
leaf_count=742 1282 326 377 691 123 640 131
internal_value=0 -0.0007264 -0.00179036 0.000933815 -0.00265924 -0.00369699 -0.00449333
internal_weight=0 2339 1597 1973 1271 894 771
internal_count=4312 2339 1597 1973 1271 894 771
is_linear=0
shrinkage=0.1


Tree=45
num_leaves=8
num_cat=0
split_feature=712 721 182 759 62 280 105
split_gain=0.232016 0.257094 0.328201 0.278818 0.305437 0.389787 0.256213
threshold=0.14857894182205203 0.16277857124805453 0.06816843152046205 -0.25531174242496485 0.027596601285040382 0.037018004804849632 -0.059954863041639321
decision_type=2 2 2 2 2 2 2
left_child=1 -1 -3 -4 5 -5 -7
right_child=-2 2 3 4 -6 6 -8
leaf_value=0.00057750429392993134 0.0011152747166394861 0 0 0 0 -0.0063436391545487599 0
leaf_weight=890 1437 790 205 225 162 457 160
leaf_count=890 1437 790 205 225 162 457 160
internal_value=0 -0.000429418 -0.00118495 -0.00224414 -0.00297346 -0.0037643 -0.005065
internal_weight=0 2889 1999 1209 1004 842 617
internal_count=4326 2889 1999 1209 1004 842 617
is_linear=0
shrinkage=0.1


Tree=46
num_leaves=8
num_cat=0
split_feature=173 312 458 159 448 637 242
split_gain=0.31033 0.294041 0.346262 0.279569 0.303834 0.362833 0.322996
threshold=-0.005521944258362054 0.072471577674150481 0.023899957537651065 0.42500919103622442 0.13662069290876391 0.30119757354259497 0.15662100911140445
decision_type=2 2 2 2 2 2 2
left_child=3 -2 -3 4 -1 6 -6
right_child=1 2 -4 -5 5 -7 -8
leaf_value=0.00056905707266687435 0 0.0049196517155303257 0 0.0020898781124867949 0 0.00024566523871537901 -0.0028136700463491171
leaf_weight=932 230 399 108 439 396 445 1320
leaf_count=932 230 399 108 439 396 445 1320
internal_value=0 0.00210137 0.00349546 -3.40653e-05 -0.000534097 -0.00129406 -0.00205124
internal_weight=0 737 507 3532 3093 2161 1716
internal_count=4269 737 507 3532 3093 2161 1716
is_linear=0
shrinkage=0.1


Tree=47
num_leaves=8
num_cat=0
split_feature=389 16 762 454 466 349 319
split_gain=0.448134 0.365325 0.358476 0.252535 0.334107 0.326105 0.299326
threshold=0.14726153016090396 -0.20040515065193173 0.17820076644420627 0.12666334211826327 -0.2606550902128219 0.54716077446937572 -0.0070110280066728583
decision_type=2 2 2 2 2 2 2
left_child=2 -2 3 4 -1 6 -6
right_child=1 -3 -4 -5 5 -7 -8
leaf_value=0 0 -0.004528905369291323 -8.0074733462008434e-05 0 0.0044689521456159056 0 0
leaf_weight=111 156 332 1889 485 854 201 201
leaf_count=111 156 332 1889 485 854 201 201
internal_value=0 -0.00254336 0.000603555 0.00163245 0.00233617 0.00293258 0.00365095
internal_weight=0 488 3741 1852 1367 1256 1055
internal_count=4229 488 3741 1852 1367 1256 1055
is_linear=0
shrinkage=0.1


Tree=48
num_leaves=8
num_cat=0
split_feature=637 79 604 366 323 617 571
split_gain=0.214465 0.310768 0.244958 0.240238 0.297761 0.26543 0.303728
threshold=0.30119757354259497 -0.22711013257503507 -0.0085406191647052748 -0.022222938016057011 0.29860295355319982 -0.021305480040609833 0.30907687544822698
decision_type=2 2 2 2 2 2 2
left_child=2 -2 3 4 5 -1 -7
right_child=1 -3 -4 -5 -6 6 -8
leaf_value=0 0 0.0028713069664670597 9.6613727184978823e-05 0 0 -0.0050414706201630469 0
leaf_weight=109 186 567 1866 531 271 554 166
leaf_count=109 186 567 1866 531 271 554 166
internal_value=0 0.00144259 -0.000406395 -0.00135842 -0.0022181 -0.00318119 -0.00391643
internal_weight=0 753 3497 1631 1100 829 720
internal_count=4250 753 3497 1631 1100 829 720
is_linear=0
shrinkage=0.1


Tree=49
num_leaves=8
num_cat=0
split_feature=387 214 589 160 639 714 491
split_gain=0.472257 0.263375 0.305993 0.378232 0.383663 0.406861 0.255996
threshold=-0.067902944982051835 0.26869867742061621 0.31029517948627477 0.23649208247661593 -0.23486679792404172 -0.13062054663896558 0.47582815587520605
decision_type=2 2 2 2 2 2 2
left_child=-1 2 -2 4 -4 6 -6
right_child=1 -3 3 -5 5 -7 -8
leaf_value=-0.0021325769169698535 0 -8.086099223318599e-05 0 0 0.0054188424997331369 0 0
leaf_weight=677 986 1245 100 243 736 152 107
leaf_count=677 986 1245 100 243 736 152 107
internal_value=0 0.000685969 0.00136103 0.00234614 0.0031906 0.00388057 0.00475397
internal_weight=0 3569 2324 1338 1095 995 843
internal_count=4246 3569 2324 1338 1095 995 843
is_linear=0
shrinkage=0.1


Tree=50
num_leaves=8
num_cat=0
split_feature=675 39 286 394 31 61 286
split_gain=0.276659 0.31015 0.29593 0.344023 0.283306 0.210429 0.310606
threshold=0.07600873708724977 0.086968153715133681 0.13326749205589297 0.020063600502908233 0.032861888408660896 0.089526779949665083 -0.008666560519486664
decision_type=2 2 2 2 2 2 2
left_child=1 -1 3 4 -2 6 -3
right_child=2 5 -4 -5 -6 -7 -8
leaf_value=0.00033477804581307923 0 0 0 0 0.0045691835507958162 0 -0.0033202462533643545
leaf_weight=1141 102 272 670 234 539 491 810
leaf_count=1141 102 272 670 234 539 491 810
internal_value=0 -0.000524193 0.00114366 0.00238567 0.00362434 -0.00153768 -0.00231996
internal_weight=0 2714 1545 875 641 1573 1082
internal_count=4259 2714 1545 875 641 1573 1082
is_linear=0
shrinkage=0.1


Tree=51
num_leaves=8
num_cat=0
split_feature=173 720 287 520 387 564 544
split_gain=0.226788 0.269758 0.301842 0.260014 0.256836 0.350169 0.315187
threshold=-0.005521944258362054 0.0048058126121759423 -0.35170555114746088 -0.11232108995318411 0.040716592222452171 0.16671557724475863 -0.3711265474557876
decision_type=2 2 2 2 2 2 2
left_child=4 2 -2 -4 5 6 -1
right_child=1 -3 3 -5 -6 -7 -8
leaf_value=0 0 0 0 0.007311729965022733 0 0 -0.0033746647465820118
leaf_weight=191 194 296 103 180 1829 564 895
leaf_count=191 194 296 103 180 1829 564 895
internal_value=0 0.00130087 0.00289782 0.00498179 -0.00052828 -0.00146458 -0.00254623
internal_weight=0 773 477 283 3479 1650 1086
internal_count=4252 773 477 283 3479 1650 1086
is_linear=0
shrinkage=0.1


Tree=52
num_leaves=8
num_cat=0
split_feature=290 589 642 17 41 225 109
split_gain=0.310042 0.442091 0.288352 0.23415 0.252884 0.215381 0.296809
threshold=-0.2191786393523216 0.3462487012147904 -0.19575659930706021 0.28470361232757574 -0.10222034901380538 0.11693424731492998 -2.1753308773040767
decision_type=2 2 2 2 2 2 2
left_child=5 -2 -3 4 -4 -1 -7
right_child=1 2 3 -5 -6 6 -8
leaf_value=0 -1.2133929000153091e-05 0 0 0 0.0047101675183531351 -0.0033974816330923107 0
leaf_weight=131 1840 170 197 168 603 608 527
leaf_count=131 1840 170 197 168 603 608 527
internal_value=0 0.000635835 0.00222316 0.00296466 0.00368262 -0.00122391 -0.00188903
internal_weight=0 2978 1138 968 800 1266 1135
internal_count=4244 2978 1138 968 800 1266 1135
is_linear=0
shrinkage=0.1


Tree=53
num_leaves=8
num_cat=0
split_feature=403 131 127 67 42 582 318
split_gain=0.239891 0.333169 0.446812 0.344147 0.346623 0.283124 0.217215
threshold=-0.019387122243642804 0.21708016842603686 0.0011726124212145808 0.38810189068317419 0.26331467926502233 0.0088864220306277292 0.15649831295013431
decision_type=2 2 2 2 2 2 2
left_child=6 -2 3 4 5 -3 -1
right_child=1 2 -4 -5 -6 -7 -8
leaf_value=0.0017680134897642035 0.0010796306040298821 -0.0053573582709608462 0 0 0 0 0
leaf_weight=1157 500 624 673 300 145 197 618
leaf_count=1157 500 624 673 300 145 197 618
internal_value=0 -0.000625527 -0.00138197 -0.00254054 -0.00346717 -0.00428557 0.000902122
internal_weight=0 2439 1939 1266 966 821 1775
internal_count=4214 2439 1939 1266 966 821 1775
is_linear=0
shrinkage=0.1


Tree=54
num_leaves=8
num_cat=0
split_feature=462 191 586 601 92 463 627
split_gain=0.351991 0.295462 0.304741 0.230574 0.239446 0.221367 0.246362
threshold=0.18349069356918338 -0.15973501652479169 -0.23463297635316846 0.062755033373832717 0.19298066198825839 0.097109645605087294 0.042795877903699882
decision_type=2 2 2 2 2 2 2
left_child=5 -2 -3 -4 -5 -1 -7
right_child=1 2 3 4 -6 6 -8
leaf_value=0 0 0 0 0.0068744791870868063 0 0 -0.0044559365922129668
leaf_weight=2076 1080 127 134 273 101 170 302
leaf_count=2076 1080 127 134 273 101 170 302
internal_value=0 0.00113271 0.00284919 0.00401819 0.00530047 -0.000719616 -0.0027359
internal_weight=0 1715 635 508 374 2548 472
internal_count=4263 1715 635 508 374 2548 472
is_linear=0
shrinkage=0.1


Tree=55
num_leaves=8
num_cat=0
split_feature=442 64 475 724 43 102 393
split_gain=0.288349 0.348928 0.281544 0.348954 0.331072 0.330794 0.296041
threshold=-0.1596301198005676 -0.091709982603788362 -0.16078782826662061 0.061831038445234306 -0.016591517254710194 0.10844565182924272 -0.094725709408521638
decision_type=2 2 2 2 2 2 2
left_child=1 -1 4 5 6 -4 -2
right_child=2 -3 3 -5 -6 -7 -8
leaf_value=-0.00482345781720794 0 0 0 0.00043859083041201068 0 -0.0037893894448733792 0.0039573836901119989
leaf_weight=264 197 235 436 1679 393 454 592
leaf_count=264 197 235 436 1679 393 454 592
internal_value=0 -0.00230591 0.00024766 -0.000132394 0.00159324 -0.00189959 0.00282821
internal_weight=0 499 3751 2569 1182 890 789
internal_count=4250 499 3751 2569 1182 890 789
is_linear=0
shrinkage=0.1


Tree=56
num_leaves=8
num_cat=0
split_feature=41 432 215 344 41 672 568
split_gain=0.235424 0.310203 0.340479 0.275818 0.224833 0.283051 0.235498
threshold=-0.071827985346317277 -0.19206769019365308 -0.0011474713683128355 0.12423093244433404 0.062212973833084113 0.42398160696029669 -0.063610650599002824
decision_type=2 2 2 2 2 2 2
left_child=1 -1 -3 -2 5 6 -5
right_child=3 2 -4 4 -6 -7 -8
leaf_value=0.00018145414541686827 0 -0.0032607658276311924 0 0.0059854600906029199 0 0 0
leaf_weight=428 2145 746 250 310 165 102 112
leaf_count=428 2145 746 250 310 165 102 112
internal_value=0 -0.0010054 -0.00213201 0.000568149 0.00230883 0.00336151 0.00455388
internal_weight=0 1424 996 2834 689 524 422
internal_count=4258 1424 996 2834 689 524 422
is_linear=0
shrinkage=0.1


Tree=57
num_leaves=8
num_cat=0
split_feature=96 22 569 177 354 694 440
split_gain=0.282689 0.273688 0.27269 0.268173 0.244238 0.236566 0.216298
threshold=0.12134143337607385 0.12553101032972339 0.074861988425254836 0.24496610462665561 0.19345733523368838 -0.30533277988433832 -0.057909803465008729
decision_type=2 2 2 2 2 2 2
left_child=1 6 5 4 -3 -2 -1
right_child=2 3 -4 -5 -6 -7 -8
leaf_value=-0.0012259641078137282 0 0.0036289625432097332 0 0 0 -0.0042777881443424324 0.00056392626651882054
leaf_weight=1172 107 624 107 306 177 413 1276
leaf_count=1172 107 624 107 306 177 413 1276
internal_value=0 0.000318817 -0.00198296 0.00167176 0.0026852 -0.00315991 -4.21257e-05
internal_weight=0 3555 627 1107 801 520 2448
internal_count=4182 3555 627 1107 801 520 2448
is_linear=0
shrinkage=0.1


Tree=58
num_leaves=8
num_cat=0
split_feature=64 136 681 107 178 506 136
split_gain=0.28801 0.306192 0.468826 0.386918 0.254256 0.321106 0.461385
threshold=-0.1096706949174404 0.20464932918548587 0.18993502855300906 -0.20966394990682599 0.0060448348522186288 0.1450600475072861 0.19981892406940463
decision_type=2 2 2 2 2 2 2
left_child=1 -1 3 -3 5 6 -2
right_child=4 2 -4 -5 -6 -7 -8
leaf_value=0 0 0 0 -0.004771025889677526 -0.00044250039504967539 0 0.003549993044965654
leaf_weight=530 473 308 279 602 758 402 874
leaf_count=530 473 308 279 602 758 402 874
internal_value=0 -0.00110113 -0.00208041 -0.00328738 0.000563404 0.00135049 0.0021799
internal_weight=0 1719 1189 910 2507 1749 1347
internal_count=4226 1719 1189 910 2507 1749 1347
is_linear=0
shrinkage=0.1


Tree=59
num_leaves=8
num_cat=0
split_feature=48 157 103 688 174 308 740
split_gain=0.346537 0.392792 0.299719 0.232631 0.213317 0.192396 0.166699
threshold=-0.093609701842069612 -0.052018802613019936 -0.24078588187694547 0.21957263350486758 0.15688155591487887 -2.9992749691009517 0.04757747799158097
decision_type=2 2 2 2 2 2 2
left_child=2 3 4 5 -1 -2 -4
right_child=1 -3 6 -5 -6 -7 -8
leaf_value=0 -0.0071360761705657602 0 0.00076957244066311326 0 0.0023749171931940799 0 -0.0010436957730259426
leaf_weight=376 214 556 645 110 1040 110 1188
leaf_count=376 214 556 645 110 1040 110 1188
internal_value=0 -0.00165773 0.000478768 -0.00391388 0.00162361 -0.00526291 -7.05895e-05
internal_weight=0 990 3249 434 1416 324 1833
internal_count=4239 990 3249 434 1416 324 1833
is_linear=0
shrinkage=0.1


Tree=60
num_leaves=8
num_cat=0
split_feature=742 57 614 313 76 225 156
split_gain=0.281009 0.255951 0.268223 0.248192 0.217742 0.244 0.255861
threshold=0.064312174916267409 0.20904894173145297 0.10520354658365251 -0.20001440495252606 0.11889024078845979 0.40321525931358343 0.144388422369957
decision_type=2 2 2 2 2 2 2
left_child=4 -2 3 -3 5 6 -1
right_child=1 2 -4 -5 -6 -7 -8
leaf_value=0.0020669778029914787 0 0 0 -0.0050504236290616952 -0.00052084171211622381 0 0
leaf_weight=2092 368 103 207 345 441 506 165
leaf_count=2092 368 103 207 345 441 506 165
internal_value=0 -0.00102594 -0.00235614 -0.00375541 0.000766321 0.00119404 0.0016812
internal_weight=0 1023 655 448 3204 2763 2257
internal_count=4227 1023 655 448 3204 2763 2257
is_linear=0
shrinkage=0.1


Tree=61
num_leaves=8
num_cat=0
split_feature=705 362 219 7 748 754 348
split_gain=0.325961 0.354194 0.303181 0.317526 0.34382 0.343016 0.264358
threshold=-0.054552182555198662 0.16636750847101214 -0.055314358323812478 0.37295173108577734 -0.17998258024454114 -0.05003672651946544 -0.091347411274909959
decision_type=2 2 2 2 2 2 2
left_child=1 -1 -2 4 -4 -6 -3
right_child=2 6 3 -5 5 -7 -8
leaf_value=0 0 -0.0032546689329261166 0 0 0.0057835275100468313 0 0
leaf_weight=1378 834 686 356 301 456 111 141
leaf_count=1378 834 686 356 301 456 111 141
internal_value=0 -0.000700317 0.00102878 0.00206312 0.00301406 0.00456638 -0.0023644
internal_weight=0 2205 2058 1224 923 567 827
internal_count=4263 2205 2058 1224 923 567 827
is_linear=0
shrinkage=0.1


Tree=62
num_leaves=8
num_cat=0
split_feature=178 604 738 654 250 637 252
split_gain=0.298869 0.262517 0.386126 0.26444 0.280762 0.225416 0.223935
threshold=0.075715042650699629 -0.011216670274734495 -0.13886496424674985 -0.10712817311286925 0.22879247367382052 0.21052313596010211 0.14518040418624881
decision_type=2 2 2 2 2 2 2
left_child=1 5 -3 4 6 -1 -4
right_child=-2 2 3 -5 -6 -7 -8
leaf_value=-0.0015449201477499793 -0.0025307121496973982 0 0.0046608282237939362 0 0 0.00030787731648702606 0
leaf_weight=1068 439 891 644 167 235 733 146
leaf_count=1068 439 891 644 167 235 733 146
internal_value=0 0.000213453 0.00108179 0.00229875 0.00295381 -0.000449844 0.00385671
internal_weight=0 3884 2083 1192 1025 1801 790
internal_count=4323 3884 2083 1192 1025 1801 790
is_linear=0
shrinkage=0.1


Tree=63
num_leaves=8
num_cat=0
split_feature=96 650 688 550 255 705 402
split_gain=0.142596 0.230742 0.347238 0.290257 0.203609 0.253724 0.313669
threshold=0.12134143337607385 0.22169184684753421 0.14561159908771518 0.13831354677677157 -0.0090962983667850477 -0.13338134437799451 0.18437146395444873
decision_type=2 2 2 2 2 2 2
left_child=1 -1 3 4 5 -3 -7
right_child=-2 2 -4 -5 -6 6 -8
leaf_value=-0.00060968254299009403 -0.0014081910843613552 0 -4.077824032289671e-06 0 0 0.0051655192789519799 0
leaf_weight=1338 661 142 888 188 267 600 142
leaf_count=1338 661 142 888 188 267 600 142
internal_value=0 0.00017972 0.000929772 0.00200773 0.00268535 0.0034194 0.00416523
internal_weight=0 3565 2227 1339 1151 884 742
internal_count=4226 3565 2227 1339 1151 884 742
is_linear=0
shrinkage=0.1


Tree=64
num_leaves=8
num_cat=0
split_feature=540 43 14 218 497 164 161
split_gain=0.263825 0.318288 0.259056 0.251277 0.234351 0.227376 0.245117
threshold=0.21577641367912295 -0.11223957315087317 0.045972332358360297 -0.082583308219909654 0.36809469759464269 -0.20837989449501035 -0.02358627691864967
decision_type=2 2 2 2 2 2 2
left_child=2 5 3 -1 -5 -2 -7
right_child=1 -3 -4 4 -6 6 -8
leaf_value=0 0 0 0 -0.0050505897268613813 0 0.0047923215219208594 0
leaf_weight=231 173 2424 338 374 152 368 188
leaf_count=231 173 2424 338 374 152 368 188
internal_value=0 0.000415499 -0.00138283 -0.00248757 -0.00369897 0.00226111 0.00328522
internal_weight=0 3153 1095 757 526 729 556
internal_count=4248 3153 1095 757 526 729 556
is_linear=0
shrinkage=0.1


Tree=65
num_leaves=8
num_cat=0
split_feature=656 630 609 278 549 62 143
split_gain=0.214692 0.235423 0.29848 0.28136 0.216211 0.232134 0.272681
threshold=0.20111826062202456 0.36569322645664221 0.15536037832498553 -0.11852279677987097 -0.32991687953472132 0.036659304052591331 0.073739849030971541
decision_type=2 2 2 2 2 2 2
left_child=1 -1 -3 -4 -2 6 -6
right_child=4 2 3 -5 5 -7 -8
leaf_value=-5.2861249151050195e-05 0.0001335267567726114 0 0 0.0034945569881400227 0 0 -0.0031897969624647793
leaf_weight=1204 322 276 311 724 307 217 851
leaf_count=1204 322 276 311 724 307 217 851
internal_value=0 0.000524713 0.00152359 0.00241332 -0.000925784 -0.0016205 -0.00226333
internal_weight=0 2515 1311 1035 1697 1375 1158
internal_count=4212 2515 1311 1035 1697 1375 1158
is_linear=0
shrinkage=0.1


Tree=66
num_leaves=8
num_cat=0
split_feature=503 204 130 92 51 214 613
split_gain=0.226215 0.273925 0.428329 0.445175 0.326416 0.212762 0.20528
threshold=-0.052254624664783471 -0.26537294685840601 0.14589614421129229 -0.0017928322777152059 -0.18583771586418149 0.16084639728069308 0.11095958948135377
decision_type=2 2 2 2 2 2 2
left_child=1 -1 -3 -4 -5 6 -2
right_child=5 2 3 4 -6 -7 -8
leaf_value=0 0.0034555520390773739 0 0 0 -0.0068610917747916021 0 0
leaf_weight=874 402 647 122 127 348 1514 212
leaf_count=874 402 647 122 127 348 1514 212
internal_value=0 -0.000881179 -0.00187721 -0.00381015 -0.00525522 0.000539802 0.0021154
internal_weight=0 2118 1244 597 475 2128 614
internal_count=4246 2118 1244 597 475 2128 614
is_linear=0
shrinkage=0.1


Tree=67
num_leaves=8
num_cat=0
split_feature=401 138 379 663 498 483 215
split_gain=0.303494 0.293902 0.334825 0.37419 0.285913 0.23525 0.127195
threshold=0.12056125700473787 -0.17405042797327039 0.34005279839038854 -0.12792857736349103 0.11055617779493333 0.02365938946604729 -0.11475468426942824
decision_type=2 2 2 2 2 2 2
left_child=1 2 3 -1 5 -2 -3
right_child=4 6 -4 -5 -6 -7 -8
leaf_value=0 0 0.0010969423875105398 0 -0.0054104651128886599 0 0.0041645389104098055 -0.00061695645978733353
leaf_weight=136 248 543 250 407 693 370 1625
leaf_count=136 248 543 250 407 693 370 1625
internal_value=0 -0.000798016 -0.00246656 -0.00387954 0.000959038 0.00256463 0
internal_weight=0 2961 793 543 1311 618 2168
internal_count=4272 2961 793 543 1311 618 2168
is_linear=0
shrinkage=0.1


Tree=68
num_leaves=8
num_cat=0
split_feature=493 347 331 267 548 479 305
split_gain=0.291698 0.363723 0.453958 0.338199 0.267045 0.307598 0.250205
threshold=-0.14787147939205167 0.13956233114004138 -0.20742248743772504 -0.22250688821077344 -0.092448674142360673 -0.034593373537063592 0.20542074739933017
decision_type=2 2 2 2 2 2 2
left_child=1 2 -1 -4 -2 -6 -7
right_child=4 -3 3 -5 5 6 -8
leaf_value=0 0.0010855075148981869 0 0 0.0058935419873072511 0.00016731461691429873 -0.0024917420393000636 0
leaf_weight=139 791 406 151 416 702 1193 391
leaf_count=139 791 406 151 416 702 1193 391
internal_value=0 0.00161246 0.00304087 0.0044181 -0.000189479 -0.00089931 -0.00175973
internal_weight=0 1112 706 567 3077 2286 1584
internal_count=4189 1112 706 567 3077 2286 1584
is_linear=0
shrinkage=0.1


Tree=69
num_leaves=8
num_cat=0
split_feature=611 712 689 222 337 585 278
split_gain=0.179108 0.28007 0.27213 0.25667 0.259192 0.340935 0.200479
threshold=-0.05187916383147239 0.021568182855844501 -0.0038637071847915645 0.13724836707115176 -0.19785463809967038 -0.26081854104995722 0.08255022764205934
decision_type=2 2 2 2 2 2 2
left_child=2 -2 3 4 -1 -6 -3
right_child=1 6 -4 -5 5 -7 -8
leaf_value=0 -0.00073670069338311326 0.0017407497189502207 0 0 0 -0.0065251276645394013 0
leaf_weight=231 750 1679 551 165 128 291 488
leaf_count=231 750 1679 551 165 128 291 488
internal_value=0 0.000486131 -0.00089806 -0.0021658 -0.00313528 -0.00462976 0.00119277
internal_weight=0 2917 1366 815 650 419 2167
internal_count=4283 2917 1366 815 650 419 2167
is_linear=0
shrinkage=0.1


Tree=70
num_leaves=8
num_cat=0
split_feature=385 350 149 550 165 306 501
split_gain=0.225039 0.318807 0.243252 0.290881 0.264901 0.322002 0.231334
threshold=0.027489401400089267 0.11591041088104249 0.0973859839141369 -0.046661010012030595 -0.022792535834014412 -0.22530473768711087 -0.17117566615343091
decision_type=2 2 2 2 2 2 2
left_child=2 6 -1 -4 -5 -6 -2
right_child=1 -3 3 4 5 -7 -8
leaf_value=0.00041240027408210027 0.0021966125464417132 -0.00072329841209552029 0 0 0 -0.0045009931809990612 0
leaf_weight=511 1373 529 464 186 122 591 471
leaf_count=511 1373 529 464 186 122 591 471
internal_value=0 0.000768185 -0.000673497 -0.00153119 -0.00260578 -0.00350379 0.00152911
internal_weight=0 2373 1874 1363 899 713 1844
internal_count=4247 2373 1874 1363 899 713 1844
is_linear=0
shrinkage=0.1


Tree=71
num_leaves=8
num_cat=0
split_feature=389 49 589 178 38 451 403
split_gain=0.207654 0.199969 0.290587 0.369439 0.340529 0.318667 0.180042
threshold=0.14726153016090396 -0.19688100367784497 0.29875129461288458 0.0073540415614843377 -0.0025800243020057674 0.29471635818481451 -0.046138022094964974
decision_type=2 2 2 2 2 2 2
left_child=1 -1 -3 4 -4 -6 -2
right_child=6 2 3 -5 5 -7 -8
leaf_value=0 0 0 0 0 0 0.0082522633248317562 -0.0034620909351776642
leaf_weight=2411 188 573 232 187 100 230 284
leaf_count=2411 188 573 232 187 100 230 284
internal_value=0 0.000355823 0.00136752 0.0026796 0.0040178 0.00614891 -0.00184335
internal_weight=0 3733 1322 749 562 330 472
internal_count=4205 3733 1322 749 562 330 472
is_linear=0
shrinkage=0.1


Tree=72
num_leaves=8
num_cat=0
split_feature=485 366 651 662 721 481 688
split_gain=0.246927 0.279516 0.252579 0.234201 0.283239 0.270217 0.304691
threshold=-0.005177055485546588 -0.11433620750904082 -0.098559945821762071 0.14824886620044711 0.20712445676326754 -0.25783902406692499 -0.010809631086885927
decision_type=2 2 2 2 2 2 2
left_child=3 -2 -3 4 -1 -6 -7
right_child=1 2 -4 -5 5 6 -8
leaf_value=0 0 0 0.0053198996012297529 0.00025902788640052514 0 0 -0.0047238360911314274
leaf_weight=668 468 217 269 1834 154 119 492
leaf_count=668 468 217 269 1834 154 119 492
internal_value=0 0.00155025 0.0032355 -0.000233998 -0.00129355 -0.00261471 -0.00360308
internal_weight=0 954 486 3267 1433 765 611
internal_count=4221 954 486 3267 1433 765 611
is_linear=0
shrinkage=0.1


Tree=73
num_leaves=8
num_cat=0
split_feature=43 599 594 106 305 486 605
split_gain=0.205858 0.380071 0.281986 0.213019 0.246106 0.332547 0.204028
threshold=-0.10942483320832251 -0.047033954411745064 -0.12175316736102103 0.014007722958922388 0.20542074739933017 0.21208745241165164 -0.20031011104583737
decision_type=2 2 2 2 2 2 2
left_child=6 -2 -3 4 5 -4 -1
right_child=1 2 3 -5 -6 -7 -8
leaf_value=0 0.00031508694768874178 0 -0.0046539426528476409 0 0 0 0.0026882440811496202
leaf_weight=596 1421 550 714 311 101 124 421
leaf_count=596 1421 550 714 311 101 124 421
internal_value=0 -0.000576078 -0.00162079 -0.00245736 -0.00321047 -0.00380606 0.000992738
internal_weight=0 3221 1800 1250 939 838 1017
internal_count=4238 3221 1800 1250 939 838 1017
is_linear=0
shrinkage=0.1


Tree=74
num_leaves=8
num_cat=0
split_feature=103 138 485 489 356 622 360
split_gain=0.15179 0.344769 0.275341 0.279606 0.358237 0.278475 0.264469
