tree
version=v3
num_class=1
num_tree_per_iteration=1
label_index=0
max_feature_idx=767
objective=regression
feature_names=Column_0 Column_1 Column_2 Column_3 Column_4 Column_5 Column_6 Column_7 Column_8 Column_9 Column_10 Column_11 Column_12 Column_13 Column_14 Column_15 Column_16 Column_17 Column_18 Column_19 Column_20 Column_21 Column_22 Column_23 Column_24 Column_25 Column_26 Column_27 Column_28 Column_29 Column_30 Column_31 Column_32 Column_33 Column_34 Column_35 Column_36 Column_37 Column_38 Column_39 Column_40 Column_41 Column_42 Column_43 Column_44 Column_45 Column_46 Column_47 Column_48 Column_49 Column_50 Column_51 Column_52 Column_53 Column_54 Column_55 Column_56 Column_57 Column_58 Column_59 Column_60 Column_61 Column_62 Column_63 Column_64 Column_65 Column_66 Column_67 Column_68 Column_69 Column_70 Column_71 Column_72 Column_73 Column_74 Column_75 Column_76 Column_77 Column_78 Column_79 Column_80 Column_81 Column_82 Column_83 Column_84 Column_85 Column_86 Column_87 Column_88 Column_89 Column_90 Column_91 Column_92 Column_93 Column_94 Column_95 Column_96 Column_97 Column_98 Column_99 Column_100 Column_101 Column_102 Column_103 Column_104 Column_105 Column_106 Column_107 Column_108 Column_109 Column_110 Column_111 Column_112 Column_113 Column_114 Column_115 Column_116 Column_117 Column_118 Column_119 Column_120 Column_121 Column_122 Column_123 Column_124 Column_125 Column_126 Column_127 Column_128 Column_129 Column_130 Column_131 Column_132 Column_133 Column_134 Column_135 Column_136 Column_137 Column_138 Column_139 Column_140 Column_141 Column_142 Column_143 Column_144 Column_145 Column_146 Column_147 Column_148 Column_149 Column_150 Column_151 Column_152 Column_153 Column_154 Column_155 Column_156 Column_157 Column_158 Column_159 Column_160 Column_161 Column_162 Column_163 Column_164 Column_165 Column_166 Column_167 Column_168 Column_169 Column_170 Column_171 Column_172 Column_173 Column_174 Column_175 Column_176 Column_177 Column_178 Column_179 Column_180 Column_181 Column_182 Column_183 Column_184 Column_185 Column_186 Column_187 Column_188 Column_189 Column_190 Column_191 Column_192 Column_193 Column_194 Column_195 Column_196 Column_197 Column_198 Column_199 Column_200 Column_201 Column_202 Column_203 Column_204 Column_205 Column_206 Column_207 Column_208 Column_209 Column_210 Column_211 Column_212 Column_213 Column_214 Column_215 Column_216 Column_217 Column_218 Column_219 Column_220 Column_221 Column_222 Column_223 Column_224 Column_225 Column_226 Column_227 Column_228 Column_229 Column_230 Column_231 Column_232 Column_233 Column_234 Column_235 Column_236 Column_237 Column_238 Column_239 Column_240 Column_241 Column_242 Column_243 Column_244 Column_245 Column_246 Column_247 Column_248 Column_249 Column_250 Column_251 Column_252 Column_253 Column_254 Column_255 Column_256 Column_257 Column_258 Column_259 Column_260 Column_261 Column_262 Column_263 Column_264 Column_265 Column_266 Column_267 Column_268 Column_269 Column_270 Column_271 Column_272 Column_273 Column_274 Column_275 Column_276 Column_277 Column_278 Column_279 Column_280 Column_281 Column_282 Column_283 Column_284 Column_285 Column_286 Column_287 Column_288 Column_289 Column_290 Column_291 Column_292 Column_293 Column_294 Column_295 Column_296 Column_297 Column_298 Column_299 Column_300 Column_301 Column_302 Column_303 Column_304 Column_305 Column_306 Column_307 Column_308 Column_309 Column_310 Column_311 Column_312 Column_313 Column_314 Column_315 Column_316 Column_317 Column_318 Column_319 Column_320 Column_321 Column_322 Column_323 Column_324 Column_325 Column_326 Column_327 Column_328 Column_329 Column_330 Column_331 Column_332 Column_333 Column_334 Column_335 Column_336 Column_337 Column_338 Column_339 Column_340 Column_341 Column_342 Column_343 Column_344 Column_345 Column_346 Column_347 Column_348 Column_349 Column_350 Column_351 Column_352 Column_353 Column_354 Column_355 Column_356 Column_357 Column_358 Column_359 Column_360 Column_361 Column_362 Column_363 Column_364 Column_365 Column_366 Column_367 Column_368 Column_369 Column_370 Column_371 Column_372 Column_373 Column_374 Column_375 Column_376 Column_377 Column_378 Column_379 Column_380 Column_381 Column_382 Column_383 Column_384 Column_385 Column_386 Column_387 Column_388 Column_389 Column_390 Column_391 Column_392 Column_393 Column_394 Column_395 Column_396 Column_397 Column_398 Column_399 Column_400 Column_401 Column_402 Column_403 Column_404 Column_405 Column_406 Column_407 Column_408 Column_409 Column_410 Column_411 Column_412 Column_413 Column_414 Column_415 Column_416 Column_417 Column_418 Column_419 Column_420 Column_421 Column_422 Column_423 Column_424 Column_425 Column_426 Column_427 Column_428 Column_429 Column_430 Column_431 Column_432 Column_433 Column_434 Column_435 Column_436 Column_437 Column_438 Column_439 Column_440 Column_441 Column_442 Column_443 Column_444 Column_445 Column_446 Column_447 Column_448 Column_449 Column_450 Column_451 Column_452 Column_453 Column_454 Column_455 Column_456 Column_457 Column_458 Column_459 Column_460 Column_461 Column_462 Column_463 Column_464 Column_465 Column_466 Column_467 Column_468 Column_469 Column_470 Column_471 Column_472 Column_473 Column_474 Column_475 Column_476 Column_477 Column_478 Column_479 Column_480 Column_481 Column_482 Column_483 Column_484 Column_485 Column_486 Column_487 Column_488 Column_489 Column_490 Column_491 Column_492 Column_493 Column_494 Column_495 Column_496 Column_497 Column_498 Column_499 Column_500 Column_501 Column_502 Column_503 Column_504 Column_505 Column_506 Column_507 Column_508 Column_509 Column_510 Column_511 Column_512 Column_513 Column_514 Column_515 Column_516 Column_517 Column_518 Column_519 Column_520 Column_521 Column_522 Column_523 Column_524 Column_525 Column_526 Column_527 Column_528 Column_529 Column_530 Column_531 Column_532 Column_533 Column_534 Column_535 Column_536 Column_537 Column_538 Column_539 Column_540 Column_541 Column_542 Column_543 Column_544 Column_545 Column_546 Column_547 Column_548 Column_549 Column_550 Column_551 Column_552 Column_553 Column_554 Column_555 Column_556 Column_557 Column_558 Column_559 Column_560 Column_561 Column_562 Column_563 Column_564 Column_565 Column_566 Column_567 Column_568 Column_569 Column_570 Column_571 Column_572 Column_573 Column_574 Column_575 Column_576 Column_577 Column_578 Column_579 Column_580 Column_581 Column_582 Column_583 Column_584 Column_585 Column_586 Column_587 Column_588 Column_589 Column_590 Column_591 Column_592 Column_593 Column_594 Column_595 Column_596 Column_597 Column_598 Column_599 Column_600 Column_601 Column_602 Column_603 Column_604 Column_605 Column_606 Column_607 Column_608 Column_609 Column_610 Column_611 Column_612 Column_613 Column_614 Column_615 Column_616 Column_617 Column_618 Column_619 Column_620 Column_621 Column_622 Column_623 Column_624 Column_625 Column_626 Column_627 Column_628 Column_629 Column_630 Column_631 Column_632 Column_633 Column_634 Column_635 Column_636 Column_637 Column_638 Column_639 Column_640 Column_641 Column_642 Column_643 Column_644 Column_645 Column_646 Column_647 Column_648 Column_649 Column_650 Column_651 Column_652 Column_653 Column_654 Column_655 Column_656 Column_657 Column_658 Column_659 Column_660 Column_661 Column_662 Column_663 Column_664 Column_665 Column_666 Column_667 Column_668 Column_669 Column_670 Column_671 Column_672 Column_673 Column_674 Column_675 Column_676 Column_677 Column_678 Column_679 Column_680 Column_681 Column_682 Column_683 Column_684 Column_685 Column_686 Column_687 Column_688 Column_689 Column_690 Column_691 Column_692 Column_693 Column_694 Column_695 Column_696 Column_697 Column_698 Column_699 Column_700 Column_701 Column_702 Column_703 Column_704 Column_705 Column_706 Column_707 Column_708 Column_709 Column_710 Column_711 Column_712 Column_713 Column_714 Column_715 Column_716 Column_717 Column_718 Column_719 Column_720 Column_721 Column_722 Column_723 Column_724 Column_725 Column_726 Column_727 Column_728 Column_729 Column_730 Column_731 Column_732 Column_733 Column_734 Column_735 Column_736 Column_737 Column_738 Column_739 Column_740 Column_741 Column_742 Column_743 Column_744 Column_745 Column_746 Column_747 Column_748 Column_749 Column_750 Column_751 Column_752 Column_753 Column_754 Column_755 Column_756 Column_757 Column_758 Column_759 Column_760 Column_761 Column_762 Column_763 Column_764 Column_765 Column_766 Column_767
feature_infos=[-0.84711027145385742:0.30442631244659424] [-0.49399501085281372:0.48365196585655212] [-0.83046507835388184:0.50253158807754517] [-0.69012689590454102:0.44544824957847595] [-0.66892427206039429:0.59394896030426025] [-0.77307242155075073:0.45217147469520569] [-0.32741862535476685:0.85652506351470947] [-0.36509570479393005:1.0983664989471436] [-0.70622068643569946:0.39266011118888855] [-0.7915235161781311:0.28579205274581909] [-0.56772404909133911:0.46862906217575073] [-0.76133525371551514:0.36122843623161316] [-0.73703348636627197:0.56239759922027588] [-0.26350650191307068:0.9784473180770874] [-0.67757230997085571:0.38687920570373535] [-0.32982790470123291:0.90782827138900757] [-0.53501272201538086:0.84420466423034668] [-0.49427258968353271:0.63388687372207642] [-0.29750949144363403:0.66266679763793945] [-0.59008884429931641:0.42953485250473022] [-0.48734772205352783:0.56641179323196411] [-0.93828368186950684:0.13246035575866699] [-0.42857846617698669:0.70240175724029541] [-0.57057291269302368:0.67950838804244995] [-0.4411243200302124:0.50213944911956787] [-0.65526235103607178:0.34472191333770752] [-0.54376620054244995:0.46893921494483948] [-0.55837363004684448:0.52499383687973022] [-0.57257574796676636:0.50266259908676147] [-0.43844836950302124:0.55735838413238525] [-0.56754052639007568:0.61125397682189941] [-0.24880421161651611:0.72928893566131592] [-0.62038344144821167:0.37730288505554199] [-0.75795131921768188:0.33039546012878418] [-0.56195420026779175:0.65474206209182739] [-0.55754506587982178:0.48683041334152222] [-0.29735597968101501:0.83858782052993774] [-0.65679222345352173:0.62500345706939697] [-0.58935773372650146:0.42212322354316711] [-0.35156062245368958:0.72176432609558105] [-0.62967377901077271:0.36806640028953552] [-0.55488425493240356:0.41480761766433716] [-0.5663759708404541:0.79027342796325684] [-0.57023680210113525:0.45553368330001831] [-0.37646538019180298:0.61924618482589722] [-0.73106122016906738:0.41340076923370361] [-3.344066858291626:-1.5279194116592407] [-0.67293083667755127:0.39321509003639221] [-0.75862759351730347:0.34881430864334106] [-0.77572417259216309:0.15057730674743652] [-0.52396130561828613:0.69893640279769897] [-0.78980636596679688:0.48285481333732605] [-0.72177129983901978:0.66979312896728516] [-0.57200890779495239:0.79202204942703247] [-0.33503472805023193:0.86876600980758667] [-0.2529619038105011:1.0219353437423706] [-0.77236664295196533:0.32363590598106384] [-0.44002455472946167:0.86998254060745239] [-0.60725921392440796:0.71116864681243896] [-0.40726029872894287:0.50418078899383545] [-0.30623909831047058:0.76618492603302002] [-0.39189609885215759:0.58660519123077393] [-0.78394210338592529:0.45721730589866638] [-0.71058768033981323:0.46412855386734009] [-0.65185743570327759:0.47501403093338013] [-0.46900144219398499:0.72758841514587402] [-0.51975774765014648:0.27665069699287415] [-0.20605693757534027:1.0610374212265015] [-0.79786056280136108:0.20764867961406708] [-0.33834296464920044:0.83772432804107666] [-0.9440886378288269:0.34199538826942444] [-0.67637956142425537:0.42070907354354858] [-0.29145652055740356:0.67727541923522949] [-0.53240662813186646:0.60090261697769165] [-0.63393592834472656:0.4835231602191925] [-0.85041952133178711:0.510467529296875] [-0.53922450542449951:0.4660874605178833] [-0.23729713261127472:0.90562140941619873] [-0.66398400068283081:0.4239286482334137] [-0.75463229417800903:0.5624578595161438] [-0.43787261843681335:0.5980108380317688] [-0.20549610257148743:0.75687825679779053] [-0.34905463457107544:0.88364005088806152] [-0.52462047338485718:0.80289363861083984] [-0.40861111879348755:0.65222883224487305] [-0.31653264164924622:0.75812679529190063] [-0.87739449739456177:0.35699805617332458] [-0.65059173107147217:0.33205968141555786] [-0.41279983520507812:0.68322765827178955] [-0.01057874783873558:1.147411584854126] [-0.7709660530090332:0.54226970672607422] [-0.65434408187866211:0.53291535377502441] [-0.45384401082992554:0.74134325981140137] [-0.28333792090415955:0.82625770568847656] [-0.37874272465705872:0.93552273511886597] [-0.75094735622406006:0.35451263189315796] [-0.7545434832572937:0.65692073106765747] [-0.3449903130531311:0.53232544660568237] [-0.26469475030899048:0.80690991878509521] [-0.29404756426811218:0.85719990730285645] [-0.21951949596405029:0.97654390335083008] [-0.59047794342041016:0.51692080497741699] [-0.3292694091796875:0.7505638599395752] [-0.95897942781448364:0.42434307932853699] [-0.49289426207542419:0.7791098952293396] [-0.74136173725128174:0.32534477114677429] [-0.61358332633972168:0.63178694248199463] [-0.82682812213897705:0.36684980988502502] [-0.60394889116287231:0.52588260173797607] [-2.8819901943206787:-0.8294748067855835] [-0.39200076460838318:0.93526917695999146] [-0.41929885745048523:0.72695976495742798] [-0.65439802408218384:0.35510203242301941] [-1.0104066133499146:0.13140235841274261] [-0.86141782999038696:0.25057539343833923] [-0.30500540137290955:0.80660092830657959] [-0.23682369291782379:0.77843993902206421] [-0.53351294994354248:0.44870266318321228] [-0.55275529623031616:0.5277477502822876] [-0.70376884937286377:0.62180733680725098] [-0.64710056781768799:0.71773922443389893] [-0.32486793398857117:0.95425611734390259] [-0.73594886064529419:0.55648648738861084] [-0.50237393379211426:1.2053524255752563] [-0.65391159057617188:0.36358389258384705] [-0.12552891671657562:0.81351202726364136] [-0.5137060284614563:0.6303667426109314] [-0.59236586093902588:0.65522867441177368] [-0.32255962491035461:0.85855716466903687] [-0.27411875128746033:0.88552993535995483] [-0.2350621223449707:0.6853753924369812] [-0.13103847205638885:0.92981469631195068] [-0.64436566829681396:0.38576596975326538] [-0.61884868144989014:0.32278984785079956] [-0.77007490396499634:0.34026825428009033] [-0.40898096561431885:0.75980097055435181] [-0.24678146839141846:0.86746490001678467] [-0.64428162574768066:0.38641181588172913] [-0.79089444875717163:0.5380481481552124] [-0.44810149073600769:0.7219243049621582] [-0.90636426210403442:0.174681156873703] [-0.64992916584014893:0.35381573438644409] [-3.3138923645019531:-0.99076592922210693] [-0.50217664241790771:0.77105909585952759] [-0.020911170169711113:1.1467798948287964] [-0.44015428423881531:0.56639736890792847] [-0.49645519256591797:0.53278535604476929] [-0.59334152936935425:0.62853437662124634] [-0.65394461154937744:0.4476165771484375] [-0.30399248003959656:0.77823722362518311] [-0.40306389331817627:0.79625475406646729] [-0.72545748949050903:0.45266124606132507] [-0.65500497817993164:0.30283576250076294] [-0.31593164801597595:0.52104640007019043] [-0.7552344799041748:0.2389225959777832] [-0.47207969427108765:0.51979368925094604] [-1.0567965507507324:0.71609926223754883] [-0.51044315099716187:0.57448363304138184] [-0.31226199865341187:0.90782082080841064] [-0.24591350555419922:1.0283777713775635] [-0.35570424795150757:0.76835203170776367] [-0.67534095048904419:0.46102374792098999] [-0.66367024183273315:0.40690559148788452] [-0.51193755865097046:0.57768386602401733] [-0.76168155670166016:0.4044758677482605] [-0.36727017164230347:0.86091184616088867] [-0.65854620933532715:0.65043020248413086] [-0.55272716283798218:0.89452707767486572] [-0.55885815620422363:0.49238240718841553] [-0.45340099930763245:0.60047274827957153] [-0.62148028612136841:0.37676343321800232] [-0.5466727614402771:0.72228777408599854] [-0.062839105725288391:1.4480024576187134] [-0.71663284301757812:0.32074251770973206] [-0.24476096034049988:0.9520830512046814] [-0.55048888921737671:0.5469125509262085] [-0.66744011640548706:0.64798736572265625] [-0.34188863635063171:0.74009883403778076] [-0.60685330629348755:0.43311566114425659] [-0.42563223838806152:0.64075404405593872] [-4.8502235412597656:0.37406650185585022] [-0.17140674591064453:0.93301713466644287] [-0.39985799789428711:0.69085490703582764] [-0.51413935422897339:0.75407874584197998] [-0.3933032751083374:0.72981142997741699] [-0.79772377014160156:0.32428434491157532] [-0.35606321692466736:0.72430384159088135] [-0.65595102310180664:0.35712370276451111] [-0.43130618333816528:0.77126145362854004] [-0.42595177888870239:0.67524027824401855] [-1.0296394824981689:0.43145313858985901] [-0.84626191854476929:0.29433393478393555] [-0.59181815385818481:0.47149026393890381] [-0.58720016479492188:0.63901084661483765] [-0.30105602741241455:0.95815020799636841] [-0.46134164929389954:0.61342328786849976] [-0.55187380313873291:0.6227264404296875] [-1.3701142072677612:0.12163721024990082] [-0.41056144237518311:0.69488000869750977] [-0.51144731044769287:0.52414578199386597] [-0.64143389463424683:0.40231901407241821] [-0.63536489009857178:0.50583171844482422] [-0.45233011245727539:0.5200120210647583] [-0.33439141511917114:0.72738039493560791] [-1.0388888120651245:0.53608888387680054] [1.7942984104156494:3.9389495849609375] [-0.36303219199180603:0.54889625310897827] [-0.61332809925079346:0.474791020154953] [-0.36952844262123108:0.75499546527862549] [-0.25309461355209351:0.91863977909088135] [-0.79371780157089233:0.57164168357849121] [-0.51767939329147339:0.52605539560317993] [-0.85501861572265625:0.35605183243751526] [-0.58497875928878784:0.63731628656387329] [-0.28213775157928467:0.77987617254257202] [-0.71278506517410278:0.42621332406997681] [-0.43442121148109436:0.6791529655456543] [-0.60179167985916138:0.45830798149108887] [-0.69713997840881348:0.49662518501281738] [-0.55602192878723145:0.4794355034828186] [-0.36222818493843079:0.75629603862762451] [-0.28874990344047546:0.73607903718948364] [-0.52018958330154419:0.55666720867156982] [-0.29055553674697876:1.0182619094848633] [-0.88376766443252563:0.28292691707611084] [-0.90977424383163452:0.93914234638214111] [-0.74802595376968384:0.74080872535705566] [-0.47756808996200562:1.0782978534698486] [-0.62551611661911011:0.71525275707244873] [-1.7823178768157959:-0.38177698850631714] [-0.23324669897556305:0.74500584602355957] [-0.54242873191833496:0.4811931848526001] [-0.5592237114906311:0.73526495695114136] [-0.45778274536132812:0.73627835512161255] [-0.88940548896789551:0.21053303778171539] [-0.60554808378219604:0.62688881158828735] [-0.65227758884429932:0.49428591132164001] [-0.59997576475143433:0.4537108838558197] [-0.34959128499031067:0.66400057077407837] [-0.74506717920303345:0.44266986846923828] [-0.58005309104919434:0.31547832489013672] [-0.42942667007446289:0.85460972785949707] [-0.18448664247989655:0.96071332693099976] [-0.61244326829910278:0.77652907371520996] [-0.55324375629425049:0.61816728115081787] [-0.3386685848236084:0.85177993774414062] [-0.30875480175018311:0.68170315027236938] [-0.77904397249221802:0.54561430215835571] [-0.49916720390319824:0.70157921314239502] [-0.75790470838546753:0.55822724103927612] [-0.32149478793144226:0.74164003133773804] [-0.64808464050292969:0.41153085231781006] [-0.50042343139648438:0.58125007152557373] [-0.92865073680877686:0.24041378498077393] [-0.55096447467803955:0.70760089159011841] [-0.62574201822280884:0.44366204738616943] [-0.18516111373901367:0.79278051853179932] [-0.75938713550567627:0.46019613742828369] [-1.2184247970581055:0.29278844594955444] [-0.81474059820175171:0.33790269494056702] [-0.62000393867492676:0.50768035650253296] [-0.46983647346496582:0.45277363061904907] [-0.32576054334640503:0.75706309080123901] [-0.44252225756645203:0.62373447418212891] [-1.1225676536560059:0.25672134757041931] [-0.72973620891571045:0.41645964980125427] [-0.42664283514022827:0.82968908548355103] [-0.68655270338058472:0.44195428490638733] [-0.33075648546218872:0.68911153078079224] [-0.60090607404708862:0.37414395809173584] [-0.73808830976486206:0.58358055353164673] [-0.82214838266372681:0.48055467009544373] [-0.95093947649002075:0.23773403465747833] [-4.7369365692138672:-0.76332372426986694] [-0.66280001401901245:0.4741981029510498] [-0.5587848424911499:0.46719652414321899] [-0.255806565284729:0.84583878517150879] [-0.38275846838951111:0.81741154193878174] [-0.68145716190338135:0.59774154424667358] [-0.50127488374710083:0.57928258180618286] [-0.29240426421165466:0.68959707021713257] [-0.15820108354091644:0.97152364253997803] [-0.88929027318954468:0.33128520846366882] [-0.15697386860847473:0.95407372713088989] [-0.68323415517807007:0.55193489789962769] [-0.42262163758277893:0.53702014684677124] [-0.59262651205062866:0.59121090173721313] [-1.0669625997543335:0.22898249328136444] [-0.24004562199115753:0.7323155403137207] [-0.68117767572402954:0.50595963001251221] [-1.0429476499557495:0.29494079947471619] [-0.62905144691467285:0.70451736450195312] [-0.72716736793518066:0.49539369344711304] [-0.59762126207351685:0.68624866008758545] [-0.55385202169418335:0.68301308155059814] [-0.59049427509307861:0.45112240314483643] [-0.38428312540054321:0.57047617435455322] [-0.58005213737487793:0.59103161096572876] [-0.469066321849823:0.69134551286697388] [-1.0756514072418213:0.19400414824485779] [-1.0867342948913574:0.34240490198135376] [-0.82371318340301514:0.6591607928276062] [-0.62874990701675415:0.59421974420547485] [-0.5000491738319397:0.49668788909912109] [-1.0284841060638428:0.25030720233917236] [-0.3358837366104126:0.75030136108398438] [-0.67117351293563843:0.2308603972196579] [-0.83879834413528442:0.41356426477432251] [-4.6149053573608398:-0.80223345756530762] [-0.44878146052360535:0.83083176612854004] [-0.64347153902053833:0.44206565618515015] [-0.63750153779983521:0.29946836829185486] [-0.56356960535049438:0.7291109561920166] [-0.66967445611953735:0.32632166147232056] [-0.11953866481781006:1.0039501190185547] [-0.62293905019760132:0.42178425192832947] [-0.76616972684860229:0.27977359294891357] [-0.39857986569404602:0.58707118034362793] [-0.37784627079963684:0.66465610265731812] [-0.75620734691619873:0.31436759233474731] [-0.54169172048568726:0.90560787916183472] [-0.36822238564491272:0.65354299545288086] [-0.24263280630111694:0.79155683517456055] [-0.28179380297660828:0.81888055801391602] [-0.17938670516014099:1.0716416835784912] [-0.91694414615631104:0.35731399059295654] [-0.38033154606819153:0.62642765045166016] [-0.25416091084480286:0.74331516027450562] [-0.46544384956359863:0.57176518440246582] [-0.82987678050994873:0.33758458495140076] [-0.63645321130752563:0.53761333227157593] [-0.78457504510879517:0.49031463265419006] [-0.40913993120193481:0.78965514898300171] [-0.36850476264953613:0.96032774448394775] [-1.015535831451416:0.039933651685714722] [-0.57942855358123779:0.44272622466087341] [-0.8088797926902771:0.32444187998771667] [-0.72761422395706177:0.32447275519371033] [-0.43694400787353516:0.53263694047927856] [-0.76470601558685303:0.27844679355621338] [-0.48769780993461609:0.61986023187637329] [-0.45516374707221985:0.50910884141921997] [-0.70191800594329834:0.20054110884666443] [-0.69012880325317383:0.34006202220916748] [-0.42500865459442139:0.5010981559753418] [-0.27911299467086792:0.78538870811462402] [-0.21073868870735168:0.8790777325630188] [-0.57146722078323364:0.62491327524185181] [-0.74524503946304321:0.40070489048957825] [-0.29620686173439026:1.1681886911392212] [-0.48412135243415833:0.49594628810882568] [-0.30402785539627075:0.71089911460876465] [-0.0016934648156166077:1.4619766473770142] [-0.55044281482696533:0.64164036512374878] [-0.32495012879371643:0.79859179258346558] [-0.75915223360061646:0.39963841438293457] [-0.63321727514266968:0.36967098712921143] [-0.25546622276306152:0.71300405263900757] [-0.50702810287475586:0.52112382650375366] [-0.61295342445373535:0.53194260597229004] [0.38528794050216675:1.6830734014511108] [-0.75070744752883911:0.44540056586265564] [-0.45399379730224609:0.56862461566925049] [-0.58507508039474487:0.39836955070495605] [-0.33321088552474976:1.0256768465042114] [-0.5778815746307373:0.64241868257522583] [-0.87772035598754883:0.37065556645393372] [-0.67475718259811401:0.70430755615234375] [-0.13528800010681152:0.94239968061447144] [-0.64762765169143677:0.40012791752815247] [-0.57064133882522583:0.50843435525894165] [-0.76672923564910889:0.3990788459777832] [-0.4198111891746521:0.8261101245880127] [-0.9744715690612793:0.15617640316486359] [-0.5047837495803833:0.7107386589050293] [-0.83632069826126099:0.19909688830375671] [-0.59334015846252441:0.50405597686767578] [-0.5519402027130127:0.51946520805358887] [-0.69101434946060181:0.29862439632415771] [-0.19007214903831482:1.1816204786300659] [-0.71139383316040039:0.47467586398124695] [-1.4743516445159912:-0.5305790901184082] [-0.63215219974517822:0.34832793474197388] [-0.7241215705871582:0.74403208494186401] [-0.46511253714561462:0.52190423011779785] [-0.47290563583374023:0.5385746955871582] [-0.56317520141601562:0.47628369927406311] [-0.37684008479118347:0.55720382928848267] [-0.74581515789031982:0.27644240856170654] [-0.48330476880073547:0.58425897359848022] [-0.88773280382156372:0.44472050666809082] [-0.523121178150177:0.82795965671539307] [-0.69933640956878662:0.39535373449325562] [-0.771187424659729:0.62625277042388916] [-0.57454711198806763:0.46069738268852234] [-0.40825134515762329:0.70642274618148804] [-1.1579962968826294:0.075686782598495483] [-0.7563251256942749:0.63477593660354614] [-0.62238597869873047:0.46578872203826904] [-0.44049996137619019:0.55417263507843018] [-0.23550334572792053:0.78965526819229126] [-0.39565643668174744:0.70026135444641113] [-0.61485356092453003:0.56135302782058716] [-0.58996748924255371:0.46922862529754639] [-0.22733317315578461:1.0094294548034668] [-1.2005420923233032:-0.18707491457462311] [-0.35049435496330261:0.73336285352706909] [-0.68032896518707275:0.31081631779670715] [-0.68470585346221924:0.66129416227340698] [-0.75988513231277466:0.43532118201255798] [-0.62080353498458862:0.9048607349395752] [-0.69382774829864502:0.69534796476364136] [-0.70681965351104736:0.37498584389686584] [-0.74936842918395996:0.2552255392074585] [-1.1259490251541138:0.427257239818573] [-0.11689528822898865:0.78292173147201538] [-0.58488494157791138:0.62801444530487061] [-0.42013522982597351:0.63501858711242676] [-0.48391351103782654:0.55301380157470703] [-0.53501886129379272:0.57347953319549561] [-0.44271492958068848:0.7020987868309021] [-0.39960461854934692:0.67730975151062012] [0.15403679013252258:1.3990778923034668] [-0.82429397106170654:0.58925831317901611] [-0.60651445388793945:0.70314925909042358] [-0.1415303647518158:1.0924729108810425] [-0.38761958479881287:0.64925789833068848] [-0.33438202738761902:0.77203887701034546] [-0.27621397376060486:0.81972974538803101] [-0.46764811873435974:0.65542280673980713] [-0.63538879156112671:0.43880823254585266] [-0.63510710000991821:0.44700860977172852] [-0.98861038684844971:0.53745287656784058] [-0.52745991945266724:0.4393591582775116] [-0.5423358678817749:0.47120550274848938] [-0.71888399124145508:0.37093749642372131] [-1.0496410131454468:0.19950275123119354] [-0.48050984740257263:0.68239367008209229] [-0.49362039566040039:0.58244454860687256] [-0.49803438782691956:0.58956283330917358] [-0.62176549434661865:0.37918320298194885] [-1.0381823778152466:0.10652759671211243] [-0.53721499443054199:0.52997738122940063] [-0.82753676176071167:0.22212199866771698] [-0.71866565942764282:0.43359473347663879] [-0.79535865783691406:0.89007067680358887] [-0.19924922287464142:0.96370172500610352] [-0.45992249250411987:0.69765067100524902] [-0.26444453001022339:0.86650526523590088] [-0.39981693029403687:0.89537912607192993] [-0.62721163034439087:0.31066018342971802] [-0.36988642811775208:0.85452264547348022] [-0.48958265781402588:0.51846790313720703] [-0.094070121645927429:0.93341237306594849] [-0.33011215925216675:0.53868478536605835] [-0.42655289173126221:0.4909949004650116] [-0.54429721832275391:0.65063464641571045] [-0.059263363480567932:0.87089532613754272] [-0.99903023242950439:0.51705330610275269] [-0.76394438743591309:0.46956723928451538] [-0.50127136707305908:0.65864080190658569] [-0.81208550930023193:0.28936305642127991] [-0.49778145551681519:0.83816498517990112] [-0.60568982362747192:0.50242626667022705] [-0.57005834579467773:0.64378595352172852] [-0.51694285869598389:0.47602760791778564] [-0.61372631788253784:0.40953126549720764] [-0.89695572853088379:0.38896480202674866] [-0.51882761716842651:0.50723749399185181] [-0.5440375804901123:0.67245864868164062] [-2.055056095123291:-0.75776737928390503] [-0.20441533625125885:0.96995729207992554] [-0.65830373764038086:0.51500034332275391] [-0.46937790513038635:0.58116018772125244] [-0.49644047021865845:0.61355865001678467] [-0.63884615898132324:0.44405421614646912] [-0.81026458740234375:0.31981945037841797] [-0.087499931454658508:1.1187938451766968] [-0.45775723457336426:0.69069266319274902] [-0.40957799553871155:0.49576172232627869] [-0.59677731990814209:0.52616578340530396] [-0.73758947849273682:0.38725343346595764] [-0.50884675979614258:0.45702487230300903] [-0.45050615072250366:0.80587542057037354] [-0.49952340126037598:0.50228309631347656] [-0.65496069192886353:0.41388455033302307] [-0.53643691539764404:0.56590425968170166] [-0.66929298639297485:0.54794573783874512] [-0.47752031683921814:0.44297009706497192] [-0.5184599757194519:0.60137808322906494] [-0.76912271976470947:0.29168403148651123] [-0.19700045883655548:1.020843505859375] [-0.31584799289703369:0.80784392356872559] [-0.66485732793807983:0.60093832015991211] [-0.58302438259124756:0.41220062971115112] [-0.64554286003112793:0.36409008502960205] [-0.47243818640708923:0.65108633041381836] [-0.33265548944473267:1.0330312252044678] [-0.46107757091522217:0.60095053911209106] [-0.38702994585037231:0.91050946712493896] [-0.59323304891586304:0.50686782598495483] [-0.97814309597015381:0.23710203170776367] [-1.2482883930206299:0.046295028179883957] [-0.6804928183555603:0.44136601686477661] [-0.18385332822799683:1.1112598180770874] [-0.4254869818687439:0.84609830379486084] [-0.36997732520103455:0.61067813634872437] [-0.66746681928634644:0.57314479351043701] [-0.35997745394706726:0.78862470388412476] [-0.43173879384994507:0.6840319037437439] [-0.83887863159179688:0.71228277683258057] [-0.18144175410270691:0.74660038948059082] [-0.42644667625427246:0.75298589468002319] [-0.49495911598205566:0.38486912846565247] [-0.115717813372612:0.91179180145263672] [-0.41125023365020752:0.7458534836769104] [-0.87292653322219849:0.25364494323730469] [-0.35115247964859009:0.72632443904876709] [-0.47824260592460632:0.5095970630645752] [-0.76850378513336182:0.41229423880577087] [-0.66163551807403564:0.45383569598197937] [-0.81192386150360107:0.49788889288902283] [-0.50794351100921631:0.5566098690032959] [-0.77259957790374756:0.2842286229133606] [-0.44672778248786926:0.54409998655319214] [-0.44941523671150208:0.45025432109832764] [-0.80284339189529419:0.72020870447158813] [-0.35855630040168762:0.7887728214263916] [-0.81369537115097046:0.52796661853790283] [-0.59760570526123047:0.34243807196617126] [-0.4661765992641449:0.82904595136642456] [-0.61881709098815918:0.24137690663337708] [-0.85369068384170532:0.45673254132270813] [-0.66260743141174316:0.77112102508544922] [-0.73339486122131348:0.43069574236869812] [-1.1867928504943848:0.015058755874633789] [-1.0801677703857422:0.33260148763656616] [-0.56457400321960449:0.55671340227127075] [-0.6817278265953064:0.56277334690093994] [-0.53696435689926147:0.62167418003082275] [-0.32427123188972473:0.83689135313034058] [-0.54925072193145752:0.55252301692962646] [-0.57730120420455933:0.4870879054069519] [-0.44728630781173706:0.85849523544311523] [-0.81479513645172119:0.26684635877609253] [-0.65686160326004028:0.77166128158569336] [-0.39724820852279663:0.76477724313735962] [-0.45493301749229431:0.57207036018371582] [-0.7259448766708374:0.60909700393676758] [-0.84046614170074463:0.38035711646080017] [-0.50401139259338379:0.58451050519943237] [-1.1252009868621826:0.28803923726081848] [-0.74099910259246826:0.39713200926780701] [-0.19358687102794647:1.0048680305480957] [-0.72757357358932495:0.40622320771217346] [-0.32353776693344116:0.89217031002044678] [-0.58312726020812988:0.47422689199447632] [-0.52006340026855469:0.62814229726791382] [-0.50157630443572998:0.58346098661422729] [-0.42012584209442139:0.74881702661514282] [-0.88363665342330933:0.19536679983139038] [-0.83540534973144531:0.46127700805664062] [-0.63146328926086426:0.57025212049484253] [-0.57095140218734741:0.6039130687713623] [-0.6478726863861084:0.6555105447769165] [-0.69266039133071899:0.56316715478897095] [-0.54362213611602783:0.55989736318588257] [-0.43409132957458496:0.49363583326339722] [-0.69069671630859375:0.39563536643981934] [-0.53241962194442749:0.58880400657653809] [-0.54905253648757935:0.51464027166366577] [-0.30845710635185242:0.7819218635559082] [-0.29634812474250793:0.81170535087585449] [-0.39065715670585632:0.70079070329666138] [-0.47820216417312622:0.62824618816375732] [-0.43343102931976318:0.86509644985198975] [-0.28760361671447754:0.76416456699371338] [-0.61780095100402832:0.51238644123077393] [-0.84456968307495117:0.3221886157989502] [-0.55393499135971069:0.66794449090957642] [-0.50441676378250122:0.68134528398513794] [-0.72784370183944702:0.53142064809799194] [-0.84670424461364746:0.38416227698326111] [-0.36567220091819763:0.67458200454711914] [-0.52735590934753418:0.76881122589111328] [-0.86871528625488281:0.28598704934120178] [-0.7242577075958252:0.3940691351890564] [-0.62863796949386597:0.39242765307426453] [0.56051343679428101:2.4641931056976318] [-0.17792050540447235:1.023813009262085] [-0.36191999912261963:0.68074184656143188] [-0.40648680925369263:0.40923291444778442] [-0.33813157677650452:0.85185897350311279] [-0.46906238794326782:0.49033838510513306] [-0.67824810743331909:0.42948362231254578] [-0.320995032787323:0.89504951238632202] [-0.85372596979141235:0.22583924233913422] [-0.51118415594100952:0.81900930404663086] [-0.54967343807220459:0.66248643398284912] [-0.53679287433624268:0.61620205640792847] [-0.62198460102081299:0.41923800110816956] [-0.46362826228141785:0.81052392721176147] [-0.21032360196113586:1.0576351881027222] [-0.11268554627895355:0.91567862033843994] [-0.65692764520645142:0.65769690275192261] [-0.93360406160354614:0.31082829833030701] [-1.0507497787475586:0.15084335207939148] [-0.44355645775794983:0.63499420881271362] [-1.0250968933105469:-0.019688617438077927] [-0.34322065114974976:1.016593337059021] [-0.29819318652153015:0.84315448999404907] [-0.53122514486312866:0.48246484994888306] [-0.61645025014877319:0.45705914497375488] [-0.52810835838317871:0.55893445014953613] [-0.46307706832885742:0.56708574295043945] [-0.69004523754119873:0.36403724551200867] [-0.47005879878997803:0.70436191558837891] [-0.4245581328868866:0.89779824018478394] [-0.7517731785774231:0.56140828132629395] [-0.38143467903137207:0.53625941276550293] [-0.48621290922164917:0.8162916898727417] [-0.2668299674987793:1.1220358610153198] [-0.81495809555053711:0.3323822021484375] [-0.67133384943008423:0.65102642774581909] [-0.53480613231658936:0.5059235692024231] [-0.7109561562538147:0.36409479379653931] [-0.73138320446014404:0.34230959415435791] [-0.35243216156959534:0.76952344179153442] [-0.38705655932426453:0.70396846532821655] [-0.77044802904129028:0.34961399435997009] [-0.016085358336567879:1.1450896263122559] [-0.57686972618103027:0.39301970601081848] [-0.40218481421470642:0.72708898782730103] [-0.066822320222854614:1.1122212409973145] [-0.73368912935256958:0.37264499068260193] [-0.81766575574874878:0.19120895862579346] [-0.25724834203720093:0.85945117473602295] [-0.29729694128036499:0.9615967869758606] [-0.60309791564941406:0.50471705198287964] [-0.74927181005477905:0.49496686458587646] [-0.88367611169815063:0.30332770943641663] [-0.56042331457138062:0.77634119987487793] [-0.61311572790145874:0.39072701334953308] [-0.5586322546005249:0.46938309073448181] [-0.58108311891555786:0.57273989915847778] [-0.65136635303497314:0.35366532206535339] [-0.51253378391265869:0.7035973072052002] [-0.37587064504623413:0.73221194744110107] [-0.43224278092384338:0.69799494743347168] [-0.33348789811134338:0.79236769676208496] [-0.41083884239196777:0.77514815330505371] [-0.48367679119110107:0.40524190664291382] [-0.35692831873893738:0.79224741458892822] [-0.43959659337997437:0.86541080474853516] [-1.10725998878479:0.17559172213077545] [-0.39996731281280518:0.81713604927062988] [-0.36421400308609009:0.88645857572555542] [-0.54632830619812012:0.75561761856079102] [-0.40298551321029663:0.614482581615448] [-0.37638759613037109:1.1190272569656372] [-0.25654458999633789:0.73079460859298706] [-0.48385918140411377:0.64404129981994629] [-0.26713895797729492:0.81194663047790527] [-0.61929500102996826:0.52897137403488159] [-0.28982466459274292:0.91962742805480957] [-0.45092934370040894:0.73643410205841064] [-0.60900753736495972:0.43916088342666626] [-3.4010787010192871:-0.79582178592681885] [-0.42766669392585754:0.72869282960891724] [-0.39149767160415649:0.61193394660949707] [-0.4843776524066925:0.85243839025497437] [-0.72459083795547485:0.36012676358222961] [-0.33780714869499207:1.1485201120376587] [-0.50617760419845581:0.76153373718261719] [-0.72663766145706177:0.55331343412399292] [-0.50194764137268066:0.61793482303619385] [-0.80900615453720093:0.26639372110366821] [-0.3894144594669342:0.67493653297424316] [-0.28431746363639832:0.87413305044174194] [-0.39146861433982849:0.84919440746307373] [-0.45998167991638184:0.40309521555900574] [-0.44815778732299805:0.59923034906387329] [-0.58001220226287842:0.55970233678817749] [-0.41074907779693604:0.72302991151809692] [-0.75697159767150879:0.58402442932128906] [-0.83290606737136841:0.32065299153327942] [-0.79091578722000122:0.2903590202331543] [-0.56555438041687012:0.54250037670135498] [-0.3849523663520813:0.73381519317626953] [-0.59494960308074951:0.60082089900970459] [-0.94263732433319092:0.17216527462005615] [-1.0416138172149658:0.17795407772064209] [-0.4534003734588623:0.85580766201019287] [-0.66573196649551392:0.52099812030792236] [-0.72230702638626099:0.28135839104652405] [-0.36802524328231812:0.69204193353652954] [-0.47932511568069458:0.69585144519805908] [-0.78255969285964966:0.30437877774238586] [-0.38901448249816895:0.7099873423576355] [-0.45272299647331238:0.5333365797996521] [-0.44017687439918518:0.60169970989227295] [-0.49080008268356323:0.65256339311599731] [-0.73943227529525757:0.32201206684112549] [-0.65064066648483276:0.7284967303276062] [-0.52526724338531494:0.50885260105133057] [-0.61656016111373901:0.79605221748352051] [-0.5737488865852356:0.70405793190002441] [-0.87131237983703613:0.33440995216369629] [-0.062170989811420441:1.1849597692489624] [-0.56976443529129028:0.57544195652008057] [-0.48330068588256836:0.55013477802276611] [-0.66073179244995117:0.43229395151138306] [-0.40239244699478149:0.61686426401138306] [-0.29846084117889404:0.66787964105606079] [-0.73098617792129517:0.20648850500583649] [-0.11071600764989853:1.1294307708740234] [-0.79345023632049561:0.24998307228088379] [-0.65157705545425415:0.52770090103149414] [-0.54580402374267578:0.59731924533843994] [-0.32632172107696533:0.95499175786972046] [-1.6603773832321167:0.42227521538734436] [-0.28189149498939514:0.72311943769454956] [-0.28395244479179382:0.64178293943405151] [-0.5243193507194519:0.67172020673751831] [-0.44453567266464233:1.0911490917205811] [-0.41749176383018494:0.61708247661590576] [-0.84650874137878418:0.17776444554328918] [-0.61495876312255859:0.57665520906448364] [-0.5812644362449646:0.63659060001373291] [-0.69343143701553345:0.6709783673286438] [-0.47865197062492371:0.73683416843414307] [-0.32335594296455383:0.80704271793365479] [-0.84144431352615356:0.32718268036842346] [-0.84267187118530273:0.28641423583030701] [-0.6225123405456543:0.49076229333877563] [-0.48571944236755371:0.57091981172561646] [-0.67620861530303955:0.53945177793502808] [-0.61418938636779785:0.42038553953170776] [-0.65831142663955688:0.44992232322692871] [-0.52427524328231812:0.79397273063659668] [-0.45765393972396851:0.66626924276351929] [-0.49814033508300781:0.48239618539810181] [-0.62345057725906372:0.46296873688697815] [-0.41365784406661987:0.92352920770645142] [-0.41936254501342773:0.82555437088012695] [-0.49478763341903687:1.0355148315429688] [-0.40279367566108704:0.98102986812591553] [-0.53419721126556396:0.48805069923400879] [-0.79485523700714111:0.40671241283416748] [-0.72115409374237061:0.47168427705764771] [-0.6028100848197937:0.49757954478263855] [-0.21966128051280975:0.74210506677627563] [-8.900059700012207:-2.6617381572723389] [-1.0078452825546265:0.19870805740356445] [-0.97517132759094238:0.27832669019699097] [-0.68122929334640503:0.64995789527893066] [-0.78267258405685425:0.39994728565216064] [-1.0695629119873047:0.24535635113716125] [-0.35967490077018738:0.67518573999404907] [-0.64409691095352173:0.30672544240951538] [-0.44700324535369873:0.89729040861129761] [-0.94103050231933594:0.37712463736534119] [-0.26767203211784363:0.72210925817489624] [-0.71266567707061768:0.3720659613609314] [-0.56106692552566528:0.41025432944297791] [-0.76708972454071045:0.306100994348526] [-0.35061195492744446:0.77078670263290405] [-0.34963288903236389:0.77493125200271606]
tree_sizes=827 780 781 787 788 806 745 794 813 835 771 806 815 814 773 827 776 767 800 786 775 818 776 803 795 752 751 772 773 776 749 793 773 774 800 798 775 756 751 751 812 790 779 789 755 750 752 772 797 792 795 771 752 776 771 773 793 775 785 773 770 789 755 773 771 746 779 777 749 754 772 784 798 764 781 773 799 786 752 748 776 797 754 780 778 818 783 793 774 755 789 808 795 761 816 778 771 751 797 802 770 773 802 778 775 799 777 788 750 778 754 759 745 776 770 747 774 834 754 795 778 801 772 779 779 776 796 778 779 783 747 756 774 752 784 751 778 770 796 772 771 798 772 771 779 778 769 792 751 772 748 769

Tree=0
num_leaves=8
num_cat=0
split_feature=94 484 212 23 449 130 499
split_gain=3.27521 1.4028 1.36755 0.750814 0.658711 0.646176 0.632197
threshold=0.19029313325881961 -0.0010173767805099485 -0.10482718050479888 -0.21990115195512769 0.017213357612490657 0.094850141555070891 0.16835742443799975
decision_type=2 2 2 2 2 2 2
left_child=1 3 -2 -1 -4 -6 -5
right_child=2 -3 4 6 5 -7 -8
leaf_value=3.0538625471920362 3.0538625471920362 3.0538625471920362 3.0538625471920362 3.0459222961154406 3.0538625471920362 3.0609405096228302 3.0538625471920362
leaf_weight=102 732 1025 349 642 315 945 131
leaf_count=102 732 1025 349 642 315 945 131
internal_value=3.05386 3.05129 3.05683 3.04834 3.05848 3.05956 3.04722
internal_weight=0 1900 2341 875 1609 1260 773
internal_count=4241 1900 2341 875 1609 1260 773
is_linear=0
shrinkage=1


Tree=1
num_leaves=8
num_cat=0
split_feature=58 705 564 759 99 554 40
split_gain=3.00726 1.47497 1.16624 1.02746 0.855085 0.574337 0.573784
threshold=0.046717118471860893 -0.040160108357667916 0.10671161115169527 -0.19386318325996396 0.098698928952217116 -0.11074435710906981 0.0020889677107334141
decision_type=2 2 2 2 2 2 2
left_child=1 5 3 -2 -3 -1 -5
right_child=2 4 -4 6 -6 -7 -8
leaf_value=0.003847047968105562 0 0 0 -0.0084495455411467933 0.0071108214557134607 -0.0011961157305899236 0
leaf_weight=311 363 229 916 587 774 797 218
leaf_count=311 363 229 916 587 774 797 218
internal_value=0 0.00273899 -0.00261358 -0.00470876 0.00552218 0 -0.00670325
internal_weight=0 2111 2084 1168 1003 1108 805
internal_count=4195 2111 2084 1168 1003 1108 805
is_linear=0
shrinkage=0.1


Tree=2
num_leaves=8
num_cat=0
split_feature=94 131 229 157 97 422 300
split_gain=2.6486 1.79407 1.21248 0.88083 1.11324 0.845287 0.751459
threshold=0.2089328467845917 0.26588761806488043 -0.99120783805847157 -0.053487356752157204 0.044419281184673316 0.83066990971565258 -0.19146440923213956
decision_type=2 2 2 2 2 2 2
left_child=1 -1 5 -2 -5 6 -3
right_child=3 2 -4 4 -6 -7 -8
leaf_value=0.0009792216591388589 0 -0.010229433405478938 -0.0005117061584036743 0.0058355937385987178 0 0 0
leaf_weight=603 816 604 682 849 400 133 154
leaf_count=603 816 604 682 849 400 133 154
internal_value=0 -0.00287047 -0.00473665 0.00208441 0.00377299 -0.0072812 -0.0085714
internal_weight=0 2176 1573 2065 1249 891 758
internal_count=4241 2176 1573 2065 1249 891 758
is_linear=0
shrinkage=0.1


Tree=3
num_leaves=8
num_cat=0
split_feature=348 710 130 433 131 430 181
split_gain=2.04196 1.34557 0.96615 0.854695 0.684713 0.553405 0.529898
threshold=-0.238176554441452 0.04723030328750611 0.16556186228990558 0.027899922803044323 0.26147727668285375 0.035665519535541541 0.39009021222591406
decision_type=2 2 2 2 2 2 2
left_child=3 -2 -3 4 -1 6 -6
right_child=1 2 -4 -5 5 -7 -8
leaf_value=0 -0.00089014191349617291 0.0003421233599425745 0.0062096342947147035 0 -0.010232576315534019 0 0
leaf_weight=212 1486 956 641 290 420 145 110
leaf_count=212 1486 956 641 290 420 145 110
internal_value=0 0.000968149 0.00308183 -0.00388353 -0.00544501 -0.00700736 -0.00854269
internal_weight=0 3083 1597 1177 887 675 530
internal_count=4260 3083 1597 1177 887 675 530
is_linear=0
shrinkage=0.1


Tree=4
num_leaves=8
num_cat=0
split_feature=463 348 256 492 391 348 318
split_gain=1.8446 1.14982 0.939142 0.67884 0.648071 0.592489 0.669864
threshold=0.099128387868404402 -0.17209906131029126 0.072111912071704878 0.22309438884258273 0.25810103118419653 -0.12134388834238051 0.054565016180276878
decision_type=2 2 2 2 2 2 2
left_child=1 3 -2 -1 -3 6 -4
right_child=2 4 5 -5 -6 -7 -8
leaf_value=0.00033469341659464751 0 0 0 -0.0035684937181725482 0.004680879940674041 0 -0.0099659254548108162
leaf_weight=1147 157 721 102 573 920 174 379
leaf_count=1147 157 721 102 573 920 174 379
internal_value=0 0.000915409 -0.00438721 -0.000608584 0.002887 -0.0061805 -0.00802081
internal_weight=0 3361 812 1720 1641 655 481
internal_count=4173 3361 812 1720 1641 655 481
is_linear=0
shrinkage=0.1


Tree=5
num_leaves=8
num_cat=0
split_feature=58 157 94 242 339 184 97
split_gain=1.72078 1.1364 1.01656 0.771696 0.789264 1.02568 0.708818
threshold=0.049022918567061431 -0.095894396305084215 0.22014158219099048 0.309585452079773 -0.070021975785493837 0.085105329751968398 -0.018993644043803212
decision_type=2 2 2 2 2 2 2
left_child=1 -1 3 -2 5 -5 -3
right_child=2 6 -4 4 -6 -7 -8
leaf_value=-0.0010464468506454396 -0.00022774368956180848 0.0064751547885974082 0 -0.013007091688237575 0 0 0.0010160085781741523
leaf_weight=591 626 600 832 265 210 177 985
leaf_count=591 626 600 832 265 210 177 985
internal_value=0 0.00196117 -0.00204664 -0.00385613 -0.00639779 -0.00884497 0.0034701
internal_weight=0 2176 2110 1278 652 442 1585
internal_count=4286 2176 2110 1278 652 442 1585
is_linear=0
shrinkage=0.1


Tree=6
num_leaves=8
num_cat=0
split_feature=94 242 76 612 586 628 198
split_gain=1.88904 1.17458 1.05036 0.788854 0.699131 0.59202 0.443835
threshold=0.2066517770290375 0.33745731413364416 0.036854559555649764 -0.079656034708023057 -0.23245165497064588 0.06369474902749063 0.02640556171536446
decision_type=2 2 2 2 2 2 2
left_child=1 -1 4 -3 -2 -5 -6
right_child=2 3 -4 5 6 -7 -8
leaf_value=0 0 0 0 -0.0090801408624745124 0 0 0.0058875626837265327
leaf_weight=1357 223 204 862 417 121 162 923
leaf_count=1357 223 204 862 417 121 162 923
internal_value=0 -0.00203112 0.00217394 -0.00512597 0.00402881 -0.00701119 0.00513759
internal_weight=0 2140 2129 783 1267 579 1044
internal_count=4269 2140 2129 783 1267 579 1044
is_linear=0
shrinkage=0.1


Tree=7
num_leaves=8
num_cat=0
split_feature=212 464 204 97 513 348 505
split_gain=1.28208 1.17042 0.82329 0.620742 0.580496 0.651207 0.639404
threshold=-0.10721574351191519 0.082168888300657286 -0.033925889059901231 0.0019375248812139036 -0.042125713080167763 -0.15809912234544751 0.08931301906704904
decision_type=2 2 2 2 2 2 2
left_child=4 2 -2 -3 5 6 -1
right_child=1 3 -4 -5 -6 -7 -8
leaf_value=0 0.0045288814881116433 0.0011140261526520455 0 -0.0034781227682898529 0 0 -0.0075410902921530746
leaf_weight=109 1311 453 414 500 710 335 428
leaf_count=109 1311 453 414 500 710 335 428
internal_value=0 0.00165743 0.00328871 -0.000650888 -0.00188642 -0.00362117 -0.00578092
internal_weight=0 2678 1725 953 1582 872 537
internal_count=4260 2678 1725 953 1582 872 537
is_linear=0
shrinkage=0.1


Tree=8
num_leaves=8
num_cat=0
split_feature=705 85 261 195 132 169 339
split_gain=1.67506 1.35902 0.986362 0.982534 0.580749 0.51158 0.459132
threshold=0.021342489868402485 0.19648252427577975 -0.02057164907455444 -0.11373448371887206 -0.11428887397050856 0.076833881437778487 -0.12092959135770796
decision_type=2 2 2 2 2 2 2
left_child=1 3 5 -1 -5 -2 -3
right_child=2 6 -4 4 -6 -7 -8
leaf_value=-0.0092768327354831436 0.0067326813742186464 -0.0004946454540328758 0 -0.0034724080941931699 0 0 0.0026963489563061023
leaf_weight=278 588 633 421 800 631 172 710
leaf_count=278 588 633 421 800 631 172 710
internal_value=0 -0.00128957 0.00314413 -0.00323995 -0.00163787 0.00532349 0.000735056
internal_weight=0 3052 1181 1709 1431 760 1343
internal_count=4233 3052 1181 1709 1431 760 1343
is_linear=0
shrinkage=0.1


Tree=9
num_leaves=8
num_cat=0
split_feature=639 463 136 415 618 122 702
split_gain=1.23563 1.00651 0.910419 0.868797 0.578059 0.702079 0.546284
threshold=-0.029700756072998043 0.097109645605087294 0.27885821461677557 0.45551767945289617 0.015994286164641384 0.0071849767118692407 -0.16804514825344083
decision_type=2 2 2 2 2 2 2
left_child=1 4 -3 -2 5 -1 -6
right_child=3 2 -4 -5 6 -7 -8
leaf_value=-0.00035580600591971211 0.003442726691915208 -0.0081134008727557407 0 -0.0015416443522192288 0 0.0040265912167607954 -0.005574274345442741
leaf_weight=645 1226 379 205 294 625 503 324
leaf_count=645 1226 379 205 294 625 503 324
internal_value=0 -0.00147365 -0.00520886 0.0020746 -0.000140502 0.00102943 -0.0022029
internal_weight=0 2681 584 1520 2097 1148 949
internal_count=4201 2681 584 1520 2097 1148 949
is_linear=0
shrinkage=0.1


Tree=10
num_leaves=8
num_cat=0
split_feature=107 64 195 105 687 759 58
split_gain=1.56693 1.14731 0.996261 0.842975 0.788074 0.64345 0.639061
threshold=-0.18187630921602246 -0.091709982603788362 0.097659416496753707 -0.11320209875702857 -0.13996304571628568 -0.20563437789678571 0.042356543242931373
decision_type=2 2 2 2 2 2 2
left_child=3 2 4 -1 -2 -6 -7
right_child=1 -3 -4 -5 5 6 -8
leaf_value=0 0 0 0 0.004619151368255448 0 -9.9994626954355299e-05 -0.010456912423305841
leaf_weight=730 104 1441 297 834 173 217 443
leaf_count=730 104 1441 297 834 173 217 443
internal_value=0 -0.00153511 -0.00379548 0.00244705 -0.00544095 -0.00653914 -0.0079823
internal_weight=0 2675 1234 1564 937 833 660
internal_count=4239 2675 1234 1564 937 833 660
is_linear=0
shrinkage=0.1


Tree=11
num_leaves=8
num_cat=0
split_feature=710 449 298 56 242 618 723
split_gain=1.54841 0.863904 0.844556 0.817709 0.50166 0.447886 0.511208
threshold=0.016446262598037723 0.11236833035945894 -0.083800651133060441 -0.27504000067710871 0.25877872109413153 -0.080807540565729127 0.11191594600677492
decision_type=2 2 2 2 2 2 2
left_child=2 5 -1 -4 -5 -2 -7
right_child=1 -3 3 4 -6 6 -8
leaf_value=8.9219872415136525e-05 0.0024789721865563913 0.0034173002357312538 0 0 -0.0068307851506710137 -0.003769947038395532 0
leaf_weight=368 432 1091 208 277 708 488 694
leaf_count=368 432 1091 208 277 708 488 694
internal_value=0 0.00123142 -0.00270236 -0.00407824 -0.00533343 0 -0.0012422
internal_weight=0 2705 1561 1193 985 1614 1182
internal_count=4266 2705 1561 1193 985 1614 1182
is_linear=0
shrinkage=0.1


Tree=12
num_leaves=8
num_cat=0
split_feature=537 158 58 484 157 701 8
split_gain=1.47774 1.04782 0.801184 0.584983 0.610752 0.583366 0.453891
threshold=-0.061737377196550362 0.22973923385143283 0.098115108907222762 0.099979393184185042 0.01345491409301758 -0.03107467200607061 -0.14232485741376874
decision_type=2 2 2 2 2 2 2
left_child=2 5 -1 4 -3 6 -2
right_child=1 3 -4 -5 -6 -7 -8
leaf_value=0.004132114934908092 0 -0.0057378073506960349 -7.6794926079411124e-05 0 0 -0.00090340442080623752 0.0060511832825595139
leaf_weight=1049 318 828 330 282 318 926 264
leaf_count=1049 318 828 330 282 318 926 264
internal_value=0 -0.00128868 0.00267957 -0.00327358 -0.00429625 0.000183691 0.0029685
internal_weight=0 2936 1379 1428 1146 1508 582
internal_count=4315 2936 1379 1428 1146 1508 582
is_linear=0
shrinkage=0.1


Tree=13
num_leaves=8
num_cat=0
split_feature=107 582 451 521 654 131 304
split_gain=1.06612 0.926328 0.704856 0.698085 0.792501 0.633161 0.459607
threshold=-0.15863095223903653 -0.013949463143944739 0.37782368063926702 -0.044509049504995339 -0.31411311030387873 0.26588761806488043 -0.21089874953031537
decision_type=2 2 2 2 2 2 2
left_child=5 2 3 -2 -5 -1 -7
right_child=1 -3 -4 4 -6 6 -8
leaf_value=0.0045092501737134865 0 0.0017353731946054775 0 0 -0.008796839529739869 -0.0013644075527434463 0.0023521281092132983
leaf_weight=655 317 561 889 218 429 595 631
leaf_count=655 317 561 889 218 429 595 631
internal_value=0 -0.00123325 -0.00246345 -0.00435621 -0.00625004 0.0019277 4.75053e-05
internal_weight=0 2414 1853 964 647 1881 1226
internal_count=4295 2414 1853 964 647 1881 1226
is_linear=0
shrinkage=0.1


Tree=14
num_leaves=8
num_cat=0
split_feature=71 710 313 451 64 712 134
split_gain=0.832777 0.802069 0.721321 0.425376 0.398994 0.37671 0.34399
threshold=-0.041733734309673302 0.02295203693211079 -0.15082690119743344 0.2923485934734345 -0.03544571436941623 -0.025208571925759312 -0.078124120831489549
decision_type=2 2 2 2 2 2 2
left_child=1 6 -2 -3 -4 -5 -1
right_child=2 3 4 5 -6 -7 -8
leaf_value=0 0 0 -0.0059091638040383952 0 0 0.003961529346734897 -0.0034722053943165606
leaf_weight=672 659 530 536 129 252 997 405
leaf_count=672 659 530 536 129 252 997 405
internal_value=0 0.000619413 -0.00227873 0.00214595 -0.00432303 0.00324812 -0.00115756
internal_weight=0 2733 1447 1656 788 1126 1077
internal_count=4180 2733 1447 1656 788 1126 1077
is_linear=0
shrinkage=0.1


Tree=15
num_leaves=8
num_cat=0
split_feature=733 711 738 110 103 537 344
split_gain=1.11875 0.955249 0.675612 0.533957 0.502598 0.384092 0.374461
threshold=-0.15034875273704526 -0.10706140100955962 -0.094524074345827089 0.20343770086765292 -0.08494954556226729 0.027853320352733139 0.087813936173915877
decision_type=2 2 2 2 2 2 2
left_child=1 5 3 -3 6 -1 -2
right_child=4 2 -4 -5 -6 -7 -8
leaf_value=0.0017316749263083051 0.00018903972957272158 -0.00785323801539747 0 0 -0.0008822133156706698 -0.0015002193998187269 0.0043466580993309877
leaf_weight=838 767 420 405 230 209 590 821
leaf_count=838 767 420 405 230 209 590 821
internal_value=0 -0.00130922 -0.00361779 -0.00562466 0.00196397 0 0.00272531
internal_weight=0 2483 1055 650 1797 1428 1588
internal_count=4280 2483 1055 650 1797 1428 1588
is_linear=0
shrinkage=0.1


Tree=16
num_leaves=8
num_cat=0
split_feature=677 705 662 231 733 276 547
split_gain=1.13274 0.814384 0.809079 0.873483 0.622211 0.938684 0.533207
threshold=0.11262240633368494 -0.033294627442955964 0.11974565684795381 -0.027077176608145233 -0.16928648948669431 0.22468652576208117 0.26316371560096746
decision_type=2 2 2 2 2 2 2
left_child=1 4 -2 6 5 -1 -4
right_child=2 -3 3 -5 -6 -7 -8
leaf_value=0 -0.00092519130217768035 0 0.0049942019120819102 0 0 -0.0086834357157601055 0
leaf_weight=179 1005 657 934 517 314 442 127
leaf_count=179 1005 657 934 517 314 442 127
internal_value=0 -0.00245263 0.000879726 0.00241843 -0.00435338 -0.00620915 0.00411475
internal_weight=0 1592 2583 1578 935 621 1061
internal_count=4175 1592 2583 1578 935 621 1061
is_linear=0
shrinkage=0.1


Tree=17
num_leaves=8
num_cat=0
split_feature=597 121 662 85 603 304 629
split_gain=0.684896 0.568789 0.6379 0.538198 0.586021 0.524363 0.4244
threshold=0.21599163115024569 0.45028920471668249 0.26049143075942999 0.27681697905063635 0.19033297896385196 -0.23703766614198682 -0.14639658480882642
decision_type=2 2 2 2 2 2 2
left_child=1 2 3 4 -1 -2 -7
right_child=5 -3 -4 -5 -6 6 -8
leaf_value=0 0 0.00012154413968771383 0 0 -0.0069608611384025521 0.0040974472304536307 0
leaf_weight=299 696 1203 343 143 533 822 270
leaf_count=299 696 1203 343 143 533 822 270
internal_value=0 -0.00100288 -0.00249515 -0.0038676 -0.00489875 0.00155318 0.00295832
internal_weight=0 2521 1318 975 832 1788 1092
internal_count=4309 2521 1318 975 832 1788 1092
is_linear=0
shrinkage=0.1


Tree=18
num_leaves=8
num_cat=0
split_feature=12 705 564 663 391 484 572
split_gain=0.83837 1.09168 0.625418 0.675471 0.579877 0.562727 0.468714
threshold=-0.0056185927242040625 0.018943256698548797 0.15880781412124637 -0.14012336730957028 0.36191169917583471 0.098474092781543746 0.088385544717311873
decision_type=2 2 2 2 2 2 2
left_child=1 2 3 -1 5 6 -5
right_child=-2 -3 -4 4 -6 -7 -8
leaf_value=0 0.002231016144159376 0.0014885169443464795 0 -0.00047370536029180924 0 0 -0.0079537687315527645
leaf_weight=322 1111 967 638 315 125 160 643
leaf_count=322 1111 967 638 315 125 160 643
internal_value=0 -0.000948788 -0.00229742 -0.00338024 -0.00445196 -0.00521753 -0.00613538
internal_weight=0 3170 2203 1565 1243 1118 958
internal_count=4281 3170 2203 1565 1243 1118 958
is_linear=0
shrinkage=0.1


Tree=19
num_leaves=8
num_cat=0
split_feature=721 691 103 157 447 213 185
split_gain=0.57121 0.507476 0.473034 0.416782 0.405431 0.445551 0.373262
threshold=0.2893939763307572 -0.22417181730270383 -0.05591029301285743 -0.03907696716487407 -0.040221603587269776 -0.097448028624057756 -0.1690518036484718
decision_type=2 2 2 2 2 2 2
left_child=1 2 6 -2 -3 -6 -1
right_child=3 4 -4 -5 5 -7 -8
leaf_value=0.0029510207284776102 -0.0037146526056708465 0 -0.0035307612742141664 0 0.0073944911760075345 0 0
leaf_weight=538 575 203 303 722 284 127 1533
leaf_count=538 575 203 303 722 284 127 1533
internal_value=0 0.000806883 0 -0.00170415 0.00338128 0.00519072 0.000678267
internal_weight=0 2988 2374 1297 614 411 2071
internal_count=4285 2988 2374 1297 614 411 2071
is_linear=0
shrinkage=0.1


Tree=20
num_leaves=8
num_cat=0
split_feature=639 313 403 18 308 641 235
split_gain=0.653206 0.602072 0.613755 0.456424 0.387998 0.376704 0.368159
threshold=-0.029700756072998043 -0.11511624231934546 0.017812248319387439 0.050462875515222556 -3.658661842346191 0.043473746627569206 -0.11690122261643408
decision_type=2 2 2 2 2 2 2
left_child=1 -1 -3 -2 -4 -5 -7
right_child=3 2 4 5 -6 6 -8
leaf_value=0 -0.00085613676585678854 0 0 0 -0.0075202048886581774 0 0.0048502403389128071
leaf_weight=1753 234 503 103 449 326 179 679
leaf_count=1753 234 503 103 449 326 179 679
internal_value=0 -0.000945335 -0.00300572 0.00163759 -0.00582515 0.00255395 0.00378501
internal_weight=0 2685 932 1541 429 1307 858
internal_count=4226 2685 932 1541 429 1307 858
is_linear=0
shrinkage=0.1


Tree=21
num_leaves=8
num_cat=0
split_feature=58 629 582 513 705 524 310
split_gain=1.00647 0.627521 0.66249 0.621439 0.859322 0.607122 0.542462
threshold=0.043177435174584396 -0.28846189379692072 -0.018344929441809651 -0.13066568970680234 -0.11790209263563155 -0.058372158557176583 -0.13062462955713269
decision_type=2 2 2 2 2 2 2
left_child=3 -2 6 -1 -5 -6 -3
right_child=1 2 -4 4 5 -7 -8
leaf_value=-0.00042127948474865923 0.0012692040846509255 0 8.4483873808827552e-05 0 0 0.0057499068368443602 -0.0047449559052021254
leaf_weight=512 405 418 351 499 232 805 973
leaf_count=512 405 418 351 499 232 805 973
internal_value=0 -0.00140486 -0.00237912 0.0016868 0.00278933 0.0044509 -0.00344228
internal_weight=0 2147 1742 2048 1536 1037 1391
internal_count=4195 2147 1742 2048 1536 1037 1391
is_linear=0
shrinkage=0.1


Tree=22
num_leaves=8
num_cat=0
split_feature=69 650 331 87 513 407 257
split_gain=0.599762 0.525886 0.546745 0.688836 0.469179 0.39953 0.461829
threshold=0.22855447977781299 0.23705467581748965 -0.020084727555513378 -0.19677817076444623 -0.055667908862233155 -0.0073240026831626883 -0.12554369866847989
decision_type=2 2 2 2 2 2 2
left_child=1 -1 3 -3 -2 6 -6
right_child=4 2 -4 -5 5 -7 -8
leaf_value=0 -5.8002071928879524e-05 0 0 -0.0088368321075305341 0 0 0.0042577420117138817
leaf_weight=385 1964 147 145 286 322 155 804
leaf_count=385 1964 147 145 286 322 155 804
internal_value=0 -0.00221405 -0.00415513 -0.00597266 0.000627279 0.00215734 0.00297371
internal_weight=0 963 578 433 3245 1281 1126
internal_count=4208 963 578 433 3245 1281 1126
is_linear=0
shrinkage=0.1


Tree=23
num_leaves=8
num_cat=0
split_feature=384 489 705 333 491 218 276
split_gain=0.790216 0.785117 0.559555 0.569964 0.610247 0.457901 0.443013
threshold=-0.2653020173311233 0.0018299389630556109 0.0054138991981744775 0.19783844053745273 0.19173913449048999 -0.0042482898570597163 0.11447466909885408
decision_type=2 2 2 2 2 2 2
left_child=-1 5 3 -3 -5 -2 -6
right_child=1 2 -4 4 6 -7 -8
leaf_value=0.0067211382459517882 0.0032781776471928082 0 8.919996207415584e-05 0 0 0 -0.0051969473085708463
leaf_weight=162 713 635 950 208 140 363 1006
leaf_count=162 713 635 950 208 140 363 1006
internal_value=0 -0.000381051 -0.00134929 -0.00234511 -0.00350543 0.00169281 -0.00445457
internal_weight=0 4015 2939 1989 1354 1076 1146
internal_count=4177 4015 2939 1989 1354 1076 1146
is_linear=0
shrinkage=0.1


Tree=24
num_leaves=8
num_cat=0
split_feature=550 589 672 7 639 252 376
split_gain=0.673663 0.617675 0.577501 0.547822 0.530647 0.417425 0.397478
threshold=0.037584077566862113 0.32735103368759161 0.27635927498340612 0.21122824400663379 -0.15966442227363584 -0.085019983351230607 0.17118778824806216
decision_type=2 2 2 2 2 2 2
left_child=1 -1 -3 -4 5 -2 -5
right_child=4 2 3 6 -6 -7 -8
leaf_value=-0.00025016725845908696 0 0 0 0.0070517247848785941 -5.9002505888331709e-05 -0.0062360052541756174 0
leaf_weight=1417 111 467 137 461 1193 376 114
leaf_count=1417 111 467 137 461 1193 376 114
internal_value=0 0.000787305 0.00255509 0.00434983 -0.00175018 -0.00463181 0.00574073
internal_weight=0 2596 1179 712 1680 487 575
internal_count=4276 2596 1179 712 1680 487 575
is_linear=0
shrinkage=0.1


Tree=25
num_leaves=8
num_cat=0
split_feature=629 148 614 369 11 327 498
split_gain=0.498028 0.497757 0.453109 0.525706 0.446994 0.482526 0.4478
threshold=-0.19419728219509122 -0.035711091011762612 0.051988210529088981 -0.15704538673162458 -0.061779199168086045 0.090231779962778105 0.11974818259477617
decision_type=2 2 2 2 2 2 2
left_child=4 -2 3 -3 -1 -6 -7
right_child=1 2 -4 -5 5 6 -8
leaf_value=0 0 0 0 -0.0058515311353079212 0 0.0070386421221623396 0
leaf_weight=1492 917 100 425 526 265 313 212
leaf_count=1492 917 100 425 526 265 313 212
internal_value=0 -0.00128419 -0.00279712 -0.00451368 0.000871882 0.00280246 0.0045835
internal_weight=0 1968 1051 626 2282 790 525
internal_count=4250 1968 1051 626 2282 790 525
is_linear=0
shrinkage=0.1


Tree=26
num_leaves=8
num_cat=0
split_feature=197 449 565 297 711 633 94
split_gain=0.557402 0.503052 0.484289 0.575556 0.388546 0.412834 0.422197
threshold=-0.52963614463806141 0.11236833035945894 -0.069770846515893922 -0.1085224002599716 -0.22535606473684308 0.29981441795825964 0.31829087436199194
decision_type=2 2 2 2 2 2 2
left_child=4 -2 -3 -4 -1 -6 -7
right_child=1 2 3 -5 5 6 -8
leaf_value=0 0 0 0 0.0052859665018538948 0 -0.0055108231972596259 0
leaf_weight=242 1981 483 102 636 166 516 102
leaf_count=242 1981 483 102 636 166 516 102
internal_value=0 0.000817979 0.00242375 0.00403499 -0.00182984 -0.00305575 -0.00430413
internal_weight=0 3202 1221 738 1026 784 618
internal_count=4228 3202 1221 738 1026 784 618
is_linear=0
shrinkage=0.1


Tree=27
num_leaves=8
num_cat=0
split_feature=62 85 169 450 410 467 524
split_gain=0.443063 0.562632 0.509249 0.408226 0.381701 0.370104 0.376217
threshold=0.0054196198470890531 0.045521009713411338 -0.082652237266302095 0.041743906214833267 -0.095660239458084093 0.14548926800489428 -0.033972989767789834
decision_type=2 2 2 2 2 2 2
left_child=1 4 -2 5 -1 6 -4
right_child=2 -3 3 -5 -6 -7 -8
leaf_value=-0.0075131524292846551 -0.00017886287309103831 0 0 0 0 0 0.0078718476639651931
leaf_weight=177 230 2928 100 234 118 102 331
leaf_count=177 230 2928 100 234 118 102 331
internal_value=0 -0.000412783 0.00197311 0.0034191 -0.00457518 0.00494783 0.00623386
internal_weight=0 3223 997 767 295 533 431
internal_count=4220 3223 997 767 295 533 431
is_linear=0
shrinkage=0.1


Tree=28
num_leaves=8
num_cat=0
split_feature=218 681 451 195 762 216 453
split_gain=0.452873 0.580555 0.467937 0.538642 0.483418 0.395525 0.491829
threshold=-0.02368783205747604 0.1555096581578255 0.40833155810832983 0.099618852138519301 0.084973260760307326 0.28470332920551306 0.17330109328031543
decision_type=2 2 2 2 2 2 2
left_child=-1 2 3 4 -2 6 -6
right_child=1 -3 -4 -5 5 -7 -8
leaf_value=0.0011378905790152603 0 0.00039286934300499096 0 0 0 0 -0.0087069156514031319
leaf_weight=1923 131 1003 405 143 117 107 415
leaf_count=1923 131 1003 405 143 117 107 415
internal_value=0 -0.000937235 -0.0024154 -0.00368065 -0.00480189 -0.00594559 -0.00706357
internal_weight=0 2321 1318 913 770 639 532
internal_count=4244 2321 1318 913 770 639 532
is_linear=0
shrinkage=0.1


Tree=29
num_leaves=8
num_cat=0
split_feature=712 661 420 403 110 555 702
split_gain=0.469872 0.502072 0.409267 0.459214 0.435995 0.45155 0.603355
threshold=-0.029139690101146695 0.079521920531988158 0.092406462877988829 0.095546133816242232 0.15009270608425143 -0.057520227506756776 -0.20740936696529386
decision_type=2 2 2 2 2 2 2
left_child=1 -1 4 -4 -2 -6 -7
right_child=2 -3 3 -5 5 6 -8
leaf_value=-0.0061344040065323827 0 0 0 -0.0037546729695088921 0 0 0.0077552133073851073
leaf_weight=257 964 303 1502 383 119 350 304
leaf_count=257 964 303 1502 383 119 350 304
internal_value=0 -0.00288193 0.000158379 -0.000654525 0.00139411 0.00316344 0.00432809
internal_weight=0 560 3622 1885 1737 773 654
internal_count=4182 560 3622 1885 1737 773 654
is_linear=0
shrinkage=0.1


Tree=30
num_leaves=8
num_cat=0
split_feature=58 261 206 200 125 276 294
split_gain=0.628923 0.550265 0.324887 0.423812 0.417506 0.324596 0.259981
threshold=0.042356543242931373 0.049805935472249992 0.10873322933912279 -0.21676547080278394 0.15170691907405856 0.16775983572006228 0.097579151391983046
decision_type=2 2 2 2 2 2 2
left_child=2 -2 3 -1 -5 -3 -6
right_child=1 5 -4 4 6 -7 -8
leaf_value=0 0 0 0 0 0 -0.0049767070577754731 0.0047503227900056897
leaf_weight=444 1597 125 514 140 102 465 788
leaf_count=444 1597 125 514 140 102 465 788
internal_value=0 -0.00112519 0.0013307 0.00214297 0.00326902 -0.0037442 0.00413018
internal_weight=0 2187 1988 1474 1030 590 890
internal_count=4175 2187 1988 1474 1030 590 890
is_linear=0
shrinkage=0.1


Tree=31
num_leaves=8
num_cat=0
split_feature=41 763 520 76 29 387 762
split_gain=0.567181 0.790624 0.518762 0.372232 0.466282 0.369369 0.369295
threshold=-0.071827985346317277 -0.03130055591464042 0.036520652472972877 0.042719857767224319 0.11503761261701585 0.11773256957530977 0.25490672886371618
decision_type=2 2 2 2 2 2 2
left_child=1 2 5 4 6 -1 -2
right_child=3 -3 -4 -5 -6 -7 -8
leaf_value=-0.0060640053500499603 0.0037141611955769402 0.00065472005162712013 0 -0.00059621905763723292 0 0 0
leaf_weight=581 918 423 207 984 596 166 349
leaf_count=581 918 423 207 984 596 166 349
internal_value=0 -0.00185908 -0.00361743 0.000573327 0.00152071 -0.00486377 0.00266092
internal_weight=0 1377 954 2847 1863 747 1267
internal_count=4224 1377 954 2847 1863 747 1267
is_linear=0
shrinkage=0.1


Tree=32
num_leaves=8
num_cat=0
split_feature=403 11 250 101 711 239 506
split_gain=0.469635 0.484117 0.430554 0.427208 0.365425 0.362546 0.420004
threshold=-0.0077202692627906791 -0.022731256671249863 0.18712048232555392 0.0073312092572450646 -0.16519784182310102 0.0844128653407097 -0.055394755676388734
decision_type=2 2 2 2 2 2 2
left_child=3 2 -2 5 -4 6 -1
right_child=1 -3 4 -5 -6 -7 -8
leaf_value=0 0 0.0008651535419819796 0 0 -0.0051371005966280919 0 0.0042840633293296472
leaf_weight=116 981 570 240 800 560 210 784
leaf_count=116 981 570 240 800 560 210 784
internal_value=0 -0.00101133 -0.00195672 0.00109538 -0.003729 0.00243172 0.00336469
internal_weight=0 2351 1781 1910 800 1110 900
internal_count=4261 2351 1781 1910 800 1110 900
is_linear=0
shrinkage=0.1


Tree=33
num_leaves=8
num_cat=0
split_feature=107 485 261 42 425 599 451
split_gain=0.491043 0.610314 0.569318 0.458205 0.472701 0.418234 0.407008
threshold=-0.12166735529899596 -0.021971100941300389 -0.05500832945108413 0.20201618969440463 0.20870190858840945 -0.11464049667119978 0.41411358118057257
decision_type=2 2 2 2 2 2 2
left_child=2 3 -1 4 -2 -6 -7
right_child=1 -3 -4 -5 5 6 -8
leaf_value=0.0029219677461652469 0 0.00044478690259743117 0 0 0 -0.0086208091906124617 0
leaf_weight=831 308 650 1520 387 115 364 140
leaf_count=831 308 650 1520 387 115 364 140
internal_value=0 -0.00133829 0.000772229 -0.0026877 -0.00389642 -0.00551111 -0.00675279
internal_weight=0 1964 2351 1314 927 619 504
internal_count=4315 1964 2351 1314 927 619 504
is_linear=0
shrinkage=0.1


Tree=34
num_leaves=8
num_cat=0
split_feature=513 301 52 589 552 141 311
split_gain=0.412575 0.518602 0.421149 0.364163 0.395376 0.333099 0.438476
threshold=-0.089484006166458116 0.25195984542369848 -0.041635038331151002 0.34394969046115881 -0.25542952120304102 0.01542853005230427 -0.27486461400985712
decision_type=2 2 2 2 2 2 2
left_child=2 5 -1 4 -4 6 -2
right_child=1 -3 3 -5 -6 -7 -8
leaf_value=0.0021410485852679131 0 -0.0032612958106303888 0 0 -0.0041184673518930917 0 0.0030035288743210766
leaf_weight=174 194 200 231 708 810 556 1349
leaf_count=174 194 200 231 708 810 556 1349
internal_value=0 0.000779091 -0.00119155 -0.00187426 -0.00306595 0.00145669 0.00224618
internal_weight=0 2299 1923 1749 1041 2099 1543
internal_count=4222 2299 1923 1749 1041 2099 1543
is_linear=0
shrinkage=0.1


Tree=35
num_leaves=8
num_cat=0
split_feature=384 403 492 759 537 255 346
split_gain=0.526574 0.613772 0.403673 0.519555 0.319053 0.342382 0.314888
threshold=-0.26104469597339625 0.095546133816242232 0.083850342780351653 -0.19386318325996396 -0.03167986869812011 -0.023219168186187741 0.39270344376564031
decision_type=2 2 2 2 2 2 2
left_child=-1 4 -3 -4 5 6 -2
right_child=1 2 3 -5 -6 -7 -8
leaf_value=0.0049358033549536046 0.0036240315658294647 0 0 -0.0063402646698762794 -0.00039644742099066558 0 0
leaf_weight=203 727 173 262 388 1949 305 217
leaf_count=203 727 173 262 388 1949 305 217
internal_value=0 -0.000281951 -0.00278113 -0.00400042 0.000169184 0.00154352 0.00260366
internal_weight=0 4021 823 650 3198 1249 944
internal_count=4224 4021 823 650 3198 1249 944
is_linear=0
shrinkage=0.1


Tree=36
num_leaves=8
num_cat=0
split_feature=253 89 456 596 390 763 156
split_gain=0.375646 0.367512 0.557901 0.344851 0.312596 0.353696 0.32159
threshold=-0.35365097224712366 0.33758012950420385 -0.0066647864878177634 -0.26908215880393976 -0.17073726654052732 -0.11943568289279936 -0.039518829435110085
decision_type=2 2 2 2 2 2 2
left_child=-1 -2 3 -3 -5 -6 -7
right_child=1 2 -4 4 5 6 -8
leaf_value=-0.0020432047586982629 -0.001057455921322143 0 0 0 0 0.0061449788340465095 0
leaf_weight=669 760 254 1451 100 307 601 127
leaf_count=669 760 254 1451 100 307 601 127
internal_value=0 0.000517337 0.00115501 0.00259695 0.0033603 0.00392464 0.00517265
internal_weight=0 3600 2840 1389 1135 1035 728
internal_count=4269 3600 2840 1389 1135 1035 728
is_linear=0
shrinkage=0.1


Tree=37
num_leaves=8
num_cat=0
split_feature=195 721 107 255 406 764 366
split_gain=0.595996 0.570287 0.483375 0.421113 0.417516 0.380598 0.464343
threshold=-0.077850479632616029 0.23476511240005496 -0.28493162989616388 -0.092957377433776842 0.027050826698541645 -0.13856551796197888 -0.19108217954635617
decision_type=2 2 2 2 2 2 2
left_child=1 -1 -3 4 -2 -6 -7
right_child=3 2 -4 -5 5 6 -8
leaf_value=0 0 0 -0.0055931039603949228 0 0 0 0.0057713935160725836
leaf_weight=482 311 134 420 1647 359 264 616
leaf_count=482 311 134 420 1647 359 264 616
internal_value=0 -0.00158505 -0.00387191 0.00107338 0.00225681 0.00312111 0.00424736
internal_weight=0 1036 554 3197 1550 1239 880
internal_count=4233 1036 554 3197 1550 1239 880
is_linear=0
shrinkage=0.1


Tree=38
num_leaves=8
num_cat=0
split_feature=105 569 698 696 710 454 489
split_gain=0.480673 0.370724 0.309795 0.30602 0.402953 0.408097 0.421664
threshold=-0.12048164382576941 0.11297883093357088 0.27596926689147955 0.041814327239990241 0.03438598848879338 0.15643747150897983 0.026248022913932804
decision_type=2 2 2 2 2 2 2
left_child=3 -2 -3 -1 5 6 -5
right_child=1 2 -4 4 -6 -7 -8
leaf_value=0 0 0.0044632315840031226 0 0 0 0 -0.0088459023097593736
leaf_weight=866 1796 375 106 105 528 168 253
leaf_count=866 1796 375 106 105 528 168 253
internal_value=0 0.000540592 0.00301502 -0.00151583 -0.00266251 -0.00467599 -0.00659723
internal_weight=0 2277 481 1920 1054 526 358
internal_count=4197 2277 481 1920 1054 526 358
is_linear=0
shrinkage=0.1


Tree=39
num_leaves=8
num_cat=0
split_feature=218 705 249 198 402 613 229
split_gain=0.354128 0.380569 0.410203 0.379843 0.416944 0.407923 0.369059
threshold=-0.0250994274392724 -0.097649544477462755 -0.25605863332748408 0.18817931413650515 0.21205298602581027 -0.02552287187427282 -0.95688822865486134
decision_type=2 2 2 2 2 2 2
left_child=3 2 -2 4 5 -1 -4
right_child=1 -3 6 -5 -6 -7 -8
leaf_value=0 0 0 -0.0053849416932255194 0 0 0.0046026512621814035 0
leaf_weight=107 124 1552 440 944 144 681 269
leaf_count=107 124 1552 440 944 144 681 269
internal_value=0 -0.000697795 -0.00244185 0.00112633 0.00257469 0.00362373 -0.00357643
internal_weight=0 2385 833 1876 932 788 709
internal_count=4261 2385 833 1876 932 788 709
is_linear=0
shrinkage=0.1


Tree=40
num_leaves=8
num_cat=0
split_feature=113 759 421 370 267 176 341
split_gain=0.348528 0.351919 0.478978 0.352253 0.485758 0.539862 0.343112
threshold=-0.434383675456047 -0.18308217823505399 0.073920682072639479 0.16411794722080233 -0.04845007881522178 0.049746397882699973 0.037980228662490852
decision_type=2 2 2 2 2 2 2
left_child=-1 2 -2 4 5 -3 -4
right_child=1 3 6 -5 -6 -7 -8
leaf_value=-0.003562395226649659 0 -0.0037849870902794606 0.0043653185423596077 0.0012405815188778232 0.0013504076609351032 0 0
leaf_weight=267 420 868 606 675 325 749 299
leaf_count=267 420 868 606 675 325 749 299
internal_value=0 0.000156524 0.0015847 -0.0003319 -0.00119471 -0.00208607 0.00299485
internal_weight=0 3942 1325 2617 1942 1617 905
internal_count=4209 3942 1325 2617 1942 1617 905
is_linear=0
shrinkage=0.1


Tree=41
num_leaves=8
num_cat=0
split_feature=662 387 223 221 69 370 38
split_gain=0.51162 0.415077 0.614399 0.483004 0.328136 0.319225 0.292717
threshold=0.14200568199157718 0.10349874943494798 0.085810456424951567 0.23724862933158877 0.20697873085737231 0.18933852016925815 0.12130502611398698
decision_type=2 2 2 2 2 2 2
left_child=1 2 -1 5 -2 6 -4
right_child=4 -3 3 -5 -6 -7 -8
leaf_value=0 -0.00058234780059878896 0.00068698698146790467 -0.0065495116727881707 0 0.001694790297723093 0 0
leaf_weight=439 528 375 575 506 1617 118 104
leaf_count=439 528 375 575 506 1617 118 104
internal_value=0 -0.00130385 -0.00208498 -0.00324452 0.00084795 -0.00482391 -0.0056582
internal_weight=0 2117 1742 1303 2145 797 679
internal_count=4262 2117 1742 1303 2145 797 679
is_linear=0
shrinkage=0.1


Tree=42
num_leaves=8
num_cat=0
split_feature=415 195 643 640 579 244 583
split_gain=0.46247 0.498928 0.525723 0.445535 0.438263 0.424566 0.432849
threshold=0.36548918485641485 0.04706965014338494 -0.032163538038730614 -0.16598904132843015 -0.095223851501941667 -0.094566471874713884 -0.0033829044550657268
decision_type=2 2 2 2 2 2 2
left_child=3 2 4 5 -2 6 -1
right_child=1 -3 -4 -5 -6 -7 -8
leaf_value=0 0 0.00065364394529040756 0 0 -0.0052704792440687893 0 0.005709216495696774
leaf_weight=133 223 454 315 1548 606 521 468
leaf_count=133 223 454 315 1548 606 521 468
internal_value=0 -0.00122523 -0.00250769 0.000913028 -0.00387549 0.00244019 0.00426384
internal_weight=0 1598 1144 2670 829 1122 601
internal_count=4268 1598 1144 2670 829 1122 601
is_linear=0
shrinkage=0.1


Tree=43
num_leaves=8
num_cat=0
split_feature=64 94 147 608 628 178 265
split_gain=0.427182 0.537163 0.377507 0.382686 0.43519 0.312462 0.329662
threshold=-0.1096706949174404 0.2263419181108475 -0.052121520042419427 -0.31439690291881556 0.065094910562038436 -0.060405693948268883 1.0000000180025095e-35
decision_type=2 2 2 2 2 2 2
left_child=1 2 -1 4 -4 -2 -7
right_child=5 -3 3 -5 -6 6 -8
leaf_value=0 0.0019446218139005465 0 -0.0072630606799614379 0 0 0.00014872346343598194 -0.0042854702342141259
leaf_weight=308 1063 796 393 142 141 1229 178
leaf_count=308 1063 796 393 142 141 1229 178
internal_value=0 -0.00138354 -0.00298688 -0.00430934 -0.00553845 0.000602039 0
internal_weight=0 1780 984 676 534 2470 1407
internal_count=4250 1780 984 676 534 2470 1407
is_linear=0
shrinkage=0.1


Tree=44
num_leaves=8
num_cat=0
split_feature=97 750 233 590 581 339 412
split_gain=0.498515 0.364213 0.322583 0.336828 0.357649 0.266245 0.238285
threshold=-0.02000902313739061 0.094460152089595809 0.23577235639095309 0.023393370211124424 -0.15547217428684232 -0.13162787258625028 -0.25759319961071009
decision_type=2 2 2 2 2 2 2
left_child=1 -1 -2 -4 -5 -3 -6
right_child=2 5 3 4 6 -7 -8
leaf_value=0 0 0 0 0 0 0.0064059948197559644 -0.0056713712023277844
leaf_weight=1026 1656 125 593 130 102 222 458
leaf_count=1026 1656 125 593 130 102 222 458
internal_value=0 0.0014297 -0.000860972 -0.00205238 -0.00356562 0.00431078 -0.00469588
internal_weight=0 1373 2939 1283 690 347 560
internal_count=4312 1373 2939 1283 690 347 560
is_linear=0
shrinkage=0.1


Tree=45
num_leaves=8
num_cat=0
split_feature=212 589 282 71 16 318 375
split_gain=0.514099 0.573983 0.542687 0.589159 0.399839 0.288103 0.543406
threshold=-0.098606709390878663 0.32199499011039739 -0.34022763371467585 -0.072892040014266954 -0.16648579388856885 0.124193012714386 -0.2525950670242309
decision_type=2 2 2 2 2 2 2
left_child=5 -2 -3 4 -4 -1 -7
right_child=1 2 3 -5 -6 6 -8
leaf_value=0 0 0 0 0 0.0075696834535289616 -0.004284118699209475 0
leaf_weight=774 1373 222 118 461 436 532 410
leaf_count=774 1373 222 118 461 436 532 410
internal_value=0 0.00122669 0.00279553 0.00385627 0.00615458 -0.000919064 -0.00214407
internal_weight=0 2610 1237 1015 554 1716 942
internal_count=4326 2610 1237 1015 554 1716 942
is_linear=0
shrinkage=0.1


Tree=46
num_leaves=8
num_cat=0
split_feature=712 261 446 190 357 13 170
split_gain=0.507313 0.472326 0.460965 0.416508 0.413729 0.330731 0.310745
threshold=0.15702665597200396 0.041579633951187141 0.35967597365379339 -0.0094677656888961775 0.030337158590555195 0.20356133580207827 -0.12463055178523062
decision_type=2 2 2 2 2 2 2
left_child=1 -1 6 4 -3 -6 -2
right_child=2 3 -4 -5 5 -7 -8
leaf_value=0 0 0 0 0 0 -0.0068549005359037976 0.0052520162432883356
leaf_weight=2124 400 100 498 226 134 382 405
leaf_count=2124 400 100 498 226 134 382 405
internal_value=0 -0.000738632 0.00162834 -0.00274431 -0.00412982 -0.00532712 0.00316509
internal_weight=0 2966 1303 842 616 516 805
internal_count=4269 2966 1303 842 616 516 805
is_linear=0
shrinkage=0.1


Tree=47
num_leaves=8
num_cat=0
split_feature=640 687 751 687 397 715 57
split_gain=0.331966 0.42194 0.538958 0.503985 0.418561 0.777322 0.469548
threshold=-0.10732100903987883 -0.0025083534419536586 0.13007377833127978 -0.12446449697017668 0.091762620955705657 0.16865263879299167 0.40319439768791204
decision_type=2 2 2 2 2 2 2
left_child=4 2 -2 -4 -1 6 -6
right_child=1 -3 3 -5 5 -7 -8
leaf_value=-0.00018917216261407326 0 0 0 -0.0073793612129413825 0.0089407211395350922 0 0
leaf_weight=2028 257 665 131 326 211 506 105
leaf_count=2028 257 665 131 326 211 506 105
internal_value=0 -0.00150047 -0.00320275 -0.00527433 0.000317178 0.00231351 0.00620639
internal_weight=0 1379 714 457 2850 822 316
internal_count=4229 1379 714 457 2850 822 316
is_linear=0
shrinkage=0.1


Tree=48
num_leaves=8
num_cat=0
split_feature=216 584 177 366 583 409 197
split_gain=0.261696 0.373994 0.416694 0.421805 0.331577 0.330279 0.447101
threshold=0.25487013161182409 0.078290335834026351 0.25341054797172552 0.078268729150295271 0.017445955425500873 -0.16433995962142942 -0.52074432373046864
decision_type=2 2 2 2 2 2 2
left_child=1 2 3 -1 -2 6 -6
right_child=4 -3 -4 -5 5 -7 -8
leaf_value=-0.0040466925187101566 -0.0001266768139421664 0.00038553374751075796 0 0 0 0 0.0057379847846441246
leaf_weight=801 518 1082 633 239 132 464 381
leaf_count=801 518 1082 633 239 132 464 381
internal_value=0 -0.000646988 -0.00168185 -0.0029252 0.000989477 0.00220984 0.00396712
internal_weight=0 2755 1673 1040 1495 977 513
internal_count=4250 2755 1673 1040 1495 977 513
is_linear=0
shrinkage=0.1


Tree=49
num_leaves=8
num_cat=0
split_feature=282 38 656 573 429 71 590
split_gain=0.520149 0.493213 0.384432 0.295028 0.206552 0.36593 0.303444
threshold=-0.36041249334812159 0.11980509757995607 0.21887321025133136 0.12121468409895898 0.12144794315099718 -0.054944209754467004 0.027622044086456302
decision_type=2 2 2 2 2 2 2
left_child=3 4 -3 -1 5 -2 -7
right_child=1 2 -4 -5 -6 6 -8
leaf_value=0 0 0.0047257060353578274 0 -0.0047578315439303579 0.00052476780048164504 0 -0.0057667682162825147
leaf_weight=148 930 402 116 351 1635 414 250
leaf_count=148 930 402 116 351 1635 414 250
internal_value=0 0.000235216 0.00314807 -0.00316405 -4.18894e-05 -0.0010084 -0.00281991
internal_weight=0 3747 518 499 3229 1594 664
internal_count=4246 3747 518 499 3229 1594 664
is_linear=0
shrinkage=0.1


Tree=50
num_leaves=8
num_cat=0
split_feature=107 663 391 348 403 48 288
split_gain=0.359702 0.41994 0.395739 0.357194 0.449009 0.336725 0.286513
threshold=-0.12166735529899596 -0.10852642357349394 0.25707077980041509 -0.12911219894886014 0.016727115958929065 -0.22601185739040372 0.21891926229000094
decision_type=2 2 2 2 2 2 2
left_child=2 -2 -1 4 -3 -6 -4
right_child=1 3 6 -5 5 -7 -8
leaf_value=0 0.00045029619017006133 -0.00012946812802670465 0.0032962542007151439 0 0 -0.0075071641153552308 0
leaf_weight=1202 600 585 772 357 102 311 330
leaf_count=1202 600 585 772 357 102 311 330
internal_value=0 -0.00101932 0.000824359 -0.0021233 -0.0031145 -0.00585549 0.00223871
internal_weight=0 1955 2304 1355 998 413 1102
internal_count=4259 1955 2304 1355 998 413 1102
is_linear=0
shrinkage=0.1


Tree=51
num_leaves=8
num_cat=0
split_feature=415 721 153 181 0 564 245
split_gain=0.434641 0.319878 0.420027 0.372744 0.293408 0.361777 0.401889
threshold=0.34827995300292974 0.21675115078687671 0.18361823260784152 0.31807114183902746 -0.23662588745355603 0.016014546155929569 0.27346469461917883
decision_type=2 2 2 2 2 2 2
left_child=4 -2 3 -3 -1 -6 -7
right_child=1 2 -4 -5 5 6 -8
leaf_value=-0.00043435865197773491 0 -0.0047244621311023924 0 0 0 0.003435254315708341 0
leaf_weight=800 616 656 264 323 351 958 284
leaf_count=800 616 656 264 323 351 958 284
internal_value=0 -0.00137531 -0.00232427 -0.00333905 0.000608409 0.00151761 0.00242215
internal_weight=0 1859 1243 979 2393 1593 1242
internal_count=4252 1859 1243 979 2393 1593 1242
is_linear=0
shrinkage=0.1


Tree=52
num_leaves=8
num_cat=0
split_feature=541 712 451 318 344 536 715
split_gain=0.358406 0.307795 0.354481 0.394055 0.295795 0.355316 0.383716
threshold=0.010630082339048387 0.18320938199758532 0.40601247549057012 0.041940439492464072 0.11147179827094079 -0.13483668863773343 0.2451182156801224
decision_type=2 2 2 2 2 2 2
left_child=1 2 3 -1 -2 -6 -7
right_child=4 -3 -4 -5 5 6 -8
leaf_value=0 0 0 0 -0.0039440465940632115 0 0.0056474914380711411 0
leaf_weight=260 1222 646 491 855 285 353 132
leaf_count=260 1222 646 491 855 285 353 132
internal_value=0 -0.00110243 -0.00190282 -0.00289728 0.000676296 0.00224156 0.00391188
internal_weight=0 2252 1606 1115 1992 770 485
internal_count=4244 2252 1606 1115 1992 770 485
is_linear=0
shrinkage=0.1


Tree=53
num_leaves=8
num_cat=0
split_feature=105 403 485 392 582 288 54
split_gain=0.421651 0.459945 0.459644 0.586343 0.397871 0.393551 0.423142
threshold=-0.05696947127580642 -0.012086935341358183 -0.019618602469563481 -0.22810106724500653 0.0095423581078648585 0.1878507882356644 0.27202379703521734
decision_type=2 2 2 2 2 2 2
left_child=1 -1 3 -3 -5 6 -2
right_child=5 2 -4 4 -6 -7 -8
leaf_value=0.00022291995210149776 0.0041874597344076945 0 0 -0.005042625277694961 0 0 0
leaf_weight=1382 602 182 566 818 150 325 189
leaf_count=1382 602 182 566 818 150 325 189
internal_value=0 -0.000768862 -0.00192549 -0.00308691 -0.00416866 0.00146322 0.0028277
internal_weight=0 3098 1716 1150 968 1116 791
internal_count=4214 3098 1716 1150 968 1116 791
is_linear=0
shrinkage=0.1


Tree=54
num_leaves=8
num_cat=0
split_feature=162 392 247 31 553 7 171
split_gain=0.371671 0.486041 0.348741 0.50286 0.367319 0.26948 0.242094
threshold=-0.016684991307556626 -0.10604624077677725 0.14970012009143832 0.089185774326324477 0.15181882679462436 0.3222224116325379 -0.14575244486331937
decision_type=2 2 2 2 2 2 2
left_child=1 -1 3 4 -3 6 -2
right_child=5 2 -4 -5 -6 -7 -8
leaf_value=0 0 0 0 -0.00025329606584734214 -0.0084913848909325771 0 0.002824647077703957
leaf_weight=1254 164 135 262 600 270 775 803
leaf_count=1254 164 135 262 600 270 775 803
internal_value=0 -0.000987527 -0.00240343 -0.00327908 -0.00624511 0.00086096 0.00203027
internal_weight=0 2521 1267 1005 405 1742 967
internal_count=4263 2521 1267 1005 405 1742 967
is_linear=0
shrinkage=0.1


Tree=55
num_leaves=8
num_cat=0
split_feature=304 388 333 363 321 354 453
split_gain=0.288424 0.349531 0.345134 0.337247 0.428343 0.454373 0.445453
threshold=-0.21089874953031537 -0.18288134783506391 0.26512841880321508 -0.13149254769086835 0.16897007077932361 0.064340949058532729 0.22725039720535281
decision_type=2 2 2 2 2 2 2
left_child=2 3 -1 -2 5 6 -5
right_child=1 -3 -4 4 -6 -7 -8
leaf_value=0 0 -0.00012380767052335434 -0.0024491738057231529 0 0 0 0.008481374909513428
leaf_weight=1034 429 953 767 125 223 415 304
leaf_count=1034 429 953 767 125 223 415 304
internal_value=0 0.000841607 -0.000798943 0.00186712 0.00283697 0.00390511 0.0063712
internal_weight=0 2449 1801 1496 1067 844 429
internal_count=4250 2449 1801 1496 1067 844 429
is_linear=0
shrinkage=0.1


Tree=56
num_leaves=8
num_cat=0
split_feature=442 681 209 529 584 268 708
split_gain=0.327375 0.364491 0.355183 0.58438 0.34352 0.515729 0.332474
threshold=0.024460922926664356 0.083926290273666396 0.10959292203187944 -0.05472352355718612 0.071973182260990157 0.083912491798400893 0.52983802556991588
decision_type=2 2 2 2 2 2 2
left_child=2 -2 -1 -4 5 -5 -3
right_child=1 6 3 4 -6 -7 -8
leaf_value=0.00035330475393875515 -0.00011706569932669424 0.003481973745043688 0 0 0 -0.0075787592263985397 0
leaf_weight=900 493 688 1305 123 287 345 117
leaf_count=900 493 688 1305 123 287 345 117
internal_value=0 0.00103064 -0.000809887 -0.0016162 -0.00385575 -0.00559672 0.00249641
internal_weight=0 1298 2960 2060 755 468 805
internal_count=4258 1298 2960 2060 755 468 805
is_linear=0
shrinkage=0.1


Tree=57
num_leaves=8
num_cat=0
split_feature=360 662 725 268 162 629 42
split_gain=0.366163 0.601424 0.470248 0.399333 0.375326 0.353334 0.335831
threshold=0.97010058164596569 0.17947500199079516 -0.045846208930015557 0.10329899191856386 -0.1605022847652435 -0.18609282374382016 0.17021277546882632
decision_type=2 2 2 2 2 2 2
left_child=2 3 5 -2 -5 -1 -6
right_child=1 -3 -4 4 6 -7 -8
leaf_value=0.0053816775833354369 0 0.00099228777798268122 0 0 -0.0049432451034571081 0 0
leaf_weight=390 435 1086 874 138 682 239 338
leaf_count=390 435 1086 874 138 682 239 338
internal_value=0 -0.000479474 0.0014269 -0.00186835 -0.00287235 0.00351296 -0.00361195
internal_weight=0 2679 1503 1593 1158 629 1020
internal_count=4182 2679 1503 1593 1158 629 1020
is_linear=0
shrinkage=0.1


Tree=58
num_leaves=8
num_cat=0
split_feature=373 138 764 641 711 12 14
split_gain=0.292935 0.459038 0.300793 0.321986 0.275052 0.342946 0.364671
threshold=-0.14094218611717221 -0.14757218211889264 -0.13780462741851804 0.0049327313899993905 -0.10706140100955962 -0.061548881232738488 0.057160217314958579
decision_type=2 2 2 2 2 2 2
left_child=4 -2 -3 -4 -1 6 -6
right_child=1 2 3 -5 5 -7 -8
leaf_value=0.00088900361520935717 0 0 0 0.0061568368944379523 -0.0037886454854223089 7.3494761233495455e-06 0
leaf_weight=1863 330 148 109 398 582 574 222
leaf_count=1863 330 148 109 398 582 574 222
internal_value=0 0.00208194 0.00367779 0.00483807 0 -0.000963071 -0.00241971
internal_weight=0 985 655 507 3241 1378 804
internal_count=4226 985 655 507 3241 1378 804
is_linear=0
shrinkage=0.1


Tree=59
num_leaves=8
num_cat=0
split_feature=29 761 48 762 303 19 619
split_gain=0.317304 0.413093 0.475461 0.499119 0.276652 0.308703 0.345696
threshold=0.11325328797101976 -0.13654183596372602 -0.096502348780632005 0.22891655564308169 -0.089921440929174409 -0.062437845394015305 0.10880515724420549
decision_type=2 2 2 2 2 2 2
left_child=1 -1 3 4 -3 6 -6
right_child=-2 2 -4 -5 5 -7 -8
leaf_value=-0.00036981916985962823 -0.0010397595672851875 0 0 0 0.0074593686822778602 0 0
leaf_weight=1055 1354 166 492 416 445 200 111
leaf_count=1055 1354 166 492 416 445 200 111
internal_value=0 0.000771931 0.00176575 0.00279603 0.00409369 0.00490889 0.00619007
internal_weight=0 2885 1830 1338 922 756 556
internal_count=4239 2885 1830 1338 922 756 556
is_linear=0
shrinkage=0.1


Tree=60
num_leaves=8
num_cat=0
split_feature=41 588 645 110 156 156 346
split_gain=0.307661 0.277198 0.534866 0.270867 0.376379 0.408429 0.274718
threshold=-0.099013999104499803 1.7593658566474917 0.025341544300317768 0.072722844779491438 -0.15709488838911054 0.020259521901607517 0.19968421757221225
decision_type=2 2 2 2 2 2 2
left_child=1 -1 -3 -2 -5 6 -6
right_child=3 2 -4 4 5 -7 -8
leaf_value=0 -0.0001928197000885154 -0.0049053900590418677 0 0 0 0 0.0040698105640218233
leaf_weight=438 888 390 141 737 201 512 920
leaf_count=438 888 390 141 737 201 512 920
internal_value=0 -0.0011423 -0.00275703 0.000777158 0.00139972 0.00226897 0.0033381
internal_weight=0 969 531 3258 2370 1633 1121
internal_count=4227 969 531 3258 2370 1633 1121
is_linear=0
shrinkage=0.1


Tree=61
num_leaves=8
num_cat=0
split_feature=589 761 641 648 467 345 42
split_gain=0.320566 0.469859 0.300789 0.34917 0.35071 0.374558 0.294483
threshold=0.364751547574997 -0.18521422892808911 0.22531343251466754 -0.10545230284333228 0.12665652483701709 0.30569860339164739 0.13985450565814975
decision_type=2 2 2 2 2 2 2
left_child=6 -2 3 -3 5 -5 -1
right_child=1 2 -4 4 -6 -7 -8
leaf_value=-0.0017853901142740793 -0.00071788962381785966 0 0 0.0057050746600384745 0 0 4.9926693580545571e-06
leaf_weight=1188 409 148 182 633 100 121 1482
leaf_count=1188 409 148 182 633 100 121 1482
internal_value=0 0.00121805 0.0024055 0.00313676 0.00395385 0.00472836 -0.000561619
internal_weight=0 1593 1184 1002 854 754 2670
internal_count=4263 1593 1184 1002 854 754 2670
is_linear=0
shrinkage=0.1


Tree=62
num_leaves=8
num_cat=0
split_feature=593 745 122 754 307 739 78
split_gain=0.224037 0.320796 0.278017 0.358147 0.292167 0.312213 0.248158
threshold=0.028654817491769794 -0.042207334190607064 -0.0093092350289225561 -0.05003672651946544 -0.0467351097613573 0.19373063743114474 -0.12638210505247113
decision_type=2 2 2 2 2 2 2
left_child=1 6 -2 4 5 -4 -1
right_child=2 -3 3 -5 -6 -7 -8
leaf_value=0 0 0 0.0051914584646620158 0 0 0 -0.0047309963207626884
leaf_weight=125 886 1907 507 194 162 244 298
leaf_count=125 886 1907 507 194 162 244 298
internal_value=0 -0.000648834 0.000794944 0.00191026 0.00288914 0.00374672 -0.00314678
internal_weight=0 2330 1993 1107 913 751 423
internal_count=4323 2330 1993 1107 913 751 423
is_linear=0
shrinkage=0.1


Tree=63
num_leaves=8
num_cat=0
split_feature=658 493 598 620 344 394 481
split_gain=0.333392 0.334858 0.343968 0.304051 0.284025 0.231632 0.282507
threshold=0.075687199831008925 -0.14223021268844602 0.021896485239267353 0.25499482452869421 0.15341244637966159 -0.11221707612276076 0.015508230775594713
decision_type=2 2 2 2 2 2 2
left_child=1 -1 3 4 -3 -2 -7
right_child=5 2 -4 -5 -6 6 -8
leaf_value=0.00050457432693143834 0 -0.0048797299671599877 0 0 0 0.0028239358353098877 0
leaf_weight=947 434 560 913 182 107 949 134
leaf_count=947 434 560 913 182 107 949 134
internal_value=0 -0.000578696 -0.00150946 -0.0029631 -0.0039666 0.00126477 0.00209271
internal_weight=0 2709 1762 849 667 1517 1083
internal_count=4226 2709 1762 849 667 1517 1083
is_linear=0
shrinkage=0.1


Tree=64
num_leaves=8
num_cat=0
split_feature=490 42 456 311 266 7 327
split_gain=0.372953 0.41215 0.374534 0.571327 0.41237 0.407239 0.445729
threshold=-0.01919782534241676 0.17369413375854495 0.0078085884451866159 -0.17160815745592115 -0.07554923370480536 0.40573146939277654 0.088932558894157424
decision_type=2 2 2 2 2 2 2
left_child=2 -2 3 -1 -4 6 -5
right_child=1 -3 4 5 -6 -7 -8
leaf_value=0 -0.0032269798306673175 0 -0.0043775110055823971 0 0 0 0.005880195016254944
leaf_weight=746 734 437 244 246 1163 166 512
leaf_count=746 734 437 244 246 1163 166 512
internal_value=0 -0.00173429 0.000295225 0.00143961 -0.000626589 0.00315099 0.00418036
internal_weight=0 1171 3077 1670 1407 924 758
internal_count=4248 1171 3077 1670 1407 924 758
is_linear=0
shrinkage=0.1


Tree=65
num_leaves=8
num_cat=0
split_feature=761 85 712 333 59 573 728
split_gain=0.299826 0.385241 0.352168 0.312195 0.276968 0.232777 0.209019
threshold=-0.12971469014883039 0.19648252427577975 0.2131694629788399 0.3957249522209168 0.052690111100673682 0.067624256014823927 0.11389240622520448
decision_type=2 2 2 2 2 2 2
left_child=1 2 3 5 -2 -1 -6
right_child=4 -3 -4 -5 6 -7 -8
leaf_value=0 0 0 0 0 0.0027478843591491223 -0.0064032553163953163 0
leaf_weight=110 1765 802 108 132 714 373 208
leaf_count=110 1765 802 108 132 714 373 208
internal_value=0 -0.00127285 -0.00295727 -0.00400091 0.000444802 -0.00518123 0.00189222
internal_weight=0 1525 723 615 2687 483 922
internal_count=4212 1525 723 615 2687 483 922
is_linear=0
shrinkage=0.1


Tree=66
num_leaves=8
num_cat=0
split_feature=487 47 419 160 670 684 299
split_gain=0.287034 0.402291 0.418686 0.370256 0.340177 0.451307 0.342672
threshold=-0.0052966065704822532 -0.066241186112165437 -0.021811273880302903 0.24981759488582614 0.052098112180829055 -0.061958640813827508 -0.10549338907003401
decision_type=2 2 2 2 2 2 2
left_child=1 2 -1 4 -2 6 -6
right_child=3 -3 -4 -5 5 -7 -8
leaf_value=0 0 0 -0.004240377049789623 -0.0016439030128964892 0.0041031025394881763 0 0
leaf_weight=280 657 953 531 315 934 428 148
leaf_count=280 657 953 531 315 934 428 148
internal_value=0 -0.000871062 -0.00257111 0.000785618 0.0014222 0.00227057 0.00337131
internal_weight=0 1764 811 2482 2167 1510 1082
internal_count=4246 1764 811 2482 2167 1510 1082
is_linear=0
shrinkage=0.1


Tree=67
num_leaves=8
num_cat=0
split_feature=594 394 134 28 485 735 506
split_gain=0.344545 0.330695 0.280078 0.272411 0.320618 0.217835 0.285728
threshold=0.019208567216992382 -0.11221707612276076 -0.14069925248622892 -0.051590824499726289 -0.030705139040946957 -0.059860413894057267 0.1450600475072861
decision_type=2 2 2 2 2 2 2
left_child=1 5 -3 -2 -5 -1 -7
right_child=3 2 -4 4 -6 6 -8
leaf_value=0 0 0.0027989605470215393 0 -0.0040318557207613586 0 -0.0031085218821238717 0
leaf_weight=398 198 684 1288 577 335 611 181
leaf_count=398 198 684 1288 577 335 611 181
internal_value=0 0.000194531 0.00113892 -0.00176289 -0.0026018 -0.00085436 -0.0019614
internal_weight=0 3162 1972 1110 912 1190 792
internal_count=4272 3162 1972 1110 912 1190 792
is_linear=0
shrinkage=0.1


Tree=68
num_leaves=8
num_cat=0
split_feature=695 97 226 85 23 568 408
split_gain=0.185545 0.470343 0.383781 0.24466 0.376213 0.299927 0.347103
threshold=0.021430124528706077 -0.013068129774183033 0.024158082902431492 0.12416398525238038 -0.17936668545007703 -0.19804226607084272 -0.021238848567008969
decision_type=2 2 2 2 2 2 2
left_child=1 2 -1 4 -2 -6 -7
right_child=3 -3 -4 -5 5 6 -8
leaf_value=0 0 0 0.0058344416112145192 0 0 0 -0.00600461145068849
leaf_weight=114 314 764 287 2034 113 194 369
leaf_count=114 314 764 287 2034 113 194 369
internal_value=0 0.00102719 0.00384627 -0.000455062 -0.00176176 -0.00317971 -0.00417933
internal_weight=0 1165 401 3024 990 676 563
internal_count=4189 1165 401 3024 990 676 563
is_linear=0
shrinkage=0.1


Tree=69
num_leaves=8
num_cat=0
split_feature=403 712 286 739 518 408 2
split_gain=0.328512 0.314757 0.341066 0.480775 0.399897 0.287652 0.343952
threshold=-0.0097601190209388716 0.12843396514654162 0.098841711878776564 0.15606202185153964 0.10631550848484041 0.018028005957603458 -0.059674449265003197
decision_type=2 2 2 2 2 2 2
left_child=-1 2 -2 4 5 -4 -7
right_child=1 -3 3 -5 -6 6 -8
leaf_value=0.00054820562906349039 0 0 0 0 0 0 -0.010465983400893974
leaf_weight=1878 524 856 146 430 124 100 225
leaf_count=1878 524 856 146 430 124 100 225
internal_value=0 -0.00111077 -0.00198685 -0.00304844 -0.00490802 -0.0062386 -0.00807794
internal_weight=0 2405 1549 1025 595 471 325
internal_count=4283 2405 1549 1025 595 471 325
is_linear=0
shrinkage=0.1


Tree=70
num_leaves=8
num_cat=0
split_feature=737 633 457 95 200 55 355
split_gain=0.265364 0.478193 0.405723 0.493797 0.355229 0.345495 0.336014
threshold=-0.076736025512218461 0.33796627819538122 0.20340852439403537 -0.18068214505910871 -0.1840863302350044 0.32238285243511206 -0.28096385300159449
decision_type=2 2 2 2 2 2 2
left_child=5 2 -2 4 -4 6 -1
right_child=1 -3 3 -5 -6 -7 -8
leaf_value=0 0 -0.00023930887043479223 0 0 0.0068897042796038262 0 -0.0037672942284720252
leaf_weight=220 189 1182 127 261 384 1285 599
leaf_count=220 189 1182 127 261 384 1285 599
internal_value=0 0.000671771 0.00243141 0.00355167 0.00535909 -0.000895311 -0.00250551
internal_weight=0 2143 961 772 511 2104 819
internal_count=4247 2143 961 772 511 2104 819
is_linear=0
shrinkage=0.1


Tree=71
num_leaves=8
num_cat=0
split_feature=421 629 476 635 38 47 29
split_gain=0.232562 0.392815 0.332226 0.326941 0.247092 0.25812 0.250433
threshold=0.13926358520984652 -0.19020842015743253 -0.0066913310438394538 -0.29132893681526179 0.050393991172313697 0.045849716290831573 0.11503761261701585
decision_type=2 2 2 2 2 2 2
left_child=1 4 3 -3 -1 6 -6
right_child=-2 2 -4 -5 5 -7 -8
leaf_value=-0.00067199960008970162 0.00066608734614845668 0 0 -0.0041365851429055944 0.0048361671402703463 0 0
leaf_weight=780 1840 223 143 703 308 105 103
leaf_count=780 1840 223 143 703 308 105 103
internal_value=0 -0.000799004 -0.00225541 -0.00307573 0 0.00202627 0.0033815
internal_weight=0 2365 1069 926 1296 516 411
internal_count=4205 2365 1069 926 1296 516 411
is_linear=0
shrinkage=0.1


Tree=72
num_leaves=8
num_cat=0
split_feature=421 484 442 446 619 527 673
split_gain=0.270484 0.321228 0.311979 0.372068 0.368611 0.370277 0.296419
threshold=0.067337632179260268 -0.16867574304342267 -0.10793334245681761 0.39769348502159124 0.17539726197719577 -0.11128176376223563 0.26545590162277227
decision_type=2 2 2 2 2 2 2
left_child=-1 -2 -3 4 5 -4 -7
right_child=1 2 3 -5 -6 6 -8
leaf_value=-0.0010808817676480932 -0.0025102483645858733 -0.00034639963791820004 0 0 0 0.0040444882434620757 0
leaf_weight=1384 193 489 190 398 174 1236 157
leaf_count=1384 193 489 190 398 174 1236 157
internal_value=0 0.00061924 0.00107998 0.00168863 0.0023696 0.00292587 0.00351943
internal_weight=0 2837 2644 2155 1757 1583 1393
internal_count=4221 2837 2644 2155 1757 1583 1393
is_linear=0
shrinkage=0.1


Tree=73
num_leaves=8
num_cat=0
split_feature=42 462 51 71 67 96 350
split_gain=0.302373 0.465409 0.415087 0.347304 0.490246 0.338448 0.237951
threshold=0.13985450565814975 0.16940128803253177 -0.035218380391597741 -0.11941076815128325 0.33968837559223181 0.10278712958097459 0.1335694417357445
decision_type=2 2 2 2 2 2 2
left_child=1 2 -1 4 5 6 -2
right_child=3 -3 -4 -5 -6 -7 -8
leaf_value=0 0.007466829175690329 0 -0.0042977079589672125 -0.00014839005220749693 0 0 0
leaf_weight=436 259 998 635 1425 278 107 100
leaf_count=436 259 998 635 1425 278 107 100
internal_value=0 -0.00118881 -0.00266001 0.000392021 0.0022525 0.00431512 0.00579625
internal_weight=0 2069 1071 2169 744 466 359
internal_count=4238 2069 1071 2169 744 466 359
is_linear=0
shrinkage=0.1


Tree=74
num_leaves=8
num_cat=0
split_feature=466 360 124 12 485 107 663
split_gain=0.250033 0.458872 0.322085 0.281507 0.400649 0.512178 0.427437
threshold=-0.0011590104550123213 0.96830326318740856 0.14907808601856234 -0.0086604282259941084 -0.017948159016668793 -0.25256837904453272 -0.1479358300566673
decision_type=2 2 2 2 2 2 2
