tree
version=v3
num_class=1
num_tree_per_iteration=1
label_index=0
max_feature_idx=767
objective=regression
feature_names=Column_0 Column_1 Column_2 Column_3 Column_4 Column_5 Column_6 Column_7 Column_8 Column_9 Column_10 Column_11 Column_12 Column_13 Column_14 Column_15 Column_16 Column_17 Column_18 Column_19 Column_20 Column_21 Column_22 Column_23 Column_24 Column_25 Column_26 Column_27 Column_28 Column_29 Column_30 Column_31 Column_32 Column_33 Column_34 Column_35 Column_36 Column_37 Column_38 Column_39 Column_40 Column_41 Column_42 Column_43 Column_44 Column_45 Column_46 Column_47 Column_48 Column_49 Column_50 Column_51 Column_52 Column_53 Column_54 Column_55 Column_56 Column_57 Column_58 Column_59 Column_60 Column_61 Column_62 Column_63 Column_64 Column_65 Column_66 Column_67 Column_68 Column_69 Column_70 Column_71 Column_72 Column_73 Column_74 Column_75 Column_76 Column_77 Column_78 Column_79 Column_80 Column_81 Column_82 Column_83 Column_84 Column_85 Column_86 Column_87 Column_88 Column_89 Column_90 Column_91 Column_92 Column_93 Column_94 Column_95 Column_96 Column_97 Column_98 Column_99 Column_100 Column_101 Column_102 Column_103 Column_104 Column_105 Column_106 Column_107 Column_108 Column_109 Column_110 Column_111 Column_112 Column_113 Column_114 Column_115 Column_116 Column_117 Column_118 Column_119 Column_120 Column_121 Column_122 Column_123 Column_124 Column_125 Column_126 Column_127 Column_128 Column_129 Column_130 Column_131 Column_132 Column_133 Column_134 Column_135 Column_136 Column_137 Column_138 Column_139 Column_140 Column_141 Column_142 Column_143 Column_144 Column_145 Column_146 Column_147 Column_148 Column_149 Column_150 Column_151 Column_152 Column_153 Column_154 Column_155 Column_156 Column_157 Column_158 Column_159 Column_160 Column_161 Column_162 Column_163 Column_164 Column_165 Column_166 Column_167 Column_168 Column_169 Column_170 Column_171 Column_172 Column_173 Column_174 Column_175 Column_176 Column_177 Column_178 Column_179 Column_180 Column_181 Column_182 Column_183 Column_184 Column_185 Column_186 Column_187 Column_188 Column_189 Column_190 Column_191 Column_192 Column_193 Column_194 Column_195 Column_196 Column_197 Column_198 Column_199 Column_200 Column_201 Column_202 Column_203 Column_204 Column_205 Column_206 Column_207 Column_208 Column_209 Column_210 Column_211 Column_212 Column_213 Column_214 Column_215 Column_216 Column_217 Column_218 Column_219 Column_220 Column_221 Column_222 Column_223 Column_224 Column_225 Column_226 Column_227 Column_228 Column_229 Column_230 Column_231 Column_232 Column_233 Column_234 Column_235 Column_236 Column_237 Column_238 Column_239 Column_240 Column_241 Column_242 Column_243 Column_244 Column_245 Column_246 Column_247 Column_248 Column_249 Column_250 Column_251 Column_252 Column_253 Column_254 Column_255 Column_256 Column_257 Column_258 Column_259 Column_260 Column_261 Column_262 Column_263 Column_264 Column_265 Column_266 Column_267 Column_268 Column_269 Column_270 Column_271 Column_272 Column_273 Column_274 Column_275 Column_276 Column_277 Column_278 Column_279 Column_280 Column_281 Column_282 Column_283 Column_284 Column_285 Column_286 Column_287 Column_288 Column_289 Column_290 Column_291 Column_292 Column_293 Column_294 Column_295 Column_296 Column_297 Column_298 Column_299 Column_300 Column_301 Column_302 Column_303 Column_304 Column_305 Column_306 Column_307 Column_308 Column_309 Column_310 Column_311 Column_312 Column_313 Column_314 Column_315 Column_316 Column_317 Column_318 Column_319 Column_320 Column_321 Column_322 Column_323 Column_324 Column_325 Column_326 Column_327 Column_328 Column_329 Column_330 Column_331 Column_332 Column_333 Column_334 Column_335 Column_336 Column_337 Column_338 Column_339 Column_340 Column_341 Column_342 Column_343 Column_344 Column_345 Column_346 Column_347 Column_348 Column_349 Column_350 Column_351 Column_352 Column_353 Column_354 Column_355 Column_356 Column_357 Column_358 Column_359 Column_360 Column_361 Column_362 Column_363 Column_364 Column_365 Column_366 Column_367 Column_368 Column_369 Column_370 Column_371 Column_372 Column_373 Column_374 Column_375 Column_376 Column_377 Column_378 Column_379 Column_380 Column_381 Column_382 Column_383 Column_384 Column_385 Column_386 Column_387 Column_388 Column_389 Column_390 Column_391 Column_392 Column_393 Column_394 Column_395 Column_396 Column_397 Column_398 Column_399 Column_400 Column_401 Column_402 Column_403 Column_404 Column_405 Column_406 Column_407 Column_408 Column_409 Column_410 Column_411 Column_412 Column_413 Column_414 Column_415 Column_416 Column_417 Column_418 Column_419 Column_420 Column_421 Column_422 Column_423 Column_424 Column_425 Column_426 Column_427 Column_428 Column_429 Column_430 Column_431 Column_432 Column_433 Column_434 Column_435 Column_436 Column_437 Column_438 Column_439 Column_440 Column_441 Column_442 Column_443 Column_444 Column_445 Column_446 Column_447 Column_448 Column_449 Column_450 Column_451 Column_452 Column_453 Column_454 Column_455 Column_456 Column_457 Column_458 Column_459 Column_460 Column_461 Column_462 Column_463 Column_464 Column_465 Column_466 Column_467 Column_468 Column_469 Column_470 Column_471 Column_472 Column_473 Column_474 Column_475 Column_476 Column_477 Column_478 Column_479 Column_480 Column_481 Column_482 Column_483 Column_484 Column_485 Column_486 Column_487 Column_488 Column_489 Column_490 Column_491 Column_492 Column_493 Column_494 Column_495 Column_496 Column_497 Column_498 Column_499 Column_500 Column_501 Column_502 Column_503 Column_504 Column_505 Column_506 Column_507 Column_508 Column_509 Column_510 Column_511 Column_512 Column_513 Column_514 Column_515 Column_516 Column_517 Column_518 Column_519 Column_520 Column_521 Column_522 Column_523 Column_524 Column_525 Column_526 Column_527 Column_528 Column_529 Column_530 Column_531 Column_532 Column_533 Column_534 Column_535 Column_536 Column_537 Column_538 Column_539 Column_540 Column_541 Column_542 Column_543 Column_544 Column_545 Column_546 Column_547 Column_548 Column_549 Column_550 Column_551 Column_552 Column_553 Column_554 Column_555 Column_556 Column_557 Column_558 Column_559 Column_560 Column_561 Column_562 Column_563 Column_564 Column_565 Column_566 Column_567 Column_568 Column_569 Column_570 Column_571 Column_572 Column_573 Column_574 Column_575 Column_576 Column_577 Column_578 Column_579 Column_580 Column_581 Column_582 Column_583 Column_584 Column_585 Column_586 Column_587 Column_588 Column_589 Column_590 Column_591 Column_592 Column_593 Column_594 Column_595 Column_596 Column_597 Column_598 Column_599 Column_600 Column_601 Column_602 Column_603 Column_604 Column_605 Column_606 Column_607 Column_608 Column_609 Column_610 Column_611 Column_612 Column_613 Column_614 Column_615 Column_616 Column_617 Column_618 Column_619 Column_620 Column_621 Column_622 Column_623 Column_624 Column_625 Column_626 Column_627 Column_628 Column_629 Column_630 Column_631 Column_632 Column_633 Column_634 Column_635 Column_636 Column_637 Column_638 Column_639 Column_640 Column_641 Column_642 Column_643 Column_644 Column_645 Column_646 Column_647 Column_648 Column_649 Column_650 Column_651 Column_652 Column_653 Column_654 Column_655 Column_656 Column_657 Column_658 Column_659 Column_660 Column_661 Column_662 Column_663 Column_664 Column_665 Column_666 Column_667 Column_668 Column_669 Column_670 Column_671 Column_672 Column_673 Column_674 Column_675 Column_676 Column_677 Column_678 Column_679 Column_680 Column_681 Column_682 Column_683 Column_684 Column_685 Column_686 Column_687 Column_688 Column_689 Column_690 Column_691 Column_692 Column_693 Column_694 Column_695 Column_696 Column_697 Column_698 Column_699 Column_700 Column_701 Column_702 Column_703 Column_704 Column_705 Column_706 Column_707 Column_708 Column_709 Column_710 Column_711 Column_712 Column_713 Column_714 Column_715 Column_716 Column_717 Column_718 Column_719 Column_720 Column_721 Column_722 Column_723 Column_724 Column_725 Column_726 Column_727 Column_728 Column_729 Column_730 Column_731 Column_732 Column_733 Column_734 Column_735 Column_736 Column_737 Column_738 Column_739 Column_740 Column_741 Column_742 Column_743 Column_744 Column_745 Column_746 Column_747 Column_748 Column_749 Column_750 Column_751 Column_752 Column_753 Column_754 Column_755 Column_756 Column_757 Column_758 Column_759 Column_760 Column_761 Column_762 Column_763 Column_764 Column_765 Column_766 Column_767
feature_infos=[-0.84711027145385742:0.30442631244659424] [-0.49399501085281372:0.48365196585655212] [-0.83046507835388184:0.50253158807754517] [-0.69012689590454102:0.44544824957847595] [-0.66892427206039429:0.59394896030426025] [-0.77307242155075073:0.45217147469520569] [-0.32741862535476685:0.85652506351470947] [-0.36509570479393005:1.0983664989471436] [-0.70622068643569946:0.39266011118888855] [-0.7915235161781311:0.28579205274581909] [-0.56772404909133911:0.46862906217575073] [-0.76133525371551514:0.36122843623161316] [-0.73703348636627197:0.56239759922027588] [-0.26350650191307068:0.9784473180770874] [-0.67757230997085571:0.38687920570373535] [-0.32982790470123291:0.90782827138900757] [-0.53501272201538086:0.84420466423034668] [-0.49427258968353271:0.63388687372207642] [-0.29750949144363403:0.66266679763793945] [-0.59008884429931641:0.42953485250473022] [-0.48734772205352783:0.56641179323196411] [-0.93828368186950684:0.13246035575866699] [-0.42857846617698669:0.70240175724029541] [-0.57057291269302368:0.67950838804244995] [-0.4411243200302124:0.50213944911956787] [-0.65526235103607178:0.34472191333770752] [-0.54376620054244995:0.46893921494483948] [-0.55837363004684448:0.52499383687973022] [-0.57257574796676636:0.50266259908676147] [-0.43844836950302124:0.55735838413238525] [-0.56754052639007568:0.61125397682189941] [-0.24880421161651611:0.72928893566131592] [-0.62038344144821167:0.37730288505554199] [-0.75795131921768188:0.33039546012878418] [-0.56195420026779175:0.65474206209182739] [-0.55754506587982178:0.48683041334152222] [-0.29735597968101501:0.83858782052993774] [-0.65679222345352173:0.62500345706939697] [-0.58935773372650146:0.42212322354316711] [-0.35156062245368958:0.72176432609558105] [-0.62967377901077271:0.36806640028953552] [-0.55488425493240356:0.41480761766433716] [-0.5663759708404541:0.79027342796325684] [-0.57023680210113525:0.45553368330001831] [-0.37646538019180298:0.61924618482589722] [-0.73106122016906738:0.41340076923370361] [-3.344066858291626:-1.5279194116592407] [-0.67293083667755127:0.39321509003639221] [-0.75862759351730347:0.34881430864334106] [-0.77572417259216309:0.15057730674743652] [-0.52396130561828613:0.69893640279769897] [-0.78980636596679688:0.48285481333732605] [-0.72177129983901978:0.66979312896728516] [-0.57200890779495239:0.79202204942703247] [-0.33503472805023193:0.86876600980758667] [-0.2529619038105011:1.0219353437423706] [-0.77236664295196533:0.32363590598106384] [-0.44002455472946167:0.86998254060745239] [-0.60725921392440796:0.71116864681243896] [-0.40726029872894287:0.50418078899383545] [-0.30623909831047058:0.76618492603302002] [-0.39189609885215759:0.58660519123077393] [-0.78394210338592529:0.45721730589866638] [-0.71058768033981323:0.46412855386734009] [-0.65185743570327759:0.47501403093338013] [-0.46900144219398499:0.72758841514587402] [-0.51975774765014648:0.27665069699287415] [-0.20605693757534027:1.0610374212265015] [-0.79786056280136108:0.20764867961406708] [-0.33834296464920044:0.83772432804107666] [-0.9440886378288269:0.34199538826942444] [-0.67637956142425537:0.42070907354354858] [-0.29145652055740356:0.67727541923522949] [-0.53240662813186646:0.60090261697769165] [-0.63393592834472656:0.4835231602191925] [-0.85041952133178711:0.510467529296875] [-0.53922450542449951:0.4660874605178833] [-0.23729713261127472:0.90562140941619873] [-0.66398400068283081:0.4239286482334137] [-0.75463229417800903:0.5624578595161438] [-0.43787261843681335:0.5980108380317688] [-0.20549610257148743:0.75687825679779053] [-0.34905463457107544:0.88364005088806152] [-0.52462047338485718:0.80289363861083984] [-0.40861111879348755:0.65222883224487305] [-0.31653264164924622:0.75812679529190063] [-0.87739449739456177:0.35699805617332458] [-0.65059173107147217:0.33205968141555786] [-0.41279983520507812:0.68322765827178955] [-0.01057874783873558:1.147411584854126] [-0.7709660530090332:0.54226970672607422] [-0.65434408187866211:0.53291535377502441] [-0.45384401082992554:0.74134325981140137] [-0.28333792090415955:0.82625770568847656] [-0.37874272465705872:0.93552273511886597] [-0.75094735622406006:0.35451263189315796] [-0.7545434832572937:0.65692073106765747] [-0.3449903130531311:0.53232544660568237] [-0.26469475030899048:0.80690991878509521] [-0.29404756426811218:0.85719990730285645] [-0.21951949596405029:0.97654390335083008] [-0.59047794342041016:0.51692080497741699] [-0.3292694091796875:0.7505638599395752] [-0.95897942781448364:0.42434307932853699] [-0.49289426207542419:0.7791098952293396] [-0.74136173725128174:0.32534477114677429] [-0.61358332633972168:0.63178694248199463] [-0.82682812213897705:0.36684980988502502] [-0.60394889116287231:0.52588260173797607] [-2.8819901943206787:-0.8294748067855835] [-0.39200076460838318:0.93526917695999146] [-0.41929885745048523:0.72695976495742798] [-0.65439802408218384:0.35510203242301941] [-1.0104066133499146:0.13140235841274261] [-0.86141782999038696:0.25057539343833923] [-0.30500540137290955:0.80660092830657959] [-0.23682369291782379:0.77843993902206421] [-0.53351294994354248:0.44870266318321228] [-0.55275529623031616:0.5277477502822876] [-0.70376884937286377:0.62180733680725098] [-0.64710056781768799:0.71773922443389893] [-0.32486793398857117:0.95425611734390259] [-0.73594886064529419:0.55648648738861084] [-0.50237393379211426:1.2053524255752563] [-0.65391159057617188:0.36358389258384705] [-0.12552891671657562:0.81351202726364136] [-0.5137060284614563:0.6303667426109314] [-0.59236586093902588:0.65522867441177368] [-0.32255962491035461:0.85855716466903687] [-0.27411875128746033:0.88552993535995483] [-0.2350621223449707:0.6853753924369812] [-0.13103847205638885:0.92981469631195068] [-0.64436566829681396:0.38576596975326538] [-0.61884868144989014:0.32278984785079956] [-0.77007490396499634:0.34026825428009033] [-0.40898096561431885:0.75980097055435181] [-0.24678146839141846:0.86746490001678467] [-0.64428162574768066:0.38641181588172913] [-0.79089444875717163:0.5380481481552124] [-0.44810149073600769:0.7219243049621582] [-0.90636426210403442:0.174681156873703] [-0.64992916584014893:0.35381573438644409] [-3.3138923645019531:-0.99076592922210693] [-0.50217664241790771:0.77105909585952759] [-0.020911170169711113:1.1467798948287964] [-0.44015428423881531:0.56639736890792847] [-0.49645519256591797:0.53278535604476929] [-0.59334152936935425:0.62853437662124634] [-0.65394461154937744:0.4476165771484375] [-0.30399248003959656:0.77823722362518311] [-0.40306389331817627:0.79625475406646729] [-0.72545748949050903:0.45266124606132507] [-0.65500497817993164:0.30283576250076294] [-0.31593164801597595:0.52104640007019043] [-0.7552344799041748:0.2389225959777832] [-0.47207969427108765:0.51979368925094604] [-1.0567965507507324:0.71609926223754883] [-0.51044315099716187:0.57448363304138184] [-0.31226199865341187:0.90782082080841064] [-0.24591350555419922:1.0283777713775635] [-0.35570424795150757:0.76835203170776367] [-0.67534095048904419:0.46102374792098999] [-0.66367024183273315:0.40690559148788452] [-0.51193755865097046:0.57768386602401733] [-0.76168155670166016:0.4044758677482605] [-0.36727017164230347:0.86091184616088867] [-0.65854620933532715:0.65043020248413086] [-0.55272716283798218:0.89452707767486572] [-0.55885815620422363:0.49238240718841553] [-0.45340099930763245:0.60047274827957153] [-0.62148028612136841:0.37676343321800232] [-0.5466727614402771:0.72228777408599854] [-0.062839105725288391:1.4480024576187134] [-0.71663284301757812:0.32074251770973206] [-0.24476096034049988:0.9520830512046814] [-0.55048888921737671:0.5469125509262085] [-0.66744011640548706:0.64798736572265625] [-0.34188863635063171:0.74009883403778076] [-0.60685330629348755:0.43311566114425659] [-0.42563223838806152:0.64075404405593872] [-4.8502235412597656:0.37406650185585022] [-0.17140674591064453:0.93301713466644287] [-0.39985799789428711:0.69085490703582764] [-0.51413935422897339:0.75407874584197998] [-0.3933032751083374:0.72981142997741699] [-0.79772377014160156:0.32428434491157532] [-0.35606321692466736:0.72430384159088135] [-0.65595102310180664:0.35712370276451111] [-0.43130618333816528:0.77126145362854004] [-0.42595177888870239:0.67524027824401855] [-1.0296394824981689:0.43145313858985901] [-0.84626191854476929:0.29433393478393555] [-0.59181815385818481:0.47149026393890381] [-0.58720016479492188:0.63901084661483765] [-0.30105602741241455:0.95815020799636841] [-0.46134164929389954:0.61342328786849976] [-0.55187380313873291:0.6227264404296875] [-1.3701142072677612:0.12163721024990082] [-0.41056144237518311:0.69488000869750977] [-0.51144731044769287:0.52414578199386597] [-0.64143389463424683:0.40231901407241821] [-0.63536489009857178:0.50583171844482422] [-0.45233011245727539:0.5200120210647583] [-0.33439141511917114:0.72738039493560791] [-1.0388888120651245:0.53608888387680054] [1.7942984104156494:3.9389495849609375] [-0.36303219199180603:0.54889625310897827] [-0.61332809925079346:0.474791020154953] [-0.36952844262123108:0.75499546527862549] [-0.25309461355209351:0.91863977909088135] [-0.79371780157089233:0.57164168357849121] [-0.51767939329147339:0.52605539560317993] [-0.85501861572265625:0.35605183243751526] [-0.58497875928878784:0.63731628656387329] [-0.28213775157928467:0.77987617254257202] [-0.71278506517410278:0.42621332406997681] [-0.43442121148109436:0.6791529655456543] [-0.60179167985916138:0.45830798149108887] [-0.69713997840881348:0.49662518501281738] [-0.55602192878723145:0.4794355034828186] [-0.36222818493843079:0.75629603862762451] [-0.28874990344047546:0.73607903718948364] [-0.52018958330154419:0.55666720867156982] [-0.29055553674697876:1.0182619094848633] [-0.88376766443252563:0.28292691707611084] [-0.90977424383163452:0.93914234638214111] [-0.74802595376968384:0.74080872535705566] [-0.47756808996200562:1.0782978534698486] [-0.62551611661911011:0.71525275707244873] [-1.7823178768157959:-0.38177698850631714] [-0.23324669897556305:0.74500584602355957] [-0.54242873191833496:0.4811931848526001] [-0.5592237114906311:0.73526495695114136] [-0.45778274536132812:0.73627835512161255] [-0.88940548896789551:0.21053303778171539] [-0.60554808378219604:0.62688881158828735] [-0.65227758884429932:0.49428591132164001] [-0.59997576475143433:0.4537108838558197] [-0.34959128499031067:0.66400057077407837] [-0.74506717920303345:0.44266986846923828] [-0.58005309104919434:0.31547832489013672] [-0.42942667007446289:0.85460972785949707] [-0.18448664247989655:0.96071332693099976] [-0.61244326829910278:0.77652907371520996] [-0.55324375629425049:0.61816728115081787] [-0.3386685848236084:0.85177993774414062] [-0.30875480175018311:0.68170315027236938] [-0.77904397249221802:0.54561430215835571] [-0.49916720390319824:0.70157921314239502] [-0.75790470838546753:0.55822724103927612] [-0.32149478793144226:0.74164003133773804] [-0.64808464050292969:0.41153085231781006] [-0.50042343139648438:0.58125007152557373] [-0.92865073680877686:0.24041378498077393] [-0.55096447467803955:0.70760089159011841] [-0.62574201822280884:0.44366204738616943] [-0.18516111373901367:0.79278051853179932] [-0.75938713550567627:0.46019613742828369] [-1.2184247970581055:0.29278844594955444] [-0.81474059820175171:0.33790269494056702] [-0.62000393867492676:0.50768035650253296] [-0.46983647346496582:0.45277363061904907] [-0.32576054334640503:0.75706309080123901] [-0.44252225756645203:0.62373447418212891] [-1.1225676536560059:0.25672134757041931] [-0.72973620891571045:0.41645964980125427] [-0.42664283514022827:0.82968908548355103] [-0.68655270338058472:0.44195428490638733] [-0.33075648546218872:0.68911153078079224] [-0.60090607404708862:0.37414395809173584] [-0.73808830976486206:0.58358055353164673] [-0.82214838266372681:0.48055467009544373] [-0.95093947649002075:0.23773403465747833] [-4.7369365692138672:-0.76332372426986694] [-0.66280001401901245:0.4741981029510498] [-0.5587848424911499:0.46719652414321899] [-0.255806565284729:0.84583878517150879] [-0.38275846838951111:0.81741154193878174] [-0.68145716190338135:0.59774154424667358] [-0.50127488374710083:0.57928258180618286] [-0.29240426421165466:0.68959707021713257] [-0.15820108354091644:0.97152364253997803] [-0.88929027318954468:0.33128520846366882] [-0.15697386860847473:0.95407372713088989] [-0.68323415517807007:0.55193489789962769] [-0.42262163758277893:0.53702014684677124] [-0.59262651205062866:0.59121090173721313] [-1.0669625997543335:0.22898249328136444] [-0.24004562199115753:0.7323155403137207] [-0.68117767572402954:0.50595963001251221] [-1.0429476499557495:0.29494079947471619] [-0.62905144691467285:0.70451736450195312] [-0.72716736793518066:0.49539369344711304] [-0.59762126207351685:0.68624866008758545] [-0.55385202169418335:0.68301308155059814] [-0.59049427509307861:0.45112240314483643] [-0.38428312540054321:0.57047617435455322] [-0.58005213737487793:0.59103161096572876] [-0.469066321849823:0.69134551286697388] [-1.0756514072418213:0.19400414824485779] [-1.0867342948913574:0.34240490198135376] [-0.82371318340301514:0.6591607928276062] [-0.62874990701675415:0.59421974420547485] [-0.5000491738319397:0.49668788909912109] [-1.0284841060638428:0.25030720233917236] [-0.3358837366104126:0.75030136108398438] [-0.67117351293563843:0.2308603972196579] [-0.83879834413528442:0.41356426477432251] [-4.6149053573608398:-0.80223345756530762] [-0.44878146052360535:0.83083176612854004] [-0.64347153902053833:0.44206565618515015] [-0.63750153779983521:0.29946836829185486] [-0.56356960535049438:0.7291109561920166] [-0.66967445611953735:0.32632166147232056] [-0.11953866481781006:1.0039501190185547] [-0.62293905019760132:0.42178425192832947] [-0.76616972684860229:0.27977359294891357] [-0.39857986569404602:0.58707118034362793] [-0.37784627079963684:0.66465610265731812] [-0.75620734691619873:0.31436759233474731] [-0.54169172048568726:0.90560787916183472] [-0.36822238564491272:0.65354299545288086] [-0.24263280630111694:0.79155683517456055] [-0.28179380297660828:0.81888055801391602] [-0.17938670516014099:1.0716416835784912] [-0.91694414615631104:0.35731399059295654] [-0.38033154606819153:0.62642765045166016] [-0.25416091084480286:0.74331516027450562] [-0.46544384956359863:0.57176518440246582] [-0.82987678050994873:0.33758458495140076] [-0.63645321130752563:0.53761333227157593] [-0.78457504510879517:0.49031463265419006] [-0.40913993120193481:0.78965514898300171] [-0.36850476264953613:0.96032774448394775] [-1.015535831451416:0.039933651685714722] [-0.57942855358123779:0.44272622466087341] [-0.8088797926902771:0.32444187998771667] [-0.72761422395706177:0.32447275519371033] [-0.43694400787353516:0.53263694047927856] [-0.76470601558685303:0.27844679355621338] [-0.48769780993461609:0.61986023187637329] [-0.45516374707221985:0.50910884141921997] [-0.70191800594329834:0.20054110884666443] [-0.69012880325317383:0.34006202220916748] [-0.42500865459442139:0.5010981559753418] [-0.27911299467086792:0.78538870811462402] [-0.21073868870735168:0.8790777325630188] [-0.57146722078323364:0.62491327524185181] [-0.74524503946304321:0.40070489048957825] [-0.29620686173439026:1.1681886911392212] [-0.48412135243415833:0.49594628810882568] [-0.30402785539627075:0.71089911460876465] [-0.0016934648156166077:1.4619766473770142] [-0.55044281482696533:0.64164036512374878] [-0.32495012879371643:0.79859179258346558] [-0.75915223360061646:0.39963841438293457] [-0.63321727514266968:0.36967098712921143] [-0.25546622276306152:0.71300405263900757] [-0.50702810287475586:0.52112382650375366] [-0.61295342445373535:0.53194260597229004] [0.38528794050216675:1.6830734014511108] [-0.75070744752883911:0.44540056586265564] [-0.45399379730224609:0.56862461566925049] [-0.58507508039474487:0.39836955070495605] [-0.33321088552474976:1.0256768465042114] [-0.5778815746307373:0.64241868257522583] [-0.87772035598754883:0.37065556645393372] [-0.67475718259811401:0.70430755615234375] [-0.13528800010681152:0.94239968061447144] [-0.64762765169143677:0.40012791752815247] [-0.57064133882522583:0.50843435525894165] [-0.76672923564910889:0.3990788459777832] [-0.4198111891746521:0.8261101245880127] [-0.9744715690612793:0.15617640316486359] [-0.5047837495803833:0.7107386589050293] [-0.83632069826126099:0.19909688830375671] [-0.59334015846252441:0.50405597686767578] [-0.5519402027130127:0.51946520805358887] [-0.69101434946060181:0.29862439632415771] [-0.19007214903831482:1.1816204786300659] [-0.71139383316040039:0.47467586398124695] [-1.4743516445159912:-0.5305790901184082] [-0.63215219974517822:0.34832793474197388] [-0.7241215705871582:0.74403208494186401] [-0.46511253714561462:0.52190423011779785] [-0.47290563583374023:0.5385746955871582] [-0.56317520141601562:0.47628369927406311] [-0.37684008479118347:0.55720382928848267] [-0.74581515789031982:0.27644240856170654] [-0.48330476880073547:0.58425897359848022] [-0.88773280382156372:0.44472050666809082] [-0.523121178150177:0.82795965671539307] [-0.69933640956878662:0.39535373449325562] [-0.771187424659729:0.62625277042388916] [-0.57454711198806763:0.46069738268852234] [-0.40825134515762329:0.70642274618148804] [-1.1579962968826294:0.075686782598495483] [-0.7563251256942749:0.63477593660354614] [-0.62238597869873047:0.46578872203826904] [-0.44049996137619019:0.55417263507843018] [-0.23550334572792053:0.78965526819229126] [-0.39565643668174744:0.70026135444641113] [-0.61485356092453003:0.56135302782058716] [-0.58996748924255371:0.46922862529754639] [-0.22733317315578461:1.0094294548034668] [-1.2005420923233032:-0.18707491457462311] [-0.35049435496330261:0.73336285352706909] [-0.68032896518707275:0.31081631779670715] [-0.68470585346221924:0.66129416227340698] [-0.75988513231277466:0.43532118201255798] [-0.62080353498458862:0.9048607349395752] [-0.69382774829864502:0.69534796476364136] [-0.70681965351104736:0.37498584389686584] [-0.74936842918395996:0.2552255392074585] [-1.1259490251541138:0.427257239818573] [-0.11689528822898865:0.78292173147201538] [-0.58488494157791138:0.62801444530487061] [-0.42013522982597351:0.63501858711242676] [-0.48391351103782654:0.55301380157470703] [-0.53501886129379272:0.57347953319549561] [-0.44271492958068848:0.7020987868309021] [-0.39960461854934692:0.67730975151062012] [0.15403679013252258:1.3990778923034668] [-0.82429397106170654:0.58925831317901611] [-0.60651445388793945:0.70314925909042358] [-0.1415303647518158:1.0924729108810425] [-0.38761958479881287:0.64925789833068848] [-0.33438202738761902:0.77203887701034546] [-0.27621397376060486:0.81972974538803101] [-0.46764811873435974:0.65542280673980713] [-0.63538879156112671:0.43880823254585266] [-0.63510710000991821:0.44700860977172852] [-0.98861038684844971:0.53745287656784058] [-0.52745991945266724:0.4393591582775116] [-0.5423358678817749:0.47120550274848938] [-0.71888399124145508:0.37093749642372131] [-1.0496410131454468:0.19950275123119354] [-0.48050984740257263:0.68239367008209229] [-0.49362039566040039:0.58244454860687256] [-0.49803438782691956:0.58956283330917358] [-0.62176549434661865:0.37918320298194885] [-1.0381823778152466:0.10652759671211243] [-0.53721499443054199:0.52997738122940063] [-0.82753676176071167:0.22212199866771698] [-0.71866565942764282:0.43359473347663879] [-0.79535865783691406:0.89007067680358887] [-0.19924922287464142:0.96370172500610352] [-0.45992249250411987:0.69765067100524902] [-0.26444453001022339:0.86650526523590088] [-0.39981693029403687:0.89537912607192993] [-0.62721163034439087:0.31066018342971802] [-0.36988642811775208:0.85452264547348022] [-0.48958265781402588:0.51846790313720703] [-0.094070121645927429:0.93341237306594849] [-0.33011215925216675:0.53868478536605835] [-0.42655289173126221:0.4909949004650116] [-0.54429721832275391:0.65063464641571045] [-0.059263363480567932:0.87089532613754272] [-0.99903023242950439:0.51705330610275269] [-0.76394438743591309:0.46956723928451538] [-0.50127136707305908:0.65864080190658569] [-0.81208550930023193:0.28936305642127991] [-0.49778145551681519:0.83816498517990112] [-0.60568982362747192:0.50242626667022705] [-0.57005834579467773:0.64378595352172852] [-0.51694285869598389:0.47602760791778564] [-0.61372631788253784:0.40953126549720764] [-0.89695572853088379:0.38896480202674866] [-0.51882761716842651:0.50723749399185181] [-0.5440375804901123:0.67245864868164062] [-2.055056095123291:-0.75776737928390503] [-0.20441533625125885:0.96995729207992554] [-0.65830373764038086:0.51500034332275391] [-0.46937790513038635:0.58116018772125244] [-0.49644047021865845:0.61355865001678467] [-0.63884615898132324:0.44405421614646912] [-0.81026458740234375:0.31981945037841797] [-0.087499931454658508:1.1187938451766968] [-0.45775723457336426:0.69069266319274902] [-0.40957799553871155:0.49576172232627869] [-0.59677731990814209:0.52616578340530396] [-0.73758947849273682:0.38725343346595764] [-0.50884675979614258:0.45702487230300903] [-0.45050615072250366:0.80587542057037354] [-0.49952340126037598:0.50228309631347656] [-0.65496069192886353:0.41388455033302307] [-0.53643691539764404:0.56590425968170166] [-0.66929298639297485:0.54794573783874512] [-0.47752031683921814:0.44297009706497192] [-0.5184599757194519:0.60137808322906494] [-0.76912271976470947:0.29168403148651123] [-0.19700045883655548:1.020843505859375] [-0.31584799289703369:0.80784392356872559] [-0.66485732793807983:0.60093832015991211] [-0.58302438259124756:0.41220062971115112] [-0.64554286003112793:0.36409008502960205] [-0.47243818640708923:0.65108633041381836] [-0.33265548944473267:1.0330312252044678] [-0.46107757091522217:0.60095053911209106] [-0.38702994585037231:0.91050946712493896] [-0.59323304891586304:0.50686782598495483] [-0.97814309597015381:0.23710203170776367] [-1.2482883930206299:0.046295028179883957] [-0.6804928183555603:0.44136601686477661] [-0.18385332822799683:1.1112598180770874] [-0.4254869818687439:0.84609830379486084] [-0.36997732520103455:0.61067813634872437] [-0.66746681928634644:0.57314479351043701] [-0.35997745394706726:0.78862470388412476] [-0.43173879384994507:0.6840319037437439] [-0.83887863159179688:0.71228277683258057] [-0.18144175410270691:0.74660038948059082] [-0.42644667625427246:0.75298589468002319] [-0.49495911598205566:0.38486912846565247] [-0.115717813372612:0.91179180145263672] [-0.41125023365020752:0.7458534836769104] [-0.87292653322219849:0.25364494323730469] [-0.35115247964859009:0.72632443904876709] [-0.47824260592460632:0.5095970630645752] [-0.76850378513336182:0.41229423880577087] [-0.66163551807403564:0.45383569598197937] [-0.81192386150360107:0.49788889288902283] [-0.50794351100921631:0.5566098690032959] [-0.77259957790374756:0.2842286229133606] [-0.44672778248786926:0.54409998655319214] [-0.44941523671150208:0.45025432109832764] [-0.80284339189529419:0.72020870447158813] [-0.35855630040168762:0.7887728214263916] [-0.81369537115097046:0.52796661853790283] [-0.59760570526123047:0.34243807196617126] [-0.4661765992641449:0.82904595136642456] [-0.61881709098815918:0.24137690663337708] [-0.85369068384170532:0.45673254132270813] [-0.66260743141174316:0.77112102508544922] [-0.73339486122131348:0.43069574236869812] [-1.1867928504943848:0.015058755874633789] [-1.0801677703857422:0.33260148763656616] [-0.56457400321960449:0.55671340227127075] [-0.6817278265953064:0.56277334690093994] [-0.53696435689926147:0.62167418003082275] [-0.32427123188972473:0.83689135313034058] [-0.54925072193145752:0.55252301692962646] [-0.57730120420455933:0.4870879054069519] [-0.44728630781173706:0.85849523544311523] [-0.81479513645172119:0.26684635877609253] [-0.65686160326004028:0.77166128158569336] [-0.39724820852279663:0.76477724313735962] [-0.45493301749229431:0.57207036018371582] [-0.7259448766708374:0.60909700393676758] [-0.84046614170074463:0.38035711646080017] [-0.50401139259338379:0.58451050519943237] [-1.1252009868621826:0.28803923726081848] [-0.74099910259246826:0.39713200926780701] [-0.19358687102794647:1.0048680305480957] [-0.72757357358932495:0.40622320771217346] [-0.32353776693344116:0.89217031002044678] [-0.58312726020812988:0.47422689199447632] [-0.52006340026855469:0.62814229726791382] [-0.50157630443572998:0.58346098661422729] [-0.42012584209442139:0.74881702661514282] [-0.88363665342330933:0.19536679983139038] [-0.83540534973144531:0.46127700805664062] [-0.63146328926086426:0.57025212049484253] [-0.57095140218734741:0.6039130687713623] [-0.6478726863861084:0.6555105447769165] [-0.69266039133071899:0.56316715478897095] [-0.54362213611602783:0.55989736318588257] [-0.43409132957458496:0.49363583326339722] [-0.69069671630859375:0.39563536643981934] [-0.53241962194442749:0.58880400657653809] [-0.54905253648757935:0.51464027166366577] [-0.30845710635185242:0.7819218635559082] [-0.29634812474250793:0.81170535087585449] [-0.39065715670585632:0.70079070329666138] [-0.47820216417312622:0.62824618816375732] [-0.43343102931976318:0.86509644985198975] [-0.28760361671447754:0.76416456699371338] [-0.61780095100402832:0.51238644123077393] [-0.84456968307495117:0.3221886157989502] [-0.55393499135971069:0.66794449090957642] [-0.50441676378250122:0.68134528398513794] [-0.72784370183944702:0.53142064809799194] [-0.84670424461364746:0.38416227698326111] [-0.36567220091819763:0.67458200454711914] [-0.52735590934753418:0.76881122589111328] [-0.86871528625488281:0.28598704934120178] [-0.7242577075958252:0.3940691351890564] [-0.62863796949386597:0.39242765307426453] [0.56051343679428101:2.4641931056976318] [-0.17792050540447235:1.023813009262085] [-0.36191999912261963:0.68074184656143188] [-0.40648680925369263:0.40923291444778442] [-0.33813157677650452:0.85185897350311279] [-0.46906238794326782:0.49033838510513306] [-0.67824810743331909:0.42948362231254578] [-0.320995032787323:0.89504951238632202] [-0.85372596979141235:0.22583924233913422] [-0.51118415594100952:0.81900930404663086] [-0.54967343807220459:0.66248643398284912] [-0.53679287433624268:0.61620205640792847] [-0.62198460102081299:0.41923800110816956] [-0.46362826228141785:0.81052392721176147] [-0.21032360196113586:1.0576351881027222] [-0.11268554627895355:0.91567862033843994] [-0.65692764520645142:0.65769690275192261] [-0.93360406160354614:0.31082829833030701] [-1.0507497787475586:0.15084335207939148] [-0.44355645775794983:0.63499420881271362] [-1.0250968933105469:-0.019688617438077927] [-0.34322065114974976:1.016593337059021] [-0.29819318652153015:0.84315448999404907] [-0.53122514486312866:0.48246484994888306] [-0.61645025014877319:0.45705914497375488] [-0.52810835838317871:0.55893445014953613] [-0.46307706832885742:0.56708574295043945] [-0.69004523754119873:0.36403724551200867] [-0.47005879878997803:0.70436191558837891] [-0.4245581328868866:0.89779824018478394] [-0.7517731785774231:0.56140828132629395] [-0.38143467903137207:0.53625941276550293] [-0.48621290922164917:0.8162916898727417] [-0.2668299674987793:1.1220358610153198] [-0.81495809555053711:0.3323822021484375] [-0.67133384943008423:0.65102642774581909] [-0.53480613231658936:0.5059235692024231] [-0.7109561562538147:0.36409479379653931] [-0.73138320446014404:0.34230959415435791] [-0.35243216156959534:0.76952344179153442] [-0.38705655932426453:0.70396846532821655] [-0.77044802904129028:0.34961399435997009] [-0.016085358336567879:1.1450896263122559] [-0.57686972618103027:0.39301970601081848] [-0.40218481421470642:0.72708898782730103] [-0.066822320222854614:1.1122212409973145] [-0.73368912935256958:0.37264499068260193] [-0.81766575574874878:0.19120895862579346] [-0.25724834203720093:0.85945117473602295] [-0.29729694128036499:0.9615967869758606] [-0.60309791564941406:0.50471705198287964] [-0.74927181005477905:0.49496686458587646] [-0.88367611169815063:0.30332770943641663] [-0.56042331457138062:0.77634119987487793] [-0.61311572790145874:0.39072701334953308] [-0.5586322546005249:0.46938309073448181] [-0.58108311891555786:0.57273989915847778] [-0.65136635303497314:0.35366532206535339] [-0.51253378391265869:0.7035973072052002] [-0.37587064504623413:0.73221194744110107] [-0.43224278092384338:0.69799494743347168] [-0.33348789811134338:0.79236769676208496] [-0.41083884239196777:0.77514815330505371] [-0.48367679119110107:0.40524190664291382] [-0.35692831873893738:0.79224741458892822] [-0.43959659337997437:0.86541080474853516] [-1.10725998878479:0.17559172213077545] [-0.39996731281280518:0.81713604927062988] [-0.36421400308609009:0.88645857572555542] [-0.54632830619812012:0.75561761856079102] [-0.40298551321029663:0.614482581615448] [-0.37638759613037109:1.1190272569656372] [-0.25654458999633789:0.73079460859298706] [-0.48385918140411377:0.64404129981994629] [-0.26713895797729492:0.81194663047790527] [-0.61929500102996826:0.52897137403488159] [-0.28982466459274292:0.91962742805480957] [-0.45092934370040894:0.73643410205841064] [-0.60900753736495972:0.43916088342666626] [-3.4010787010192871:-0.79582178592681885] [-0.42766669392585754:0.72869282960891724] [-0.39149767160415649:0.61193394660949707] [-0.4843776524066925:0.85243839025497437] [-0.72459083795547485:0.36012676358222961] [-0.33780714869499207:1.1485201120376587] [-0.50617760419845581:0.76153373718261719] [-0.72663766145706177:0.55331343412399292] [-0.50194764137268066:0.61793482303619385] [-0.80900615453720093:0.26639372110366821] [-0.3894144594669342:0.67493653297424316] [-0.28431746363639832:0.87413305044174194] [-0.39146861433982849:0.84919440746307373] [-0.45998167991638184:0.40309521555900574] [-0.44815778732299805:0.59923034906387329] [-0.58001220226287842:0.55970233678817749] [-0.41074907779693604:0.72302991151809692] [-0.75697159767150879:0.58402442932128906] [-0.83290606737136841:0.32065299153327942] [-0.79091578722000122:0.2903590202331543] [-0.56555438041687012:0.54250037670135498] [-0.3849523663520813:0.73381519317626953] [-0.59494960308074951:0.60082089900970459] [-0.94263732433319092:0.17216527462005615] [-1.0416138172149658:0.17795407772064209] [-0.4534003734588623:0.85580766201019287] [-0.66573196649551392:0.52099812030792236] [-0.72230702638626099:0.28135839104652405] [-0.36802524328231812:0.69204193353652954] [-0.47932511568069458:0.69585144519805908] [-0.78255969285964966:0.30437877774238586] [-0.38901448249816895:0.7099873423576355] [-0.45272299647331238:0.5333365797996521] [-0.44017687439918518:0.60169970989227295] [-0.49080008268356323:0.65256339311599731] [-0.73943227529525757:0.32201206684112549] [-0.65064066648483276:0.7284967303276062] [-0.52526724338531494:0.50885260105133057] [-0.61656016111373901:0.79605221748352051] [-0.5737488865852356:0.70405793190002441] [-0.87131237983703613:0.33440995216369629] [-0.062170989811420441:1.1849597692489624] [-0.56976443529129028:0.57544195652008057] [-0.48330068588256836:0.55013477802276611] [-0.66073179244995117:0.43229395151138306] [-0.40239244699478149:0.61686426401138306] [-0.29846084117889404:0.66787964105606079] [-0.73098617792129517:0.20648850500583649] [-0.11071600764989853:1.1294307708740234] [-0.79345023632049561:0.24998307228088379] [-0.65157705545425415:0.52770090103149414] [-0.54580402374267578:0.59731924533843994] [-0.32632172107696533:0.95499175786972046] [-1.6603773832321167:0.42227521538734436] [-0.28189149498939514:0.72311943769454956] [-0.28395244479179382:0.64178293943405151] [-0.5243193507194519:0.67172020673751831] [-0.44453567266464233:1.0911490917205811] [-0.41749176383018494:0.61708247661590576] [-0.84650874137878418:0.17776444554328918] [-0.61495876312255859:0.57665520906448364] [-0.5812644362449646:0.63659060001373291] [-0.69343143701553345:0.6709783673286438] [-0.47865197062492371:0.73683416843414307] [-0.32335594296455383:0.80704271793365479] [-0.84144431352615356:0.32718268036842346] [-0.84267187118530273:0.28641423583030701] [-0.6225123405456543:0.49076229333877563] [-0.48571944236755371:0.57091981172561646] [-0.67620861530303955:0.53945177793502808] [-0.61418938636779785:0.42038553953170776] [-0.65831142663955688:0.44992232322692871] [-0.52427524328231812:0.79397273063659668] [-0.45765393972396851:0.66626924276351929] [-0.49814033508300781:0.48239618539810181] [-0.62345057725906372:0.46296873688697815] [-0.41365784406661987:0.92352920770645142] [-0.41936254501342773:0.82555437088012695] [-0.49478763341903687:1.0355148315429688] [-0.40279367566108704:0.98102986812591553] [-0.53419721126556396:0.48805069923400879] [-0.79485523700714111:0.40671241283416748] [-0.72115409374237061:0.47168427705764771] [-0.6028100848197937:0.49757954478263855] [-0.21966128051280975:0.74210506677627563] [-8.900059700012207:-2.6617381572723389] [-1.0078452825546265:0.19870805740356445] [-0.97517132759094238:0.27832669019699097] [-0.68122929334640503:0.64995789527893066] [-0.78267258405685425:0.39994728565216064] [-1.0695629119873047:0.24535635113716125] [-0.35967490077018738:0.67518573999404907] [-0.64409691095352173:0.30672544240951538] [-0.44700324535369873:0.89729040861129761] [-0.94103050231933594:0.37712463736534119] [-0.26767203211784363:0.72210925817489624] [-0.71266567707061768:0.3720659613609314] [-0.56106692552566528:0.41025432944297791] [-0.76708972454071045:0.306100994348526] [-0.35061195492744446:0.77078670263290405] [-0.34963288903236389:0.77493125200271606]
tree_sizes=3582 3786 3804 3809 3813 3812 3828 3839 3801 3811 3839 3811 3835 3808 3829 3806 3836 3847 3829 3843 3841 3829 3825 3844 3851 3840 3825 3844 3861 3876 3863 3851 3862 3876 3871 3866 3872 3893 3888 3892 3895 3874 3867 3868 3881 3847 3873 3878 3872 3889 3867 3872 3896 3874 3887 3867 3874 3854 3883 3890 3859 3856 3887 3881 3889 3890 3891 3876 3894 3888 3899 3883 3877 3835 3881 3877 3880 3894 3862 3874 3895 3872 3867 3880 3870 3872 3864 3887 3879 3899 3862 3889 3890 3818 3868 3861 3877 3832 3878 3885 3898 3879 3863 3877 3848 3848 3863 3858 3886 3879 3854 3856 3854 3845 3883 3893 3873 3867 3846 3875 3894 3918 3838 3870 3882 3893 3919

Tree=0
num_leaves=41
num_cat=0
split_feature=391 302 415 229 69 353 520 370 537 302 323 261 425 520 510 448 157 45 337 68 224 218 298 415 712 220 337 323 705 489 696 487 649 107 657 600 146 26 363 428
split_gain=38.3109 24.4545 16.0085 14.1407 10.7067 9.65094 6.92805 6.77923 6.66819 5.10819 4.85389 4.775 4.31319 4.28179 3.98196 3.83277 3.64684 3.62663 4.30574 3.59481 3.49248 3.46097 3.39046 3.17838 3.13559 3.11157 3.10146 2.8871 2.82084 2.70294 2.6805 2.8518 2.6577 2.63906 2.61189 2.50458 2.39543 2.37455 2.32088 2.3207
threshold=0.25033162534236914 -0.24413974583148954 0.29415485262870794 -1.081066310405731 0.26682449877262121 0.11853096634149553 -0.018575422465801236 0.12879839539527896 -0.05106712877750396 -0.10406613349914549 0.10332363098859788 -0.02057164907455444 0.44177742302417761 -0.11676995456218718 -0.41442474722862238 0.17844351381063464 -0.012275379151105879 -0.16324251145124433 1.0000000180025095e-35 -0.16723323613405225 -0.091908559203147874 -0.017700907774269577 -0.055134920403361314 0.26257345080375677 0.1432989835739136 0.026785696856677536 -0.061813734471797936 0.053411817178130157 0.069417390972375884 0.11627906560897829 0.0089415013790130633 -0.027887254953384396 0.091548718512058272 -0.063437901437282548 0.011030698195099832 0.038736417889595039 -0.0088284444063901884 -0.085268285125493989 -0.041137166321277611 0.051980637013912208
decision_type=2 2 2 2 2 2 2 2 2 2 2 2 2 2 2 2 2 2 2 2 2 2 2 2 2 2 2 2 2 2 2 2 2 2 2 2 2 2 2 2
left_child=1 4 8 9 12 7 10 25 20 28 11 16 -1 14 -11 -9 19 18 -8 -4 21 -2 23 -7 36 -5 -22 -6 39 32 -14 -32 33 -10 38 -18 -24 -19 -27 -3
right_child=2 3 6 5 27 22 17 15 29 13 -12 -13 30 -15 -16 -17 35 37 -20 -21 26 -23 24 -25 -26 34 -28 -29 -30 -31 31 -33 -34 -35 -36 -37 -38 -39 -40 -41
leaf_value=2.9326901859077719 2.98498482161816 2.9554601933312492 2.9291203354125552 2.9446281001929151 2.928539068026339 2.9725416091183736 2.9732696548648789 2.9828350243425743 2.9901034763535081 2.9703733574050029 2.9602078930602915 2.9377310429125458 2.9348302178323826 2.9598722707477205 2.9362497418056273 2.9636014651988085 2.9727492992319986 2.947319032085828 3.0193076631212019 2.9666973855346375 2.9778377813415484 2.9662867583844261 2.9368579887233617 2.9533228015456126 2.956059927611312 2.9757522869943043 3.0194826668220176 2.9564317491807142 2.9581046798693391 2.9567489715764674 2.931571756211842 2.8921913232775802 2.9667667359894483 2.9621599800965268 2.9542123071216535 2.9478896245680963 2.9515180166735795 2.9667276890919592 2.9558313900591453 2.9253774841754221
leaf_weight=117 285 29 69 139 49 107 197 224 111 37 766 247 34 192 253 196 127 82 20 37 38 158 305 385 247 158 42 127 36 177 30 105 465 50 253 56 180 239 91 248
leaf_count=117 285 29 69 139 49 107 197 224 111 37 766 247 34 192 253 196 127 82 20 37 38 158 305 385 247 158 42 127 36 177 30 105 465 50 253 56 180 239 91 248
internal_value=2.95711 2.94997 2.9651 2.9532 2.9286 2.9572 2.95905 2.96417 2.97346 2.94174 2.9551 2.94784 2.91676 2.94831 2.94071 2.97399 2.9566 2.96856 2.97844 2.94212 2.98223 2.97844 2.95116 2.95758 2.94686 2.95768 3.00142 2.94826 2.93185 2.96766 2.90646 2.90007 2.97073 2.98172 2.96136 2.96511 2.94222 2.96172 2.96856 2.92847
internal_weight=0 3542 3166 3080 462 2285 1840 1061 1326 795 1302 536 286 482 290 420 289 538 217 106 523 443 1224 492 732 641 80 176 313 803 169 135 626 161 502 183 485 321 249 277
internal_count=6708 3542 3166 3080 462 2285 1840 1061 1326 795 1302 536 286 482 290 420 289 538 217 106 523 443 1224 492 732 641 80 176 313 803 169 135 626 161 502 183 485 321 249 277
is_linear=0
shrinkage=1


Tree=1
num_leaves=41
num_cat=0
split_feature=12 507 376 12 85 2 198 157 224 139 45 68 13 425 520 82 68 17 85 337 230 401 589 532 613 464 7 2 403 167 220 49 576 749 271 409 94 82 287 683
split_gain=58.0908 20.0159 16.0424 9.97862 8.85594 7.02238 5.61607 5.31198 4.93393 4.69858 4.21271 4.08929 4.05746 3.90919 3.72797 3.38683 3.30352 3.29146 3.26282 3.03194 2.89761 2.86708 2.84475 3.01751 2.82872 2.75626 2.73434 2.72194 2.69933 2.60252 2.44294 2.69874 2.43154 2.29561 2.28625 2.16288 2.13323 2.79922 2.10263 2.0824
threshold=-0.061548881232738488 0.15601588785648349 -0.060813903808593743 -0.15679086744785306 0.23635922372341159 0.073689911514520659 0.25515562295913702 -0.066307142376899705 -0.098271850496530519 0.061264447867870338 -0.24053735285997388 -0.16015105694532392 0.17341332882642749 0.45853412151336675 0.034245327115058906 0.15960607677698138 -0.14920701086521146 0.062346316874027259 0.23811110854148868 -0.16624058783054349 0.13507171720266345 -0.033547723665833466 0.33312085270881658 0.015845397487282756 0.055694978684186942 -0.001598117873072624 0.26910553872585302 0.017009107396006588 0.15007113665342334 0.12632905691862109 0.17689882963895801 -0.28812949359416956 0.28599022328853613 -0.091153375804424272 0.23039565980434421 -0.14674451947212216 0.24723972380161288 0.1261832341551781 -0.32103690505027765 0.052722120657563216
decision_type=2 2 2 2 2 2 2 2 2 2 2 2 2 2 2 2 2 2 2 2 2 2 2 2 2 2 2 2 2 2 2 2 2 2 2 2 2 2 2 2
left_child=1 4 8 6 7 15 30 9 18 12 -5 -6 -1 19 25 28 22 -7 33 -14 21 -19 23 -12 -10 29 -8 -11 39 -9 31 -3 -23 -2 -21 -35 37 -13 -30 -4
right_child=2 3 5 10 11 17 26 14 24 27 16 36 13 -15 -16 -17 -18 20 -20 34 -22 32 -24 -25 -26 -27 -28 -29 38 -31 -32 -33 -34 35 -36 -37 -38 -39 -40 -41
leaf_value=0.0038524460401046555 -0.0021181858713119352 -0.0054601428830646044 -0.0066847361469680585 0.019782651132305595 -0.00060289375447703311 -0.0064422594728926188 -0.023053242165296521 -0.017381593742588335 0.0030299567021465695 -0.0088636237880755555 -0.044086866858441084 -0.014797008632591799 -0.0058940032703423753 -0.043772679693450202 0.011796691939235403 0.0062784948326858412 0.0050212058951588194 0.0110241629700343 0.023225037321202166 -0.028228383028551865 0.0061587274480652569 0.035115851646703215 -0.0091397353489942601 -0.00095850141501764748 0.042914863858196726 -0.0016708511143612539 -0.048460449393181081 0.012353315493864189 -0.0024211477271674094 0.0015937455762139964 -0.0038218823579567554 -0.031805629517826874 0.006250764063851672 0.0037285474719838288 -0.00071708017023411601 0.02761712655122053 0.022515343107321163 0.015514180453831182 -0.037908576687928644 0.0050661340264941401
leaf_weight=65 108 53 309 44 474 60 70 266 21 304 60 44 133 72 142 874 78 131 455 226 148 174 129 22 137 727 170 72 31 98 70 162 37 71 35 81 151 82 34 288
leaf_count=65 108 53 309 44 474 60 70 266 21 304 60 44 133 72 142 874 78 131 455 226 148 174 129 22 137 727 170 72 31 98 70 162 37 71 35 81 151 82 34 288
internal_value=0 -0.00826242 0.0104696 -0.0216433 -0.00426963 0.00568814 -0.0301955 -0.00754534 0.0218258 -0.0133403 -0.0079845 0.00505623 -0.0193702 -0.022614 -0.0032566 0.00220253 -0.0123999 0.0153463 0.0181282 -0.0183927 0.0180413 0.0230679 -0.0188166 -0.0330335 0.037796 -0.00524764 -0.041492 -0.0047236 -0.00318348 -0.0123066 -0.020291 -0.0255045 0.0302406 0.00901679 -0.024598 0.0167969 0.0146257 0.00481437 -0.0219813 -0.00101951
internal_weight=0 3749 2959 858 2891 2086 525 2140 873 907 333 751 531 466 1233 1536 289 550 715 394 490 342 211 82 158 1091 240 376 662 364 285 215 211 260 261 152 277 126 65 597
internal_count=6708 3749 2959 858 2891 2086 525 2140 873 907 333 751 531 466 1233 1536 289 550 715 394 490 342 211 82 158 1091 240 376 662 364 285 215 211 260 261 152 277 126 65 597
is_linear=0
shrinkage=0.1


Tree=2
num_leaves=41
num_cat=0
split_feature=391 69 376 666 229 376 94 657 139 375 261 645 479 348 36 436 482 353 230 133 196 192 415 496 26 479 69 221 471 167 298 508 415 172 253 412 579 106 650 137
split_gain=28.1252 16.8824 13.7572 10.6899 9.40143 6.29472 6.00155 5.43214 4.43187 4.49687 4.05488 4.0357 4.02999 4.0035 3.80942 3.54658 3.51181 3.4861 3.44074 4.85593 3.37264 3.18209 3.15696 3.03145 2.71237 2.61957 2.50712 2.31907 2.35028 2.18907 2.09862 2.08722 2.08334 2.05176 2.02634 2.01894 1.99507 1.98671 1.98237 1.96451
threshold=0.24017241597175601 0.19795296341180804 -0.060813903808593743 -0.13733273744583127 -1.0219403505325315 -0.060813903808593743 0.24482476711273196 -0.052549444139003747 0.074867147952318205 -0.27762074768543238 -0.070602618157863603 0.025341544300317768 0.012230120599269869 -0.25066235661506647 0.096558198332786574 -0.25038677453994745 -0.02937663625925779 0.007578570395708085 -0.0044353716075420371 -0.14369287341833112 0.036150155588984496 0.18646954745054248 0.30602341890335089 0.02720577456057072 -0.18999353051185605 0.043156627565622337 0.29974526166915899 0.22735612094402316 0.18143162131309512 0.1454398110508919 -0.057932656258344643 0.15514086186885837 0.27264133095741278 0.30120083689689642 -0.09182353317737578 -0.10267406702041625 0.0014964900910854342 -0.026044435799121853 0.21121284365653994 -0.11658446490764617
decision_type=2 2 2 2 2 2 2 2 2 2 2 2 2 2 2 2 2 2 2 2 2 2 2 2 2 2 2 2 2 2 2 2 2 2 2 2 2 2 2 2
left_child=1 4 12 8 13 16 10 18 9 17 24 21 -2 -1 -12 -13 31 -3 19 -8 38 -6 -14 30 -4 -22 -10 28 -25 35 -7 33 -9 -5 -11 -24 -32 -31 -19 -20
right_child=2 3 6 5 11 23 7 32 26 34 14 15 22 -15 -16 -17 -18 20 39 -21 25 -23 29 27 -26 -27 -28 -29 -30 37 36 -33 -34 -35 -36 -37 -38 -39 -40 -41
leaf_value=-0.044211786253293028 0.0064966828978645884 -0.00061179604462897332 -0.014287016819656041 0.036733608498583953 -0.0116707361760935 -0.00045481118949199366 -0.0014007842344296402 0.011045841736242458 -0.013615987914766009 -0.01072379675156861 -0.012790238422320702 0.020215729855200756 0.027441354003112012 -0.020817871445040281 -2.2268514571826102e-05 -0.01328525243081643 -0.0030624437552525963 -0.017254350685937909 0.022191841741710537 0.052618023928507722 -0.0029232973710450563 -0.039425159099951639 0.0098844548407862332 -0.019207063504076857 0.0080537741306896671 -0.032000948454989686 0.0050248985365129841 0.009642104817030768 0.0030905466062414147 0.014872127052065391 -0.0026544153767611598 -0.00242436548939609 -4.4965327655298293e-05 0.014609408107327845 0.013886752819394303 -0.019766841796104544 -0.018858377741195958 0.049754310897527146 -0.04981469276760811 0.0037885613374777417
leaf_weight=155 249 48 58 90 293 446 23 255 108 272 393 67 372 158 569 54 73 30 114 55 62 46 116 62 478 60 201 363 167 72 146 29 491 90 35 25 158 20 87 118
leaf_count=155 249 48 58 90 293 446 23 255 108 272 393 67 372 158 569 54 73 30 114 55 62 46 116 62 478 60 201 363 167 72 146 29 491 90 35 25 158 20 87 118
internal_value=0 -0.00657943 0.00636576 -0.00261266 -0.0194762 0.00223889 0.00268207 0.00844236 -0.0113127 -0.0163412 -0.0013889 -0.0102519 0.0173259 -0.032767 -0.00526602 0.00531209 0.0157216 -0.0252802 0.0194923 0.0373189 -0.0301535 -0.0158047 0.0217193 -0.000628117 0.00555855 -0.0177221 -0.00157062 0.00470585 -0.00314646 0.0123101 -0.00484073 0.0222244 0.00378032 0.0261658 -0.00779192 0.00427236 -0.0111961 0.0240151 -0.0422165 0.0130288
internal_weight=0 3300 3408 2527 773 1624 2554 1056 903 594 1498 460 854 313 962 121 282 287 310 78 239 339 605 1342 536 122 309 592 229 233 750 209 746 180 307 141 304 92 117 232
internal_count=6708 3300 3408 2527 773 1624 2554 1056 903 594 1498 460 854 313 962 121 282 287 310 78 239 339 605 1342 536 122 309 592 229 233 750 209 746 180 307 141 304 92 117 232
is_linear=0
shrinkage=0.1


Tree=3
num_leaves=41
num_cat=0
split_feature=12 12 539 5 28 266 94 286 520 28 323 375 304 137 48 425 323 257 641 721 12 724 339 0 41 113 167 705 543 756 510 741 536 629 316 510 77 347 12 188
split_gain=42.1787 13.388 9.48151 8.91973 7.53724 6.46099 4.93271 4.66151 4.43663 4.32381 4.15804 3.99311 3.96487 3.85722 3.64589 3.26986 3.00872 2.94633 2.9038 2.86154 2.75907 2.75496 2.60067 2.43057 2.40583 2.37661 2.35051 2.32924 2.31249 2.29521 2.283 2.08642 1.98642 1.98271 1.9822 1.97187 1.95649 1.93362 1.88427 2.27342
threshold=-0.061548881232738488 -0.16693646460771558 0.27403971552848821 -0.14470675587654111 0.16010767221450808 0.15330040454864505 0.36056131124496466 0.19766017049551013 -0.11232108995318411 0.054746888577938087 0.058923449367284782 -0.27883043885231013 -0.077348943799734102 -0.074071932584047304 -0.29433798789978022 0.40696361660957342 0.13795991241931918 0.088342435657978072 0.089165277779102339 0.35344155132770544 0.0049440560396760711 0.056616310030221946 -0.22908389568328855 -0.17396797239780423 -0.092184253036975847 -0.27471932768821711 -0.020120441913604733 0.014711392577737572 0.22821129113435748 0.034748315811157234 -0.38405574858188624 0.031392790377140052 -0.049037180840969079 -0.26796689629554743 -0.24308198690414426 -0.0095005696639418585 0.40494532883167272 0.14071964472532275 -0.0012542076874524353 -0.035504903644323342
decision_type=2 2 2 2 2 2 2 2 2 2 2 2 2 2 2 2 2 2 2 2 2 2 2 2 2 2 2 2 2 2 2 2 2 2 2 2 2 2 2 2
left_child=1 2 6 9 5 7 11 17 20 -2 29 15 28 19 -4 21 -13 18 35 24 -5 23 37 -1 -10 -12 32 -19 -6 33 -25 -32 -15 -9 -16 -3 -17 -11 -24 -40
right_child=3 4 14 8 12 -7 -8 10 13 22 25 16 -14 26 34 36 -18 27 -20 -21 -22 -23 38 30 -26 -27 -28 -29 -30 -31 31 -33 -34 -35 -36 -37 -38 -39 39 -41
leaf_value=-0.0064430540262374464 0.010480119056859622 -0.0044184291365568567 -0.0073618064383734238 -0.0067926048315602103 -0.0014649850776716532 0.008099572626288961 0.0043762341313767087 0.0052650743682223933 0.025771267442701303 0.021034466485867129 -0.02021926998365613 -0.014283022348513884 0.038285821037923398 0.00071053397659580375 -0.058674293863031517 -0.030335130276301098 0.0018984349842569846 -0.025513528082192684 0.0049240812023162482 -0.0026418188288612619 0.0054242197054397666 -0.0028290268843069993 0.019535347443702264 -0.00059747638692897941 0.012280791455729146 -0.0018643889907311478 0.0068143449892150779 0.0045834964841327047 0.022867262819109162 -0.037872518198586703 -0.049638279884086312 -0.013414487478967525 -0.021724279595849501 -0.021984337342251824 -0.022017759902190598 -0.031373322195878232 -0.0078993175617854405 -0.01773317942510735 0.0053430186967799304 0.040529801531799109
leaf_weight=70 328 624 27 356 109 350 156 32 177 25 94 266 52 125 70 264 199 91 432 96 377 158 127 20 563 258 529 34 57 79 52 27 54 128 26 25 49 20 22 160
leaf_count=70 328 624 27 356 109 350 156 32 177 25 94 266 52 125 70 264 199 91 432 96 377 158 127 20 563 258 529 34 57 79 52 27 54 128 26 25 49 20 22 160
internal_value=0 -0.00704658 -0.0148453 0.00891507 -0.00246742 -0.00427321 -0.0121853 -0.00669422 0.00589308 0.0189222 -0.0139437 -0.01453 0.0151017 0.00892868 -0.0410135 -0.0196442 -0.00739595 -0.00311124 -0.00140457 0.013516 -0.000513304 -0.0124376 0.0265634 -0.0211787 0.0156147 -0.00691823 0.00347183 -0.0174261 0.0071925 -0.0240393 -0.0310167 -0.0383624 -0.006347 -0.0165384 -0.0498806 -0.00562103 -0.0269502 0.00376764 0.029803 0.0364593
internal_weight=0 3749 1384 2959 2365 2147 1261 1797 2277 682 591 1105 218 1544 123 640 465 1206 1081 836 733 327 354 169 740 352 708 125 166 239 99 79 179 160 96 649 313 45 309 182
internal_count=6708 3749 1384 2959 2365 2147 1261 1797 2277 682 591 1105 218 1544 123 640 465 1206 1081 836 733 327 354 169 740 352 708 125 166 239 99 79 179 160 96 649 313 45 309 182
is_linear=0
shrinkage=0.1


Tree=4
num_leaves=41
num_cat=0
split_feature=12 391 348 61 451 539 305 451 261 684 403 50 82 318 614 600 302 614 377 68 691 12 291 451 263 4 248 147 221 29 370 209 337 137 253 270 484 536 539 134
split_gain=34.6564 14.0494 11.2501 7.02607 6.41677 6.00386 5.58286 5.4737 5.08443 3.75268 3.74562 3.2494 3.10925 3.08055 2.95474 2.88753 2.83102 2.79627 2.54209 2.51713 2.46144 2.40653 2.34835 2.21363 2.19776 2.17461 2.15574 2.24744 2.14546 2.06946 2.02746 2.01681 1.85583 1.83088 2.221 1.82632 1.766 1.7073 1.7061 1.69865
threshold=-0.10473839938640593 0.23405789583921435 -0.12749368697404859 0.073486074805259718 0.40267176926136022 0.27403971552848821 0.12906559556722644 0.38655047118663793 -0.073024805635213838 -0.15032017976045606 0.084500271826982512 0.24415089190006259 0.31902250647544866 0.041940439492464072 -0.095628857612609849 -0.020189257338643071 0.0020298734307289128 -0.084053814411163316 0.043999731540679939 -0.12437252700328826 -0.24680493026971814 0.0072645042091608056 0.13712559640407565 0.50368887186050426 -0.0066823028028011313 -0.15886457264423368 0.1290148124098778 -0.037679361179471009 0.2312813997268677 0.089323371648788466 0.16729586571455005 0.014841511845588686 -0.015161979943513869 -0.17143183201551435 -0.17768543958663938 0.034240575507283218 -0.033887632191181176 -0.082407906651496873 -0.098070614039897905 -0.065304182469844804
decision_type=2 2 2 2 2 2 2 2 2 2 2 2 2 2 2 2 2 2 2 2 2 2 2 2 2 2 2 2 2 2 2 2 2 2 2 2 2 2 2 2
left_child=1 4 3 7 5 13 20 10 18 17 21 33 29 -1 -15 -11 24 -3 -9 -6 -4 25 -13 30 -12 -2 27 -26 38 -5 -17 -22 -20 -8 -35 -19 -10 -33 -16 -38
right_child=2 9 6 12 19 -7 11 8 36 15 16 22 -14 14 28 23 -18 35 32 -21 31 -23 -24 -25 26 -27 -28 -29 -30 -31 -32 37 -34 34 -36 -37 39 -39 -40 -41
leaf_value=-0.0071903042458025639 -0.021442749553122573 -0.015712850614057305 0.0025955908198661676 0.010933530952456716 -0.0084021936419608045 -0.042444199690474999 0.023518490733609242 0.0079066425045693067 -0.010365228539730894 4.6082287551033833e-06 -0.0054809881857475554 0.038286055498040268 0.021202546655031816 -0.033798330921671629 -0.0086025855285386411 -0.016709465955815277 0.00020130774584901646 0.015476006632168339 0.01830782803901326 0.012408090186616786 0.04188428803525443 0.006335841247573807 0.0074031585440306183 0.015887156115174324 -0.0079332627005602365 -0.0031886583567288678 -0.0047719725838002479 -0.041490336299145919 -0.0077070225567019901 -0.0016184955379919366 0.0072625816315195456 0.018629481651051546 0.04763402466044437 0.0024571350302667488 0.018490938758550155 0.00024795462658055572 0.0091301053522200009 0.00050372778458564313 -0.024905577249183811 -0.0045308547485997065
leaf_weight=236 70 45 482 355 263 104 184 137 126 490 67 123 187 136 88 295 89 216 74 71 22 244 33 24 28 600 34 88 174 206 38 131 33 164 182 123 206 85 297 158
leaf_count=236 70 45 482 355 263 104 184 137 126 490 67 123 187 136 88 295 89 216 74 71 22 244 33 24 28 600 34 88 174 206 38 131 33 164 182 123 206 85 297 158
internal_value=0 -0.00904098 0.00570362 0.0019228 -0.015998 -0.0198772 0.0129464 -0.00123548 0.00557181 -0.00128039 -0.00533529 0.0193867 0.0101402 -0.0172054 -0.0205526 -0.0049933 -0.0148449 0.00688012 0.0172537 -0.00389485 0.00674551 -0.00210661 0.0320618 -0.011786 -0.0209204 -0.0051983 -0.0275317 -0.0338644 -0.0171379 0.00634312 -0.0139264 0.014989 0.028586 0.0154683 0.0109928 0.0100104 -0.000327164 0.0116196 -0.0212913 0.00321378
internal_weight=0 2600 4108 2702 1369 1035 1406 1954 734 1231 1220 686 748 931 695 847 306 384 244 334 720 914 156 357 217 670 150 116 559 561 333 238 107 530 346 339 490 216 385 364
internal_count=6708 2600 4108 2702 1369 1035 1406 1954 734 1231 1220 686 748 931 695 847 306 384 244 334 720 914 156 357 217 670 150 116 559 561 333 238 107 530 346 339 490 216 385 364
is_linear=0
shrinkage=0.1


Tree=5
num_leaves=41
num_cat=0
split_feature=12 391 302 298 204 684 90 484 224 304 463 635 193 549 231 107 12 506 684 419 121 360 184 200 318 323 262 346 139 403 373 346 312 436 759 200 463 44 680 291
split_gain=28.8453 13.5269 8.29541 6.9513 5.83137 5.23174 5.08182 5.04814 4.852 4.11722 4.0126 3.85817 3.84487 3.14835 2.9601 2.74773 2.70559 2.61329 2.55037 2.48175 2.44366 2.40685 2.40522 2.38665 2.36837 2.3102 2.08941 2.10955 2.07448 2.05854 2.03337 2.00236 1.92563 1.90508 1.74342 1.71302 1.6839 1.60591 1.68368 1.58258
threshold=-0.039933199062943452 0.23751430213451388 -0.19913526624441144 -0.039740592241287225 -0.40144777297973627 -0.1690176725387573 -0.15328726172447202 -0.068697087466716752 -0.098271850496530519 -0.060280997306108468 0.059110999107360847 -0.17403326183557508 0.086329814046621337 -0.23274143040180204 -0.12657111883163449 -0.1370868235826492 -0.13202808797359464 0.2198966518044472 -0.21365799009799954 0.20542135834693911 0.50167399644851696 0.98562955856323253 0.13083907216787341 -0.18994222581386563 0.047448355704545982 0.089340444654226317 0.2910828441381455 0.35730952024459844 0.061264447867870338 0.084500271826982512 -0.09202201664447783 0.26093824207782751 0.23687025904655459 -0.34638960659503931 -0.025296448729932305 -0.12560925632715222 -0.071527887135744081 -0.057693008333444588 0.20603507757186892 0.058990782126784332
decision_type=2 2 2 2 2 2 2 2 2 2 2 2 2 2 2 2 2 2 2 2 2 2 2 2 2 2 2 2 2 2 2 2 2 2 2 2 2 2 2 2
left_child=1 2 6 8 -5 9 10 28 15 17 -1 -7 37 -11 -6 39 31 34 -18 24 26 -10 29 -8 -12 -25 27 33 30 36 -4 -9 -31 -14 -3 -26 -16 -13 -39 -2
right_child=3 5 7 4 14 11 23 16 21 13 19 12 20 -15 22 -17 18 -19 -20 -21 -22 -23 -24 25 35 -27 -28 -29 -30 32 -32 -33 -34 -35 -36 -37 -38 38 -40 -41
leaf_value=-0.001560141561942883 0.021580382220554365 0.010642314186557035 -0.02917875730112994 0.016254249346700708 0.008020247876890969 0.0030589397529389483 -0.044109430911563795 -0.015496211675456409 0.012235584288695917 0.057923474807544298 -0.0047870674963537063 0.0074374410675372279 -0.013708457122213203 0.010395809231277678 0.0062592191741489313 0.0047810087677756102 0.015205097980825855 -0.014059559015285786 -0.002263934349728229 0.0025722963836041783 0.0036315447053425725 0.037138250903399721 0.0045493572354484233 -0.035684107862234964 -0.043410743264526798 -0.0095650628581880545 -0.0061427159930973092 -0.010142704692403668 -0.0063639826658584394 -0.0068150793477495661 -0.0061353239600113229 -0.0032578283466898313 -0.034076389776458042 -0.040162226926217411 -0.0076451182557998563 -0.015518750453230049 -0.0077161648957256804 -0.0088441215580061013 0.018099096684782219 0.009195699171202389
leaf_weight=168 266 414 159 315 399 681 97 264 62 25 35 159 47 31 123 348 92 55 664 31 62 127 300 66 77 73 106 80 108 62 53 272 44 84 57 38 269 191 23 181
leaf_count=168 266 414 159 315 399 681 97 264 62 25 35 159 47 31 123 348 92 55 664 31 62 127 300 66 77 73 106 80 108 62 53 272 44 84 57 38 269 191 23 181
internal_value=0 -0.00505539 -0.010476 0.00850295 0.00422922 0.000862852 -0.0206473 -0.00674777 0.0150313 0.00882878 -0.0127756 -0.00238619 -0.00730847 0.0337922 0.00102621 0.0115139 -0.00393819 0.0059633 -7.72176e-05 -0.0229563 -0.0143527 0.0293436 -0.00249075 -0.0319278 -0.02817 -0.0225441 -0.0178714 -0.0235653 -0.0179245 -0.00673396 -0.023613 -0.00934771 -0.0188654 -0.0312806 0.00838872 -0.0349317 -0.00331427 -8.33906e-05 -0.00570137 0.016677
internal_weight=0 4212 2197 2496 1512 2015 585 1612 984 582 349 1433 752 56 1197 795 1292 526 756 181 379 189 798 236 150 139 317 211 320 498 212 536 106 131 471 115 392 373 214 447
internal_count=6708 4212 2197 2496 1512 2015 585 1612 984 582 349 1433 752 56 1197 795 1292 526 756 181 379 189 798 236 150 139 317 211 320 498 212 536 106 131 471 115 392 373 214 447
is_linear=0
shrinkage=0.1


Tree=6
num_leaves=41
num_cat=0
split_feature=12 107 68 391 270 544 198 537 594 85 536 212 337 86 212 50 544 103 12 415 197 431 261 370 594 451 323 429 187 337 338 353 203 487 544 286 229 490 96 224
split_gain=23.4795 8.94593 9.89081 8.46193 5.51369 5.0802 5.81532 4.35233 3.1989 3.08831 3.07089 2.77145 2.64494 2.60554 2.57395 2.54459 2.5135 2.50064 2.46406 2.4257 2.39936 2.11009 2.09186 2.04063 2.01469 2.07549 1.96176 1.96009 1.88758 1.84156 1.84068 1.80141 1.71847 1.70623 1.68606 1.64285 1.60617 1.58553 1.57815 1.5768
threshold=-0.10947940126061438 -0.12497944384813307 -0.2490594536066055 0.23405789583921435 -0.077662691473960863 -0.23812824487686154 0.23171740770339969 -0.060211628675460808 0.012919775210320951 0.30458259582519537 0.01032724976539612 0.0065437606535851964 -0.098294977098703371 -0.11277166381478308 -0.0025792233645915981 0.25288054347038275 -0.10414432361721991 0.024464167654514316 -0.205815814435482 0.31599330902099615 -0.54625871777534474 -0.09522745385766028 -0.074223764240741716 0.15047839283943179 -0.058053594082593911 0.3593443781137467 0.092234902083873763 0.046076796948909766 -0.033047214150428765 -0.01027536205947399 -0.039389641955494874 0.033380471169948585 0.10969340801239015 -0.0087989903986453993 -0.32472901046276087 0.041319187730550773 -1.2215069532394407 -0.032765911892056458 0.056616321206092841 -0.095165308564901338
decision_type=2 2 2 2 2 2 2 2 2 2 2 2 2 2 2 2 2 2 2 2 2 2 2 2 2 2 2 2 2 2 2 2 2 2 2 2 2 2 2 2
left_child=3 2 11 5 13 31 23 19 14 16 20 24 18 -4 17 -10 27 38 -8 39 32 -15 33 -7 -2 30 -21 -6 34 -29 -26 -1 -9 -22 -12 -34 -33 -17 -5 -3
right_child=1 7 4 8 9 6 12 10 15 -11 28 -13 -14 21 -16 37 -18 -19 -20 26 22 -23 -24 -25 25 -27 -28 29 -30 -31 -32 36 35 -35 -36 -37 -38 -39 -40 -41
leaf_value=0.0087405009319861185 0.0026255365481176224 0.010728158337042921 0.019326482777842852 0.003232452997674341 -0.0042981691228187483 -0.013702882074528959 -0.029920006877683192 -0.0019045591000670663 -0.0018664024694901419 0.020652320746406466 -0.00071633973421343243 0.010109753026500776 -0.040390824340079581 0.010589149046323583 0.012002505795986475 -0.011934659342219047 -0.017324077815223358 -0.025786771167646633 -0.008228180380531953 -0.01203265583096526 0.021606319964147427 0.045295377161780351 -0.0017111484785510577 0.004650264516740321 -0.038158004228466769 0.0027089956462892284 0.0065156691007080677 0.0084666000591426972 0.0002554979655281322 0.02745882558800334 -0.0098833429780639664 -0.029519825148170573 -0.0021099094923907528 0.0031856570953240348 -0.026126991363298342 -0.029230499010714252 -0.0067403014364339348 -0.03462875651512537 -0.0098745363440266107 0.032111930712336346
leaf_weight=68 497 208 269 445 99 314 130 102 223 210 34 296 119 25 195 124 38 35 92 79 70 86 824 73 25 111 181 379 63 57 146 30 34 164 112 65 493 41 112 40
leaf_count=68 497 208 269 445 99 314 130 102 223 210 34 296 119 25 195 124 38 35 92 79 70 86 824 73 25 111 181 379 63 57 146 30 34 164 112 65 493 41 112 40
internal_value=0 0.00453642 0.00886062 -0.00769802 0.0152378 -0.0131848 -0.0187631 -0.000368195 -0.00151778 0.0103628 -0.00312969 0.00193409 -0.0282429 0.0250949 0.00214825 -0.00890607 0.00648825 -0.00114961 -0.0212004 0.00757835 -0.00124908 0.0380466 0.000665509 -0.0102302 -0.00120407 -0.00790241 0.000794038 0.00828218 -0.0142492 0.0111503 -0.0147059 -0.00624263 -0.0111643 0.00893558 -0.0203662 -0.0203101 -0.00823631 -0.0181816 0.000551291 0.0145798
internal_weight=0 4214 2238 2494 1163 1319 728 1976 1175 783 1468 1075 341 380 787 388 573 592 222 508 1259 111 1058 387 779 282 260 535 209 436 171 591 201 234 146 99 523 165 557 248
internal_count=6708 4214 2238 2494 1163 1319 728 1976 1175 783 1468 1075 341 380 787 388 573 592 222 508 1259 111 1058 387 779 282 260 535 209 436 171 591 201 234 146 99 523 165 557 248
is_linear=0
shrinkage=0.1


Tree=7
num_leaves=41
num_cat=0
split_feature=507 231 229 157 68 206 90 212 323 261 523 127 261 684 298 658 594 157 666 485 487 286 597 733 505 127 337 327 633 710 183 206 720 733 90 86 302 106 71 650
split_gain=17.5364 9.12509 5.86837 5.40078 4.98481 4.63536 4.61377 4.20409 3.31279 3.19344 2.94164 2.91013 2.81516 2.63425 3.09642 2.56774 2.45717 2.32236 2.29984 2.71356 2.25803 2.19154 2.18185 2.02099 2.00788 2.05576 1.99598 1.94269 1.87064 1.85923 1.88377 1.81381 1.81236 1.78391 1.65082 2.03717 1.64354 1.58659 1.58017 1.55586
threshold=0.1404785364866257 -0.13335698843002317 -0.98008441925048817 -0.09347448498010634 -0.18048514425754544 0.036367004737257964 -0.18655711412429807 0.014405569061636926 0.071442078799009337 -0.09811538457870482 -0.084104314446449266 -0.042150691151618951 0.0095461923629045504 -0.15404126793146131 -0.011428094469010828 -0.014426798094063996 -0.017279429361224171 -0.0072999037802219382 -0.21053946018218991 -0.17577760666608808 -0.15656660497188565 0.21246994286775592 0.12622568011283877 -0.14044436812400815 0.20729502290487292 -0.070266779512166963 -0.03897681646049022 0.16303026676177981 0.30140995979309088 0.033712593838572509 0.18983815610408786 0.057151881977915771 -0.063902653753757463 -0.097434058785438524 -0.2495823800563812 -0.11277166381478308 -0.09348606318235396 -0.015609283931553362 -0.12627201527357099 0.24329441785812381
decision_type=2 2 2 2 2 2 2 2 2 2 2 2 2 2 2 2 2 2 2 2 2 2 2 2 2 2 2 2 2 2 2 2 2 2 2 2 2 2 2 2
left_child=1 4 3 5 16 36 9 8 11 23 20 -8 26 14 -9 -11 24 29 32 -20 -5 -17 37 -3 -1 -26 -6 -18 -28 30 -10 34 -13 -15 -22 -36 -2 -4 -39 -31
right_child=2 6 22 10 12 -7 7 13 17 15 -12 18 -14 33 -16 21 27 -19 19 -21 31 -23 -24 -25 25 -27 28 -29 -30 39 -32 -33 -34 -35 35 -37 -38 38 -40 -41
leaf_value=0.012436485875328671 -0.040339306740835336 0.0062805756790509371 -0.0022462140747724394 0.0049777607422695283 0.016262665710317856 -0.010841611487100326 -0.022822266192205638 0.03012781746943918 -0.0075855159967559956 -0.0034601252883104915 0.0059072288546470932 -0.0030448408039615883 0.0053792982116649887 -0.0054607525781104026 -0.00092112604345845599 0.0073948006697977815 0.0024908259132226892 0.0033463600160776514 -0.026020628138502255 0.011297197515264557 -0.0037738725727934825 -0.0060170690797684704 0.0050682707992124902 0.021704953761538553 -0.012283349912354281 0.0070045669670541115 0.047514194838689211 -0.014940183261530383 0.018830179966753249 0.0036439975155242673 -0.025753558090686281 -0.0037850792168714988 -0.037473143200165822 0.01219785148274012 -0.016643102197973183 -0.0373618028948417 -0.0081259205562656915 -0.0015124764692492233 -0.035042092685320943 -0.0068204460809729445
leaf_weight=372 146 246 113 64 334 124 181 75 237 611 103 32 181 178 54 690 187 381 21 92 65 145 265 130 78 168 45 93 58 236 74 115 27 80 220 63 20 23 34 347
leaf_count=372 146 246 113 64 334 124 181 75 237 611 103 32 181 178 54 690 187 381 21 92 65 145 265 130 78 168 45 93 58 236 74 115 27 80 220 63 20 23 34 347
internal_value=0 0.00255547 -0.0101654 -0.0146762 0.00911417 -0.0259118 -4.18696e-05 -0.00333648 -0.00556254 0.00360114 -0.00938849 -0.0140884 0.0160033 0.0059935 0.0174525 0.00145456 0.00432894 -0.00316963 -0.00462307 0.00378327 -0.0123974 0.00505024 -0.000584103 0.0117659 0.00783599 0.000801523 0.0203252 -0.00341278 0.0325224 -0.00594883 -0.0121492 -0.0148187 -0.0200275 0.000105582 -0.0183901 -0.0216593 -0.0367085 -0.00931898 -0.0223907 -0.00258797
internal_weight=0 5353 1355 920 1516 290 3837 2015 1628 1822 630 353 618 387 129 1446 898 1275 172 113 527 835 435 376 618 246 437 280 103 894 311 463 59 258 348 283 166 170 57 583
internal_count=6708 5353 1355 920 1516 290 3837 2015 1628 1822 630 353 618 387 129 1446 898 1275 172 113 527 835 435 376 618 246 437 280 103 894 311 463 59 258 348 283 166 170 57 583
is_linear=0
shrinkage=0.1


Tree=8
num_leaves=41
num_cat=0
split_feature=12 544 103 333 2 85 407 204 159 337 87 505 130 712 679 183 440 712 403 572 359 509 261 150 277 375 150 249 406 344 644 312 573 34 142 319 505 624 612 519
split_gain=17.8426 7.4702 5.75469 5.69071 4.72735 4.1264 3.50062 3.44447 3.43157 3.05894 2.72865 2.48277 2.42389 2.38278 2.35622 2.295 2.15865 2.14429 2.13622 1.90502 1.78443 1.92101 1.7732 1.77303 1.76483 2.0016 1.75556 1.7529 1.72148 1.93872 1.68691 1.67459 1.65136 1.646 1.61063 1.60075 1.5968 1.55102 1.52128 1.50589
threshold=-0.039933199062943452 -0.18102572858333585 -0.019343077205121514 0.22887334972620013 0.078006085008382811 0.19735483825206759 -0.23256661742925641 -0.30579380691051478 0.20697934925556186 -0.021446689032018181 -0.029988734051585194 0.11125323921442033 0.1789907589554787 -0.01181683875620365 0.29995755851268774 0.14925170689821246 0.07608360052108766 -0.0016741184517741201 0.13812780380249026 0.1958907097578049 0.019254197366535667 -0.025525018572807309 0.083757586777210249 0.065651036798954024 0.15059678256511691 -0.26357513666152949 0.070744205266237273 1.0000000180025095e-35 0.076778054237365737 0.14293106645345691 0.093873046338558211 0.2352157458662987 0.3155589103698731 -0.0017661787569522855 -2.7930641174316402 0.040108069777488715 0.15845926105976108 0.063824906945228591 0.0044739507138729104 -0.19042806327342984
decision_type=2 2 2 2 2 2 2 2 2 2 2 2 2 2 2 2 2 2 2 2 2 2 2 2 2 2 2 2 2 2 2 2 2 2 2 2 2 2 2 2
left_child=1 5 3 6 7 8 23 27 12 32 16 26 35 15 36 -7 24 -4 -13 30 21 -10 -15 -3 34 38 -9 -2 29 -14 -8 -22 -6 -28 -5 -1 -11 -23 -26 -12
right_child=4 2 17 10 9 13 19 11 20 14 39 18 28 22 -16 -17 -18 -19 -20 -21 31 37 -24 -25 25 -27 33 -29 -30 -31 -32 -33 -34 -35 -36 -37 -38 -39 -40 -41
leaf_value=-0.0014225139882128859 0.013003987094314641 0.0034580690379775389 -0.043128611199101094 0.021064485987092655 0.012860595718804782 0.0037185376402753319 0.007925767628428608 0.00037975792903459751 0.0045691703838525609 0.041651473040930309 -0.017941243082895558 -4.3565589051609262e-05 0.0035984114611787017 0.0085220166354115084 0.0040249027144467495 -0.022683386237029209 0.010051690550919189 -0.017118380513279564 -0.015231850508356216 -0.015187599692220078 0.0020399690956650618 -0.009802402184264019 -0.0019019170604837694 0.034886831782586343 -0.030982804498361743 -0.006789887561310601 0.022411009447360783 -0.0016866494299173345 0.00053449705355318976 0.028907045045723858 -0.014892728925514881 -0.013795955572908566 -0.0015655205257923297 0.0052377020723737774 -0.006553073452468347 -0.015899151221112719 0.015503927273950108 -0.021771794520295699 -0.013792184256023438 -0.041388587833927903
leaf_weight=803 473 32 62 23 398 69 145 191 60 75 114 756 60 641 38 58 48 77 102 80 225 315 217 40 89 190 104 97 141 60 38 91 98 122 100 81 42 172 142 39
leaf_count=803 473 32 62 23 398 69 145 191 60 75 114 756 60 641 38 58 48 77 102 80 225 315 217 40 89 190 104 97 141 60 38 91 98 122 100 81 42 172 142 39
internal_value=0 -0.00399135 -0.0105782 -0.00805444 0.00667213 -0.0012993 0.002752 0.00407243 -0.00389784 0.0139782 -0.0129038 0.00117381 -0.000303748 0.003993 0.0261406 -0.00862662 -0.00972204 -0.0295017 -0.00190424 -0.00266375 -0.00864566 -0.0120861 0.00588867 0.0217338 -0.0115204 -0.0145766 0.00746987 0.010509 0.00809898 0.0167177 0.00299511 -0.00262249 0.0100193 0.0133638 -0.000944743 -0.00280702 0.0329949 -0.0141562 -0.0207824 -0.0247174
internal_weight=0 4212 1219 1080 2496 2993 335 1845 2008 651 745 1275 1145 985 155 127 592 139 858 263 863 547 858 72 544 421 417 570 261 120 183 316 496 226 123 884 117 487 231 153
internal_count=6708 4212 1219 1080 2496 2993 335 1845 2008 651 745 1275 1145 985 155 127 592 139 858 263 863 547 858 72 544 421 417 570 261 120 183 316 496 226 123 884 117 487 231 153
is_linear=0
shrinkage=0.1


Tree=9
num_leaves=41
num_cat=0
split_feature=507 376 229 69 224 19 85 599 147 552 355 688 224 422 742 220 146 702 137 184 35 90 261 185 729 590 622 238 362 521 172 69 458 87 391 139 356 684 261 539
split_gain=12.6392 10.4129 4.31899 4.43559 3.97682 3.55835 3.5576 3.38688 2.94709 2.89033 2.84874 2.64241 2.59007 2.31044 2.17933 2.1147 2.08732 2.61774 1.97148 1.80282 1.9764 1.79525 1.75484 1.70557 1.66037 1.62029 1.59821 1.51939 1.66375 1.68779 1.50576 1.47786 1.42302 1.40057 1.43889 1.40934 1.44649 1.39197 1.38894 1.45844
threshold=0.1404785364866257 -0.016078485175967213 -0.98686969280242909 0.28264755010604864 -0.0882914364337921 -0.20178106427192685 0.27853967249393469 -0.075149234384298311 -0.073048565536737428 -0.28499642014503473 -0.1555281728506088 -0.064527846872806535 -0.06644816696643828 0.78703543543815624 0.10309875011444093 0.0049983588978648194 -0.076579850167036043 -0.17856392264366147 -0.016005203127861019 0.18248221278190616 0.0053219236433506021 -0.25979197025299067 -0.0123359402641654 0.019154053181409839 0.031521730124950416 0.12008199840784074 -0.01506419852375984 0.038461714982986457 0.24112102389335635 0.041824154555797584 0.21873611211776736 0.31614375114440924 -0.089750327169895158 -0.13209323585033414 0.26153999567031866 -0.030301446095108982 -0.095042809844017015 -0.16688428074121472 0.032590422779321677 -0.060140315443277352
decision_type=2 2 2 2 2 2 2 2 2 2 2 2 2 2 2 2 2 2 2 2 2 2 2 2 2 2 2 2 2 2 2 2 2 2 2 2 2 2 2 2
left_child=1 4 3 10 6 12 14 -6 38 -10 11 32 -3 -13 24 -4 17 -11 26 20 -5 -19 -22 -14 27 -8 -9 -1 -29 -30 -23 -16 -2 -18 35 36 -35 -26 39 -7
right_child=2 5 15 19 7 8 25 18 9 16 -12 13 23 -15 31 -17 33 21 -20 -21 22 30 -24 -25 37 -27 -28 28 29 -31 -32 -33 -34 34 -36 -37 -38 -39 -40 -41
leaf_value=-0.013156035981250543 -0.054970282489932923 0.003799654826720256 -0.01492570605428596 -0.020011482787009073 0.00031321032997423854 0.020218224232215583 0.014668333367323524 0.036337080835382958 0.0034855965968182434 -0.0048336957025100404 -0.0044151726539300197 -0.023743221201134611 0.040680703824968661 -0.0047818163660814476 -0.02538719888042118 0.0024806499219079386 0.00064269189848058391 0.0015509960371162907 0.0026736025261751995 0.0094312172921618073 0.0070736392472779382 -0.0085696306853742833 -0.010432154726231303 0.0041152607932720157 0.022725978936067523 0.0023051323645672732 0.012719725682005535 0.0055405364421021218 -0.00012723319160466947 -0.030286579536703613 -0.023913234722171921 -0.0011145704210876104 -0.020467118803739387 -0.0027155786214868808 0.0019471770659356749 -0.0058422641385296242 -0.0288526417832589 0.0061494756282230376 -0.0035352369780134981 0.0039333494473254398
leaf_weight=65 34 577 82 90 68 60 502 121 393 499 111 249 30 89 40 376 539 49 31 72 100 101 125 22 65 136 44 384 57 24 202 60 27 32 125 202 64 212 215 434
leaf_count=65 34 577 82 90 68 60 502 121 393 499 111 249 30 89 40 376 539 49 31 72 100 101 125 22 65 136 44 384 57 24 202 60 27 32 125 202 64 212 215 434
internal_value=0 0.00216134 -0.00863826 -0.0126594 0.00832666 -0.000990843 0.00635943 0.0196033 -0.00246361 -0.00426474 -0.0187569 -0.0226729 0.0058101 -0.0188516 0.0023182 -0.00072617 -0.00594828 -0.0095472 0.0261717 -0.00452685 -0.00778652 -0.0161147 -0.0026627 0.026457 0.00405513 0.0120601 0.0304379 0.000757024 0.00278642 -0.00995586 -0.0189565 -0.0113588 -0.0416554 -0.00274132 -0.00702295 -0.0107643 -0.0205461 0.0102765 0.0031338 0.00604083
internal_weight=0 5353 1355 897 1809 3544 1545 264 2915 2206 510 399 629 338 907 458 1813 851 196 387 315 352 225 52 807 638 165 530 465 81 303 100 61 962 423 298 96 277 709 494
internal_count=6708 5353 1355 897 1809 3544 1545 264 2915 2206 510 399 629 338 907 458 1813 851 196 387 315 352 225 52 807 638 165 530 465 81 303 100 61 962 423 298 96 277 709 494
is_linear=0
shrinkage=0.1


Tree=10
num_leaves=41
num_cat=0
split_feature=12 376 463 298 286 231 463 507 137 396 242 569 737 337 161 474 107 68 265 57 299 291 762 171 286 461 119 13 147 721 740 191 36 496 374 756 286 215 261 105
split_gain=12.8521 7.26204 4.19937 4.05797 4.39612 3.19814 2.95136 2.92453 2.81276 2.79828 2.87651 2.30637 2.31004 2.08128 2.02674 1.93409 1.90993 2.51268 2.12877 2.0836 1.89556 1.98027 1.8251 1.78899 1.6483 1.59436 1.55394 1.90376 1.46505 1.35922 1.3525 1.32884 1.31617 1.31449 1.28831 1.26965 1.26332 1.26094 1.25065 1.25042
threshold=-0.14831963926553723 -0.027853494510054585 -0.040373276919126504 -0.0021378807723522182 0.1938886493444443 -0.18162822723388669 0.054719410836696632 0.099693130701780333 -0.022030866704881188 -0.20739459991455075 0.17063470929861072 0.074861988425254836 -0.097790013998746858 -0.019530363380908963 -0.0067674405872821799 0.16420844942331317 -0.1464598476886749 -0.21633649617433545 -0.0037540458142757411 0.36271168291568762 -0.22421716153621671 0.043893499299883849 0.20072129368782046 -0.058327097445726388 0.15197457373142245 -0.37208476662635798 0.0037080296315252785 0.36355297267436987 0.049910243600606925 0.30118252336978918 0.076306447386741652 -0.079069804400205598 0.041184790432453162 0.23814179003238681 0.19382001459598544 -0.046257659792900079 0.21484132111072543 -0.11565534770488738 -0.12433373928070067 -0.11526613682508467
decision_type=2 2 2 2 2 2 2 2 2 2 2 2 2 2 2 2 2 2 2 2 2 2 2 2 2 2 2 2 2 2 2 2 2 2 2 2 2 2 2 2
left_child=2 3 30 8 14 13 16 28 20 26 -11 -9 -13 36 33 -6 17 35 24 -19 -2 31 -21 -20 38 -16 27 39 -4 -30 -1 -22 -25 -5 -12 -7 -3 -26 -18 -8
right_child=1 5 7 4 15 6 9 11 -10 10 34 12 -14 -15 25 -17 18 19 23 22 21 -23 -24 32 37 -27 -28 -29 29 -31 -32 -33 -34 -35 -36 -37 -38 -39 -40 -41
leaf_value=0.0058012011158688169 0.010556945759216736 0.0091254352868235678 -0.00059321133744840761 0.005636035804858372 -0.0054760672061899074 0.004367502413069573 -0.0098709267658387834 -0.011802510929366863 0.0022133100358969031 0.0058298366214960453 -0.011439677777916019 -0.0093014521703492607 -0.034471056644448168 0.029114719546893986 0.012648849870856916 -0.03289187362797371 0.016601695791945825 0.0040865560188514879 -0.0013126644071817565 0.010755071287711289 0.018474746551635546 0.010391933541189202 0.03638503751735666 -0.038975871158106024 -0.014299992744071125 -0.014570025536178522 0.0024310762927279767 -0.018856141700091575 -0.0055770455354380317 -0.022142539084716813 -0.0042426303370889156 0.035943554390228942 -0.012590520528699176 0.016871092631827178 -0.035088470137948129 -0.0046439996951076262 -0.0038113410432459027 -0.0014461935067925733 0.0023130408682022889 0.0044920251523424435
leaf_weight=211 305 277 287 449 79 381 120 462 184 34 41 60 105 39 27 36 68 146 134 70 101 107 48 21 87 72 245 106 147 74 354 101 118 135 68 260 101 493 439 116
leaf_count=211 305 277 287 449 79 381 120 462 184 34 41 60 105 39 27 36 68 146 134 70 101 107 48 21 87 72 245 106 147 74 354 101 118 135 68 260 101 493 439 116
internal_value=0 0.00252425 -0.00753006 0.00808396 0.00302058 -8.20342e-05 -0.00122731 -0.0110277 0.0131117 -0.00674032 -0.0191126 -0.0155847 -0.0257054 0.0080848 0.00607895 -0.0147831 0.000557242 0.00410838 -0.00181035 0.0122489 0.0163463 0.0218767 0.0219356 -0.00964416 0.000181982 -0.00696655 -0.00362996 -0.0079524 -0.00533432 -0.0113851 -0.000478994 0.027677 -0.0174443 0.00831904 -0.0268316 0.00070686 0.00566548 -0.00344919 0.00433112 -0.00284902
internal_weight=0 5008 1700 1596 798 3412 2995 1135 798 730 143 627 165 417 683 115 2265 905 1360 264 614 309 118 273 1087 99 587 342 508 221 565 202 139 584 109 641 378 580 507 236
internal_count=6708 5008 1700 1596 798 3412 2995 1135 798 730 143 627 165 417 683 115 2265 905 1360 264 614 309 118 273 1087 99 587 342 508 221 565 202 139 584 109 641 378 580 507 236
is_linear=0
shrinkage=0.1


Tree=11
num_leaves=41
num_cat=0
split_feature=507 376 451 715 451 298 367 635 600 707 132 375 323 404 323 348 451 28 29 261 672 375 536 733 536 379 707 478 230 681 376 140 197 276 261 413 107 265 196 681
split_gain=8.87442 7.35891 4.48882 4.36707 3.15138 3.14118 3.11188 3.01814 2.74471 3.0929 2.50179 2.32847 2.33946 2.27549 2.19201 2.01828 1.93512 1.91005 1.73472 1.69934 1.64915 1.55735 1.51773 1.48595 1.76538 1.4825 1.41469 1.40032 1.38746 1.30579 1.28164 1.26985 1.26821 1.23189 1.7161 1.35473 1.2955 1.22387 1.21094 1.27509
threshold=0.14829052984714511 -0.016078485175967213 0.41925448179245001 0.088746517896652236 0.43658396601676946 -0.0075325509533286086 -0.085312433540821062 -0.27012483775615687 0.021177094429731372 -0.12391959130764006 -0.14229416102170941 -0.47341619431972498 0.11767562851309778 0.25323182344436651 -0.033310133963823312 -0.30100964009761805 0.42998105287551885 0.058820672333240516 0.024529172107577327 -0.19545801728963849 0.52913129329681408 -0.37718528509140009 -0.086775600910186754 -0.1851387023925781 0.0046256743371486672 0.18075464665889743 -0.057423803955316537 0.22204754501581195 0.38161587715148931 0.19273920357227328 -0.12880659103393552 -0.19780843704938886 -0.39348453283309931 0.25460469722747808 -0.017619590274989601 -0.12249968200922011 -0.12800240516662595 -0.05766798555850982 0.11418288946151735 0.18036884069442752
decision_type=2 2 2 2 2 2 2 2 2 2 2 2 2 2 2 2 2 2 2 2 2 2 2 2 2 2 2 2 2 2 2 2 2 2 2 2 2 2 2 2
left_child=1 5 3 37 8 13 27 28 10 -10 14 15 -13 18 -3 -8 22 -12 -1 -6 29 32 -9 -19 25 31 -24 -5 -7 -16 -15 -25 -11 34 35 -21 -35 -2 -4 -40
right_child=2 4 38 6 19 7 11 16 9 21 17 12 -14 30 20 -17 -18 23 -20 33 -22 -23 26 24 -26 -27 -28 -29 -30 -31 -32 -33 -34 36 -36 -37 -38 -39 39 -41
leaf_value=0.027125636643264311 -0.017622617536575843 -0.029879819597355958 -0.00047058581766623657 -0.025693235941200179 0.026258364402489257 0.0090383267860802974 -0.030489656696729331 -0.0032911542378543535 0.0011391139458089628 -0.036608673896367856 -0.001159323396389757 -0.0097215225009703726 0.003107153856021316 0.015010533145086817 -0.0045762275319767886 -0.0064624560201325598 0.0089854227526832576 0.00022018503534546423 0.010703193921548185 0.011165291148855595 -0.021207697200836515 -0.0099418256301607635 -0.006167863738813539 0.013146427893904493 -0.002504973995265124 0.0088034757939830423 -0.034101252812365979 -0.00055112346524970881 -0.010299473813259278 0.0043608492474555231 0.0046993118677674398 0.037540905116790042 -0.005146482881038918 0.0076837727142037631 0.0007968860984211431 0.036815153158836628 -0.0054720384567860042 -0.04110880831051611 0.0036731790679335576 0.030249090216800195
leaf_weight=129 54 29 194 124 33 528 59 254 267 40 670 255 313 168 678 85 94 217 140 146 46 428 41 54 77 175 32 27 37 212 425 40 20 117 160 22 194 50 47 27
leaf_count=129 54 29 194 124 33 528 59 254 267 40 670 255 313 168 678 85 94 217 140 146 46 428 41 54 77 175 32 27 37 212 425 40 20 117 160 22 194 50 47 27
internal_value=0 0.00170244 -0.00767077 -0.0108361 -0.000916507 0.00683165 -0.00842689 0.00296005 -0.00232369 -0.0075104 -0.000532892 -0.00560225 -0.00267668 0.01123 -0.00433804 -0.0168014 -0.00343347 0.00244906 0.0188283 0.00524695 -0.00343727 -0.012217 -0.00706134 0.0067237 0.010759 0.014539 -0.0194218 -0.0213131 0.0077158 -0.00243856 0.00769216 0.0245111 -0.0269909 0.00402341 0.00826443 0.0152134 -0.000492006 -0.0298939 0.00374272 0.0143065
internal_weight=0 5473 1235 967 3625 1848 863 986 2953 755 2198 712 568 862 965 144 421 1233 269 672 936 488 327 563 346 269 73 151 565 890 593 94 60 639 328 168 311 104 268 74
internal_count=6708 5473 1235 967 3625 1848 863 986 2953 755 2198 712 568 862 965 144 421 1233 269 672 936 488 327 563 346 269 73 151 565 890 593 94 60 639 328 168 311 104 268 74
is_linear=0
shrinkage=0.1


Tree=12
num_leaves=41
num_cat=0
split_feature=12 68 705 635 103 391 403 298 507 396 353 670 337 404 183 592 721 12 184 360 68 107 552 635 523 183 87 161 594 312 4 450 536 301 14 314 78 195 592 409
split_gain=10.2144 6.14221 4.8603 3.86365 3.31548 3.06427 2.77322 2.76976 2.42654 2.32903 2.27873 2.3699 2.2455 2.05328 1.92574 1.90228 1.86134 1.82021 1.74605 1.73085 1.70367 2.46476 1.70234 1.8918 1.66774 1.61295 1.51703 1.47251 1.39783 1.41034 1.38578 1.37141 1.36307 1.3613 1.35317 1.32756 1.3269 1.27914 1.26529 1.24702
threshold=0.0072645042091608056 -0.19253275543451306 0.076257023960351958 -0.27465499937534327 0.0068984236568212518 0.24463267624378207 0.011195618659257891 -0.0064969900995492927 0.22598906606435779 -0.20739459991455075 0.083818227052688613 0.16593545675277713 -0.02977331634610891 0.18772833794355395 0.37891493737697607 0.32536163926124578 0.16829439252614978 -0.16693646460771558 0.12528178095817569 1.076860845088959 -0.12782541662454602 -0.093330793082714067 -0.29288187623023981 -0.077686123549938188 -0.23990969359874723 0.16287846118211749 -0.14059953391551969 -0.11660542339086531 0.016141759231686596 0.16040003299713138 -0.20110452920198438 -0.10561437159776686 -0.29448738694190973 0.13826283067464831 -0.0034075579605996604 0.19181750714778903 -0.027248900383710858 0.010768139734864237 0.21872404962778094 -0.13873399794101712
decision_type=2 2 2 2 2 2 2 2 2 2 2 2 2 2 2 2 2 2 2 2 2 2 2 2 2 2 2 2 2 2 2 2 2 2 2 2 2 2 2 2
left_child=1 3 4 14 10 6 8 12 28 19 20 17 39 -11 34 -6 31 32 24 26 37 -22 -9 27 33 -13 -8 -24 30 -30 -5 -7 -12 -18 -1 -26 -25 -3 -21 -2
right_child=7 2 -4 5 15 16 9 22 -10 13 11 25 -14 -15 -16 -17 18 -19 -20 38 21 -23 23 36 35 -27 -28 -29 29 -31 -32 -33 -34 -35 -36 -37 -38 -39 -40 -41
leaf_value=-0.0019609094009965904 0.0052525087236485572 -0.0048280573853035462 0.015476363091815722 -0.014073902046793207 -0.0060913416812132769 0.01755901414801634 -0.0017311313843880829 0.0093436858118500585 -0.022288611040295746 -0.0054921021475005235 0.0070985913061876712 0.01129995392042682 0.0233081803181895 -0.036441107386426953 -0.023060675960275563 -0.030493723558126046 -0.010008591197364726 -0.0022946608534370068 0.0031351500890502422 -0.0097496735240934877 0.019041249293318484 0.0027601393979217667 0.0080929509196877338 0.00012061190751759939 0.0029640678768506948 -0.0035624363958926424 -0.013945361130422463 -0.0031245005861688696 -0.0018020866661794272 -0.017897530575613139 0.0027540318405665605 0.00012461696337681477 -0.020427667608788964 -0.029483252278270179 0.0065605851099209541 -0.0087370204626825675 -0.031664509684977485 0.0073602554154793389 -0.031392472278874185 0.015162952646459855
leaf_weight=382 349 185 234 54 105 62 176 290 74 31 20 196 136 78 28 44 142 624 194 51 175 197 206 23 161 113 241 262 111 105 324 145 98 48 358 235 27 155 67 202
leaf_count=382 349 185 234 54 105 62 176 290 74 31 20 196 136 78 28 44 142 624 194 51 175 197 206 23 161 113 241 262 111 105 324 145 98 48 358 235 27 155 67 202
internal_value=0 -0.00211631 0.00198542 -0.00498529 0.000308822 -0.00703408 -0.0101954 0.00725083 -0.00563589 -0.0148682 0.00152964 -0.00142948 0.0119045 -0.028088 0.00115183 -0.0138369 -0.00281043 -0.00448942 -0.00504515 -0.0120082 0.00588317 0.0105264 0.00325944 -0.00018702 -0.00775588 0.00588599 -0.00884807 0.00183673 -0.00344177 -0.00978843 0.000241946 0.0055536 -0.0156914 -0.015377 0.00217323 -0.0039956 -0.0180003 0.000746914 -0.0225939 0.00895922
internal_weight=0 5213 2146 3067 1912 2299 1312 1495 668 644 1763 1051 687 109 768 149 987 742 780 535 712 372 808 518 586 309 417 468 594 216 378 207 118 190 740 396 50 340 118 551
internal_count=6708 5213 2146 3067 1912 2299 1312 1495 668 644 1763 1051 687 109 768 149 987 742 780 535 712 372 808 518 586 309 417 468 594 216 378 207 118 190 740 396 50 340 118 551
is_linear=0
shrinkage=0.1


Tree=13
num_leaves=41
num_cat=0
split_feature=12 451 544 195 103 28 68 417 429 68 71 667 572 245 544 157 56 334 171 614 409 499 657 254 664 677 3 670 145 231 462 420 260 536 28 499 614 536 301 732
split_gain=8.3125 5.05888 3.90503 3.06369 3.15735 2.78193 2.73182 2.59945 2.89283 2.48489 2.45669 2.84899 2.36961 2.14018 2.1093 1.99434 1.63237 1.56227 1.53945 1.53262 1.49357 1.47769 1.46493 1.37018 1.32613 1.28837 1.46216 1.41891 1.42706 1.27529 1.52608 1.36426 1.27058 1.24127 1.21933 1.21095 1.33257 1.1874 1.17784 1.17553
threshold=0.0072645042091608056 0.3851389884948731 -0.18102572858333585 0.04706965014338494 -0.094480633735656724 0.22998507320880893 -0.12985280901193616 0.15772835165262225 0.21266620606184009 -0.29742667078971857 -0.060255020856857293 -2.6885474920272823 0.11282017827033998 0.13826337456703189 -0.3424201607704162 -0.14716675132513043 -0.021535372361540791 -0.35150527954101557 -0.099459923803806291 -0.039305901154875748 -0.27905346453189844 0.1880581006407738 -0.097948171198368059 -0.12631867080926892 0.38529640436172491 0.10079315304756166 -0.13622803241014478 0.30068902671337133 -0.074472732841968522 -0.035998867824673646 0.12118665128946306 0.22200170904397967 -0.14658733457326886 -0.0179469920694828 0.10175441205501558 -0.1523231044411659 -0.015396209433674811 -0.22101417183876035 0.19745874404907229 -0.065533954650163637
decision_type=2 2 2 2 2 2 2 2 2 2 2 2 2 2 2 2 2 2 2 2 2 2 2 2 2 2 2 2 2 2 2 2 2 2 2 2 2 2 2 2
left_child=1 2 7 4 6 13 19 8 12 -2 11 18 21 15 23 37 -12 -18 -11 -4 -9 -1 -15 -14 32 26 -16 28 -27 31 -31 -13 -6 39 -8 -5 -37 -3 -35 -22
right_child=9 5 3 35 24 -7 34 20 -10 10 16 29 14 22 25 -17 17 -19 -20 -21 33 -23 -24 -25 -26 27 -28 -29 -30 30 -32 -33 -34 38 -36 36 -38 -39 -40 -41
leaf_value=-0.0033625008460642829 0.00088146335240209955 0.0068522407375888814 -0.024726562438755109 -0.020777811234988106 -0.040303376572874701 0.021016828257731879 -0.000298053122891074 -0.0059756007553249044 0.0045634966965895927 0.0030788535830807012 0.0058909133228659339 0.014575970823216501 -0.021807745133747804 0.0089522790007616464 -0.034080648836295517 -0.00034841444486990953 0.0064831857983488799 -0.026757603899429352 0.027033218221641925 -0.0093280379240198007 0.0042216903512655168 0.014096066743034666 0.0014583743271384397 -5.9829061307899362e-05 -0.0039406923193813044 0.00085412503470701391 -0.013806212760390339 0.011728076611918178 -0.016827043772370175 -0.016189825415601083 0.0081736655290963901 -0.0055799173922514997 -0.018527242999274159 0.00098704401205287591 0.028498349973087912 -0.0076349185190672745 0.0072383097663109523 -0.01808963988719053 -0.021774105269055589 0.015402132774076874
leaf_weight=514 513 21 75 23 60 72 39 160 287 33 349 242 30 390 59 518 23 29 167 438 333 50 779 213 25 60 104 24 183 38 64 37 66 157 20 93 157 110 23 130
leaf_count=514 513 21 75 23 60 72 39 160 287 33 349 242 30 390 59 518 23 29 167 438 333 50 779 213 25 60 104 24 183 38 64 37 66 157 20 93 157 110 23 130
internal_value=0 -0.0019182 -0.00426591 -0.00949464 -0.0128884 0.00220981 -0.00938698 -0.00201692 -0.00443947 0.006532 0.0094701 0.0136089 -0.00653533 0.00142565 -0.0105267 -0.00316824 0.003407 -0.0125778 0.0232028 -0.011733 0.0025801 -0.00173662 0.00397793 -0.00301887 -0.0256341 -0.0147104 -0.0217123 -0.010208 -0.0125116 0.00840573 -0.00114104 0.0118666 -0.0297134 0.00473008 0.0105221 -0.000456879 0.00167615 -0.0140163 -0.00228451 0.0074538
internal_weight=0 5213 3323 996 723 1890 572 2327 1524 1495 982 581 1237 1818 673 649 401 52 200 513 803 564 1169 243 151 430 163 267 243 381 102 279 126 643 59 273 250 131 180 463
internal_count=6708 5213 3323 996 723 1890 572 2327 1524 1495 982 581 1237 1818 673 649 401 52 200 513 803 564 1169 243 151 430 163 267 243 381 102 279 126 643 59 273 250 131 180 463
is_linear=0
shrinkage=0.1


Tree=14
num_leaves=41
num_cat=0
split_feature=520 193 756 107 339 558 286 261 68 231 552 702 359 661 702 613 657 85 2 465 323 539 558 500 230 69 605 291 546 121 614 520 536 19 46 412 19 332 663 71
split_gain=5.55238 4.24485 5.1289 3.33645 2.67703 2.64285 2.30841 2.12836 2.07814 1.9497 1.9085 1.99761 2.14778 1.82744 1.76709 1.7637 2.07173 1.67265 1.44819 1.46561 1.44147 1.36556 1.34874 1.31086 1.30498 1.28428 1.27894 1.19473 1.31152 1.24702 1.19263 1.18502 1.1781 1.19521 1.1729 1.14944 1.27971 1.12871 1.10538 1.20256
threshold=-0.018575422465801236 0.044251535087823875 0.050145648419857032 -0.11084169894456862 -0.12680229544639585 -0.12337063252925871 0.25225642323493963 -0.01632367447018623 -0.25034831464290613 -0.031845945864915841 -0.24628676474094388 -0.18555685132741925 -0.14269568771123883 0.12268543243408205 -0.20740936696529386 0.13204324990510943 -0.031552247703075402 -0.0099153183400630934 -0.11215079575777052 0.011544551700353624 0.093949325382709517 0.14323266595602038 0.27413728833198553 0.14783551543951037 0.10717302560806276 0.27952767908573156 -0.19554769992828366 -0.15866450965404508 -0.027973280288279053 0.45465968549251562 -0.006395205855369567 -0.28936547040939326 -0.21595008671283719 -0.20018596947193143 -2.2326856851577754 -0.17717504501342771 -0.064915716648101793 0.087134338915348067 -0.12981222569942472 -0.10003671050071715
decision_type=2 2 2 2 2 2 2 2 2 2 2 2 2 2 2 2 2 2 2 2 2 2 2 2 2 2 2 2 2 2 2 2 2 2 2 2 2 2 2 2
left_child=1 15 4 8 10 -4 7 27 -2 22 -3 12 -12 30 -7 17 24 -1 -10 34 35 -16 -5 32 -17 -8 -13 -6 29 -29 -11 -18 -19 -34 -20 36 -9 -21 39 -33
right_child=3 2 5 9 6 14 25 20 18 13 11 26 -14 -15 21 16 31 23 19 37 -22 -23 -24 -25 -26 -27 -28 28 -30 -31 -32 38 33 -35 -36 -37 -38 -39 -40 -41
leaf_value=-0.017100401164727892 0.0021117839225483952 0.000900416577535765 -0.026320208741591938 0.0034190829562667302 0.023147568819366748 -0.0028223047129464964 -0.021617656892293512 0.009940617002508088 0.002979880914207934 -0.021572553177156489 -0.017918476271499131 -0.010815716332680581 -0.00072300026062683642 0.0049330115446325762 -0.0095847472772467232 0.026850301624134446 -0.006891080184924946 0.0080724517230192708 0.016025234147875832 0.026848268817372629 0.0017566156772260662 -0.027775564493083594 -0.020973548653961813 -0.007670512766178055 0.0062413124195627185 -0.003610944933796044 -0.026949662310074469 -0.017759235733942037 0.0087952568201875355 0.0055048173449588336 -0.0048776148001388438 0.019384049141890809 0.0075283415894307733 -0.0021642687245792647 0.0051350144381115083 -0.015855451606457606 -0.011000946827282103 0.0081162337550488035 0.0019807830699126237 0.0010247019264833545
leaf_weight=57 415 224 122 643 41 200 60 52 177 85 96 130 270 77 120 61 102 204 179 113 447 65 20 188 64 110 85 38 305 49 88 86 153 676 227 99 58 50 412 60
leaf_count=57 415 224 122 643 41 200 60 52 177 85 96 130 270 77 120 61 102 204 179 113 447 65 20 188 64 110 85 38 305 49 88 86 153 676 227 99 58 50 412 60
internal_value=0 -0.00196005 -0.00466852 0.00426076 -0.00244404 -0.0136448 0.000438366 0.00213895 0.00780914 -0.000264165 -0.00693428 -0.00994208 -0.00536152 -0.00772713 -0.00942529 0.00141757 0.00513704 -0.000874935 0.0109537 0.0134004 -0.00145434 -0.0163769 0.00257596 -7.03166e-05 0.0167602 -0.0102771 -0.0175269 0.00755054 0.00572699 -0.00495297 -0.013348 0.00285814 0.0013343 -0.000351036 0.0100332 -0.00823684 -0.00109997 0.0213964 0.00467242 0.0120417
internal_weight=0 4634 2571 2074 2064 507 1259 1089 1161 913 805 581 366 250 385 2063 785 1278 746 569 656 185 663 1221 125 170 215 433 392 87 173 660 1033 829 406 209 110 163 558 146
internal_count=6708 4634 2571 2074 2064 507 1259 1089 1161 913 805 581 366 250 385 2063 785 1278 746 569 656 185 663 1221 125 170 215 433 392 87 173 660 1033 829 406 209 110 163 558 146
is_linear=0
shrinkage=0.1


Tree=15
num_leaves=41
num_cat=0
split_feature=12 68 705 507 302 451 2 487 197 224 742 94 506 711 2 710 584 142 742 218 437 645 186 348 65 306 605 584 710 94 93 292 262 465 705 505 642 499 565 687
split_gain=5.96449 4.33811 3.49162 2.96439 2.7423 3.1681 2.52661 2.1556 2.11827 1.98732 1.92022 1.89639 1.85265 1.74489 1.65813 1.6061 1.48099 1.69469 1.44525 1.39052 1.39034 1.30912 1.26931 1.2324 1.22145 1.21305 1.20844 1.17241 1.15274 1.31253 1.14857 1.14747 1.13843 1.21892 1.10884 1.08854 1.08748 1.03566 1.0355 1.02983
