tree
version=v3
num_class=1
num_tree_per_iteration=1
label_index=0
max_feature_idx=767
objective=regression
feature_names=Column_0 Column_1 Column_2 Column_3 Column_4 Column_5 Column_6 Column_7 Column_8 Column_9 Column_10 Column_11 Column_12 Column_13 Column_14 Column_15 Column_16 Column_17 Column_18 Column_19 Column_20 Column_21 Column_22 Column_23 Column_24 Column_25 Column_26 Column_27 Column_28 Column_29 Column_30 Column_31 Column_32 Column_33 Column_34 Column_35 Column_36 Column_37 Column_38 Column_39 Column_40 Column_41 Column_42 Column_43 Column_44 Column_45 Column_46 Column_47 Column_48 Column_49 Column_50 Column_51 Column_52 Column_53 Column_54 Column_55 Column_56 Column_57 Column_58 Column_59 Column_60 Column_61 Column_62 Column_63 Column_64 Column_65 Column_66 Column_67 Column_68 Column_69 Column_70 Column_71 Column_72 Column_73 Column_74 Column_75 Column_76 Column_77 Column_78 Column_79 Column_80 Column_81 Column_82 Column_83 Column_84 Column_85 Column_86 Column_87 Column_88 Column_89 Column_90 Column_91 Column_92 Column_93 Column_94 Column_95 Column_96 Column_97 Column_98 Column_99 Column_100 Column_101 Column_102 Column_103 Column_104 Column_105 Column_106 Column_107 Column_108 Column_109 Column_110 Column_111 Column_112 Column_113 Column_114 Column_115 Column_116 Column_117 Column_118 Column_119 Column_120 Column_121 Column_122 Column_123 Column_124 Column_125 Column_126 Column_127 Column_128 Column_129 Column_130 Column_131 Column_132 Column_133 Column_134 Column_135 Column_136 Column_137 Column_138 Column_139 Column_140 Column_141 Column_142 Column_143 Column_144 Column_145 Column_146 Column_147 Column_148 Column_149 Column_150 Column_151 Column_152 Column_153 Column_154 Column_155 Column_156 Column_157 Column_158 Column_159 Column_160 Column_161 Column_162 Column_163 Column_164 Column_165 Column_166 Column_167 Column_168 Column_169 Column_170 Column_171 Column_172 Column_173 Column_174 Column_175 Column_176 Column_177 Column_178 Column_179 Column_180 Column_181 Column_182 Column_183 Column_184 Column_185 Column_186 Column_187 Column_188 Column_189 Column_190 Column_191 Column_192 Column_193 Column_194 Column_195 Column_196 Column_197 Column_198 Column_199 Column_200 Column_201 Column_202 Column_203 Column_204 Column_205 Column_206 Column_207 Column_208 Column_209 Column_210 Column_211 Column_212 Column_213 Column_214 Column_215 Column_216 Column_217 Column_218 Column_219 Column_220 Column_221 Column_222 Column_223 Column_224 Column_225 Column_226 Column_227 Column_228 Column_229 Column_230 Column_231 Column_232 Column_233 Column_234 Column_235 Column_236 Column_237 Column_238 Column_239 Column_240 Column_241 Column_242 Column_243 Column_244 Column_245 Column_246 Column_247 Column_248 Column_249 Column_250 Column_251 Column_252 Column_253 Column_254 Column_255 Column_256 Column_257 Column_258 Column_259 Column_260 Column_261 Column_262 Column_263 Column_264 Column_265 Column_266 Column_267 Column_268 Column_269 Column_270 Column_271 Column_272 Column_273 Column_274 Column_275 Column_276 Column_277 Column_278 Column_279 Column_280 Column_281 Column_282 Column_283 Column_284 Column_285 Column_286 Column_287 Column_288 Column_289 Column_290 Column_291 Column_292 Column_293 Column_294 Column_295 Column_296 Column_297 Column_298 Column_299 Column_300 Column_301 Column_302 Column_303 Column_304 Column_305 Column_306 Column_307 Column_308 Column_309 Column_310 Column_311 Column_312 Column_313 Column_314 Column_315 Column_316 Column_317 Column_318 Column_319 Column_320 Column_321 Column_322 Column_323 Column_324 Column_325 Column_326 Column_327 Column_328 Column_329 Column_330 Column_331 Column_332 Column_333 Column_334 Column_335 Column_336 Column_337 Column_338 Column_339 Column_340 Column_341 Column_342 Column_343 Column_344 Column_345 Column_346 Column_347 Column_348 Column_349 Column_350 Column_351 Column_352 Column_353 Column_354 Column_355 Column_356 Column_357 Column_358 Column_359 Column_360 Column_361 Column_362 Column_363 Column_364 Column_365 Column_366 Column_367 Column_368 Column_369 Column_370 Column_371 Column_372 Column_373 Column_374 Column_375 Column_376 Column_377 Column_378 Column_379 Column_380 Column_381 Column_382 Column_383 Column_384 Column_385 Column_386 Column_387 Column_388 Column_389 Column_390 Column_391 Column_392 Column_393 Column_394 Column_395 Column_396 Column_397 Column_398 Column_399 Column_400 Column_401 Column_402 Column_403 Column_404 Column_405 Column_406 Column_407 Column_408 Column_409 Column_410 Column_411 Column_412 Column_413 Column_414 Column_415 Column_416 Column_417 Column_418 Column_419 Column_420 Column_421 Column_422 Column_423 Column_424 Column_425 Column_426 Column_427 Column_428 Column_429 Column_430 Column_431 Column_432 Column_433 Column_434 Column_435 Column_436 Column_437 Column_438 Column_439 Column_440 Column_441 Column_442 Column_443 Column_444 Column_445 Column_446 Column_447 Column_448 Column_449 Column_450 Column_451 Column_452 Column_453 Column_454 Column_455 Column_456 Column_457 Column_458 Column_459 Column_460 Column_461 Column_462 Column_463 Column_464 Column_465 Column_466 Column_467 Column_468 Column_469 Column_470 Column_471 Column_472 Column_473 Column_474 Column_475 Column_476 Column_477 Column_478 Column_479 Column_480 Column_481 Column_482 Column_483 Column_484 Column_485 Column_486 Column_487 Column_488 Column_489 Column_490 Column_491 Column_492 Column_493 Column_494 Column_495 Column_496 Column_497 Column_498 Column_499 Column_500 Column_501 Column_502 Column_503 Column_504 Column_505 Column_506 Column_507 Column_508 Column_509 Column_510 Column_511 Column_512 Column_513 Column_514 Column_515 Column_516 Column_517 Column_518 Column_519 Column_520 Column_521 Column_522 Column_523 Column_524 Column_525 Column_526 Column_527 Column_528 Column_529 Column_530 Column_531 Column_532 Column_533 Column_534 Column_535 Column_536 Column_537 Column_538 Column_539 Column_540 Column_541 Column_542 Column_543 Column_544 Column_545 Column_546 Column_547 Column_548 Column_549 Column_550 Column_551 Column_552 Column_553 Column_554 Column_555 Column_556 Column_557 Column_558 Column_559 Column_560 Column_561 Column_562 Column_563 Column_564 Column_565 Column_566 Column_567 Column_568 Column_569 Column_570 Column_571 Column_572 Column_573 Column_574 Column_575 Column_576 Column_577 Column_578 Column_579 Column_580 Column_581 Column_582 Column_583 Column_584 Column_585 Column_586 Column_587 Column_588 Column_589 Column_590 Column_591 Column_592 Column_593 Column_594 Column_595 Column_596 Column_597 Column_598 Column_599 Column_600 Column_601 Column_602 Column_603 Column_604 Column_605 Column_606 Column_607 Column_608 Column_609 Column_610 Column_611 Column_612 Column_613 Column_614 Column_615 Column_616 Column_617 Column_618 Column_619 Column_620 Column_621 Column_622 Column_623 Column_624 Column_625 Column_626 Column_627 Column_628 Column_629 Column_630 Column_631 Column_632 Column_633 Column_634 Column_635 Column_636 Column_637 Column_638 Column_639 Column_640 Column_641 Column_642 Column_643 Column_644 Column_645 Column_646 Column_647 Column_648 Column_649 Column_650 Column_651 Column_652 Column_653 Column_654 Column_655 Column_656 Column_657 Column_658 Column_659 Column_660 Column_661 Column_662 Column_663 Column_664 Column_665 Column_666 Column_667 Column_668 Column_669 Column_670 Column_671 Column_672 Column_673 Column_674 Column_675 Column_676 Column_677 Column_678 Column_679 Column_680 Column_681 Column_682 Column_683 Column_684 Column_685 Column_686 Column_687 Column_688 Column_689 Column_690 Column_691 Column_692 Column_693 Column_694 Column_695 Column_696 Column_697 Column_698 Column_699 Column_700 Column_701 Column_702 Column_703 Column_704 Column_705 Column_706 Column_707 Column_708 Column_709 Column_710 Column_711 Column_712 Column_713 Column_714 Column_715 Column_716 Column_717 Column_718 Column_719 Column_720 Column_721 Column_722 Column_723 Column_724 Column_725 Column_726 Column_727 Column_728 Column_729 Column_730 Column_731 Column_732 Column_733 Column_734 Column_735 Column_736 Column_737 Column_738 Column_739 Column_740 Column_741 Column_742 Column_743 Column_744 Column_745 Column_746 Column_747 Column_748 Column_749 Column_750 Column_751 Column_752 Column_753 Column_754 Column_755 Column_756 Column_757 Column_758 Column_759 Column_760 Column_761 Column_762 Column_763 Column_764 Column_765 Column_766 Column_767
feature_infos=[-0.84711027145385742:0.30442631244659424] [-0.49399501085281372:0.48365196585655212] [-0.83046507835388184:0.50253158807754517] [-0.69012689590454102:0.44544824957847595] [-0.66892427206039429:0.59394896030426025] [-0.77307242155075073:0.45217147469520569] [-0.32741862535476685:0.85652506351470947] [-0.36509570479393005:1.0983664989471436] [-0.70622068643569946:0.39266011118888855] [-0.7915235161781311:0.28579205274581909] [-0.56772404909133911:0.46862906217575073] [-0.76133525371551514:0.36122843623161316] [-0.73703348636627197:0.56239759922027588] [-0.26350650191307068:0.9784473180770874] [-0.67757230997085571:0.38687920570373535] [-0.32982790470123291:0.90782827138900757] [-0.53501272201538086:0.84420466423034668] [-0.49427258968353271:0.63388687372207642] [-0.29750949144363403:0.66266679763793945] [-0.59008884429931641:0.42953485250473022] [-0.48734772205352783:0.56641179323196411] [-0.93828368186950684:0.13246035575866699] [-0.42857846617698669:0.70240175724029541] [-0.57057291269302368:0.67950838804244995] [-0.4411243200302124:0.50213944911956787] [-0.65526235103607178:0.34472191333770752] [-0.54376620054244995:0.46893921494483948] [-0.55837363004684448:0.52499383687973022] [-0.57257574796676636:0.50266259908676147] [-0.43844836950302124:0.55735838413238525] [-0.56754052639007568:0.61125397682189941] [-0.24880421161651611:0.72928893566131592] [-0.62038344144821167:0.37730288505554199] [-0.75795131921768188:0.33039546012878418] [-0.56195420026779175:0.65474206209182739] [-0.55754506587982178:0.48683041334152222] [-0.29735597968101501:0.83858782052993774] [-0.65679222345352173:0.62500345706939697] [-0.58935773372650146:0.42212322354316711] [-0.35156062245368958:0.72176432609558105] [-0.62967377901077271:0.36806640028953552] [-0.55488425493240356:0.41480761766433716] [-0.5663759708404541:0.79027342796325684] [-0.57023680210113525:0.45553368330001831] [-0.37646538019180298:0.61924618482589722] [-0.73106122016906738:0.41340076923370361] [-3.344066858291626:-1.5279194116592407] [-0.67293083667755127:0.39321509003639221] [-0.75862759351730347:0.34881430864334106] [-0.77572417259216309:0.15057730674743652] [-0.52396130561828613:0.69893640279769897] [-0.78980636596679688:0.48285481333732605] [-0.72177129983901978:0.66979312896728516] [-0.57200890779495239:0.79202204942703247] [-0.33503472805023193:0.86876600980758667] [-0.2529619038105011:1.0219353437423706] [-0.77236664295196533:0.32363590598106384] [-0.44002455472946167:0.86998254060745239] [-0.60725921392440796:0.71116864681243896] [-0.40726029872894287:0.50418078899383545] [-0.30623909831047058:0.76618492603302002] [-0.39189609885215759:0.58660519123077393] [-0.78394210338592529:0.45721730589866638] [-0.71058768033981323:0.46412855386734009] [-0.65185743570327759:0.47501403093338013] [-0.46900144219398499:0.72758841514587402] [-0.51975774765014648:0.27665069699287415] [-0.20605693757534027:1.0610374212265015] [-0.79786056280136108:0.20764867961406708] [-0.33834296464920044:0.83772432804107666] [-0.9440886378288269:0.34199538826942444] [-0.67637956142425537:0.42070907354354858] [-0.29145652055740356:0.67727541923522949] [-0.53240662813186646:0.60090261697769165] [-0.63393592834472656:0.4835231602191925] [-0.85041952133178711:0.510467529296875] [-0.53922450542449951:0.4660874605178833] [-0.23729713261127472:0.90562140941619873] [-0.66398400068283081:0.4239286482334137] [-0.75463229417800903:0.5624578595161438] [-0.43787261843681335:0.5980108380317688] [-0.20549610257148743:0.75687825679779053] [-0.34905463457107544:0.88364005088806152] [-0.52462047338485718:0.80289363861083984] [-0.40861111879348755:0.65222883224487305] [-0.31653264164924622:0.75812679529190063] [-0.87739449739456177:0.35699805617332458] [-0.65059173107147217:0.33205968141555786] [-0.41279983520507812:0.68322765827178955] [-0.01057874783873558:1.147411584854126] [-0.7709660530090332:0.54226970672607422] [-0.65434408187866211:0.53291535377502441] [-0.45384401082992554:0.74134325981140137] [-0.28333792090415955:0.82625770568847656] [-0.37874272465705872:0.93552273511886597] [-0.75094735622406006:0.35451263189315796] [-0.7545434832572937:0.65692073106765747] [-0.3449903130531311:0.53232544660568237] [-0.26469475030899048:0.80690991878509521] [-0.29404756426811218:0.85719990730285645] [-0.21951949596405029:0.97654390335083008] [-0.59047794342041016:0.51692080497741699] [-0.3292694091796875:0.7505638599395752] [-0.95897942781448364:0.42434307932853699] [-0.49289426207542419:0.7791098952293396] [-0.74136173725128174:0.32534477114677429] [-0.61358332633972168:0.63178694248199463] [-0.82682812213897705:0.36684980988502502] [-0.60394889116287231:0.52588260173797607] [-2.8819901943206787:-0.8294748067855835] [-0.39200076460838318:0.93526917695999146] [-0.41929885745048523:0.72695976495742798] [-0.65439802408218384:0.35510203242301941] [-1.0104066133499146:0.13140235841274261] [-0.86141782999038696:0.25057539343833923] [-0.30500540137290955:0.80660092830657959] [-0.23682369291782379:0.77843993902206421] [-0.53351294994354248:0.44870266318321228] [-0.55275529623031616:0.5277477502822876] [-0.70376884937286377:0.62180733680725098] [-0.64710056781768799:0.71773922443389893] [-0.32486793398857117:0.95425611734390259] [-0.73594886064529419:0.55648648738861084] [-0.50237393379211426:1.2053524255752563] [-0.65391159057617188:0.36358389258384705] [-0.12552891671657562:0.81351202726364136] [-0.5137060284614563:0.6303667426109314] [-0.59236586093902588:0.65522867441177368] [-0.32255962491035461:0.85855716466903687] [-0.27411875128746033:0.88552993535995483] [-0.2350621223449707:0.6853753924369812] [-0.13103847205638885:0.92981469631195068] [-0.64436566829681396:0.38576596975326538] [-0.61884868144989014:0.32278984785079956] [-0.77007490396499634:0.34026825428009033] [-0.40898096561431885:0.75980097055435181] [-0.24678146839141846:0.86746490001678467] [-0.64428162574768066:0.38641181588172913] [-0.79089444875717163:0.5380481481552124] [-0.44810149073600769:0.7219243049621582] [-0.90636426210403442:0.174681156873703] [-0.64992916584014893:0.35381573438644409] [-3.3138923645019531:-0.99076592922210693] [-0.50217664241790771:0.77105909585952759] [-0.020911170169711113:1.1467798948287964] [-0.44015428423881531:0.56639736890792847] [-0.49645519256591797:0.53278535604476929] [-0.59334152936935425:0.62853437662124634] [-0.65394461154937744:0.4476165771484375] [-0.30399248003959656:0.77823722362518311] [-0.40306389331817627:0.79625475406646729] [-0.72545748949050903:0.45266124606132507] [-0.65500497817993164:0.30283576250076294] [-0.31593164801597595:0.52104640007019043] [-0.7552344799041748:0.2389225959777832] [-0.47207969427108765:0.51979368925094604] [-1.0567965507507324:0.71609926223754883] [-0.51044315099716187:0.57448363304138184] [-0.31226199865341187:0.90782082080841064] [-0.24591350555419922:1.0283777713775635] [-0.35570424795150757:0.76835203170776367] [-0.67534095048904419:0.46102374792098999] [-0.66367024183273315:0.40690559148788452] [-0.51193755865097046:0.57768386602401733] [-0.76168155670166016:0.4044758677482605] [-0.36727017164230347:0.86091184616088867] [-0.65854620933532715:0.65043020248413086] [-0.55272716283798218:0.89452707767486572] [-0.55885815620422363:0.49238240718841553] [-0.45340099930763245:0.60047274827957153] [-0.62148028612136841:0.37676343321800232] [-0.5466727614402771:0.72228777408599854] [-0.062839105725288391:1.4480024576187134] [-0.71663284301757812:0.32074251770973206] [-0.24476096034049988:0.9520830512046814] [-0.55048888921737671:0.5469125509262085] [-0.66744011640548706:0.64798736572265625] [-0.34188863635063171:0.74009883403778076] [-0.60685330629348755:0.43311566114425659] [-0.42563223838806152:0.64075404405593872] [-4.8502235412597656:0.37406650185585022] [-0.17140674591064453:0.93301713466644287] [-0.39985799789428711:0.69085490703582764] [-0.51413935422897339:0.75407874584197998] [-0.3933032751083374:0.72981142997741699] [-0.79772377014160156:0.32428434491157532] [-0.35606321692466736:0.72430384159088135] [-0.65595102310180664:0.35712370276451111] [-0.43130618333816528:0.77126145362854004] [-0.42595177888870239:0.67524027824401855] [-1.0296394824981689:0.43145313858985901] [-0.84626191854476929:0.29433393478393555] [-0.59181815385818481:0.47149026393890381] [-0.58720016479492188:0.63901084661483765] [-0.30105602741241455:0.95815020799636841] [-0.46134164929389954:0.61342328786849976] [-0.55187380313873291:0.6227264404296875] [-1.3701142072677612:0.12163721024990082] [-0.41056144237518311:0.69488000869750977] [-0.51144731044769287:0.52414578199386597] [-0.64143389463424683:0.40231901407241821] [-0.63536489009857178:0.50583171844482422] [-0.45233011245727539:0.5200120210647583] [-0.33439141511917114:0.72738039493560791] [-1.0388888120651245:0.53608888387680054] [1.7942984104156494:3.9389495849609375] [-0.36303219199180603:0.54889625310897827] [-0.61332809925079346:0.474791020154953] [-0.36952844262123108:0.75499546527862549] [-0.25309461355209351:0.91863977909088135] [-0.79371780157089233:0.57164168357849121] [-0.51767939329147339:0.52605539560317993] [-0.85501861572265625:0.35605183243751526] [-0.58497875928878784:0.63731628656387329] [-0.28213775157928467:0.77987617254257202] [-0.71278506517410278:0.42621332406997681] [-0.43442121148109436:0.6791529655456543] [-0.60179167985916138:0.45830798149108887] [-0.69713997840881348:0.49662518501281738] [-0.55602192878723145:0.4794355034828186] [-0.36222818493843079:0.75629603862762451] [-0.28874990344047546:0.73607903718948364] [-0.52018958330154419:0.55666720867156982] [-0.29055553674697876:1.0182619094848633] [-0.88376766443252563:0.28292691707611084] [-0.90977424383163452:0.93914234638214111] [-0.74802595376968384:0.74080872535705566] [-0.47756808996200562:1.0782978534698486] [-0.62551611661911011:0.71525275707244873] [-1.7823178768157959:-0.38177698850631714] [-0.23324669897556305:0.74500584602355957] [-0.54242873191833496:0.4811931848526001] [-0.5592237114906311:0.73526495695114136] [-0.45778274536132812:0.73627835512161255] [-0.88940548896789551:0.21053303778171539] [-0.60554808378219604:0.62688881158828735] [-0.65227758884429932:0.49428591132164001] [-0.59997576475143433:0.4537108838558197] [-0.34959128499031067:0.66400057077407837] [-0.74506717920303345:0.44266986846923828] [-0.58005309104919434:0.31547832489013672] [-0.42942667007446289:0.85460972785949707] [-0.18448664247989655:0.96071332693099976] [-0.61244326829910278:0.77652907371520996] [-0.55324375629425049:0.61816728115081787] [-0.3386685848236084:0.85177993774414062] [-0.30875480175018311:0.68170315027236938] [-0.77904397249221802:0.54561430215835571] [-0.49916720390319824:0.70157921314239502] [-0.75790470838546753:0.55822724103927612] [-0.32149478793144226:0.74164003133773804] [-0.64808464050292969:0.41153085231781006] [-0.50042343139648438:0.58125007152557373] [-0.92865073680877686:0.24041378498077393] [-0.55096447467803955:0.70760089159011841] [-0.62574201822280884:0.44366204738616943] [-0.18516111373901367:0.79278051853179932] [-0.75938713550567627:0.46019613742828369] [-1.2184247970581055:0.29278844594955444] [-0.81474059820175171:0.33790269494056702] [-0.62000393867492676:0.50768035650253296] [-0.46983647346496582:0.45277363061904907] [-0.32576054334640503:0.75706309080123901] [-0.44252225756645203:0.62373447418212891] [-1.1225676536560059:0.25672134757041931] [-0.72973620891571045:0.41645964980125427] [-0.42664283514022827:0.82968908548355103] [-0.68655270338058472:0.44195428490638733] [-0.33075648546218872:0.68911153078079224] [-0.60090607404708862:0.37414395809173584] [-0.73808830976486206:0.58358055353164673] [-0.82214838266372681:0.48055467009544373] [-0.95093947649002075:0.23773403465747833] [-4.7369365692138672:-0.76332372426986694] [-0.66280001401901245:0.4741981029510498] [-0.5587848424911499:0.46719652414321899] [-0.255806565284729:0.84583878517150879] [-0.38275846838951111:0.81741154193878174] [-0.68145716190338135:0.59774154424667358] [-0.50127488374710083:0.57928258180618286] [-0.29240426421165466:0.68959707021713257] [-0.15820108354091644:0.97152364253997803] [-0.88929027318954468:0.33128520846366882] [-0.15697386860847473:0.95407372713088989] [-0.68323415517807007:0.55193489789962769] [-0.42262163758277893:0.53702014684677124] [-0.59262651205062866:0.59121090173721313] [-1.0669625997543335:0.22898249328136444] [-0.24004562199115753:0.7323155403137207] [-0.68117767572402954:0.50595963001251221] [-1.0429476499557495:0.29494079947471619] [-0.62905144691467285:0.70451736450195312] [-0.72716736793518066:0.49539369344711304] [-0.59762126207351685:0.68624866008758545] [-0.55385202169418335:0.68301308155059814] [-0.59049427509307861:0.45112240314483643] [-0.38428312540054321:0.57047617435455322] [-0.58005213737487793:0.59103161096572876] [-0.469066321849823:0.69134551286697388] [-1.0756514072418213:0.19400414824485779] [-1.0867342948913574:0.34240490198135376] [-0.82371318340301514:0.6591607928276062] [-0.62874990701675415:0.59421974420547485] [-0.5000491738319397:0.49668788909912109] [-1.0284841060638428:0.25030720233917236] [-0.3358837366104126:0.75030136108398438] [-0.67117351293563843:0.2308603972196579] [-0.83879834413528442:0.41356426477432251] [-4.6149053573608398:-0.80223345756530762] [-0.44878146052360535:0.83083176612854004] [-0.64347153902053833:0.44206565618515015] [-0.63750153779983521:0.29946836829185486] [-0.56356960535049438:0.7291109561920166] [-0.66967445611953735:0.32632166147232056] [-0.11953866481781006:1.0039501190185547] [-0.62293905019760132:0.42178425192832947] [-0.76616972684860229:0.27977359294891357] [-0.39857986569404602:0.58707118034362793] [-0.37784627079963684:0.66465610265731812] [-0.75620734691619873:0.31436759233474731] [-0.54169172048568726:0.90560787916183472] [-0.36822238564491272:0.65354299545288086] [-0.24263280630111694:0.79155683517456055] [-0.28179380297660828:0.81888055801391602] [-0.17938670516014099:1.0716416835784912] [-0.91694414615631104:0.35731399059295654] [-0.38033154606819153:0.62642765045166016] [-0.25416091084480286:0.74331516027450562] [-0.46544384956359863:0.57176518440246582] [-0.82987678050994873:0.33758458495140076] [-0.63645321130752563:0.53761333227157593] [-0.78457504510879517:0.49031463265419006] [-0.40913993120193481:0.78965514898300171] [-0.36850476264953613:0.96032774448394775] [-1.015535831451416:0.039933651685714722] [-0.57942855358123779:0.44272622466087341] [-0.8088797926902771:0.32444187998771667] [-0.72761422395706177:0.32447275519371033] [-0.43694400787353516:0.53263694047927856] [-0.76470601558685303:0.27844679355621338] [-0.48769780993461609:0.61986023187637329] [-0.45516374707221985:0.50910884141921997] [-0.70191800594329834:0.20054110884666443] [-0.69012880325317383:0.34006202220916748] [-0.42500865459442139:0.5010981559753418] [-0.27911299467086792:0.78538870811462402] [-0.21073868870735168:0.8790777325630188] [-0.57146722078323364:0.62491327524185181] [-0.74524503946304321:0.40070489048957825] [-0.29620686173439026:1.1681886911392212] [-0.48412135243415833:0.49594628810882568] [-0.30402785539627075:0.71089911460876465] [-0.0016934648156166077:1.4619766473770142] [-0.55044281482696533:0.64164036512374878] [-0.32495012879371643:0.79859179258346558] [-0.75915223360061646:0.39963841438293457] [-0.63321727514266968:0.36967098712921143] [-0.25546622276306152:0.71300405263900757] [-0.50702810287475586:0.52112382650375366] [-0.61295342445373535:0.53194260597229004] [0.38528794050216675:1.6830734014511108] [-0.75070744752883911:0.44540056586265564] [-0.45399379730224609:0.56862461566925049] [-0.58507508039474487:0.39836955070495605] [-0.33321088552474976:1.0256768465042114] [-0.5778815746307373:0.64241868257522583] [-0.87772035598754883:0.37065556645393372] [-0.67475718259811401:0.70430755615234375] [-0.13528800010681152:0.94239968061447144] [-0.64762765169143677:0.40012791752815247] [-0.57064133882522583:0.50843435525894165] [-0.76672923564910889:0.3990788459777832] [-0.4198111891746521:0.8261101245880127] [-0.9744715690612793:0.15617640316486359] [-0.5047837495803833:0.7107386589050293] [-0.83632069826126099:0.19909688830375671] [-0.59334015846252441:0.50405597686767578] [-0.5519402027130127:0.51946520805358887] [-0.69101434946060181:0.29862439632415771] [-0.19007214903831482:1.1816204786300659] [-0.71139383316040039:0.47467586398124695] [-1.4743516445159912:-0.5305790901184082] [-0.63215219974517822:0.34832793474197388] [-0.7241215705871582:0.74403208494186401] [-0.46511253714561462:0.52190423011779785] [-0.47290563583374023:0.5385746955871582] [-0.56317520141601562:0.47628369927406311] [-0.37684008479118347:0.55720382928848267] [-0.74581515789031982:0.27644240856170654] [-0.48330476880073547:0.58425897359848022] [-0.88773280382156372:0.44472050666809082] [-0.523121178150177:0.82795965671539307] [-0.69933640956878662:0.39535373449325562] [-0.771187424659729:0.62625277042388916] [-0.57454711198806763:0.46069738268852234] [-0.40825134515762329:0.70642274618148804] [-1.1579962968826294:0.075686782598495483] [-0.7563251256942749:0.63477593660354614] [-0.62238597869873047:0.46578872203826904] [-0.44049996137619019:0.55417263507843018] [-0.23550334572792053:0.78965526819229126] [-0.39565643668174744:0.70026135444641113] [-0.61485356092453003:0.56135302782058716] [-0.58996748924255371:0.46922862529754639] [-0.22733317315578461:1.0094294548034668] [-1.2005420923233032:-0.18707491457462311] [-0.35049435496330261:0.73336285352706909] [-0.68032896518707275:0.31081631779670715] [-0.68470585346221924:0.66129416227340698] [-0.75988513231277466:0.43532118201255798] [-0.62080353498458862:0.9048607349395752] [-0.69382774829864502:0.69534796476364136] [-0.70681965351104736:0.37498584389686584] [-0.74936842918395996:0.2552255392074585] [-1.1259490251541138:0.427257239818573] [-0.11689528822898865:0.78292173147201538] [-0.58488494157791138:0.62801444530487061] [-0.42013522982597351:0.63501858711242676] [-0.48391351103782654:0.55301380157470703] [-0.53501886129379272:0.57347953319549561] [-0.44271492958068848:0.7020987868309021] [-0.39960461854934692:0.67730975151062012] [0.15403679013252258:1.3990778923034668] [-0.82429397106170654:0.58925831317901611] [-0.60651445388793945:0.70314925909042358] [-0.1415303647518158:1.0924729108810425] [-0.38761958479881287:0.64925789833068848] [-0.33438202738761902:0.77203887701034546] [-0.27621397376060486:0.81972974538803101] [-0.46764811873435974:0.65542280673980713] [-0.63538879156112671:0.43880823254585266] [-0.63510710000991821:0.44700860977172852] [-0.98861038684844971:0.53745287656784058] [-0.52745991945266724:0.4393591582775116] [-0.5423358678817749:0.47120550274848938] [-0.71888399124145508:0.37093749642372131] [-1.0496410131454468:0.19950275123119354] [-0.48050984740257263:0.68239367008209229] [-0.49362039566040039:0.58244454860687256] [-0.49803438782691956:0.58956283330917358] [-0.62176549434661865:0.37918320298194885] [-1.0381823778152466:0.10652759671211243] [-0.53721499443054199:0.52997738122940063] [-0.82753676176071167:0.22212199866771698] [-0.71866565942764282:0.43359473347663879] [-0.79535865783691406:0.89007067680358887] [-0.19924922287464142:0.96370172500610352] [-0.45992249250411987:0.69765067100524902] [-0.26444453001022339:0.86650526523590088] [-0.39981693029403687:0.89537912607192993] [-0.62721163034439087:0.31066018342971802] [-0.36988642811775208:0.85452264547348022] [-0.48958265781402588:0.51846790313720703] [-0.094070121645927429:0.93341237306594849] [-0.33011215925216675:0.53868478536605835] [-0.42655289173126221:0.4909949004650116] [-0.54429721832275391:0.65063464641571045] [-0.059263363480567932:0.87089532613754272] [-0.99903023242950439:0.51705330610275269] [-0.76394438743591309:0.46956723928451538] [-0.50127136707305908:0.65864080190658569] [-0.81208550930023193:0.28936305642127991] [-0.49778145551681519:0.83816498517990112] [-0.60568982362747192:0.50242626667022705] [-0.57005834579467773:0.64378595352172852] [-0.51694285869598389:0.47602760791778564] [-0.61372631788253784:0.40953126549720764] [-0.89695572853088379:0.38896480202674866] [-0.51882761716842651:0.50723749399185181] [-0.5440375804901123:0.67245864868164062] [-2.055056095123291:-0.75776737928390503] [-0.20441533625125885:0.96995729207992554] [-0.65830373764038086:0.51500034332275391] [-0.46937790513038635:0.58116018772125244] [-0.49644047021865845:0.61355865001678467] [-0.63884615898132324:0.44405421614646912] [-0.81026458740234375:0.31981945037841797] [-0.087499931454658508:1.1187938451766968] [-0.45775723457336426:0.69069266319274902] [-0.40957799553871155:0.49576172232627869] [-0.59677731990814209:0.52616578340530396] [-0.73758947849273682:0.38725343346595764] [-0.50884675979614258:0.45702487230300903] [-0.45050615072250366:0.80587542057037354] [-0.49952340126037598:0.50228309631347656] [-0.65496069192886353:0.41388455033302307] [-0.53643691539764404:0.56590425968170166] [-0.66929298639297485:0.54794573783874512] [-0.47752031683921814:0.44297009706497192] [-0.5184599757194519:0.60137808322906494] [-0.76912271976470947:0.29168403148651123] [-0.19700045883655548:1.020843505859375] [-0.31584799289703369:0.80784392356872559] [-0.66485732793807983:0.60093832015991211] [-0.58302438259124756:0.41220062971115112] [-0.64554286003112793:0.36409008502960205] [-0.47243818640708923:0.65108633041381836] [-0.33265548944473267:1.0330312252044678] [-0.46107757091522217:0.60095053911209106] [-0.38702994585037231:0.91050946712493896] [-0.59323304891586304:0.50686782598495483] [-0.97814309597015381:0.23710203170776367] [-1.2482883930206299:0.046295028179883957] [-0.6804928183555603:0.44136601686477661] [-0.18385332822799683:1.1112598180770874] [-0.4254869818687439:0.84609830379486084] [-0.36997732520103455:0.61067813634872437] [-0.66746681928634644:0.57314479351043701] [-0.35997745394706726:0.78862470388412476] [-0.43173879384994507:0.6840319037437439] [-0.83887863159179688:0.71228277683258057] [-0.18144175410270691:0.74660038948059082] [-0.42644667625427246:0.75298589468002319] [-0.49495911598205566:0.38486912846565247] [-0.115717813372612:0.91179180145263672] [-0.41125023365020752:0.7458534836769104] [-0.87292653322219849:0.25364494323730469] [-0.35115247964859009:0.72632443904876709] [-0.47824260592460632:0.5095970630645752] [-0.76850378513336182:0.41229423880577087] [-0.66163551807403564:0.45383569598197937] [-0.81192386150360107:0.49788889288902283] [-0.50794351100921631:0.5566098690032959] [-0.77259957790374756:0.2842286229133606] [-0.44672778248786926:0.54409998655319214] [-0.44941523671150208:0.45025432109832764] [-0.80284339189529419:0.72020870447158813] [-0.35855630040168762:0.7887728214263916] [-0.81369537115097046:0.52796661853790283] [-0.59760570526123047:0.34243807196617126] [-0.4661765992641449:0.82904595136642456] [-0.61881709098815918:0.24137690663337708] [-0.85369068384170532:0.45673254132270813] [-0.66260743141174316:0.77112102508544922] [-0.73339486122131348:0.43069574236869812] [-1.1867928504943848:0.015058755874633789] [-1.0801677703857422:0.33260148763656616] [-0.56457400321960449:0.55671340227127075] [-0.6817278265953064:0.56277334690093994] [-0.53696435689926147:0.62167418003082275] [-0.32427123188972473:0.83689135313034058] [-0.54925072193145752:0.55252301692962646] [-0.57730120420455933:0.4870879054069519] [-0.44728630781173706:0.85849523544311523] [-0.81479513645172119:0.26684635877609253] [-0.65686160326004028:0.77166128158569336] [-0.39724820852279663:0.76477724313735962] [-0.45493301749229431:0.57207036018371582] [-0.7259448766708374:0.60909700393676758] [-0.84046614170074463:0.38035711646080017] [-0.50401139259338379:0.58451050519943237] [-1.1252009868621826:0.28803923726081848] [-0.74099910259246826:0.39713200926780701] [-0.19358687102794647:1.0048680305480957] [-0.72757357358932495:0.40622320771217346] [-0.32353776693344116:0.89217031002044678] [-0.58312726020812988:0.47422689199447632] [-0.52006340026855469:0.62814229726791382] [-0.50157630443572998:0.58346098661422729] [-0.42012584209442139:0.74881702661514282] [-0.88363665342330933:0.19536679983139038] [-0.83540534973144531:0.46127700805664062] [-0.63146328926086426:0.57025212049484253] [-0.57095140218734741:0.6039130687713623] [-0.6478726863861084:0.6555105447769165] [-0.69266039133071899:0.56316715478897095] [-0.54362213611602783:0.55989736318588257] [-0.43409132957458496:0.49363583326339722] [-0.69069671630859375:0.39563536643981934] [-0.53241962194442749:0.58880400657653809] [-0.54905253648757935:0.51464027166366577] [-0.30845710635185242:0.7819218635559082] [-0.29634812474250793:0.81170535087585449] [-0.39065715670585632:0.70079070329666138] [-0.47820216417312622:0.62824618816375732] [-0.43343102931976318:0.86509644985198975] [-0.28760361671447754:0.76416456699371338] [-0.61780095100402832:0.51238644123077393] [-0.84456968307495117:0.3221886157989502] [-0.55393499135971069:0.66794449090957642] [-0.50441676378250122:0.68134528398513794] [-0.72784370183944702:0.53142064809799194] [-0.84670424461364746:0.38416227698326111] [-0.36567220091819763:0.67458200454711914] [-0.52735590934753418:0.76881122589111328] [-0.86871528625488281:0.28598704934120178] [-0.7242577075958252:0.3940691351890564] [-0.62863796949386597:0.39242765307426453] [0.56051343679428101:2.4641931056976318] [-0.17792050540447235:1.023813009262085] [-0.36191999912261963:0.68074184656143188] [-0.40648680925369263:0.40923291444778442] [-0.33813157677650452:0.85185897350311279] [-0.46906238794326782:0.49033838510513306] [-0.67824810743331909:0.42948362231254578] [-0.320995032787323:0.89504951238632202] [-0.85372596979141235:0.22583924233913422] [-0.51118415594100952:0.81900930404663086] [-0.54967343807220459:0.66248643398284912] [-0.53679287433624268:0.61620205640792847] [-0.62198460102081299:0.41923800110816956] [-0.46362826228141785:0.81052392721176147] [-0.21032360196113586:1.0576351881027222] [-0.11268554627895355:0.91567862033843994] [-0.65692764520645142:0.65769690275192261] [-0.93360406160354614:0.31082829833030701] [-1.0507497787475586:0.15084335207939148] [-0.44355645775794983:0.63499420881271362] [-1.0250968933105469:-0.019688617438077927] [-0.34322065114974976:1.016593337059021] [-0.29819318652153015:0.84315448999404907] [-0.53122514486312866:0.48246484994888306] [-0.61645025014877319:0.45705914497375488] [-0.52810835838317871:0.55893445014953613] [-0.46307706832885742:0.56708574295043945] [-0.69004523754119873:0.36403724551200867] [-0.47005879878997803:0.70436191558837891] [-0.4245581328868866:0.89779824018478394] [-0.7517731785774231:0.56140828132629395] [-0.38143467903137207:0.53625941276550293] [-0.48621290922164917:0.8162916898727417] [-0.2668299674987793:1.1220358610153198] [-0.81495809555053711:0.3323822021484375] [-0.67133384943008423:0.65102642774581909] [-0.53480613231658936:0.5059235692024231] [-0.7109561562538147:0.36409479379653931] [-0.73138320446014404:0.34230959415435791] [-0.35243216156959534:0.76952344179153442] [-0.38705655932426453:0.70396846532821655] [-0.77044802904129028:0.34961399435997009] [-0.016085358336567879:1.1450896263122559] [-0.57686972618103027:0.39301970601081848] [-0.40218481421470642:0.72708898782730103] [-0.066822320222854614:1.1122212409973145] [-0.73368912935256958:0.37264499068260193] [-0.81766575574874878:0.19120895862579346] [-0.25724834203720093:0.85945117473602295] [-0.29729694128036499:0.9615967869758606] [-0.60309791564941406:0.50471705198287964] [-0.74927181005477905:0.49496686458587646] [-0.88367611169815063:0.30332770943641663] [-0.56042331457138062:0.77634119987487793] [-0.61311572790145874:0.39072701334953308] [-0.5586322546005249:0.46938309073448181] [-0.58108311891555786:0.57273989915847778] [-0.65136635303497314:0.35366532206535339] [-0.51253378391265869:0.7035973072052002] [-0.37587064504623413:0.73221194744110107] [-0.43224278092384338:0.69799494743347168] [-0.33348789811134338:0.79236769676208496] [-0.41083884239196777:0.77514815330505371] [-0.48367679119110107:0.40524190664291382] [-0.35692831873893738:0.79224741458892822] [-0.43959659337997437:0.86541080474853516] [-1.10725998878479:0.17559172213077545] [-0.39996731281280518:0.81713604927062988] [-0.36421400308609009:0.88645857572555542] [-0.54632830619812012:0.75561761856079102] [-0.40298551321029663:0.614482581615448] [-0.37638759613037109:1.1190272569656372] [-0.25654458999633789:0.73079460859298706] [-0.48385918140411377:0.64404129981994629] [-0.26713895797729492:0.81194663047790527] [-0.61929500102996826:0.52897137403488159] [-0.28982466459274292:0.91962742805480957] [-0.45092934370040894:0.73643410205841064] [-0.60900753736495972:0.43916088342666626] [-3.4010787010192871:-0.79582178592681885] [-0.42766669392585754:0.72869282960891724] [-0.39149767160415649:0.61193394660949707] [-0.4843776524066925:0.85243839025497437] [-0.72459083795547485:0.36012676358222961] [-0.33780714869499207:1.1485201120376587] [-0.50617760419845581:0.76153373718261719] [-0.72663766145706177:0.55331343412399292] [-0.50194764137268066:0.61793482303619385] [-0.80900615453720093:0.26639372110366821] [-0.3894144594669342:0.67493653297424316] [-0.28431746363639832:0.87413305044174194] [-0.39146861433982849:0.84919440746307373] [-0.45998167991638184:0.40309521555900574] [-0.44815778732299805:0.59923034906387329] [-0.58001220226287842:0.55970233678817749] [-0.41074907779693604:0.72302991151809692] [-0.75697159767150879:0.58402442932128906] [-0.83290606737136841:0.32065299153327942] [-0.79091578722000122:0.2903590202331543] [-0.56555438041687012:0.54250037670135498] [-0.3849523663520813:0.73381519317626953] [-0.59494960308074951:0.60082089900970459] [-0.94263732433319092:0.17216527462005615] [-1.0416138172149658:0.17795407772064209] [-0.4534003734588623:0.85580766201019287] [-0.66573196649551392:0.52099812030792236] [-0.72230702638626099:0.28135839104652405] [-0.36802524328231812:0.69204193353652954] [-0.47932511568069458:0.69585144519805908] [-0.78255969285964966:0.30437877774238586] [-0.38901448249816895:0.7099873423576355] [-0.45272299647331238:0.5333365797996521] [-0.44017687439918518:0.60169970989227295] [-0.49080008268356323:0.65256339311599731] [-0.73943227529525757:0.32201206684112549] [-0.65064066648483276:0.7284967303276062] [-0.52526724338531494:0.50885260105133057] [-0.61656016111373901:0.79605221748352051] [-0.5737488865852356:0.70405793190002441] [-0.87131237983703613:0.33440995216369629] [-0.062170989811420441:1.1849597692489624] [-0.56976443529129028:0.57544195652008057] [-0.48330068588256836:0.55013477802276611] [-0.66073179244995117:0.43229395151138306] [-0.40239244699478149:0.61686426401138306] [-0.29846084117889404:0.66787964105606079] [-0.73098617792129517:0.20648850500583649] [-0.11071600764989853:1.1294307708740234] [-0.79345023632049561:0.24998307228088379] [-0.65157705545425415:0.52770090103149414] [-0.54580402374267578:0.59731924533843994] [-0.32632172107696533:0.95499175786972046] [-1.6603773832321167:0.42227521538734436] [-0.28189149498939514:0.72311943769454956] [-0.28395244479179382:0.64178293943405151] [-0.5243193507194519:0.67172020673751831] [-0.44453567266464233:1.0911490917205811] [-0.41749176383018494:0.61708247661590576] [-0.84650874137878418:0.17776444554328918] [-0.61495876312255859:0.57665520906448364] [-0.5812644362449646:0.63659060001373291] [-0.69343143701553345:0.6709783673286438] [-0.47865197062492371:0.73683416843414307] [-0.32335594296455383:0.80704271793365479] [-0.84144431352615356:0.32718268036842346] [-0.84267187118530273:0.28641423583030701] [-0.6225123405456543:0.49076229333877563] [-0.48571944236755371:0.57091981172561646] [-0.67620861530303955:0.53945177793502808] [-0.61418938636779785:0.42038553953170776] [-0.65831142663955688:0.44992232322692871] [-0.52427524328231812:0.79397273063659668] [-0.45765393972396851:0.66626924276351929] [-0.49814033508300781:0.48239618539810181] [-0.62345057725906372:0.46296873688697815] [-0.41365784406661987:0.92352920770645142] [-0.41936254501342773:0.82555437088012695] [-0.49478763341903687:1.0355148315429688] [-0.40279367566108704:0.98102986812591553] [-0.53419721126556396:0.48805069923400879] [-0.79485523700714111:0.40671241283416748] [-0.72115409374237061:0.47168427705764771] [-0.6028100848197937:0.49757954478263855] [-0.21966128051280975:0.74210506677627563] [-8.900059700012207:-2.6617381572723389] [-1.0078452825546265:0.19870805740356445] [-0.97517132759094238:0.27832669019699097] [-0.68122929334640503:0.64995789527893066] [-0.78267258405685425:0.39994728565216064] [-1.0695629119873047:0.24535635113716125] [-0.35967490077018738:0.67518573999404907] [-0.64409691095352173:0.30672544240951538] [-0.44700324535369873:0.89729040861129761] [-0.94103050231933594:0.37712463736534119] [-0.26767203211784363:0.72210925817489624] [-0.71266567707061768:0.3720659613609314] [-0.56106692552566528:0.41025432944297791] [-0.76708972454071045:0.306100994348526] [-0.35061195492744446:0.77078670263290405] [-0.34963288903236389:0.77493125200271606]
tree_sizes=2747 2947 2940 2950 2959 2952 2954 2949 2951 2961 2968 2964 2970 2967 2975 2955 2964 2981 2976 2981 2981 2979 2971 2987 2979 2987 2997 2977 2966 2980 3010 2997 2989 2983 2992 2989 2992 2998 2992 2992 2980 2986 2989 2972 2967 3007 2991 2982 2996 2990 2998 3005 2999 3004 2997 2977 2994 2973 2981 2993 2993 2995 3002 2984 3005 2978 2993 2990 3002 2986 2997 3030 2995 3001 3000 2987 2992 2986 2995 2987 2971 2995 2995 3005 2985 3006 2996 2987 2993 2986 2991 2986 2990 3006 2983 2992 2985 2993 2983 2988 2967 2996 2993 2999 2969 3004 2994 2986 2990 2990 2994 2985 3000 3017 3008 2987 2996

Tree=0
num_leaves=31
num_cat=0
split_feature=715 367 87 498 261 526 671 337 242 41 728 61 525 470 146 633 421 242 457 433 292 640 250 633 155 3 696 284 510 423
split_gain=9.40115 6.23588 4.99731 4.13665 3.41377 2.74658 2.48451 2.00837 1.98205 1.89692 1.83713 1.71663 1.57109 1.54546 1.51703 1.48423 1.43841 1.43829 1.42017 1.34964 1.26154 1.25545 1.29807 1.22704 1.21205 1.13881 1.06555 1.05391 1.14374 1.04944
threshold=0.20502997189760211 0.083619713783264174 -0.12350040301680563 0.092446397989988341 -0.024352444335818287 -0.05188395828008651 0.036322727799415595 -0.037058953195810311 0.25503051280975347 -0.19276371598243711 0.06361068040132524 0.067642144858837142 0.084754884243011488 -1.2375631928443906 -0.0088284444063901884 0.35326445102691656 0.13926358520984652 0.16926232725381854 0.2454626262187958 -0.016073325648903843 0.084082111716270461 -0.26867106556892389 0.20086178183555606 0.3129760622978211 0.11105556041002275 -0.064598750323057161 -0.059172153472900384 0.15707208961248401 -0.26995043456554407 -0.063744161278009401
decision_type=2 2 2 2 2 2 2 2 2 2 2 2 2 2 2 2 2 2 2 2 2 2 2 2 2 2 2 2 2 2
left_child=2 6 5 4 7 10 13 27 -6 -3 12 15 14 21 23 -8 -12 -5 25 -9 -11 22 -2 29 -19 -7 -23 -4 -29 -1
right_child=1 9 3 17 8 18 11 19 -10 20 16 -13 -14 -15 -16 -17 -18 24 -20 -21 -22 26 -24 -25 -26 -27 -28 28 -30 -31
leaf_value=3.0840711663824067 3.0679718629170614 3.0650101208804728 3.0606643310130983 3.0501947033246135 3.0552045615230243 3.0565205570898057 3.0586547637041712 3.0740757526759066 3.0725063795226388 3.0480015529895863 3.0527957816211897 3.0546480334509769 3.0578608399517431 3.052442577832795 3.0596278664354624 3.0697466935322044 3.0647548880554281 3.0663496768387115 3.0512417935142224 3.0999357714673104 3.0600657500573369 3.0463684214450195 3.0556764092452817 3.0659689436150788 3.0525155088294795 3.0692730288235879 3.0577033371351958 3.068563329203593 3.0887351954509361 3.0655314626275105
leaf_weight=107 212 70 54 93 117 301 189 50 137 1293 255 182 178 737 132 330 154 303 456 68 90 93 136 176 73 82 453 83 50 54
leaf_count=107 212 70 54 93 117 301 189 50 137 1293 255 182 178 737 132 330 154 303 456 68 90 93 136 176 73 82 453 83 50 54
internal_value=3.05802 3.05473 3.06227 3.06786 3.0736 3.05921 3.05794 3.08062 3.06471 3.04961 3.06259 3.06289 3.06587 3.0558 3.06886 3.06578 3.05735 3.06085 3.05496 3.09083 3.04879 3.0586 3.06323 3.07235 3.0636 3.05944 3.05562 3.07302 3.07756 3.07855
internal_weight=0 3785 2923 1028 559 1895 2332 305 254 1453 1056 701 647 1631 469 519 409 469 839 118 1383 894 348 337 376 383 546 187 133 161
internal_count=6708 3785 2923 1028 559 1895 2332 305 254 1453 1056 701 647 1631 469 519 409 469 839 118 1383 894 348 337 376 383 546 187 133 161
is_linear=0
shrinkage=1


Tree=1
num_leaves=31
num_cat=0
split_feature=748 266 271 337 343 78 598 230 521 375 64 715 515 675 591 78 2 166 121 529 602 491 346 228 616 384 411 715 287 291
split_gain=8.95541 6.63319 3.31895 3.30891 2.51289 2.46599 2.38207 2.26735 1.7073 1.6405 1.59215 1.55496 1.47923 1.47568 1.43246 1.32228 1.30352 1.26924 1.26003 1.21802 1.1853 1.17946 1.15566 1.14238 1.0749 1.04186 1.002 0.979571 1.06215 0.942504
threshold=-0.15728620439767835 0.061597228050231941 0.083434440195560469 -0.012871498242020605 -0.11481059715151785 -0.088739447295665727 0.086598645895719542 0.11438374221324922 0.020950525999069217 -0.1430346220731735 -0.012022659648209809 0.19587474316358569 0.19357308745384219 0.064968258142471327 -0.063506834208965288 -0.032331671565771096 -0.1087992489337921 0.077779643237590804 0.42890645563602453 -0.045971771702170365 0.31244386732578283 0.43869312107563024 0.41649535298347479 -0.15659388899803159 0.20614740252494815 0.063128385692834868 0.10154018551111223 0.41491237282752996 -0.35170555114746088 0.048363823443651206
decision_type=2 2 2 2 2 2 2 2 2 2 2 2 2 2 2 2 2 2 2 2 2 2 2 2 2 2 2 2 2 2
left_child=2 3 12 4 6 14 8 15 13 16 17 -10 21 -2 27 -5 -4 23 -18 -6 -13 26 25 -7 -15 -14 -1 28 -3 -19
right_child=1 5 9 7 19 10 -8 -9 11 -11 -12 20 22 24 -16 -17 18 29 -20 -21 -22 -23 -24 -25 -26 -27 -28 -29 -30 -31
leaf_value=-0.0082958416564800457 -0.0049082665580913887 0.010825980614522987 -0.005544682587851851 0.013085684672004511 0.006718893299728571 0.022598632518677567 -0.0052876541239834721 0.0051860145725089977 0.013954917106791623 -0.0098557597129186325 -0.0072798701602706465 -0.0028957881970630003 0.0022924754105949599 0.0010667741482755812 -0.008861417402667349 0.030686767852346628 0.0096073309683880493 0.0066971290154085499 0.00065560237872592598 0.016336130183394269 0.0093959349383964403 -0.012902990031208953 -0.010344198066802077 0.0060203551269955666 0.013940498442877054 -0.0075172149289360257 5.1958359434080738e-05 -0.0096897572381456545 -0.0020245114052579324 -0.0038761536760438644
leaf_weight=591 252 88 163 115 404 51 302 143 262 121 126 149 370 194 508 92 255 142 393 206 150 438 148 173 90 143 189 81 186 183
leaf_count=591 252 88 163 115 404 51 302 143 262 121 126 149 370 194 508 92 255 142 393 206 150 438 148 173 90 143 189 81 186 183
internal_value=0 0.00312039 -0.00427487 0.00644273 0.00483744 -0.00198299 0.00247281 0.0153176 0.00463393 0.000602417 0.00252726 0.00844593 -0.0066857 0.000573244 -0.00550077 0.021827 0.00225046 0.00485622 0.00425857 0.01015 0.00336159 -0.00874548 -0.00282618 0.0104959 0.00543843 -0.000521445 -0.00629476 -0.000595164 0.00230801 0.000797508
internal_weight=0 3897 2811 2359 2009 1538 1399 350 1097 932 675 561 1879 536 863 207 811 549 648 610 299 1218 661 224 284 513 780 355 274 325
internal_count=6708 3897 2811 2359 2009 1538 1399 350 1097 932 675 561 1879 536 863 207 811 549 648 610 299 1218 661 224 284 513 780 355 274 325
is_linear=0
shrinkage=0.1


Tree=2
num_leaves=31
num_cat=0
split_feature=748 715 36 515 525 261 597 36 504 678 373 21 656 482 373 315 611 293 679 763 250 248 374 429 152 520 316 564 482 106
split_gain=7.39515 5.99215 3.22346 2.88142 2.84286 2.71297 2.73735 2.02244 2.39515 1.81073 1.68957 1.68451 1.4994 1.43361 1.35164 1.33206 1.2857 1.36062 1.24622 1.17079 1.16724 1.20283 1.13944 1.1255 1.12139 1.12135 1.04707 1.06978 1.01259 1.01258
threshold=-0.05522924289107322 0.20502997189760211 0.25186295807361608 0.13913749158382419 0.029430486261844638 -0.040328286588191979 0.1375343203544617 0.12673633545637134 0.27372547984123236 0.4082245826721192 -0.13412337005138394 -0.15558616816997525 0.092042710632085814 -0.14473862946033475 -0.42155985534191126 -0.12072391062974928 0.068547524511814131 0.12518921494483951 0.23375268280506137 -0.13449463248252866 0.16185218095779422 0.005546215921640397 0.23746803402900699 0.037346975877881057 -0.13988291472196576 -0.048821946606039994 -0.14990331232547757 0.14264634251594546 -0.047333801165223115 0.0079535981640219706
decision_type=2 2 2 2 2 2 2 2 2 2 2 2 2 2 2 2 2 2 2 2 2 2 2 2 2 2 2 2 2 2
left_child=1 5 4 24 9 6 10 8 11 13 -1 18 -5 16 -6 29 17 -2 -8 23 -16 -22 -4 -14 28 -12 27 -17 -3 -7
right_child=2 3 22 12 14 15 7 -9 -10 -11 25 -13 19 -15 20 26 -18 -19 -20 -21 21 -23 -24 -25 -26 -27 -28 -29 -30 -31
leaf_value=-0.0067961719905993735 0.033088598475523305 -0.0011678936830146719 -0.0060389060331203642 -0.0068611754584339095 -0.0090801367433498027 -0.008955002571054636 0.030237793618018257 0.0016209450778991463 0.0038387442487948435 0.0013349914463178115 0.0012337495782109315 0.0038477023856302406 -0.0109126377499575 0.0096325393946164409 0.0087176029380282415 0.0096286768113828351 0.0085735311613164122 0.011990477496706037 0.010154837474769175 0.0034197775606617611 -0.0076539128383599862 0.0039873668920295891 0.0046354398621064998 -0.00031063000558350772 -0.012114122156526984 0.017155909318230172 -0.0034280264613780567 -0.00097625770522265145 -0.009644624778240591 0.00078128267637213972
leaf_weight=210 92 265 293 476 72 305 124 196 147 134 169 53 136 327 361 196 79 65 56 479 109 354 142 327 593 52 262 175 299 160
leaf_count=210 92 265 293 476 72 305 124 196 147 134 169 53 136 327 361 196 79 65 56 479 109 354 142 327 593 52 262 175 299 160
internal_value=0 -0.00215864 0.00505818 -0.00538622 0.00713329 0.00179547 0.00552212 0.00997964 0.0141587 0.0118888 -0.000514311 0.0202985 -0.00234155 0.0143424 0.00335552 -0.00163879 0.0202961 0.0254378 0.0247431 -1.60314e-05 0.00452532 0.0011565 -0.00253193 -0.0035681 -0.00907257 0.00548608 0.00134572 0.00471824 -0.0057397 -0.00565188
internal_weight=0 4680 2028 2575 1593 2105 1007 576 380 697 431 233 1418 563 896 1098 236 157 180 942 824 463 435 463 1157 221 633 371 564 465
internal_count=6708 4680 2028 2575 1593 2105 1007 576 380 697 431 233 1418 563 896 1098 236 157 180 942 824 463 435 463 1157 221 633 371 564 465
is_linear=0
shrinkage=0.1


Tree=3
num_leaves=31
num_cat=0
split_feature=323 353 763 638 50 242 715 520 375 48 279 699 137 295 744 699 498 435 226 592 661 396 137 710 533 486 767 337 644 318
split_gain=6.52807 4.56916 3.79154 3.00188 2.33835 2.08681 1.90101 1.85899 1.77864 1.64509 1.63681 1.56208 1.51568 2.13593 1.41562 1.25883 1.2421 1.16518 1.00385 1.00214 0.96906 0.941308 1.08726 0.940703 0.930145 0.893069 0.864829 0.861736 0.800749 0.769255
threshold=0.058923449367284782 0.11034230887889863 -0.18748934566974637 0.077370669692754759 0.28943058848381048 0.27717977762222296 0.21477562934160235 0.026985447853803638 -0.27883043885231013 -0.24650669097900388 -0.066409133374690996 0.062426440417766578 -0.063049692660570131 -0.077629063278436647 -0.0033730119466781612 -0.13058893382549283 0.033219570294022567 -0.24307665228843686 0.15511175245046618 0.18550492823123935 0.18475267291069034 -0.18783047795295713 -0.031919712200760834 0.060280691832304008 0.29733255505561834 0.0657935105264187 0.13989564031362536 -0.0046342387795448295 0.039798896759748466 0.17861195653676989
decision_type=2 2 2 2 2 2 2 2 2 2 2 2 2 2 2 2 2 2 2 2 2 2 2 2 2 2 2 2 2 2
left_child=1 6 5 4 8 -2 12 15 9 25 -6 -7 13 23 -10 -3 -17 -8 -14 -18 26 22 24 -1 -11 -4 -13 -16 29 -12
right_child=2 7 3 -5 10 11 17 -9 14 21 28 20 18 -15 27 16 19 -19 -20 -21 -22 -23 -24 -25 -26 -27 -28 -29 -30 -31
leaf_value=0.030464515045023177 -0.00885799360239241 -0.0065779175773558176 -0.0080069128474102476 -0.0066146069121705954 0.018721437971004139 -0.004693582479884462 -0.0052117461115096797 -0.012748401770284407 0.0071878628932554815 0.0090713103701782326 0.0028344316606811089 0.016321120643199818 0.013047859066481027 0.0067731547349190284 -0.0048085248600263659 0.01330531840679872 -0.0012886094289503145 0.0087766075775785012 -0.0021392768358094189 0.0079682712815602168 -0.0055534531001455254 0.014289513694317208 -0.00069841215196499336 0.011448857346646794 0.00041183214259439874 0.0023855543580354383 0.0021073871405597427 0.0051296541456777997 -0.00089837408205587291 0.01407661985755872
leaf_weight=134 896 125 181 541 97 517 79 84 121 382 139 74 111 93 944 111 333 186 65 170 57 84 357 50 183 141 95 89 161 108
leaf_count=134 896 125 181 541 97 517 79 84 121 382 139 74 111 93 944 111 333 186 65 170 57 84 357 50 183 141 95 89 161 108
internal_value=0 0.00572824 -0.00167032 0.000178923 0.00142493 -0.00563087 0.0115072 0.000619229 0.000153384 0.00264085 0.00756637 -0.00168196 0.0154013 0.0199761 -0.00270749 0.00226883 0.00413635 0.00457351 0.00760178 0.00192192 0.00512638 0.00462373 0.00361827 0.0260445 0.00631515 -0.00351291 0.00882363 -0.00391673 0.00458012 0.00806054
internal_weight=0 1541 5167 3528 2987 1639 718 823 2482 1328 505 743 453 277 1154 739 614 265 176 503 226 1006 922 184 565 322 169 1033 408 247
internal_count=6708 1541 5167 3528 2987 1639 718 823 2482 1328 505 743 453 277 1154 739 614 265 176 503 226 1006 922 184 565 322 169 1033 408 247
is_linear=0
shrinkage=0.1


Tree=4
num_leaves=31
num_cat=0
split_feature=702 6 591 124 359 515 484 558 337 661 86 302 53 68 628 304 356 86 263 504 388 5 261 724 261 628 475 391 22 246
split_gain=5.43023 4.85645 2.33087 2.32411 2.19039 2.17373 2.01293 1.96442 1.97328 1.81498 1.79968 1.73172 1.51061 1.44662 1.22835 1.27621 1.21543 1.31493 1.16349 1.15574 1.08602 1.27688 1.19771 1.04377 0.982848 0.965154 1.09203 0.94572 0.879363 0.856043
threshold=-0.27022424340248102 0.18175663053989413 -0.0056991986930370322 0.16399301588535312 -0.040296304970979684 0.24809753894805911 -0.068697087466716752 0.058184146881103523 0.012041606009006502 0.12633009254932406 -0.24571410566568372 -0.073080424219369874 0.18547262251377108 -0.28885400295257563 -0.027640812098979946 -0.15958826988935468 -0.043627278879284852 -0.21933329105377194 0.042971268296241767 0.29552929103374487 -0.24289137125015256 -0.070458292961120592 -0.078122057020664201 0.34507206082344061 -0.025144184008240696 -0.064541820436716066 -0.11446808278560637 0.24369231611490252 -0.031646704301238053 0.16787838190793994
decision_type=2 2 2 2 2 2 2 2 2 2 2 2 2 2 2 2 2 2 2 2 2 2 2 2 2 2 2 2 2 2
left_child=5 2 10 4 9 11 -5 8 16 25 29 18 20 -4 -15 -16 17 -6 -1 -19 22 -22 -12 -7 -17 -3 -27 -8 -13 -2
right_child=1 3 13 6 7 23 27 -9 -10 -11 12 28 -14 14 15 24 -18 19 -20 -21 21 -23 -24 -25 -26 26 -28 -29 -30 -31
leaf_value=-0.0057222465066903228 -0.013498003862141228 0.018015334670683381 -0.0097290184904778709 0.026148871549468988 -0.0010632612950976208 0.00031411841785058888 0.014556925241448082 -0.0043755636237503082 0.021221908754044519 0.00077884629370104496 0.023838910502514906 -0.013920087182621239 -0.00027239224465302737 0.0031758907573339909 -0.0095209132279177461 0.0054174391204263239 -0.0031560021279402441 0.004057279044642044 0.0022899995634254248 0.016375475142901396 0.010264114785211076 -0.0033906057516878496 0.0071818255375957589 0.014650673865324352 -0.0060807809060626035 0.012961815015851247 0.0023220571826183668 0.001087995875981319 -0.0066326982070486736 -0.0011167601910448343
leaf_weight=365 78 151 341 82 195 381 94 397 54 238 66 218 405 289 274 149 237 192 345 127 131 128 131 50 132 216 177 109 794 162
leaf_count=365 78 151 341 82 195 381 94 397 54 238 66 218 405 289 274 149 237 192 345 127 131 128 131 50 132 216 177 109 794 162
internal_value=0 0.00200165 -0.00125026 0.00527021 0.00401997 -0.00408271 0.0135981 0.00132054 0.00414635 0.00810929 0.00205474 -0.00566681 0.00418606 -0.0043136 -0.00204898 -0.00477667 0.00269049 0.00539387 -0.0018483 0.00926475 0.00807711 0.00362454 0.0135316 0.00223326 -4.18642e-06 0.0112539 0.00832334 0.00766545 -0.00830736 -0.00547081
internal_weight=0 4555 2286 2269 1984 2153 285 1202 805 782 1101 1722 861 1185 844 555 751 514 710 319 456 259 197 431 281 544 393 203 1012 240
internal_count=6708 4555 2286 2269 1984 2153 285 1202 805 782 1101 1722 861 1185 844 555 751 514 710 319 456 259 197 431 281 544 393 203 1012 240
is_linear=0
shrinkage=0.1


Tree=5
num_leaves=31
num_cat=0
split_feature=143 337 106 521 521 537 97 576 750 393 350 43 309 297 277 533 681 39 548 323 223 147 193 475 46 597 606 257 152 458
split_gain=6.06645 2.89748 2.61511 2.30192 1.74981 1.61003 1.51482 1.49335 1.54303 1.49028 1.62171 1.47909 1.37782 1.25626 1.25537 1.18932 1.14779 1.14542 1.13299 1.2306 1.08078 1.04046 1.03907 0.984009 0.911142 0.889186 1.06456 0.845245 0.835869 0.830186
threshold=0.2162345498800278 -0.012871498242020605 -0.035772521048784249 0.018602354452013973 -0.08880413323640822 -0.07037509977817534 0.017411623150110248 0.26193197071552282 -0.18383037298917768 -0.010859321802854536 0.13507258147001269 -0.086905218660831438 -0.084083385765552507 0.063828483223915114 0.36108551919460302 0.24718168377876285 0.11463974043726922 -0.012161815539002417 0.25126843154430395 0.082623895257711424 0.1479565501213074 0.1714948117733002 0.077102832496166243 -0.055444665253162377 -2.4516571760177608 0.1375343203544617 -0.52170041203498829 0.030188107863068584 -0.08711890876293181 -0.10557195544242857
decision_type=2 2 2 2 2 2 2 2 2 2 2 2 2 2 2 2 2 2 2 2 2 2 2 2 2 2 2 2 2 2
left_child=2 3 5 11 29 6 23 8 -3 10 13 12 -2 -5 16 -15 24 -10 19 28 -11 25 -14 -1 -6 26 -7 -27 -13 -4
right_child=1 7 4 9 14 21 -8 -9 17 20 -12 18 22 15 -16 -17 -18 -19 -20 -21 -22 -23 -24 -25 -26 27 -28 -29 -30 -31
leaf_value=0.0077962994661447925 0.0094318322538811568 0.029225634286132042 -0.00067040087923889396 0.007614597787500778 -0.0051641827248085784 0.0010275757684462647 -0.0052451887491749144 -0.00015958143087492152 0.019983766329734511 0.0063105949695845646 -0.0031038118274624806 0.010329482638648739 -0.0092722179394942126 0.025274017535697836 0.011161665938444761 0.0051659428173595643 -0.0025521381106996602 0.0059950235313165649 -0.010693800934611392 -0.0038600340442958765 -0.0037389151518565887 0.00091095722568706149 0.0045412600501243509 -0.0048558121291639453 0.0060500574270791118 -0.0070848018083629061 -0.012089703340859827 0.00023632964095417241 4.3259077653916934e-05 -0.009731111490620413
leaf_weight=223 238 50 211 424 79 69 321 95 82 189 98 112 89 88 140 50 429 201 135 597 225 165 115 77 455 627 498 209 229 188
leaf_count=223 238 50 211 424 79 69 321 95 82 189 98 112 89 88 140 50 429 201 135 597 225 165 115 77 455 627 498 209 229 188
internal_value=0 0.00337618 -0.00266098 0.00209743 0.000551953 -0.00485904 -0.00053838 0.0109163 0.014 0.00561892 0.00853893 -0.000416757 0.00439911 0.0105855 0.00260407 0.0187241 0.00127153 0.0105216 -0.0024199 -0.00114211 0.000884224 -0.00655786 -0.00161746 0.00450377 0.00433505 -0.00743643 -0.010502 -0.00527087 0.00359398 -0.00505571
internal_weight=0 3017 3691 2589 1502 2189 621 428 333 1074 660 1515 442 562 1103 138 963 283 1073 938 414 1568 204 300 534 1403 567 836 341 399
internal_count=6708 3017 3691 2589 1502 2189 621 428 333 1074 660 1515 442 562 1103 138 963 283 1073 938 414 1568 204 300 534 1403 567 836 341 399
is_linear=0
shrinkage=0.1


Tree=6
num_leaves=31
num_cat=0
split_feature=544 763 261 299 99 544 15 583 5 68 597 685 450 754 353 599 288 304 292 150 357 277 564 688 36 96 623 277 715 374
split_gain=5.08242 3.94319 2.1641 2.20341 1.83435 1.67791 1.51051 1.44533 1.35656 1.31824 1.29362 1.26102 1.242 1.19102 1.15899 0.992816 0.968917 0.96534 0.892017 0.861234 0.819966 0.935752 0.921219 0.816638 0.814076 0.796207 0.77705 0.775839 0.913858 0.771673
threshold=-0.31180882453918451 -0.18303652852773664 -0.056183829903602593 -0.13100382685661313 0.11648046970367433 -0.19230291247367856 0.12003275752067567 0.07004208862781526 -0.022267853841185566 -0.28174690902233118 0.19842044264078143 -0.15182814002037046 0.029902188107371334 -0.13737256079912183 0.17354783415794375 -0.13867072016000745 0.25920541584491735 -0.16397128999233243 -0.17519725114107129 0.063988465815782561 0.14458887279033664 0.18303927779197696 0.11317678540945054 0.24062322825193408 0.15083478391170504 0.067633934319019332 0.18827489018440249 0.20932972431182864 0.23097487539052966 0.19382001459598544
decision_type=2 2 2 2 2 2 2 2 2 2 2 2 2 2 2 2 2 2 2 2 2 2 2 2 2 2 2 2 2 2
left_child=4 13 3 7 -1 20 8 -3 19 27 -11 15 14 16 -9 -7 18 26 -2 -5 21 -4 24 -17 -22 -23 -12 -6 -29 -13
right_child=1 2 5 6 9 11 -8 12 -10 10 17 29 -14 -15 -16 23 -18 -19 -20 -21 22 25 -24 -25 -26 -27 -28 28 -30 -31
leaf_value=-0.0096057494727267174 -0.0044862250951873709 0.00050395748712276462 -0.0034134939859618643 0.0063326438622623065 -0.009513242752144116 -0.001177976318394819 0.024839997792976562 0.013479463583931607 -0.004632321881760995 -0.0035478922656133854 -0.0020896741399681561 -0.0014480990166645755 -6.2950589403034222e-06 -0.0056913551142954147 -0.0020682083799668564 0.014140160929921708 -0.0055512807280697941 0.0088410601238863556 0.0065906219487786126 0.019983367483855128 0.0031726636305275495 0.0072049665921262432 -0.0096772033863746186 0.0021622558734087148 -0.0074938548568949997 -0.002826656093521816 0.0092041301361141335 0.0045175278863637857 -0.0061734103020972195 0.0067823147314105634
leaf_weight=433 93 481 238 112 311 76 86 308 51 601 304 321 136 668 54 244 161 184 258 88 194 277 173 78 102 104 67 114 225 166
leaf_count=433 93 481 238 112 311 76 86 308 51 601 304 321 136 668 54 244 161 184 258 88 194 277 173 78 102 104 67 114 225 166
internal_value=0 0.00200665 0.0037835 0.00691168 -0.0038211 0.00167589 0.0138021 0.00443949 0.00931753 -0.00239494 -0.000357697 0.00488733 0.00816705 -0.00293742 0.0111661 0.00900098 0.000690534 0.00309834 0.00361836 0.0129194 -0.000954329 0.0014303 -0.00407049 0.0113714 -0.000611559 0.00446471 0.000113427 -0.00596573 -0.00255524 0.00142686
internal_weight=0 4469 3289 1316 2239 1973 337 979 251 1806 1156 885 498 1180 362 398 512 555 351 200 1088 619 469 322 296 381 371 650 339 487
internal_count=6708 4469 3289 1316 2239 1973 337 979 251 1806 1156 885 498 1180 362 398 512 555 351 200 1088 619 469 322 296 381 371 650 339 487
is_linear=0
shrinkage=0.1


Tree=7
num_leaves=31
num_cat=0
split_feature=715 50 714 700 401 284 152 553 250 86 619 252 261 261 61 623 301 337 154 115 631 583 152 717 312 391 657 553 129 86
split_gain=3.77452 2.45465 2.02122 1.9642 2.02536 1.54785 1.49542 1.45773 1.45675 1.41496 1.38474 1.42633 1.36155 1.24708 1.157 1.15823 1.14962 1.6376 1.12496 1.13794 1.05039 1.02363 0.920089 0.904034 0.889282 0.883735 0.850125 0.835524 0.832861 0.806037
threshold=0.22781966626644137 0.24091400206089023 -0.11120122671127318 0.13921879231929782 0.028283573687076572 0.1448333412408829 0.041577652096748359 0.20154479891061786 0.24492298066616061 -0.30118101835250849 0.073404647409915938 -0.0099792289547622186 -0.053818715736269944 -0.13523181527853009 0.093071311712265029 0.17561456561088565 0.058453220874071128 -0.052651386708021157 -0.21597946435213086 0.23746939748525622 -0.11292809993028639 0.21880757063627246 -0.2582723200321197 -0.036378782242536538 0.087865091860294356 0.19212988018989566 -0.057289883494377129 0.45989598333835607 0.065339915454387679 -0.18906643986701963
decision_type=2 2 2 2 2 2 2 2 2 2 2 2 2 2 2 2 2 2 2 2 2 2 2 2 2 2 2 2 2 2
left_child=1 6 5 4 27 24 7 12 13 -7 11 -11 16 26 15 18 -1 -18 19 -6 -14 22 -5 28 -3 -24 -9 29 -15 -2
right_child=3 2 -4 21 14 9 -8 8 -10 10 -12 -13 20 23 -16 -17 17 -19 -20 -21 -22 -23 25 -25 -26 -27 -28 -29 -30 -31
leaf_value=-0.0043973864831145472 -0.0096698171844007436 0.013818097140717335 -0.0041111147623732053 0.00010491527545969171 0.00056831177060206832 -0.00047425372462549936 -0.0074067798614012763 0.023964940036110979 -0.002937048130920634 0.027423917801537547 0.0012465200998778535 0.011952506643104195 0.007717540540495213 -0.0025176477087526065 -0.002986849383843521 0.011078000663494942 0.0012549618832299078 0.01562261210257803 -0.001812846019534381 0.011036520329625564 -0.0060191709077189008 0.0047462286308575718 -0.0024261983656128847 0.0008460285491532594 0.0016551187933367324 -0.0095231919528941562 0.0061742978896460257 0.0020417622781465044 0.0096417478568982667 -0.0026682467977349467
leaf_weight=166 300 66 142 182 215 67 199 51 236 103 60 187 55 64 343 167 280 103 383 194 502 83 246 393 325 674 64 161 325 372
leaf_count=166 300 66 142 182 215 67 199 51 236 103 60 187 55 64 343 167 280 103 383 194 502 83 246 393 325 674 64 161 325 372
internal_value=0 0.00240452 0.00669189 -0.00233383 -0.000515276 0.00861391 0.000716098 0.00146382 0.00397133 0.0128051 0.0152972 0.0180838 -0.0011158 0.00579963 0.00194516 0.00372011 0.00240054 0.005379 0.00206553 0.00565963 -0.00456532 -0.00558277 -0.00639168 0.00426728 0.00396329 -0.00766586 0.0151905 -0.00434143 0.00762996 -0.00587726
internal_weight=0 3388 950 3320 2135 808 2438 2239 1133 417 350 290 1106 897 1302 959 549 383 792 409 557 1185 1102 782 391 920 115 833 389 672
internal_count=6708 3388 950 3320 2135 808 2438 2239 1133 417 350 290 1106 897 1302 959 549 383 792 409 557 1185 1102 782 391 920 115 833 389 672
is_linear=0
shrinkage=0.1


Tree=8
num_leaves=31
num_cat=0
split_feature=143 337 343 595 164 748 291 97 106 421 626 71 595 13 679 556 266 112 281 614 579 64 87 691 767 652 89 691 458 368
split_gain=3.97177 2.33241 2.13356 1.91975 1.79025 1.75881 1.62681 1.31017 1.20406 1.18604 1.05281 1.04684 1.02739 0.991657 0.987033 0.969354 0.957928 0.946083 0.876554 0.863482 0.854803 0.819662 0.810773 0.80358 0.802185 0.826277 0.790151 0.766669 0.762733 0.751852
threshold=0.24112159013748172 -0.012871498242020605 -0.25504566729068751 0.060930136591196067 -0.12374693900346755 0.080444067716598525 0.13952873647212985 0.005830699112266303 -0.0043878573924303046 0.1059597283601761 -0.1173504590988159 -0.064001906663179384 0.017498899251222614 0.22485194355249408 0.20194806158542636 0.014520880766212942 0.10571622848510744 -0.13275062292814252 0.34882624447345739 -0.028515476733446118 -0.071525719016790376 0.076821930706501021 -0.134906031191349 -0.26981140673160547 0.21408417075872424 0.28075782954692846 0.33532455563545233 -0.3893748521804809 -0.13190779089927671 0.40852463245391851
decision_type=2 2 2 2 2 2 2 2 2 2 2 2 2 2 2 2 2 2 2 2 2 2 2 2 2 2 2 2 2 2
left_child=2 3 24 15 6 7 8 28 21 23 12 22 14 -10 -6 -2 -14 -9 -15 -12 -17 -4 -11 -3 25 -1 -19 -8 -5 -30
right_child=1 9 4 5 10 -7 27 17 13 11 19 -13 16 18 -16 20 -18 26 -20 -21 -22 -23 -24 -25 -26 -27 -28 -29 29 -31
leaf_value=0.0030313400417316095 0.0014096711722401247 -0.003011405036096741 0.0027123376622368287 0.0063466338831186979 0.014951272600719157 0.0082383520956786083 -0.0077835705205932864 0.0012909821746992021 -0.00022937923478051557 0.010470975344885152 0.0012329734284976792 0.0051358942706141407 0.00019193345802816916 0.013972549039986152 -0.00071533630825312377 0.0023365575983508189 -0.0073340279462187673 -0.013726172399080597 0.0016015177125240903 -0.007074788966482371 0.014089594542084553 -0.0065605637475366326 0.029084466955039731 0.01003651089636981 -0.007958615660493315 -0.0083788577489508805 -0.0040892970425826678 0.00053179654405406749 0.0017771388093317992 -0.0085826894647361481
leaf_weight=161 176 79 618 261 68 230 198 245 107 58 152 68 579 226 83 91 230 103 79 642 215 104 61 98 644 93 420 237 300 82
leaf_count=161 176 79 618 261 68 230 198 245 107 58 152 68 579 226 83 91 230 103 79 642 215 104 61 98 644 93 420 237 300 82
internal_value=0 0.00322917 -0.00180123 0.00193952 -0.000626344 0.000296948 0.00182255 -0.00103992 0.00380979 0.010531 -0.00281513 0.0159352 -0.000574929 0.00806517 0.00676836 0.00742776 -0.00200276 -0.00380885 0.010901 -0.00548824 0.010755 0.00131467 0.0213388 0.00434412 -0.0061013 -0.001285 -0.00617997 -0.00333123 0.00227395 -0.000587743
internal_weight=0 2487 4221 2123 3323 1641 1569 1411 1134 364 1754 187 960 412 151 482 809 768 305 794 306 722 119 177 898 254 523 435 643 382
internal_count=6708 2487 4221 2123 3323 1641 1569 1411 1134 364 1754 187 960 412 151 482 809 768 305 794 306 722 119 177 898 254 523 435 643 382
is_linear=0
shrinkage=0.1


Tree=9
num_leaves=31
num_cat=0
split_feature=421 521 707 475 224 498 515 208 432 175 521 548 482 359 636 542 602 329 302 530 244 767 431 247 189 556 172 429 278 206
split_gain=3.34688 2.5906 2.63347 1.67816 1.65669 1.58014 1.71228 1.40055 1.18647 1.17461 1.0825 1.09525 1.00674 0.981988 0.954343 0.945749 0.920742 0.89337 0.89061 0.871296 0.840536 0.850453 0.930188 0.830489 0.818517 0.81164 0.790985 0.777147 0.774379 0.767687
threshold=0.056974738836288459 0.018602354452013973 0.079186510294675841 -0.12879704684019086 -0.22362664341926572 0.012223880738019945 0.24625253677368167 0.086444400250911727 0.020241901278495792 0.060997834429144866 -0.13948860019445417 0.19232496619224551 -0.1431288197636604 -0.013469010591506956 0.33937415480613714 -0.039412047713994973 0.42776820063591009 -0.21440704166889188 -0.16622219234704969 0.22304813563823703 -0.1893920227885246 0.24345766007900241 -0.11361635476350783 0.069498606026172652 0.184672586619854 0.10469358786940576 0.33691726624965673 0.10519184917211534 0.059170663356781013 0.041143175214529044
decision_type=2 2 2 2 2 2 2 2 2 2 2 2 2 2 2 2 2 2 2 2 2 2 2 2 2 2 2 2 2 2
left_child=4 5 3 7 -1 14 20 12 16 19 -6 25 -3 -9 17 -16 23 -2 -10 -8 21 22 -7 -5 -4 -12 27 -19 -22 -13
right_child=1 2 24 8 10 6 9 13 18 -11 11 29 -14 -15 15 -17 -18 26 -20 -21 28 -23 -24 -25 -26 -27 -28 -29 -30 -31
leaf_value=-0.0066393601383853088 -0.0058180681371735633 0.019201496977998177 0.0071091575983180527 -0.0050153956418957889 -0.0097059223409002165 -0.0027356686944560275 0.0022443483798944841 0.0073713854880355541 0.010626995750369135 -0.0052514501261018342 0.00086408676581874926 -0.0012345334153284456 0.0068303473186162866 -0.001141475116146765 0.016172268434471334 -0.0002368567016938398 0.0083916546953054141 0.0016390273748118232 -0.00010057370291280727 0.011520348927762729 -0.0063607511075530745 -0.0038088426048475 0.0095515953466326787 0.0030369111878976217 0.025478701517837949 0.010564925956868306 -0.0012212830636698303 0.014636812259338992 -0.00020203173569615447 -0.013475298027663542
leaf_weight=871 110 115 50 472 112 103 336 289 161 133 656 140 175 245 98 52 73 90 142 140 846 264 134 168 64 91 144 91 269 74
leaf_count=871 110 115 50 472 112 103 336 289 161 133 656 140 175 245 98 52 73 90 142 140 846 264 134 168 64 91 144 91 269 74
internal_value=0 0.00149266 0.00428049 0.00331736 -0.00342187 -0.000453113 -0.00167056 0.00664578 0.000584558 0.00282075 -0.000777832 0.000340131 0.0121509 0.00350981 0.00413414 0.0107815 -0.00164744 0.00167614 0.00573654 0.00512978 -0.00336915 3.66173e-05 0.00430342 -0.00288933 0.0184932 0.00215345 0.00429787 0.00854398 -0.00488794 -0.005827
internal_weight=0 4764 1954 1840 1944 2810 2225 824 1016 609 1073 961 290 534 585 150 713 435 303 476 1616 501 237 640 114 747 325 181 1115 214
internal_count=6708 4764 1954 1840 1944 2810 2225 824 1016 609 1073 961 290 534 585 150 713 435 303 476 1616 501 237 640 114 747 325 181 1115 214
is_linear=0
shrinkage=0.1


Tree=10
num_leaves=31
num_cat=0
split_feature=349 266 507 87 750 756 401 375 295 472 263 646 365 662 756 699 663 261 274 274 366 159 237 242 266 637 424 613 298 428
split_gain=3.63222 2.48392 1.97455 1.84371 1.5905 1.45522 1.4454 1.24252 1.20455 1.22632 1.07098 1.05809 1.11244 1.03092 0.942162 0.917167 0.912473 0.898964 0.966316 0.896285 0.891957 0.888359 0.855708 0.843527 0.834799 0.780754 0.764808 0.75854 0.747034 0.727282
threshold=0.27151247859001165 0.069107465445995345 0.045443195849657066 -0.23317601531744001 -0.032539103180170052 -0.028116304427385327 -0.015459858346730469 -0.23131791502237317 -0.11565775796771048 0.2169657498598099 0.071094430983066573 -0.19512124359607694 0.12588942050933841 0.15062923729419711 -0.088822513818740831 -0.081049654632806764 0.064551778137683882 0.0070124734193086633 -0.022105772979557511 -0.044854655861854546 -0.085219595581293092 0.19609590619802478 -0.16567255556583402 0.52140611410141002 0.21238483488559726 0.20726826041936877 -0.10895130410790442 0.032031573355197913 -0.12500276044011113 0.22124628722667697
decision_type=2 2 2 2 2 2 2 2 2 2 2 2 2 2 2 2 2 2 2 2 2 2 2 2 2 2 2 2 2 2
left_child=3 2 13 22 8 23 19 10 9 15 -6 -8 21 26 -12 -4 -15 18 -7 -3 -21 -13 -1 -5 -23 -24 -2 -20 -14 -16
right_child=1 6 4 5 7 17 11 -9 -10 -11 14 12 28 16 29 -17 -18 -19 27 20 -22 24 25 -25 -26 -27 -28 -29 -30 -31
leaf_value=0.0046077697960176583 -0.0089579527710926445 -0.013294063645816307 -0.0020502664259768526 0.0024282744063687232 -0.00094332020864601712 0.0063027245897959985 0.0094307777783760923 -0.0062021099366931995 0.0023940081214718521 0.020257983578960574 -0.0015236518198410271 -0.008761983095995754 0.011174696924535581 0.0022365434298668289 0.013656247291732402 0.0097497465801489047 -0.0075033311979780266 0.0046093036849260798 0.0087594692564395785 -0.0085218355547552246 0.0036631007533654797 9.9734269454428365e-05 -0.010186124714764759 0.013710478762790324 -0.0078140719554061645 0.0039695563171175813 -0.0024028459083605975 0.026050704262153536 -0.0004841125819801574 0.0011962298571295236
leaf_weight=120 247 215 86 462 515 79 65 236 500 81 102 356 54 619 150 240 105 108 50 164 86 413 122 70 188 50 620 94 442 69
leaf_count=120 247 215 86 462 515 79 65 236 500 81 102 356 54 619 150 240 105 108 50 164 86 413 122 70 188 50 620 94 442 69
internal_value=0 -0.000991949 0.000585209 0.0051517 0.00268866 0.0074571 -0.0038215 7.36928e-05 0.00574939 0.00973565 0.00189078 -0.00230115 -0.00287877 -0.00203161 0.00634299 0.00666437 0.000751957 0.0125967 0.0161479 -0.00865184 -0.00434792 -0.00485664 -0.0016804 0.00410872 -0.00245168 -0.00607808 -0.0043405 0.0208848 0.000955272 0.00992544
internal_weight=0 5553 3570 1155 1979 863 1983 1072 907 407 836 1518 1453 1591 321 326 724 331 223 465 250 957 292 532 601 172 867 144 496 219
internal_count=6708 5553 3570 1155 1979 863 1983 1072 907 407 836 1518 1453 1591 321 326 724 331 223 465 250 957 292 532 601 172 867 144 496 219
is_linear=0
shrinkage=0.1


Tree=11
num_leaves=31
num_cat=0
split_feature=421 323 476 295 106 490 376 707 619 359 375 584 254 466 323 86 596 279 313 261 94 450 323 53 201 644 486 425 583 261
split_gain=2.54179 2.31317 2.06739 1.58076 1.4341 1.32696 1.38522 1.24249 1.16751 1.05667 1.02693 1.02444 0.89855 0.885025 0.859748 0.847945 0.813208 0.804867 0.821233 0.777047 0.792569 0.772553 0.794935 0.759308 1.14418 0.747941 0.714604 0.776311 0.66529 0.651979
threshold=0.056974738836288459 0.058923449367284782 -0.079435031861066804 -0.044108871370553963 -0.028884447179734703 0.13296417146921161 -0.18085957318544385 0.032560465857386596 0.21215745061635974 -0.09979254379868506 -0.1550493389368057 -0.10617490112781523 0.14083710312843326 0.11704722046852113 0.015238454565405847 -0.27296759188175196 -0.4814609140157699 0.10039597004652025 -0.175704650580883 -0.088630314916372285 0.22328646481037143 0.053656473755836494 -0.033310133963823312 0.26258498430252081 -0.082297898828983293 0.13094939291477206 0.21836610883474353 0.43759769201278692 0.084243621677160277 -0.051666628569364541
decision_type=2 2 2 2 2 2 2 2 2 2 2 2 2 2 2 2 2 2 2 2 2 2 2 2 2 2 2 2 2 2
left_child=4 3 5 7 15 6 -3 12 9 11 13 -8 21 16 -9 26 -11 23 -19 20 -18 22 -2 24 -6 -13 27 -1 -4 -26
right_child=1 2 28 -5 17 -7 8 14 -10 10 -12 25 -14 -15 -16 -17 19 18 -20 -21 -22 -23 -24 -25 29 -27 -28 -29 -30 -31
leaf_value=-0.014419393723468203 0.014070865419560855 0.0090956315556339797 -0.0052522283505583283 -0.0013742996097397384 -0.00087861309876988234 0.01426304627155231 0.014238030863247 0.008352347246119626 -0.0067099069242206946 -0.0093743069342355299 -0.0065897931467786726 0.00093979503659417951 0.013025205747654721 0.011775088252600546 0.025668830788459496 -0.0033644555974762132 -0.0019958066769319963 -0.015603704695162056 -0.00020098365097038205 -0.00037404812047209354 0.0091963992692182077 -0.0035553111209765949 0.0034332875045702941 -0.0039044637148236056 0.01493091835278061 0.011518470650316932 0.0015320856066336004 -0.0030456070056536144 -0.00029816176505506625 0.0040306038902426277
leaf_weight=206 82 200 710 258 259 73 92 81 192 72 199 359 127 63 51 800 90 50 85 954 185 108 357 169 91 74 50 91 437 143
leaf_count=206 82 200 710 258 259 73 92 81 192 72 199 359 127 63 51 800 90 50 85 954 185 108 357 169 91 74 50 91 437 143
internal_value=0 0.00131593 0.000130245 0.0054047 -0.00296692 0.00171393 0.00129616 0.00756619 0.000580152 0.00127546 -3.61172e-05 0.00511741 0.00568867 0.000955591 0.0162119 -0.00521753 0.000357223 0.000293315 -0.00650276 0.000988977 0.00558442 0.00380875 0.00565416 0.00174533 0.00371607 0.00293821 -0.0093037 -0.0111196 -0.00338115 0.00865141
internal_weight=0 4764 3700 1064 1944 2553 2480 806 2280 2088 1563 525 674 1364 132 1147 1301 797 135 1229 275 547 439 662 493 433 347 297 1147 234
internal_count=6708 4764 3700 1064 1944 2553 2480 806 2280 2088 1563 525 674 1364 132 1147 1301 797 135 1229 275 547 439 662 493 433 347 297 1147 234
is_linear=0
shrinkage=0.1


Tree=12
num_leaves=31
num_cat=0
split_feature=521 367 5 353 482 396 266 316 277 295 194 201 615 613 702 344 102 616 765 123 170 375 30 712 258 512 446 481 90 476
split_gain=2.38211 1.99986 1.59859 1.42944 1.34568 1.11188 1.09964 0.989488 0.944885 0.943003 0.900429 0.900003 0.889475 0.867378 0.839678 0.833934 0.814838 0.795468 0.905358 0.781958 0.770806 0.769259 0.755966 0.756194 0.703402 0.693748 0.672991 0.663239 0.654832 0.649701
threshold=-0.027721310034394261 0.09750720858573915 -0.14946456998586652 0.099826321005821242 -0.15211757272481916 -0.18783047795295713 0.070058539509773268 -0.048028312623500817 0.22080919891595843 -0.137038879096508 0.34328371286392217 -0.045084226876497262 -0.15833739191293714 -0.064562190324068056 -0.17638920992612836 0.21827697008848193 0.073631107807159438 0.054984826594591148 -0.22215332090854642 0.0088843312114477175 -0.14725482463836667 -0.1383494436740875 -0.00066027871798723925 0.011122928932309152 -0.31564965844154352 0.013911742717027666 0.34609729051589971 0.10419536381959917 -0.18403459340333936 -0.11628460139036177
decision_type=2 2 2 2 2 2 2 2 2 2 2 2 2 2 2 2 2 2 2 2 2 2 2 2 2 2 2 2 2 2
left_child=2 3 9 4 13 10 15 11 -4 20 16 21 24 -2 -15 -3 -6 26 -19 28 -1 27 23 -11 -10 -16 -13 -5 -8 -14
right_child=1 6 8 7 5 -7 19 -9 12 22 -12 17 29 14 25 -17 -18 18 -20 -21 -22 -23 -24 -25 -26 -27 -28 -29 -30 -31
leaf_value=0.0012691401909725546 -0.001430183249826508 -0.0003811465546247493 -0.005239117646645767 -0.00073405476760609115 0.0050842220975760967 0.012233217338481839 -0.014980510420903105 -0.010159412094420273 0.0064579998361450125 0.0043310754547496539 0.011713734705808268 0.01191648071676344 0.0070402673082968969 0.0060166967021530945 0.0064142628355416398 0.011258459762210786 -0.0027523526674289988 0.0073789091842241337 -0.0038627605539823815 -0.0016149262320743444 0.011708077554180386 -0.010164845441224769 0.0042137810137974031 -0.0079793832492336663 -0.0047815754277456077 0.018413174515997523 -0.00044071677778972771 0.0084833426068786563 -0.0029068810288355052 -0.0010585158151343267
leaf_weight=145 63 797 1235 596 192 99 111 67 55 63 64 177 172 222 84 58 383 119 155 227 134 67 155 169 497 169 57 81 80 215
leaf_count=145 63 797 1235 596 192 99 111 67 55 63 64 177 172 222 84 58 383 119 155 227 134 67 155 169 497 169 57 81 80 215
internal_value=0 0.00168868 -0.00212012 0.00327766 0.00565253 0.00282657 -0.00155071 0.000958322 -0.00343033 0.00214586 0.00122503 0.00161902 -0.0010252 0.00942278 0.0108621 0.000513476 -9.89851e-05 0.00482589 0.0010961 -0.0056976 0.00648448 -0.00060096 -0.00105549 -0.00460088 -0.00357919 0.0147737 0.00899814 0.000462038 -0.0102691 0.0026163
internal_weight=0 3868 2840 2595 1276 738 1273 1319 2174 666 639 1252 939 538 475 855 575 508 274 418 279 744 387 232 552 253 234 677 191 387
internal_count=6708 3868 2840 2595 1276 738 1273 1319 2174 666 639 1252 939 538 475 855 575 508 274 418 279 744 387 232 552 253 234 677 191 387
is_linear=0
shrinkage=0.1


Tree=13
num_leaves=31
num_cat=0
split_feature=544 715 517 375 750 434 20 179 748 78 501 333 730 515 526 64 643 376 748 375 2 97 643 245 196 607 233 15 504 208
split_gain=2.52608 1.98901 1.53484 1.37077 1.36784 1.66425 1.36346 1.16066 1.15271 1.0652 1.04151 1.02636 0.957688 0.92668 0.8922 0.804556 0.790547 0.790458 0.779584 0.772509 0.760011 0.742505 0.728079 0.699003 0.743334 0.694338 0.733617 0.681635 0.675052 0.673373
threshold=-0.28145584464073176 0.19995929300785067 -0.0045695779845118514 -0.35874447226524347 -0.071005344390869127 1.0000000180025095e-35 0.10591841489076616 0.065238852053880705 0.014666674658656122 -0.015612006187438963 -0.28842180967330927 0.31809660792350775 0.18119004368782046 0.24809753894805911 -0.029399905353784558 0.10374407097697259 -0.12765674293041226 0.041868969798088081 -0.16514492034912107 -0.1383494436740875 0.038703642785549171 0.02429490722715855 -0.097277689725160585 0.13137209415435794 0.086216952651739134 0.034172071143984802 0.31145466864109045 0.12206912040710451 0.18387677520513537 0.18255760520696643
decision_type=2 2 2 2 2 2 2 2 2 2 2 2 2 2 2 2 2 2 2 2 2 2 2 2 2 2 2 2 2 2
left_child=2 3 14 12 5 7 11 9 17 28 22 -7 18 15 -1 19 -16 20 -2 -4 23 -15 -6 -3 -25 26 -19 -20 -5 -12
right_child=1 8 13 4 10 6 -8 -9 -10 -11 29 -13 -14 21 16 -17 -18 25 27 -21 -22 -23 -24 24 -26 -27 -28 -29 -30 -31
leaf_value=-0.0040265069812069386 0.001603360973386938 0.0027622002026024724 -0.00090692275637811704 0.0096822300707571501 0.0096016191481457531 0.026133840500602759 -0.00036748050627925344 -0.005641739542377097 0.0038724606445326593 0.013158554716621675 -0.00030232125201714682 0.0076232393021507918 -0.00036312417089979891 0.0060258816736006348 -0.022591582729217342 -0.0089681635341135133 -0.006668844468027256 0.0015507024410203883 0.007649295903040425 -0.0074659361272110389 0.0067378388922046464 -0.0015607155901096903 -0.002910291343320345 -0.0061574192487253918 0.0034704136806554412 -0.0064419384054975985 -0.009280243057440454 0.020000198013069695 -0.0022381952651860924 -0.0087215308831645605
leaf_weight=232 54 305 1746 59 126 75 50 116 530 113 256 62 70 274 57 152 80 313 92 192 158 232 66 284 104 421 69 125 152 143
leaf_count=232 54 305 1746 59 126 75 50 116 530 113 256 62 70 274 57 152 80 313 92 192 158 232 66 284 104 421 69 125 152 143
internal_value=0 0.00180172 -0.0021006 0.00451946 0.00291011 0.00613026 0.0138177 0.00265936 -0.000148477 0.00570089 -0.000545405 0.0187086 0.0100532 -0.00122959 -0.00805956 -0.00215869 -0.0142435 -0.00145039 0.0126717 -0.00158707 0.000672706 0.00257973 0.0053607 -0.000776241 -0.00355733 -0.00368357 -0.000568121 0.0152587 0.00134546 -0.00344098
internal_weight=0 3743 2965 1559 1218 627 187 440 2184 324 591 137 341 2596 369 2090 137 1654 271 1938 851 506 192 693 388 803 382 217 211 399
internal_count=6708 3743 2965 1559 1218 627 187 440 2184 324 591 137 341 2596 369 2090 137 1654 271 1938 851 506 192 693 388 803 382 217 211 399
is_linear=0
shrinkage=0.1


Tree=14
num_leaves=31
num_cat=0
split_feature=544 48 405 359 702 432 376 545 173 549 108 598 357 276 310 108 571 97 81 152 151 401 521 119 682 717 231 279 754 64
split_gain=2.13961 1.9078 1.58231 1.37155 1.33193 1.27006 1.20913 1.20154 0.992279 0.949592 0.927814 0.919931 0.910205 0.83149 0.812603 0.803593 0.776952 0.935233 0.759897 0.757431 0.732611 0.700693 0.803487 0.755976 0.664814 0.673671 0.664411 0.673831 0.745149 0.638528
threshold=-0.31180882453918451 -0.2105414271354675 -0.70648610591888417 -0.16849225014448163 -0.27910766005516047 -0.0053470358252525321 -0.1014316827058792 0.15693996101617816 -0.11697905510663985 -0.22927667200565335 0.088255874812603011 0.16016621887683871 0.14458887279033664 0.28648962080478674 0.081108298152685179 -0.026688679121434685 0.1694162338972092 0.11927901208400728 0.17196255922317508 -0.062637627124786363 0.097799297422170653 0.06761458516120912 0.074777852743864073 -0.14118737727403638 0.060188397765159614 -0.10761890560388564 -0.0073059722781181327 0.032885238528251655 -0.13617903739213941 -0.0063297413289546958
decision_type=2 2 2 2 2 2 2 2 2 2 2 2 2 2 2 2 2 2 2 2 2 2 2 2 2 2 2 2 2 2
left_child=6 3 12 -2 -4 8 18 20 21 10 -10 -8 26 19 16 -11 -5 24 -1 -14 -7 22 -6 -23 -18 -26 27 28 -3 -13
right_child=1 2 4 14 5 7 11 -9 9 15 -12 29 13 -15 -16 -17 17 -19 -20 -21 -22 23 -24 -25 25 -27 -28 -29 -30 -31
leaf_value=0.010300169517060804 0.0065231940557394404 0.012756362793288565 -0.0012149970099621633 -0.0071867334516229984 -0.0068642266895625114 0.010078437701615491 -0.002673270635787062 0.022796057974070694 0.0062763219010018786 0.010635395537958468 0.021921177576605666 -0.0041157838820249162 -0.0022722356822067 0.0018119683355413648 0.0041019822727400125 -5.1180088922759985e-05 -0.0041729101941666256 -0.0081026137996967323 8.5609911871006004e-05 -0.012627632426765843 -0.0017975503866348994 -0.0039492388685544982 0.0047458772562644375 0.0075008422717711496 -0.0038310818375877236 0.0048118543187345838 0.007658943614499477 -0.0032799025910359722 0.0011417278717573039 -0.015488839392803705
leaf_weight=89 179 61 299 377 159 290 1657 63 98 102 66 113 180 194 153 193 234 172 287 113 60 73 85 203 119 306 168 245 277 93
leaf_count=89 179 61 299 377 159 290 1657 63 98 102 66 113 180 194 153 193 234 172 287 113 60 73 85 203 119 306 168 245 277 93
internal_value=0 0.00133562 0.00283091 -0.00150827 0.00481164 0.00610566 -0.00244561 0.0107202 0.004082 0.00742596 0.0133566 -0.00348791 0.000110764 -0.00322357 -0.00259916 0.00384189 -0.00347107 -0.00172861 0.00268098 -0.00651396 0.00804831 0.00105697 -0.00279567 0.00444435 1.85827e-05 0.00236364 0.00228508 0.000647038 0.00350432 -0.00966819
internal_weight=0 4469 2929 1540 1691 1392 2239 413 979 459 164 1863 1238 487 1361 295 1208 831 376 293 350 520 244 276 659 425 751 583 338 206
internal_count=6708 4469 2929 1540 1691 1392 2239 413 979 459 164 1863 1238 487 1361 295 1208 831 376 293 350 520 244 276 659 425 751 583 338 206
is_linear=0
shrinkage=0.1


Tree=15
num_leaves=31
num_cat=0
split_feature=349 715 671 482 87 667 12 266 482 585 582 712 515 170 49 571 76 539 498 335 245 91 125 763 242 345 344 566 197 451
split_gain=2.13625 1.49786 1.24739 1.11594 1.0487 1.15007 1.0269 0.877022 0.867446 1.14149 1.39364 0.80934 0.804435 1.13261 0.779192 0.756108 0.754477 0.833133 0.752619 0.658739 0.692183 0.655565 0.630186 0.629245 0.681734 0.615426 0.599438 0.728116 0.59345 0.740894
threshold=0.27151247859001165 0.22781966626644137 -0.024778902530670163 -0.14612295478582379 -0.13688207417726514 -2.9000700712203975 -0.20783765614032743 0.081441067159175887 -0.14612295478582379 -0.15440135449171064 -0.14811633527278897 0.11140024662017824 0.16261388361454013 -0.20044484734535215 -0.25030751526355738 0.15529055893421176 -0.069576688110828386 0.11434922367334367 0.046373190358281142 0.084722891449928298 0.058160927146673209 -0.095731500536203371 0.24530123174190524 -0.14770700782537458 0.31317363679409033 0.31554585695266729 0.13270875811576846 0.025378536432981495 -0.19746570289134976 0.471432775259018
decision_type=2 2 2 2 2 2 2 2 2 2 2 2 2 2 2 2 2 2 2 2 2 2 2 2 2 2 2 2 2 2
left_child=2 4 19 14 5 23 -5 16 9 -6 -11 -12 -3 26 -4 -10 -7 18 -18 20 -1 -8 -22 -2 -25 -9 27 -14 29 -17
right_child=1 12 3 6 8 7 21 25 15 10 11 -13 13 -15 -16 28 17 -19 -20 -21 22 -23 -24 24 -26 -27 -28 -29 -30 -31
leaf_value=0.0099837132041839648 -0.010371398623650777 -0.0039671380495952388 0.0037292136207045831 0.012379577932048217 -0.00044461846835872087 0.011379302033841705 -0.0036082201980057586 -0.0051447102805148573 -0.0056046637305688946 -0.00055219578922751896 0.024019372673912642 0.0064438656333877329 -0.001710005723984667 0.0017428553175336604 0.015329999999704233 0.0025029147981658652 0.0061981471749211333 0.0067537306787818236 -0.0035477451037992992 -0.0070916223318863523 0.0061786549272083054 0.0043059329897688495 -0.0051150001872322902 -0.00086732541921434375 -0.011294025819641434 0.0061740545482149925 0.0025402653919129239 -0.010927919957700509 -0.0056783559467487275 0.014175197881067232
leaf_weight=68 125 1495 96 94 109 89 165 256 121 58 76 50 172 789 170 715 100 212 285 107 68 256 131 403 66 51 89 170 71 51
leaf_count=68 125 1495 96 94 109 89 165 256 121 58 76 50 172 789 170 715 100 212 285 107 68 256 131 403 66 51 89 170 71 51
internal_value=0 -0.000743371 0.00396821 0.0062219 0.000862039 -0.000843858 0.00340668 0.00123804 0.00301703 0.00769896 0.0123262 0.0179084 -0.00241892 -0.000507109 0.011393 0.00152891 0.003215 0.00185249 -0.000935633 -0.000772346 0.00190341 0.00119397 -0.00115908 -0.00429196 -0.00251289 -0.00314653 -0.00457913 -0.00644882 0.00260703 0.00342992
internal_weight=0 5553 1155 781 2838 1587 515 993 1251 293 184 126 2715 1220 266 958 686 597 385 374 267 421 199 594 469 307 431 342 837 766
internal_count=6708 5553 1155 781 2838 1587 515 993 1251 293 184 126 2715 1220 266 958 686 597 385 374 267 421 199 594 469 307 431 342 837 766
is_linear=0
shrinkage=0.1


Tree=16
num_leaves=31
num_cat=0
split_feature=288 4 107 486 325 208 301 521 542 328 538 742 168 560 318 180 245 561 337 550 332 432 533 220 432 538 292 194 583 361
split_gain=1.67518 1.678 1.39901 1.18315 1.02915 1.01037 1.06516 0.937144 1.09409 0.887263 0.899293 0.844018 0.779111 1.00728 0.755066 0.730835 0.722928 0.717926 0.748728 0.717111 0.854676 0.823982 0.731236 0.716176 0.698955 0.702492 0.691931 1.02728 0.691068 0.673352
threshold=0.19118909537792209 -0.10938059166073798 -0.00487656146287918 0.26105383038520819 -0.25919878482818598 0.12818539142608645 0.11585865542292596 -0.061266064643859856 -0.10400925576686858 0.025522723793983463 -0.19218055903911588 -0.2010560259222984 -0.033000430092215531 -0.23534866422414777 0.1839900612831116 0.068075478076934828 0.23368631303310397 -0.21528203785419461 -0.1083640083670616 0.11407388001680376 0.096712715923786177 -0.04577443748712539 0.21577347815036776 0.1744949817657471 -0.064703203737735734 0.01628205738961697 0.068869963288307204 0.19035536050796512 -0.084444105625152574 -0.069574475288391099
decision_type=2 2 2 2 2 2 2 2 2 2 2 2 2 2 2 2 2 2 2 2 2 2 2 2 2 2 2 2 2 2
left_child=1 2 3 5 -2 6 16 11 -9 15 -11 -3 -12 23 -7 26 17 18 -1 22 21 -21 24 -14 28 -26 27 -10 -6 -13
right_child=4 7 -4 -5 19 14 -8 8 9 10 12 29 13 -15 -16 -17 -18 -19 -20 20 -22 -23 -24 -25 25 -27 -28 -29 -30 -31
leaf_value=0.0016774760028331942 0.0020368091462488877 0.0080608424502006306 0.014452976511637031 0.016836192607394124 0.0041149097484101324 -0.0045999326205057632 0.01307035207415151 0.0054600848706480203 0.00031876914394202193 0.0054932439518283922 0.0028799418978913312 -0.0053995032352951687 0.0059616436041414348 -0.0077007509980142903 0.003688414656235687 0.010917907582029899 -0.0051946158858346457 -0.0041923443880652915 0.015325087275538597 -0.00070373093166120387 -0.0032588282254443798 0.014109102029766663 -0.0062938912595162932 -0.0057333376896462583 -0.0016827656745791347 0.0074782962659493959 -0.007314635990378621 0.0089564118204524708 -0.0062521875274837106 -3.3798162651243762e-05
leaf_weight=82 479 64 122 52 71 248 128 479 615 125 152 549 112 419 184 80 84 53 75 73 188 67 735 84 252 115 75 169 374 403
leaf_count=82 479 64 122 52 71 248 128 479 615 125 152 549 112 419 184 80 84 53 75 73 188 67 735 84 252 115 75 169 374 403
internal_value=0 0.00123359 0.00474648 0.00331488 -0.00207248 0.00233072 0.00576003 0.000138309 0.00125094 0.000129267 -0.00211877 -0.00238057 -0.00340682 -0.00497905 -0.0010666 0.00226463 0.00229423 0.00537691 0.00865762 -0.00312681 0.00109664 0.00679445 -0.0040234 0.000918974 -0.00192346 0.00129415 0.00135774 0.00225827 -0.00455111 -0.00314889
internal_weight=0 4354 1028 906 2354 854 422 3326 2310 1831 892 1016 767 615 432 939 294 210 157 1875 328 140 1547 196 812 367 859 784 445 952
internal_count=6708 4354 1028 906 2354 854 422 3326 2310 1831 892 1016 767 615 432 939 294 210 157 1875 328 140 1547 196 812 367 859 784 445 952
is_linear=0
shrinkage=0.1


Tree=17
num_leaves=31
num_cat=0
split_feature=748 261 671 192 224 152 375 374 343 344 459 539 97 679 655 551 109 618 662 246 692 442 250 152 328 306 147 480 660 327
split_gain=1.64992 1.22606 1.13253 1.09678 1.09541 1.30793 0.982996 0.905769 0.88474 0.881752 0.938031 0.982757 0.879112 0.913977 0.826291 0.805437 0.741615 0.7401 0.751163 0.699712 0.694809 0.656099 0.652445 0.638059 0.634603 0.625087 0.619339 0.692347 0.616624 0.61495
threshold=-0.0260610356926918 -0.041402747854590409 0.02575105614960194 0.22188487648963931 -0.095165308564901338 -0.071870006620883928 -0.25554272532463068 0.19788543879985812 -0.32126902043819422 0.19961442798376086 -0.37095464766025538 -0.10512408614158629 0.039066264405846603 0.41674834489822393 0.22022065520286563 -0.28651654720306391 -2.1850781440734859 0.13009037822484973 0.15062923729419711 0.11928854882717134 0.18948470056056979 -0.034672569483518594 0.037806652486324317 -0.071870006620883928 0.018155429512262348 -0.10106684267520903 0.15354674309492114 -0.032594148069620126 0.2040161341428757 0.12067070975899698
decision_type=2 2 2 2 2 2 2 2 2 2 2 2 2 2 2 2 2 2 2 2 2 2 2 2 2 2 2 2 2 2
left_child=1 4 6 7 8 14 9 17 28 10 -2 -12 13 16 -6 -8 -4 18 -3 -9 22 23 -10 -20 -7 -5 -24 -28 -1 -22
right_child=2 3 12 25 5 24 15 19 20 -11 11 -13 -14 -15 -16 -17 -18 -19 21 -21 29 -23 26 -25 -26 -27 27 -29 -30 -31
leaf_value=-0.014861131656574898 -0.010232623240292761 -0.0052038006780959056 0.016551536317640139 3.5558003388053971e-05 0.014554258523357597 0.0053762538205614219 0.00029545360444993563 -0.0050113996462847971 0.005158803790261372 0.012904107061040471 -0.0082873596949856656 0.004631356849822855 0.0012400486829467795 -0.0016994521189361439 0.0030836344832287162 -0.0092974299958382949 0.0059175399784801054 -0.010749347052612719 0.00020244128015226115 0.0012230624451847749 -0.00024730549722502755 -0.0031628913618246702 -0.0025170162220555241 0.011603045183351009 -0.0075754325309831992 0.010880418706881523 0.012776359992412356 -0.0023981120405716203 -0.00083179465942770218 0.0067325404986728777
leaf_weight=57 50 929 150 123 145 58 242 227 152 74 59 476 204 58 116 128 137 144 180 754 227 413 938 59 80 85 51 56 62 274
leaf_count=57 50 929 150 123 145 58 242 227 152 74 59 476 204 58 116 128 137 144 180 754 227 413 938 59 80 85 51 56 62 274
internal_value=0 -0.000794797 0.0028943 -0.00214026 0.000975909 0.00566062 0.000919119 -0.00268139 -7.48035e-05 0.00322065 0.00182526 0.00309729 0.00652462 0.00954247 0.00971911 -0.00315998 0.0117976 -0.00405548 -0.00339052 -0.000250818 0.000526215 -0.000772501 -0.000785211 0.00332431 -0.00213594 0.00472526 -0.00168511 0.00524989 -0.00810431 0.00361958
internal_weight=0 5130 1578 2914 2216 399 1029 2706 1817 659 585 535 549 345 261 370 287 1725 1581 981 1698 652 1197 239 138 208 1045 107 119 501
internal_count=6708 5130 1578 2914 2216 399 1029 2706 1817 659 585 535 549 345 261 370 287 1725 1581 981 1698 652 1197 239 138 208 1045 107 119 501
is_linear=0
shrinkage=0.1


Tree=18
num_leaves=31
num_cat=0
split_feature=242 401 266 199 228 576 30 750 507 688 68 594 355 7 60 115 31 373 174 431 43 217 619 334 387 714 367 625 553 331
split_gain=1.41355 1.39978 1.29622 1.22028 1.05123 1.27966 0.971236 0.940242 1.34758 0.898164 0.890247 0.946388 0.862003 1.28854 0.853474 0.845157 0.839747 0.76247 0.759303 0.749969 0.717025 0.707001 0.703206 0.689358 0.659284 0.658037 0.650088 0.647604 0.612984 0.60067
threshold=0.22021339088678363 -0.022085117176175114 0.065585181117057814 -0.045365281403064721 -0.26600790023803705 0.31927123665809637 -0.0027013903018087144 -0.043573908507823937 0.094264827668666853 0.18910836428403857 -0.28773126006126398 -0.17195227742195127 -0.21248394995927808 0.29568161070346838 0.26877871155738836 0.31204774975776678 0.11379585415124895 -0.28820052742958063 0.047665186226367957 -0.06523959711194037 -0.093090113252401338 -0.058824544772505753 0.078492775559425368 -0.36072705686092371 0.02318048290908337 -0.25452265143394465 0.062120370566844947 -0.28382396697998041 0.40948686003685003 -0.13109186291694638
decision_type=2 2 2 2 2 2 2 2 2 2 2 2 2 2 2 2 2 2 2 2 2 2 2 2 2 2 2 2 2 2
left_child=10 2 18 6 -5 7 27 8 16 22 11 -1 20 14 -14 -9 24 -8 -2 23 -12 -18 -10 -15 -6 -19 -17 -3 -4 -21
right_child=1 3 28 4 5 -7 17 15 9 -11 12 -13 13 19 -16 26 21 25 -20 29 -22 -23 -24 -25 -26 -27 -28 -29 -30 -31
leaf_value=0.0010306126403773646 -0.010310895551532459 -0.00013511452688489092 -0.0092031073248313427 0.011415382610836076 0.0013742117823749959 -0.0020182369777767268 -0.0018194919623114509 0.00051172804212666688 0.017835230962584561 3.2715420857502535e-05 0.0030969154834714833 -0.0070660788671413595 -7.1494807682459288e-05 -0.0055237977184313227 -0.0094187910282626155 0.010943554787368619 -0.0060742843301634817 0.012641270743889862 0.0013036811857248028 0.0016363048781471374 -0.0050332323948395468 0.0048077670458283976 0.0055498750789469012 0.0051550966053158292 0.014194545550579958 0.0012955294125809274 -0.00015502028322920391 -0.008711301548470966 -4.2374202719341494e-05 0.013390842729466449
leaf_weight=198 52 158 256 149 77 417 231 763 171 53 129 505 576 85 109 153 120 86 774 67 539 103 77 163 80 116 78 191 101 131
leaf_count=198 52 158 256 149 77 417 231 763 171 53 129 505 576 85 109 153 120 86 774 67 539 103 77 163 80 116 78 191 101 131
internal_value=0 0.00119096 -0.00171655 0.00233041 0.00351376 0.0029062 -0.00106206 0.00413625 0.00697935 0.0118897 -0.00180639 -0.00480086 -0.000618834 0.00106307 -0.00165795 0.00214492 0.00291149 0.00208784 0.000473043 0.00519417 -0.00344364 -0.00105622 0.014337 0.00143207 0.00830763 0.00644718 0.00732587 -0.00492601 -0.00667384 0.00964868
internal_weight=0 4206 1183 3023 2241 2092 782 1675 681 301 2502 703 1799 1131 685 994 380 433 826 446 668 223 248 248 157 202 231 349 357 198
internal_count=6708 4206 1183 3023 2241 2092 782 1675 681 301 2502 703 1799 1131 685 994 380 433 826 446 668 223 248 248 157 202 231 349 357 198
is_linear=0
shrinkage=0.1


Tree=19
num_leaves=31
num_cat=0
split_feature=346 498 112 407 695 672 175 175 340 629 15 64 139 722 714 660 598 660 593 14 612 746 400 440 216 385 3 440 278 619
split_gain=1.54318 1.30801 1.18569 1.18989 1.16086 1.17314 1.04017 0.875552 0.845772 0.763643 0.816394 0.755609 0.738803 0.803515 0.6987 0.769561 0.682531 0.75363 0.722856 0.649928 0.682574 0.643821 0.641309 0.616799 0.581765 0.866312 0.642905 0.759373 0.567467 0.658704
threshold=0.41802790760993963 0.04764095880091191 -0.090368334203958497 -0.1707201153039932 -0.013055920600891112 0.33587637543678289 0.068245135247707381 -0.0012338729575276373 -0.12835380434989926 -0.18473403900861737 0.11797200143337251 -0.098460391163825975 -0.0061481704469770184 0.10193470120429994 -0.3081358522176742 0.2193277329206467 0.043513806536793716 0.19806803762912753 0.11685600131750108 0.063165821135044112 -0.01358409598469734 0.14136420190334323 0.17086204886436465 -0.1166938468813896 0.29856748878955847 -0.064861658960580812 -0.16218627244234082 -0.07899985089898108 -0.096536129713058458 0.065676383674144759
decision_type=2 2 2 2 2 2 2 2 2 2 2 2 2 2 2 2 2 2 2 2 2 2 2 2 2 2 2 2 2 2
left_child=1 4 7 6 9 24 -4 16 -9 10 21 -2 13 -13 -7 -16 17 -3 23 -5 -21 -1 -18 -19 25 -6 -26 -28 -10 -30
right_child=11 2 3 19 5 14 -8 8 28 -11 -12 12 -14 -15 15 -17 22 18 -20 20 -22 -23 -24 -25 26 -27 27 -29 29 -31
leaf_value=0.01257877333570879 -0.0005679881729691201 0.0026960259951753604 0.0019387618052345474 -0.0064428601885789432 -0.012317411348775191 0.01241040914444797 -0.0073868739615467922 -0.0063627741385060667 -0.0025856597936116644 -0.00028984722181043762 0.019335341493866134 -0.0064421069848055639 -0.0084131642223517263 0.0064700525607345105 0.00712313439969033 -0.0032584138660323152 0.0036115278121005576 0.0024522271712812786 -0.0013345426821886105 -0.0046575575897295227 0.0060657633427789901 -0.0018981984943614958 -0.0045704439843105666 0.015171951357888134 0.0090345542923064518 -0.00069216423419157314 -0.0041938185582415591 0.0082094712668110588 0.0045160118606719334 -0.0015846015428318868
